{"layer": [784, 50, 784], "weights": [[[-0.00011126741326827449, -0.00029357763554760586, -6.952597056825894e-05, -0.00023112144837440934, 0.000475905442876137, -0.0007019089196966021, -0.000313880523955579, 0.0005145937939191286, -0.0006627780243686306, -0.0003486881600292941, -0.001103660328666387, 0.00015336957042535085, -0.004353375838894939, -0.01504930847715963, -0.004142721769517229, -0.0010983628945721122, -0.0005665157166096477, -0.000480743998812149, 0.0003889882982106277, 0.0006166001677554877, 0.0002191478646280048, 0.00040028293432157786, -0.000641970689708206, -0.00019148446908188346, -0.00019490255315076442, -1.7755162955679924e-05, 0.00021791015389705708, 0.0002110853334445294, 0.00014619660541952232, 0.0012287247634885936, 0.001114721764687945, 0.00019447510228626596, 3.862400327750246e-05, -0.0006900893489755218, -0.023418724820798157, -0.0473289457194597, -0.02922213978443085, -0.02791321356001376, -0.04283784654210044, -0.060562413375110286, -0.024980858651095873, -0.013626066542647246, -0.02327221506178525, 0.02631547868262247, 0.03698984486509989, 0.02289259562319978, 0.008900813236967673, 0.014212196819748476, 0.0008048761554139342, -0.017372756832000107, -0.007846826143945466, -0.0034399363520601026, -0.0006039318023770608, 0.0005108723802676001, -0.00014831721114801262, -0.0006172625092933851, 0.000574864961605472, -0.00036643681656561524, -0.001426749296625578, 0.00021681005299182938, 0.007356521189791658, -0.00505717271121489, -0.040145486447528196, -0.08069836737822961, -0.04740227301420664, 0.005506041392995235, -0.05662028698811286, -0.1270015651393419, 0.047976170991635925, 0.08512482758281187, 0.07048344047261267, 0.05675326575059121, 0.06667544423480533, 0.1902267613089716, 0.1856686167925996, 0.15735788980224677, 0.09157703937387793, 0.08597634815055329, 0.0037616647835879485, -0.016306429482783904, -0.013550227223062173, -0.004920867841350938, -0.00045115750620574306, -0.00019190804663746935, 0.00035099547451421, 1.6441309467671948e-05, -0.005382328542100224, 0.0017147125570425698, 0.0013527208724874484, 0.014415504929392052, -0.01657111374747551, -0.045416900644307576, -0.02489039977211645, -0.15682977607637036, -0.13043486557252781, -0.17840558160882414, -0.0888949946273852, 0.03367310224740708, 0.09300221988162446, 0.03460944808546283, 0.1454858847964473, 0.14970777844932232, 0.07264762042722085, 0.1925056188396283, 0.1691924007101822, 0.08655449907656658, 0.04053199209294268, 0.004443628127298395, -0.0017076421364063648, -0.003632928150254569, 0.002022238918869683, 0.0006217348394405816, -0.00010483860460528714, 0.0004237911281011215, 0.00023470331972506888, 0.004248205575822468, 0.025364732202732426, 0.056831232268604634, 0.03299005844509885, 0.01011632488899741, -0.1401368691774196, -0.19985792428766624, -0.17418947936883683, -0.15914701653386, -0.1327780082930254, -0.12141053845229445, 0.053230360109132444, 0.03691745535567474, -0.014529260730077006, -0.2054412103443875, -0.03202842823597571, -0.12155266668766154, -0.10298976544279981, -0.1070508508117168, -0.07231754721318824, -0.00920147200090232, 0.02165858183658281, 0.02002899116260586, -0.0096742986565215, 0.0005259902337321227, -0.00010552410516293506, 4.5620425843562975e-05, 0.002540623458511046, -0.0324696417133769, 0.006924089858821244, 0.06704363120500324, -0.03705693522154414, -0.009932947304043477, -0.04319570911322337, -0.26119573311990396, -0.2332559050777814, -0.0774370796665499, -0.02130802156946331, -0.0013408040020221068, -0.038704667181245885, -0.12618833254910058, -0.15366987891901449, -0.17867968843254517, -0.19955812780195736, -0.14592345409750368, -0.18519366263893133, -0.2302791037566317, -0.21530484414373707, -0.11981814801867444, 0.046246570979562876, 0.02782022930112771, 0.008595194961098585, 0.0038184736006786043, 0.0004478819143350354, -0.0010247535198990593, 0.0106970125343143, -0.033697025675437385, -0.058545942144986526, -0.004211529345825968, 0.088758779264644, 0.17959822781663667, -0.028766819328273963, -0.20340020088735952, -0.24669617099422397, -0.06787829911704146, 0.11949992735729228, -0.0009986446432092397, -0.055575826590284844, -0.10173553058335714, 0.07466686742666913, 0.17779437653688393, -0.05215738872769021, -0.21531329579958597, -0.27997576790755835, -0.12789504086089276, -0.08870772657693264, -0.08147741050254496, 0.08097802057347842, 0.10485254779564905, 0.06686336814825465, -0.0021594709611311093, 0.0005539751241286926, -0.008062032040886912, -0.004850497953765215, -0.0013184680222279948, -0.029016656740852104, 0.16361920033274663, 0.3880938629605937, 0.3518558092061686, 0.08137254415435353, -0.18018995143831704, -0.16196844555520473, 0.10038275039086808, 0.23679860625828866, -0.09613305924235804, -0.39498988157408177, -0.20576539446244071, 0.16777825375785438, 0.2633609814172947, 0.0768548606620837, -0.19425633603189887, -0.11040018273599479, 0.04239247143536921, 0.01786444113359888, -0.08428926017554571, 0.04646777875069248, 0.1823952768030749, 0.07600532843726675, -0.002058684437202406, -0.0013781713047111832, -0.009256190359208862, -0.03228663094422398, -0.10188605447115902, -0.002063165168433489, 0.2469639424344101, 0.4849736830222878, 0.4223602003779185, 0.1600861786185372, -0.13138778156921443, -0.006289940049765508, 0.22833262512982297, 0.1815989017174394, -0.35895378639482317, -0.6038181844226242, -0.2741004467853708, 0.29510647615502106, 0.26639787887933797, 0.03068159023706839, -0.12991758886507374, 0.1338031183959654, 0.13609022610484528, 0.007974421050012222, -0.0894473430781534, -0.06587411463332055, 0.1393136726030316, 0.037132856286586774, -0.006351457181769236, -0.0018878116998391004, -0.003505473313475972, -0.12730857175745308, -0.20674869790768782, 0.06675446175408388, 0.2449429554802959, 0.37447862275103616, 0.3093385176574415, 0.01351919205883339, -0.09115757739828752, 0.031270567635258595, 0.20253673841625192, 0.0742675484607166, -0.4152953258564866, -0.49082334986196013, -0.0943405817175822, 0.21576695114748576, 0.026126038403699543, -0.22357723666972024, -0.004305245778366634, 0.18394839780862607, 0.27216315570017546, -0.01158290418323072, -0.15470290921682225, -0.1191770922015275, 0.07610192361725931, 0.009997231833639509, -0.007821912054025113, -0.0032934210759413734, -0.004806510937841411, -0.1651415137913342, -0.28617858366390125, -0.07720925482012762, 0.04488407601945726, 0.0999436782590876, 0.09088273573590416, -0.2591035892735454, -0.33697809838175796, -0.2094417775745562, 0.08593751127915214, 0.04929259716528309, -0.1793861317807149, -0.3121538519660548, -0.029865491259764846, -0.08205433497880177, -0.32072970254273125, -0.2725171571226852, 0.08677522801487013, 0.34207529737070735, 0.15388495788995152, -0.031022271787319793, -0.24610923003230042, -0.12291025564863708, 0.0060001815102500135, 0.02329839260068862, -0.0002530579522860778, 0.0028016341405085283, -0.005833370126289289, -0.12366703874780333, -0.20088274182448757, -0.18181959993736213, -0.0812538883382884, -0.08888414980425202, -0.16727607742279738, -0.294662694547578, -0.35078456209359626, -0.06031129592676239, 0.13689483249570117, 0.20342759862071427, -0.05003514944456792, -0.07057029099247568, -0.06113780341259296, -0.21658201057066193, -0.29871274554665617, -0.20114028685053023, 0.13460978620895228, 0.1075061981321983, 0.12031351895230986, -0.03737144524352295, -0.1332328943045418, -0.049032740288564414, -0.0076237255672645925, 0.017399338658439213, 0.005007887926711642, 0.003440655629822276, -0.002239444500464864, -0.06223866459413673, -0.0919164029143092, -0.06269071037889928, 0.018613437544572908, 0.05930040869692362, -0.1410873740424676, -0.24404035212407224, -0.10433178992453167, 0.05076206347944298, 0.28808863752198605, 0.20001326946700948, 0.06326313336993332, -0.05386351769011604, -0.024305846829063067, -0.16853644657023062, -0.03313246475198739, -0.06724404266279883, -0.0842804582075463, -0.09181755832672395, -0.03403006003444657, -0.05249807479100148, -0.0372316271722755, 0.06368112504230627, -0.012737168408678147, -0.012124509663298085, -0.0037163762700677698, 9.523081722722777e-06, -0.005599432329001119, -0.04036908410774012, 0.028759746804494276, -0.02502512602435755, 0.04121730322968411, 0.07295523485845919, -0.011204942140274484, 0.028025156469353323, 0.0041227681471314925, 0.09157664874567363, 0.22106093407354552, 0.21114978790468292, 0.026418672894662272, 0.004470381184695032, 0.004533408635897568, 0.028185141042586105, 0.12388152444512329, 0.06625167668362641, -0.135541772645597, -0.14428701353306367, -0.28648897028341225, -0.23131401799068846, 0.0032274713773291996, 0.13317628001994708, -0.00026016357432703406, -0.04962297817787615, -0.01778100703414669, 0.0004259981117357447, -0.0003517978466205934, -0.024302376709358847, 0.007497188714563668, -0.07994563457134388, 0.01004823179843451, 0.01985956523833828, 0.17226906753846533, 0.1741418126826064, -0.0016275179145947146, -0.0443338461946729, -0.19621639173151886, -0.18528823332705927, -0.02233557818209679, -0.057956727962391895, -0.10972497797988945, -0.0247741011763795, 0.11142993913682157, 0.09761990941347529, -0.2001597197372197, -0.3193800664941408, -0.4899544774923546, -0.40278257966406045, -0.02364127265860553, 0.21652171482053004, 0.05413105198347321, -0.05917320410082285, -0.0010252999404094766, 0.0004597300625294842, 0.002704852578929581, -0.011832723398088201, -0.058109967439745565, -0.20372425889574203, -0.03290001393026709, 0.13523977519638644, 0.2698200986836568, 0.31834331541706695, 0.17538551236395902, -0.21849924664394266, -0.25397094116262386, -0.16789680796123135, 0.03092481509686773, -0.08798863359901465, -0.3460177380305605, -0.27530762652971247, -0.02413479174585663, 0.20200746638740635, -0.026032898621401655, -0.14115167676267232, -0.36241475686612695, -0.2936601750527759, -0.13989541755513313, 0.168073490736606, 0.045684492461264735, -0.04782660486010561, -0.0006428427895304773, -0.0007705453682611803, 0.0014903796056154443, -0.004976120680776001, -0.061935498224661746, -0.2786599913978854, -0.11149942891543115, 0.18651298337830854, 0.24345851082044953, 0.3944438535072297, 0.26071638158322946, -0.07003165180651164, 0.041879074567435864, 0.2734140254232669, 0.30528695823180113, -0.05716252311904778, -0.40250019603419435, -0.34650807071091605, -0.06073562222505262, 0.09985733553575926, 0.09865538650214901, 0.027981810506335573, -0.14804243026299882, -0.120519978368065, -0.06383215574621263, 0.07261753411913216, 0.08337290354567978, -0.016790684905647165, 3.3424141683122236e-05, 0.0007107777141060191, 0.002964339327594429, -0.008254434411180912, -0.024172166559948954, -0.28651026718647027, -0.2160577565300693, 0.05365490410657296, 0.24799287168904408, 0.33610301227724854, 0.16357112219095676, -0.05319113549300695, 0.0781710189316436, 0.5325712310542697, 0.43572735697667, 0.12202251059417388, -0.1565271994949393, -0.24476171071835331, -0.13210808282268774, 0.04366499348100291, 0.05716317786834693, 0.058185739532581666, 0.045265977364386915, 0.009294484531819905, 0.011918831557600484, 0.04192453832073881, 0.04284416276303481, 0.013521023053759669, -0.0013215035290484452, 0.0004091150622060844, 0.001515486218767045, -0.004691899180781899, -0.02235243697141171, -0.2770652122045339, -0.16627072877993176, 0.037313210153975485, 0.12033379286491576, 0.07247307695903292, -0.32700366328325725, -0.47750657514398887, -0.20523775349631895, 0.24122709222455277, 0.2623216506680437, 0.1381901138976123, -0.014322481327674226, -0.14803602720001263, -0.1038581656352182, -0.028883212552249477, 0.125412486226463, 0.11617991097154068, 0.12772617237848938, 0.036769640356863545, 0.06859748959832483, -0.023133057918703275, -0.032335334038266855, 0.014984388280333143, 0.006713559675507195, -0.00045799703014052877, 0.004054173500244584, -0.02146100073414723, -0.07399563121893368, -0.24706642550484598, -0.15690912717549563, -0.1058758157822143, -0.07196778417074642, -0.14898630298481802, -0.4473090175615254, -0.5205960851643426, -0.3721295895136319, 0.03986528324050248, 0.09914588691425125, 0.08267604099715777, 0.07846943145328467, -0.04903951613023614, -0.12755389236409356, -0.07902553863245575, 0.06675521249966385, 0.1312383424661851, 0.16151131841660774, 0.08906646495784101, -0.06638626145494755, 0.05999286112037206, 0.019094967121064236, 0.037751619749114014, 0.005836418176190983, -0.0005630579119148774, 0.009929350631453344, -0.0142875087928939, -0.08020521872453491, -0.15566074031771743, -0.13195278575631228, -0.019149581914406237, -0.17356842221527857, -0.1246155329173744, -0.2187338972395592, -0.26863547326147635, -0.1438712017435924, 0.004405292471743207, 0.07461447458738994, 0.11930914460147093, 0.05486144785394322, -0.0324333172957806, -0.082276342795395, -0.0318971540547594, 0.01812462254992849, 0.1520603044798624, 0.10070281479351342, 0.023449675841734362, -0.017239310199887503, 0.14242732780785192, 0.10399286291641356, 0.004564641897075792, 0.0013857422857116702, -0.0018376523321866987, 0.010254363835431893, 0.008268586251277412, -0.008179166007497558, -0.16891986057281028, -0.11555881537115703, 0.013029938489996734, 0.07955565723637746, 0.19184874492516812, 0.207081714972982, 0.14030538734600523, 0.09385266402102173, -0.05449608048228209, 0.02102751634038404, 0.17584740891603465, 0.19987020762172084, 0.1314064195174081, -0.025590425986852867, -0.108050360456037, -0.008590107869063593, 0.15087419446769545, 0.11597071309131077, 0.19603836828067153, 0.09263253897301166, 0.13334526291943444, 0.07377329694585899, -0.013756390242357587, -0.0003226420285962897, 0.00025029319008417253, 0.0010198834646728593, 0.020691393115253524, -0.062353826376244, -0.20905107089333128, -0.23114083666107585, -0.06004887537694784, 0.05964982235786424, 0.20749757752907996, 0.2902067519787355, 0.26579395122111094, -0.043875530460037684, -0.2850898043733881, -0.06746956647776695, 0.14139168602365182, 0.1716126921078936, 0.011379041142069246, -0.05319257724986728, -0.1915322703015489, 0.0241084219863972, 0.12156474510055937, 0.13682784276707022, 0.09093999744723343, 0.04274009779917491, -0.02473185318100947, 0.001371275018935348, -0.006526717218083301, -0.0015469229221615967, 0.000551712747980472, 9.474846299053695e-05, 0.023356638311718914, 0.0112945919314673, -0.05655588795005978, -0.2365894858990191, -0.3188659142364275, -0.12741799593962258, -0.017672178911384447, 0.19427754572011044, 0.06328719116562927, -0.23428438728560821, -0.1948517969737697, -0.12757303121951327, 0.022440302961525976, 0.06837162597935748, -0.01635616105903231, -0.1412341296388994, -0.26588773289804757, -0.16595859522605622, -0.08064540507627474, 0.04674284264919422, 0.06045223380881271, 0.03626112228372688, 0.047801458934215925, -0.0006056433098858876, 0.0038762746335533494, 0.0008775358129858692, 0.0006463955143103522, 4.638919779778664e-05, 0.005842854019808835, 0.004904222085002555, 0.007251299911791382, -0.021411431689341565, -0.13313399868785347, -0.11816363728666807, 0.0034835493108813873, -0.04867067028491637, -0.1250124767046439, -0.14732514863610763, -0.2084346130979846, -0.09540237181165298, -0.03432374845054729, 0.025097287563486878, 0.045303596865119096, -0.028428504732615375, -0.11928299585417974, -0.1762460063493603, 0.018194210259220692, 0.04106045882266068, 0.018416733730160815, 0.01597661400769532, 0.03598156951873287, 0.015946174224120133, 0.0032008672739728453, 0.0006465037846575932, -6.555360676309426e-05, -0.001094081468906746, 0.0007786634006631643, 0.0004192452779404674, 0.0006177561814112636, 0.028361774982791313, 0.02650170157150762, 0.10241640696606773, 0.12769211008191125, -0.07213912176715084, -0.14484831514744972, 0.14849500958419296, 0.12123381040917872, 0.13025773730196405, 0.1234520135985765, 0.31400223363438556, 0.39509440857858025, 0.19673398665647165, 0.13766780011433166, 0.03635396089907357, 0.06327104597854463, 0.1041880932349125, 0.05241615514459845, 0.02383562714115457, 0.003312060338236225, 0.0021240081612583046, 0.004489109970167833, -0.000124472120099085, -0.0001360464028520305, -0.00039540627216164354, -0.00042841795094385437, 0.0004342441837510717, -0.0008211136695563282, 0.025140312543893813, 0.05029561980430909, 0.11833684815136221, 0.22483409729362966, 0.16638102922998518, 0.1472797309017845, 0.22966549136234404, 0.09730079019080656, 0.038516128050114916, 0.19891205327942643, 0.2636537700213374, 0.21912415904985763, 0.037512112527460915, 0.05496234123968108, 0.03562794101657193, 0.08623866117210917, 0.06872479573259155, 0.029182558038621097, 0.014803776371813081, 5.304883423027002e-05, 0.00013507942513486524, -3.761620514644001e-05, 0.0007122207381011993, 8.152101117792018e-05, 0.0003057765009740062, -0.0005094133646071035, 0.0006788120904999485, 0.002766451493777802, 0.010589147407351437, 0.017388259138670908, 0.042736680246528595, 0.05033861946605393, 0.05788924624805341, 0.07634256949913644, 0.10237081832829492, 0.0523657546675793, 0.04038841499332919, 0.09810099170620076, 0.12487398121217132, 0.051258457122720466, -0.015484421466849651, -0.015890504667756093, -0.009744408113750993, 0.005444154286027176, 0.011803796574368388, 0.016521416332287514, 0.001861580527528751, -0.00030558238572214453, -0.0002686497818988415, -0.0011838353593675638, 0.0004100039550461301], [-0.00039024724309570636, -0.0001198964844277972, 0.000499500382101157, 0.00040340409844054077, 0.001113913291714344, -0.0005788751940530404, -0.00047087065305610363, 0.00044521368314039155, 7.208399479926294e-05, 0.0012567040658052532, -9.977254598557071e-05, -0.000629438206986617, -0.01218402981165615, -0.033106522020871706, -0.008894602442951852, -0.0003182580117072997, -0.00045390261069106977, -0.00022114101896029758, -0.000317384198629705, 0.0007661274121921138, -0.0003750112162781924, 0.00044413484354396623, -0.000985066650953143, -0.0005657383381124958, 0.0004554698976635106, 0.0006075521264558527, 0.00048339174543435607, 0.0007240036425195848, 0.00025909418603168287, -0.00012550923874967516, 0.00018865376649888284, -0.0007603147209480184, 0.0009935877506684764, 0.0006066316713338003, 0.024616994539999996, 0.06747054606795286, 0.01729567883590266, -0.01253779610014434, -0.007942501343433678, 0.05753598113243028, 0.09036726445785712, -0.04878869938656243, -0.061601679613052955, -0.06281174769648801, -0.06278327036705715, -0.05949058205949961, -0.023187210148633425, 0.011148693588179527, -0.0071775373529899865, 0.015637335337952602, 0.017205388717407975, 0.007891368681210105, 0.00014174199828212203, 0.00015962354804395268, -0.00030516642281941126, -0.00023045822166690852, 0.00014696833478043371, -0.000853047939249935, 0.007625083486840285, 0.0005723831295717813, -0.0156655746395691, -0.008117998725877621, 0.024038776015488855, 0.09063573304719215, 0.03904501434129014, -0.02801362922102544, 0.05613323904739119, -0.006327318140717075, 0.048306264532616064, -0.04034749213154236, -0.15003738443527068, -0.05128805499206701, -0.08837289594940304, -0.1125566623093801, -0.08115484465341852, -0.004386963819547686, -0.008757487899775306, 0.01278766474506729, 0.004220681205411417, 0.03398862872103296, -0.030210740241752878, -0.004139528451846935, 0.0006142018227842102, 0.0005347614089807408, 0.000840000590617309, 1.8517870934786644e-05, 0.015257501924345994, -0.001061679603098768, -0.00311310805129186, -0.015086102649906572, -0.005266324686140427, 0.02518478012322255, -0.04094035107603338, -0.06718374961918666, 0.002461980598445687, -0.018784941925492314, -0.041596688995291856, -0.1026025053218325, -0.10379511945952181, -0.09633506935045659, -0.04840619179491612, -0.030880454584112156, 0.017277869641272984, 0.048815797536745135, 0.011236399436242609, 0.026805152719026816, -0.03759840621811809, -0.03831290725412479, -0.06753507186108092, 0.01970211630386299, -0.0018812871911963105, -0.0006375932726032551, 0.00035289144531824927, 0.0032999358703293493, 0.006114772473642253, 0.021766551828592755, -0.026807353608556666, -0.008816227799545048, 0.07748508952111936, 0.02922696907356972, 0.029316147997572366, -0.08047640271739458, -0.0033719865724247742, 0.0030837617561329197, -0.10917605510378897, -0.13672414657733784, -0.09459444026431246, -0.06289160508170417, -0.0454594346877423, 0.1099709164657742, 0.05205962737813375, 0.257749799377007, 0.22649255235207766, 0.058762536555496694, 0.05082339112035315, -0.1375635788402168, -0.05835388691042701, -0.06972909363231149, 0.020014970446526302, 0.005474138068274292, 0.0004214752422696616, 0.00016448879602292768, -0.014024470994981438, 0.03554733139574177, -0.023133955583319356, -0.13590331324549895, 0.05118348581720597, -0.07859053553941187, 0.08905130625766317, -0.041425225868167846, 0.05627774203749, -0.05600926854493575, -0.11263367123164472, -0.1616355491583588, -0.04497780484451036, -0.0435986454503679, 0.08539071471111512, 0.059222461797469185, 0.152418344519028, 0.21840822504618645, 0.22724155839509383, 0.1547658828913829, 0.06957011039820464, -0.08857594117358411, -0.07600547523411495, 0.011404981100296214, 0.0603555036367643, 0.0029468111534813493, -9.492685971301575e-05, -3.9816270342998685e-05, 0.016479824174400907, -0.04142877571760746, -0.01877721396658309, -0.0017007247819792245, 0.0846192372567875, 0.06707410216427216, 0.053107262854655765, 0.010177602619261325, -0.037778498812452294, -0.046859649893089945, -0.11814701514969549, -0.10030817279775268, -0.02433592040905143, 0.10889634996424011, 0.10230229334396829, 0.006359160393340429, 0.046012646767770914, 0.14556490604050568, 0.16376673154894725, 0.19663086475669775, 0.07379693111317687, 0.02008886400961424, 0.012803609086999828, -0.007453487803903636, 0.005505660729703102, -0.00036421381993089944, 0.003120751599344171, 0.02594750163316681, 0.025590115263338476, -0.06585373849192552, -0.001944102862094914, -0.029256822032961233, -0.09838027361928074, 0.02879685497179759, 0.037645755325389496, 0.05096657809452031, 0.009333327842999289, -0.06138527065550244, -0.1229206981905405, -0.06251639664681916, 0.018058624019767287, 0.12292185861597087, 0.08590303864863581, -0.055486260056568, -0.2244410994940908, 0.008609525348461766, 0.08436696603005889, 0.12130381370513843, 0.1929873144173769, 0.0999962277091864, 0.11179348918761178, 0.09023150934221841, 0.029159677088377828, 0.014431078690690435, 0.009214881263478285, 0.025450851978011276, 0.092513795149183, 0.02551692063253533, -0.09306367593577303, -0.08342508222819853, 0.020775897690905966, -0.03468304870146243, 0.0812259191125397, 0.03839244344762347, 0.04042253343413496, -0.06731768208323133, -0.12615469054679124, -0.08138398705538478, 0.0327963515201054, 0.1650550823930857, 0.08456657017590255, -0.11908350459901822, -0.2238021511241564, -0.1007256576103023, 0.031246175714508787, 0.14241304156817536, 0.12908189057851346, 0.21203678540324356, 0.10575411336227623, -4.8995312168893966e-05, 0.03218526531019007, -0.00933264355717801, 0.0022324643597537498, 0.0128727240013232, 0.09967596520551615, 0.1366107870543703, 0.023234130692174778, -0.15071852786623854, -0.05503519440041998, -0.014171137415257905, 0.025114371591441597, 0.05493464485910771, 0.07411972290636397, -0.04999558284077665, -0.14386362028643407, 0.031039904614596225, 0.04119690939035556, 0.110530164533629, 0.21657374021341716, 0.07981491023754189, -0.018566933855214445, 0.02544782995456687, 0.1216742230955583, 0.06875609718774839, 0.04062810562081863, 0.019306053545278357, -0.24295789685405095, -0.146928954414043, 0.009429460013136267, -0.03779765950557741, 0.001364537568889284, -0.013542380764830688, 0.06393944558338263, 0.04277663241146632, -0.0072777872020400106, -0.17629504340052699, -0.10887071039187837, -0.022660656599635794, -0.041143495782502475, 0.07783233223975002, 0.022069739297757008, -0.07348862956124327, -0.017772625112570262, -0.01091266299526412, 0.08328508696929805, 0.176695962685808, 0.16099256920202096, 0.09990906276887257, 0.029397548841743903, 0.0611886607810988, 0.11748184913404716, 0.04566829690503018, -0.0827038040850406, -0.264506379392155, -0.3517042193951843, -0.08294717679980183, -0.024977499993278567, -0.00980590917561665, -0.0026912069061312345, -0.01719224616626404, 0.0839103001535757, 0.00027764054338433477, -0.10235436037081788, -0.07579161700430437, -0.14332783954112038, -0.04621005136437552, -0.06545460948762921, -0.05187143804776783, -0.003029026087494154, 0.08980883642640802, -0.05625393700046715, -0.025164687609062705, 0.005578887577059904, 0.02390169354176272, 0.033647250496092504, 0.07012532683316511, 0.08059207785964, 0.07569129497305847, 0.0455839880098624, 0.07255842474963903, -0.14206486580468627, -0.17911096757399647, -0.2642061347113209, -0.07250844282825022, 0.023910671471102478, 0.00856446569009469, -0.003859276636660896, -0.010695722613018337, 0.01887979213694212, 0.001032309122412579, -0.1369501550617038, -0.09716566815501443, -0.07446940740941672, -0.08524487990883133, -0.039953296437025165, 0.05021085050249869, 0.002612236870407643, 0.036418443814841245, -0.035594436143819984, -0.10172115296553444, -0.07916217365798708, -0.06759449525698216, 0.006096966742445166, 0.10448133374545507, 0.08663922546656053, 0.10267503483018903, 0.06711570397896761, -0.0697957007445076, -0.10799559346476734, -0.1681746053390554, -0.15424071297147235, 0.04675798101950685, 0.0022616833828298043, 0.013177983910139891, 0.0007302961984355821, 0.00021071041197688652, -0.008107231770064968, -0.09737742074197824, -0.03572210844861593, -0.10056568150563405, -0.06975705067647894, -0.04491612271354761, -0.025856360610883245, -0.006518697967223732, 0.018617026447258912, -0.05334105290181019, -0.07955838835428168, -0.0939136552088096, -0.03646369819019306, -0.029037714112148824, -0.00907162484738147, 0.05038642960053322, 0.07120207906466233, 0.19575022275019355, 0.13553936032716926, -0.010720482153198482, -0.15143578219829487, -0.1352988366550016, -0.23916197827877955, 0.10721557836423681, 0.021849628040291866, 0.0008237979181544016, 0.006916551337742195, 0.01609970593233582, -0.004643895877112754, -0.11964903965011726, 0.02135185366222292, -0.0476453045526789, -0.05652045027014152, 0.029283048990919516, -0.025371093036871975, 0.01775772340513397, 0.005533638736375984, -0.10113861331375554, 0.03226324331925115, 0.07252143960056112, 0.09226162114309973, 0.06643679852844034, -0.0654816084290705, -0.12407941023193692, -0.034150359862215714, 0.108180838343562, 0.12232287979822386, -0.15442076530264345, -0.21029013020250975, -0.23772937767437902, -0.27444700488818863, 0.049078540010021036, 0.014866999060406165, 0.0012953034588362496, 0.00196917160688102, 0.01811907187907079, 0.04717628296911798, -0.07059496493994685, -0.02102026187369648, -0.0554922910941684, -0.045522080306194326, -0.042417696913808214, 0.0461728310952456, 0.038239357497236934, -0.042356888855064466, -0.09457591381017949, -0.02147377089187789, -0.006344579345989485, 0.13408591715814847, -0.007696603671875404, -0.13881170093921189, -0.19038037581965572, -0.0458193165860541, 0.13127000715143583, 0.01568883490210495, -0.22156515288862305, -0.2964610646950677, -0.1445659142848738, -0.27031638940978253, 0.060078572989651406, 0.013816979899494628, -0.010131232914358315, -0.004682869288578889, 0.010079726202600489, 0.1397444572669503, -0.051619049237512635, -0.023704161364243855, -0.03336068268222498, -0.036528219008880404, -0.017591489783465433, 0.024288531023448346, 0.0009706565419340198, -0.04530737929801389, -0.010039299009444164, -0.07540533647327648, 0.04444407669866301, 0.14090419409588076, 0.035663946428730414, -0.16859400350076484, -0.27130275642983237, -0.0725020817432452, 0.05092328547003868, -0.08276774870077286, -0.2889188419840149, -0.2575878907015679, -0.2709863910998458, -0.32488605765106665, -0.09628494072737757, -0.049868352746181836, -0.005334271897251965, 0.0007754735591066534, 0.00771666735170223, 0.16777696088879213, -0.12461048312128581, -0.10991917472460055, -0.0810850010517605, -0.0888047439987035, -0.08465038850594746, -0.07278525769341515, 0.03901046970772423, -0.07850798903203325, -0.07119879392944435, -0.007068960336302933, 0.10625364269071891, 0.27945438444499415, 0.08284810847443205, -0.25165185335240847, -0.1338952873081383, 0.13238924350642356, 0.08765768803092175, -0.08198661807025956, -0.22686774362597215, -0.293103756204831, -0.26182822555993224, -0.21521937807877475, -0.04775145571550355, -0.0034974094540755774, -0.006474519613578668, -0.0012434677847526822, 0.0029333316204548827, 0.1330060721000349, -0.09939899010029676, -0.05970935436992981, -0.13373454580090424, -0.026807274790711384, -0.1349714509075987, -0.01309815069751925, -0.1421976938174941, -0.08188273566176736, -0.07438640980941412, 0.0011340458664616491, 0.2381413169161831, 0.20373045762122913, -0.10744318674129277, -0.27722956777844177, 0.009361433455201759, 0.25702658648860205, 0.2235717162583445, -0.10245610393991329, -0.3332080239266303, -0.2569860505053218, -0.30789382523786574, -0.18860431532612765, -0.02231767150501015, -0.03837843613815631, -0.021967966598798322, -0.0007823104402346177, 0.012327501348600918, 0.139170999274313, 0.02891469488547735, -0.051898460430516984, -0.05805205971018108, -0.09693486826105441, -0.16321062778993004, -0.1278453782720093, -0.2279649867952133, -0.04564675839377064, -0.027352475861575104, 0.07333620981725167, 0.38963432743721843, 0.02834637361947764, -0.25286407845297515, -0.2195848095413454, 0.11380262087297384, 0.4643876336405551, 0.35602716009600527, -0.02225270900156776, -0.26443691322718565, -0.3116567237362775, -0.2996241742242571, -0.03986836638471111, -0.01691334190979694, -0.08399350680786707, -0.02088194377590578, -0.0005101035788743946, 0.026266177667774213, 0.0921032025676626, 0.2238293189417773, 0.016831126657386293, -0.045800917464330515, -0.05067558727115828, -0.11650217965301203, -0.15941765258980156, -0.10808030425419386, -0.07968645175079324, 0.04709590336033735, 0.19729954300914304, 0.24790351924209741, -0.17678334859879397, -0.3839878801229104, -0.220007349985665, 0.4423834347734726, 0.5408813971837373, 0.5000693138656209, 0.054002622678584834, -0.23734485271368339, -0.13855022526597488, -0.20706311596539365, -0.07403542010221391, 0.08767444569287201, -0.03677979959152146, -0.0010389160587292586, 0.0008012347635956133, 0.008875512979632978, 0.07169371140011903, 0.22217031910034532, 0.028288848114456883, 0.014616956170197476, 0.04928304274091547, -0.02630468865906201, 0.004123541336135202, -0.0025931897323480456, 0.08644865143230893, 0.1531029653344715, 0.32031210312615904, 0.19425649157567484, -0.15649200807115726, -0.32748029841719706, 0.14042523818495364, 0.41584035547292986, 0.46354510222445694, 0.40478648185497845, 0.028908289714616175, -0.05218299543792018, -0.026960526463650433, -0.020184951110442946, 0.002265815822807631, 0.007423136543376311, 0.006678659858520105, 0.0008877631142526655, -8.886991961132683e-05, 0.0002050396019510389, 0.037863679357818876, 0.1336046130121673, 0.036566700007082974, 0.02570478944091699, -0.026742724760650406, 0.014487135455009726, 0.027876614739991198, 0.028673422527846118, 0.140431481539048, 0.1604434050765128, 0.08615389092184646, 0.0076311229456774606, -0.12239920546863657, -0.17084341490208843, 0.12434502072632621, 0.3565377065494616, 0.295837808562357, 0.1986687915193404, 0.02564941211841047, 0.05694747042593501, -0.05177135626482124, 0.1115765607098536, 0.1018256617393195, -0.0014425293266466979, 0.009964293861223885, 0.0009112560508698654, -0.0011659111530743329, -0.0002306405701495874, 0.007401592411020386, 0.012736603308345557, 0.04817020506369158, 0.15384320770028218, 0.13116365912235098, 0.032689713817189416, 0.06024080620516131, 0.13389833551016395, 0.11179183556675236, 0.035022375604032784, 0.1193501446443541, -0.025456957333805024, -0.22595153717970914, -0.05141605602542771, 0.16363435951972718, 0.19589287443150327, 0.048875034133493325, -0.009088975015983575, 0.05143492949148485, -0.041489746744454735, -0.01566815607007589, -0.03917360621148553, -0.007445454715301637, -0.022790710709171477, -0.004797383058285062, 0.00020238160361718064, -0.00037592979342917186, -0.00029077361752320334, -0.020072428372511268, -0.016113059792645455, -0.020245289635709086, 0.10477861032591491, -0.04991592540950649, 0.06397288397922217, -0.08045692429800752, -0.019161735346124052, -0.036077277035686285, 0.0195728036166566, -0.032142776092272514, 0.046820372613945185, -0.01539051778435307, 0.07902257805732305, 0.06294758305047718, 0.09412381655478617, 0.0341053056620294, 0.09303332206227767, 0.0029428561131924005, -0.006802834605165299, -0.05819306498188934, -0.03761528424327987, -0.09307994847400167, -0.05874747558927681, -0.007593064622687308, 4.608306907217985e-05, 0.00019752722921246416, -0.000403514572827899, 0.00030754155841577287, -0.008641893452389611, -0.0004069236677421056, -0.08709659487902191, 0.008183519663933114, -0.0044453685374315505, 0.022583359041544376, -0.18842495357285005, -0.26522869678486954, -0.01696830527270219, 0.00263817514402627, 0.07491651525591178, 0.040299694482672406, 0.12878978891674825, 0.038167894069792506, -0.042712254885094135, -0.11180563431506195, 0.024742223122220706, 0.029564920347251906, -0.1054946595993607, -0.15626760097717918, -0.08445891389195946, -0.010425462781425188, -0.003732975143590773, -0.007789995525820148, 0.00025891305149117487, 9.430348058220811e-05, 0.00018612723110016712, 4.772480840127229e-06, -0.002543913334857197, -0.027966944471303753, -0.04330916856782552, -0.003693346879577467, 0.02187190648772206, -0.0027571648837696854, -0.11434399986089794, -0.2636795675732788, -0.15953771813096534, -0.1298853173901602, -0.03432688791504044, 0.0761729946135666, -0.012603288456502972, -0.034278995276115894, 0.09758592073582996, 0.02874518622017688, 0.0585258437340487, 0.02338095814088608, 0.020146587252692232, 0.001164314174394164, 0.0018262008686907416, -0.0005272154801344542, 0.0012752719655121146, -0.0007551381407169849, 0.0005789203387043989, -0.00018953214154885138, -0.00042510626282267266, 0.000535259499956563, -1.3767831719781885e-05, -0.0021806122328715738, -0.01858720602714353, -0.03196919587131511, -0.032553199607972906, -0.016050184928028777, -0.027034807783332407, -0.0350296011707656, 0.019826208879188543, -0.06459691988405705, -0.1098874476353555, -0.02059686885502608, 0.02123062155681117, -0.05745332154439742, -0.031118713888940355, -0.0035387281268578616, -0.018905078442651095, -0.01738746933187803, -0.009822256355759916, 0.006640317892502482, 0.00029659004670791516, 0.0002149353710829883, -0.0003066629278266184, -0.00019003729671622963, -1.693480945834355e-05], [2.4360698692720258e-05, -0.000882896856103685, -0.00026907709568479185, -0.0008533267983994966, 0.0003953998930041852, -0.00020473916537164144, 0.0003411490418441596, -0.0011034923944889267, 0.00037303356573168404, -0.0004514941255443154, -1.0103429627404619e-05, -0.0005915981705444693, -0.004771019303046949, -0.025860353035734734, -0.017385265581661317, -0.001014150286113429, -0.0003599324362777418, 0.0010276571664453362, 0.0012726170456480316, -0.00029766995034392614, -0.0008547592252425736, 0.0002370868002674694, -0.0008910908785657205, -8.999169474491232e-05, -0.0005001197956016254, -0.0007679629357431034, 0.00013598009868879516, -0.0003657014786630638, 0.0006042842258990343, 0.0008430326940270566, 0.0003721137730399308, 0.000496040188967442, 0.000674083857598894, 0.0006788468331899863, 0.006616958222461091, 0.03202917261722467, 0.06786551965624653, 0.0166869587999445, -0.041703023808984205, -0.06589969421132646, 0.05571562739111744, -0.014059359258304694, -0.057006180296420704, 0.042413749359715314, -0.051162227667352435, 0.01746877762481742, 0.01651020563084634, -0.0746334640436779, -0.05179639734858304, -0.005207615986207675, 0.005764636876458368, 0.006157540883593606, -0.000617707003241922, 0.00030979135390777506, 0.00020156078614039845, 0.0005591067827560338, -0.0005599336202353644, 0.000236491745239653, -0.0014904322428946788, 0.0007211826456083749, 0.002950468436600981, -0.0008744859685538173, 0.012257035791757796, 0.007035670934308932, 0.007959594829408818, 0.047921334750015934, 0.011770277150100757, -0.06871856685571825, -0.0811818373397456, -0.039420065789715686, 0.06978959481751325, 0.076451749622912, 0.030270621871470175, -0.1892880357986292, -0.23349290566958722, -0.22157946862342282, -0.20422134114328427, -0.08081330250459673, -0.05962542505750187, 0.04688968050879619, 0.014929912632922851, -0.02173805391750188, -0.0014344974440377099, 0.0002360064404855402, -0.0003993593100868276, -0.0006949217580687416, -0.0030166335237642446, 0.007496304893205975, -0.014284844342331118, 0.027567494671618793, -0.0002431783290290042, 0.0010759441061705332, -0.021340356630904864, -0.08815686565483387, -0.08658225763704534, -0.03497770897002368, -0.13333962983891828, 0.011822296292010733, -0.08457547186239824, -0.03470941913289554, -0.12804316500460644, -0.3545008816027591, -0.40958885628309993, -0.18786788573949215, -0.1598376680590027, 0.024091772710599382, -0.026562085070698946, 0.06626729846783794, 0.07005404863515208, -0.023927186207322038, -0.002582983661822135, -0.0002458185823609612, 0.000552678572697526, -0.00041533255331271544, -0.004339516769035445, 0.0025759595212398716, -0.06910229053627262, 0.038075277404684235, -0.01983576196018542, 0.039586852461951635, -0.04376210888831672, -0.05787101591768391, -0.08168027357603352, -0.0983625386076163, -0.07695743194519021, -0.09205805245661566, -0.06965056704021402, -0.07831261305065622, -0.11803647372845347, -0.20409656962731307, -0.20210688202517596, -0.15541709081021562, -0.1589549844918576, -0.0877267869285897, -0.044972557618275386, -0.07879023279983928, -0.0018497104844415455, -0.016634399032444454, -0.047449775567736704, -0.005336885516721344, 0.00016533822879412027, -0.00019833296071915124, 0.007141045678113567, -0.001143694246126623, 0.008967899954898466, -0.046011172091582106, -0.007505326177566984, 0.049986601021127744, 0.09661288677742923, 0.004955527075019749, -0.0024689865134833624, 0.011598526790759577, 0.01773002670734906, 0.0369655905158535, -0.01031928938274767, -0.028462182072159357, -0.08790033074229328, -0.14469767667520594, -0.1375129276584713, -0.11225661611259832, -0.09885750119366282, -0.014274002752949577, -0.009874258539167046, 0.05987845013381473, 0.00781341348885716, 0.08187043515900556, -0.00755793836741, 0.0005163420531763953, 0.0003751068755571932, -0.0006870364875497388, -0.032239112666150156, 0.0012766561234840985, 0.030405846550146755, -0.042082420801194884, 0.01569513776749542, 0.07398848581879379, 0.04513703129053452, 0.005582736364042923, 0.008661369921690896, 0.03530461901492344, 0.13112779179540632, 0.16178052022901515, 0.15123103560395482, 0.098465809820755, 0.04334267683228126, 0.016627476868605696, -0.02836747368840389, -0.08717745745623935, -0.15481149327103444, -0.037966033421689756, -0.0061907636177251655, -0.041850503065907235, -0.016048958578050092, -0.013874362992082001, 0.0010751869326487223, -0.007018075865195104, -0.0008119342827796746, -0.04533179818698989, -0.0790207263347897, -0.002012124238890129, -0.09779901242489433, 0.004961822315410731, -0.049406009698944736, 0.05838542748110957, 0.026456615893182305, -0.013189783523225153, 0.00997309502155543, 0.06821340427733329, 0.14683200912105912, 0.16680658341012528, 0.20637916276424095, 0.08010629919000262, 0.05047281179311073, 0.04227505975967271, -0.07401062554588811, -0.18103495742337847, -0.15423445218398432, -0.015543985593165402, -0.043309857803543114, -0.0012089728195243102, -0.001980230726629958, 0.10684221110509147, 0.16386312211933962, -0.0011175401227727314, -0.002357472979791261, -0.04867789042362496, -0.1062969459268933, -0.05773952630255657, -0.018300509574459414, -0.0317632529924338, 0.056411333155249696, -0.04754837110076766, 0.010369568970986991, -0.06237779984174503, -0.060185112596305775, 0.043516384748308906, 0.08893994443899722, 0.04340116892886684, 0.010463938374581188, -0.04243619580312997, -0.006246176912736332, 0.016007149347342764, -0.04793376838362881, -0.09301791487691771, -0.04163033480582242, -0.03932858510504198, 0.014652975718332639, -0.01486045996858601, -0.12244765862408331, 0.01925331016065618, 0.14361373124245339, -0.04675900297597138, 0.001953448506074174, -0.04015847319768697, -0.15844406586246065, -0.15047092164082487, -0.04443566157987441, -0.011935590731901969, 0.05072252757874023, 0.014831501018584246, -0.03045751392477881, -0.04710706570715562, -0.07414832537750003, -0.08019105447252417, -0.06459674442032387, -0.12694689375948484, -0.13459705638453917, -0.04047592724942704, 0.039314598753325894, 0.041919700043177854, 0.02689896145642292, 0.04560462157176974, -0.039990939703998286, 0.04292977511104681, 0.07820086731466298, 0.017799100436702655, 0.03118206185165991, 0.08421393228609338, 0.09573442464571816, 0.06594081040074322, 0.00422961562914014, -0.059200850174973535, -0.09271165514773615, -0.00987294478906574, -0.011314620770216229, 0.03980953907965266, 0.03308673029598832, 0.022749163211203356, 0.040788668172594196, -0.07117826624050377, -0.06067292656920125, -0.06544169860689475, -0.06498324128942691, -0.06644849656109496, -0.048636470071265266, 0.04704391786361243, 0.06182691911819834, 0.15799475974312183, 0.07215289067143417, 0.07333291504514018, 0.096633549548902, 0.16192701976020293, 0.0246971725417, 0.007357217946140897, -0.013867323136615728, -0.03153828521833514, 0.029350814391757612, 0.038273703337950056, 0.008428716649144035, -0.036506049462345105, -0.04872025993384988, -0.030517903997621953, 0.039234126674788185, -0.05830641445662832, -0.018711836483791256, -0.011730887522500453, -0.04119395051328725, -0.05187302786257657, -0.030522621588053606, -0.011908528891659782, -0.0038251795386429997, 0.05784371986717461, 0.13578388545717288, 0.1597820560564663, 0.11088480411952173, 0.09922940490431177, 0.09810325751493817, 0.046980886376128704, 0.06720705566645827, 0.06527033269379005, 0.04391973405022588, 0.09317867083167529, -0.04078190975496041, -0.027981930412344348, 0.0976216811670558, 0.03148278846379089, 0.007845830662369218, -0.019180093292853695, -0.0022858174451567234, 0.009322954539646598, 0.049870076379311255, -0.024224488829163428, 0.035069653692993565, -0.025934286950312264, -0.012861348505697468, -0.008644209240459345, -0.029413191363699284, 0.019042297843395853, -0.022261338506488097, 0.07268005361644636, 0.11959579646705737, 0.07820032504480985, -0.03657735534081234, 0.02961621328747626, -0.006639705013915117, 0.040157303155207345, 0.032953736830138525, 0.03131693337794389, 0.08584044010425289, 0.08106309122023367, 0.03653642567458967, -0.05574025630744248, -0.018760876930136824, 0.0011654868818185512, 0.000931592015147304, -0.0036164252019814354, -0.004021864424302138, 0.04980832416227483, 0.005779414264919069, -0.04759370820385119, -0.10504523088029506, -0.026867474599534952, -0.06567748507949366, 0.02426294134145686, -0.05154658566808755, 0.011561097761861209, 0.02358199172973889, 0.008544663705170366, -0.008566760407513483, -0.08724588746223708, -0.09300866603839382, -0.050458918947782636, -0.0692162985975869, -0.007215487197966772, -0.05737006641977357, -0.015658346713874977, -0.008424977074364914, 0.029992571462590958, 0.07071455626077801, 0.0069896321091454635, 0.009386976200205678, 0.0047992471161789575, 0.008848002471500544, -0.00563120057173245, 0.007047186665914078, 0.03547483043815729, 0.047634193949759436, 0.05409662708826586, -0.07546867598577967, -0.09830277045909393, -0.026454622274004056, -0.011507419699546793, -0.02855888043964354, -0.07944423558629322, -0.09513489523962813, -0.08637440684254669, -0.09587323645189895, -0.08457287403083391, -0.07153012267299493, -0.017338190039644517, -0.06349697744398586, -0.056080869966606106, -0.05001794043187723, -0.02135275512479077, -0.0009547560165536248, 0.014656769739371722, 0.1344714354501746, 0.07239391651648686, 0.049798321310169334, 0.0021636606149360764, 0.0027597144828720903, -0.014441898194147327, -0.00647859561353451, -0.03611361128921232, -0.14638762637261357, -0.039652092867012365, -0.0946770873700838, -0.0844890103828266, 0.02634403735933364, 0.055820034100285236, 0.005208868924937267, -0.018297871282555868, -0.05990287316085668, -0.11721574284123656, -0.13173515423213153, -0.0676712720917472, 0.04059210445948237, 0.07020112040670261, 0.0927237908712977, 0.012890817295798182, -0.0374707152062638, 0.05171836855198775, 0.0014288033950631703, -0.017712831880468394, 0.14872165943608676, 0.0328568649721879, 0.09206091353396144, 0.011334465073805396, 0.001186124794339874, -0.00944765299953645, -0.06287623418142708, 0.07604626790561439, -0.091608169770191, -0.11141231058650909, -0.06915228232641943, -0.010926702224500099, 0.1472249574122314, 0.23937403533940896, 0.1491836131170697, 0.037066166712008, -0.06460109768212442, -0.00016938765366674523, -0.11276496576820505, -0.040513499534111735, 0.13016381140006522, 0.27649820279437665, 0.18440078028284915, 0.08640632284083921, 0.019686243211419603, -0.05457572717191012, 0.01579777768378951, 0.04654645853392478, 0.08343863163785738, 0.04003181731317075, 0.13006420839609964, 0.006443140054589718, 0.00017537254970579588, -0.0008668365932175236, -0.04298177559721155, -0.032121298566227884, -0.11261335444416448, -0.1377800211963145, -0.08050484337461801, -0.015224335500741449, 0.17853929274537117, 0.3117994479377967, 0.22257942653811236, 0.09280399100348966, -0.05118942696301523, -0.16980684651542707, -0.18309814361360952, -0.10293202416958869, 0.05276639518603218, 0.1843157699988403, 0.09886966156603409, 0.05202189071261708, -0.06013177214273486, -0.03272754949014832, 0.05555775195131158, 0.008740215536618542, 0.09877737688213738, 0.07789122307343309, 0.08506930228583169, -0.0018768036956913709, -0.00039987225237197755, 0.0010106864053621223, 0.027150146078203857, -0.039072976523523116, -0.23442044281101684, -0.17347939403190174, -0.10678386606636076, 0.03398631549569526, 0.2675035997612589, 0.2645525715683106, 0.22367451008134212, -0.026175089127839436, -0.08014582744453563, -0.1826376679625164, -0.2070262236400495, -0.08926144578006649, 0.017733724118481817, 0.0473167087222245, -0.039369647814815584, -0.11961404689802335, -0.15339552813623022, -0.09695844291270014, -0.02426904627722818, 0.126588560638093, 0.011691319842775143, 0.08621071115334655, 0.02690993804569796, 0.027916406745233272, -0.0004860339101918947, 0.017152577393143673, 0.006815182925578832, -0.11070001270478542, -0.16426211030063775, -0.2110076684831522, -0.18486393796758618, -0.0035049885695133468, 0.22645047556415127, 0.2832188204333496, 0.21787115768137502, 0.03760098577732429, -0.023020526463710344, -0.13358178485874314, -0.10829565862728892, -0.1738562580719488, -0.05113290550196889, -0.18714820560796722, -0.18597022886056375, -0.20992777491453057, -0.24286667901852407, -0.12941069093395516, -0.08725792938139956, -0.07464409368994351, -0.01551220256562515, 0.04077972268700307, -0.006050336944603473, 0.02285900142593735, -0.0007252807621998784, 0.015501455875770932, 0.018024957853344344, -0.1265231759781245, -0.15849393099743847, -0.347174092466634, -0.22673257140465014, -0.15053662211749128, 0.03234600931946975, 0.1863554996505104, 0.15508459192492816, 0.06284067873909753, -0.02865913955182637, -0.1632655504323715, -0.224099856593992, -0.2778296565916063, -0.15716136192654903, -0.11349813941887399, -0.16961234818038326, -0.1703501573221602, -0.1682995885509875, -0.08868272146027226, 0.013359326369532664, -0.06527727117584095, -0.05110301940393591, 0.07325271366753025, 0.01074148268776441, -0.002140849606425845, 0.0024613304201083607, 0.0062786510491744905, -0.002582059134043129, -0.07414338296098202, -0.14567294980254042, -0.24985255264065878, -0.27182866140430767, -0.27978751026833604, -0.08535289972331353, 0.1210005293982651, 0.273947756757079, 0.309049950956552, 0.10136805013332668, -0.1400417201553602, -0.36303273998579605, -0.3651773292081042, -0.17152602898994024, -0.08117728470770966, -0.09153132258146286, -0.01777112611118188, -0.07925086649755819, -0.07676838873295158, -0.062124193598228426, -0.09884528980674559, -0.00047370388676941806, -0.0010622568100085111, 0.004064472893369985, 0.00020394512234704458, 0.0009277056043894035, 0.006758108342696532, -0.043737720760791236, -0.0851968895328397, -0.002259637592907917, -0.07001636813699022, -0.2017595555305629, -0.20887069364380345, -0.15144031139254926, 0.20807020467084616, 0.3879422696421397, 0.368484438092054, 0.03435875989000655, -0.27572342086032997, -0.49308734557435896, -0.25997902233012377, -0.11389478673620969, 0.05985170040166361, 0.10306702945732794, 0.1072595741223507, 0.04645191331865516, 0.01653073669061241, -0.04855613034165932, -0.043525985033485044, -0.07119307224394159, 0.03663062240175881, 0.008382410244883624, 0.0018277684857960596, 0.0005828423403822256, 0.000736917450559499, 0.0073202307684580485, 0.009035459018944399, -0.023109264789477044, 0.021036377654714066, -0.011200336995660125, -0.06189445560183694, 0.04817301927591429, 0.32035298522268735, 0.4199948040211551, 0.365032468109138, 0.23593132442812687, -0.25424175187135184, -0.3879818796871569, -0.31377980841141595, -0.05509138186384136, 0.09521722979133716, 0.05125893487756554, 0.1332996219294542, 0.04717560514203086, -0.09542833729206304, 0.016695272475011663, -0.01885496896200586, -0.04450531091041465, 0.016825928072931637, 0.004702446887122987, 0.00011895295157992874, 0.00047128257989035314, -0.0004490081561523116, 0.03113215795439812, 0.007377509387002562, 0.005852056627401503, -0.15812364372941742, 0.07410721667968284, 0.06713610817052681, 0.12052832431793319, 0.19553913156923708, 0.22962878629725908, 0.42545843655077664, 0.3037724017172079, -0.09476241701822023, -0.16997968370343583, -0.2683676914824597, 0.09877139364608502, 0.304865663674058, 0.22044847757719116, 0.0889248143816465, 0.11657294122104521, -0.022331992373045614, -0.06278621261436013, -0.05361333197509808, -0.02289847175719058, 0.00762445138979034, -0.001913309172705817, 0.0002770396940836922, -0.0005082506385606481, -0.00010414668410289199, 0.0012801618419068556, -0.0713327695973336, -0.06639674210531712, -0.029966563365543826, 0.015196514730445834, -0.04670288378434442, -0.07011846831913877, 0.03370679083291688, 0.33841613657094305, 0.5484138231683584, 0.4033606325068534, -0.06929818594984326, -0.2563837390227971, -0.2850355861317457, 0.4171186347375431, 0.42210674892347466, 0.28142558346608587, 0.18170919175539946, -0.05169810652065375, -0.041843099365150356, -0.044233865746440997, 0.01277414514768795, -0.0038946087423112224, 0.006356510371686548, -0.0018691086503572344, -0.0005218096307740059, -0.00013199973489741142, -0.0005860028580434833, 0.00036855491609975063, -0.0011624848967018663, -0.02498778655653131, -0.034105121863298164, 0.0694543564114834, 0.17282245646334493, 0.18151282938843427, 0.11886929762944498, 0.39379885933297026, 0.2725890798969001, 0.1481936306562878, -0.2498682479064077, -0.4881501207271295, -0.2639591736801175, 0.21471027912293544, 0.26669409855535464, 0.2243606817400766, 0.06369738143189455, -0.020351747849736757, 0.050974696710380164, 0.026897989292809545, 0.007441979186227828, 0.00013279649591005195, -0.002182479460344406, -0.0005139927527573822, -0.0003733482810571695, 4.7786227424937755e-05, 0.0007468208951464395, 0.0006268376160209756, 0.0007519457266705337, -0.00011272455626811749, 0.0036992849649209103, 0.02512130717497571, 0.03425491174890637, 0.04397680490171251, 0.07933192486959058, 0.14913379838035412, 0.08875667587144753, 0.08446974720222256, 0.08679010821767041, -0.044641014890853016, -0.15236520947557178, -0.08970485216198469, 0.05036556630072287, 0.06444561776192823, 0.036885132995541, 0.04981844424655425, 0.013326959560700003, -0.0021766620917576616, 0.0014820510138819055, 0.0002057628989203414, 0.00034673761865540594, 0.0005453850111144169, 0.0003498840030335281], [-0.00010325513147319838, -3.3531559201210146e-05, -0.00015415851702560974, -0.0007795726177317542, 0.0009858242060270484, -0.00024907313459212097, -0.0003619347499577428, 5.2662858813024166e-05, 0.0006034266574490436, 0.00029440334118028383, -0.0002988994244586341, 0.0013473928010650244, -3.681663984377171e-05, -0.0028288565617130288, -0.003913320528063936, 0.0003957097272883593, -0.00015124672666608037, 0.0002389447118899053, -0.0002673617365503769, 0.0004363777666004912, 0.0001733029138992697, 0.0007336877713197609, 0.0016345489546932387, 0.0003271048211771619, -0.00012384043909071917, 0.001126578653692925, 0.0004162024232466848, -0.00013882805252652558, 0.0004337243121724106, 0.0003230326130839076, -7.658757271311848e-05, -0.0007120830937058965, 0.00014625463971841898, 0.0004602739920570563, 0.012284652930598937, 0.029501118989664992, 0.038617135202790136, -0.025244924089837233, -0.03983432798660008, 0.013691316907877298, 0.0011426469710642503, -0.01973363203117797, -0.08510124508363288, -0.05257914252164744, -0.002908945221189177, 0.02068684138116714, 0.020168507271234246, -0.00471068415522492, -0.026783604152020978, -0.027346112704180053, -0.0026327449145821745, -0.0022577305935624356, -0.000652023359541831, -0.0002602244326165128, -1.8830162835267098e-05, 0.00039925619850574587, -0.0007398049370000532, -0.00042985495146052237, 0.003987422823573447, 0.004197357399989367, 0.003713266036281344, -0.0005255284887040418, 0.005122583444548079, 0.06855060596540999, 0.012284919128865812, -0.06813683307028559, 0.044353306837831, 0.062166898920775586, -0.06116993842627313, 0.043535922823975504, -0.0007751273621876967, -0.0006016716696666529, -0.08877206777087736, 0.015649405251214856, 0.005849327660996573, 0.05018424552530989, 0.017454115727435722, 0.03917769660213406, -0.004962845137696458, 0.03779987155802912, 0.010094416627096453, -0.02896898586331629, -9.280384516933858e-05, -0.0006673272720902806, 0.0012346495185908176, -0.0001370909475414393, 0.007556842933772625, 0.004715196120923959, -0.0006859511303168335, 0.04094165548325587, -0.03914248423439792, -0.0625982560219543, -0.0305040395850075, -0.07080883941567034, 0.0047743054274348665, -0.03432287170535616, -0.053888133650031304, -0.04268867625650432, -0.08369519171401849, 0.03718612638611513, -0.07580793527180286, -0.046934487230557896, -0.026482889686893454, -0.09017056057788943, -0.06183625293040607, -0.07669977175506056, -0.11327466548832829, -0.01032625397315307, 0.03385402233823369, -0.03792547398086754, 0.005091652605892964, 0.0008332662198102686, -4.631567437932429e-05, 0.00013217381822647529, 0.001839743525732163, 0.008553003587614245, -0.01608278049507473, 0.06265283821287781, 0.06034652655374486, -0.04922830292430386, 0.025344503400795273, -0.032880489246694164, 0.00035939291460833323, -0.07689777969972915, -0.09367368964205214, 0.012266385951154517, -0.048381898956739666, -0.012366185535941085, -0.08984943671847356, 0.022627900360618035, 0.03940257126450448, -0.1219185840296711, -0.14409161761288217, -0.0364417998023931, -0.015273750568790354, -0.04788985882210534, -0.054268267280691194, -0.06302337751434373, -0.005289605140443527, -0.0026031318887757226, -0.0011275084388062755, 0.00026100980014754466, 0.010322245354714824, 0.014216545796511664, -0.015453365868773718, -0.009366358184339415, -0.023327632385419288, -0.03205886712992253, 0.0154513505521335, -0.08693145384762316, 0.05492812067709247, -0.07540863730943012, -0.0033742082135157126, 0.02282110697395712, -0.00694968389896839, -0.03934181422699883, -0.06329634716478541, 0.016853970083828704, -0.0037954912687350253, -0.06369770019945578, -0.03017900514935784, 0.02528205505186069, -0.05391126264597529, -0.018003268253427945, 0.010519808627092772, 0.05624063812685359, -0.027612644356153543, -0.022956069269123695, 1.0715963728417971e-05, -0.0005082390762160733, -0.02149920063394263, -0.04641552054017303, -0.007467897701597141, -0.06593918073248194, -0.006011144609721927, -0.08886289113203576, 0.03633224267688486, -0.027267715380945457, -0.05665092503593993, -0.06925779147330405, 0.027976282734397194, -0.008904197464238713, -0.04146465593989615, -0.06066760052157606, -0.028820708615920888, 0.038293841753479815, 0.017426452782280177, -0.02323947473936105, -0.019192707920942423, 0.005764504437353839, 0.07325853046050185, -0.015052841521492171, -0.02201146336928004, -0.05097498682321747, -0.003962215660728996, -0.03279587628679531, 0.0005814440348821271, 0.005763089379391324, -0.042676994139856476, -0.07678224040153757, -0.059382538522737636, -0.08603732470577602, -0.1157586193348368, -0.10612279268328884, -0.0743135123681711, -0.027443632530150645, -0.12023716784462192, -0.052918915439208486, -0.04078649856275799, -0.04606309914164535, -0.026018725424016457, -0.06765716719296826, -0.09446272716987861, 0.014931595585489786, 0.03720226152090867, -0.029413164598301164, -0.03366265503351914, -0.026333223289663615, 0.028701139454868647, -0.02765927817707575, -0.06741241798781053, -0.07316410908684423, 0.07993437080418496, -0.030808698970217104, 0.0062931775669745425, -0.011663073519370532, 0.006935394688088418, -0.023948346932853432, -0.02664254031873962, -0.03334578977299832, 0.0035667843503161233, 0.06423234957429275, 0.04716339185099475, -0.07831109827822196, -0.06532676379083144, 0.02907997567716638, -0.06660178835631081, -0.040332304425662116, -0.0865536159702242, -0.14720659062124825, -0.025365817735656042, -0.02721154763669528, -0.023525362391576397, 0.040886519058440804, -0.02082762207539219, -0.017900634106430554, -0.051457668226217945, 0.030736347592001268, -0.11889519522755909, -0.06798041828951697, 0.04209466157716936, 0.01135183147034124, -0.005281893717082147, -0.026589609903394193, 0.052683270389285226, 0.18305446371116274, 0.13560093314925156, 0.037702063487227606, 0.17309852993135466, 0.2163005306206881, 0.10754318547426257, 0.10426355084294253, 0.08562165195333206, -0.05036368878694817, -0.04777557139988928, -0.04830420907570053, -0.06373309425594736, -0.07218435994439422, -0.14540563749349333, -0.011986580320284405, 0.020155950417525943, 0.07754764360258658, -0.09398905207869987, 0.013578997885393672, 0.1007130164177796, 0.06015927394125795, 0.008601875369125003, -0.14631548959860985, -0.013995274100950103, 0.023649087998888783, -0.014985531285636506, -0.04593072118332204, 0.0637009181658094, 0.18748540852324203, 0.16064393079011813, 0.0952171576372405, 0.2429499023231054, 0.12921706240737826, 0.14945984076711596, 0.04818645670349017, -0.00469163765173373, -0.03335828855429295, 0.041967180040287246, 0.00874184225606912, -0.006757887881995539, -0.008878861572458364, -0.08917962026023317, -0.06561520056485737, 0.053295040045017186, 0.10788832985280548, -0.00046765791242308626, 0.07730707127338164, 0.002063398433657712, 0.003856093191850451, 0.1057001862767267, -0.017886921809331043, -0.06192192343617566, 0.012005686211941638, 0.010772173814958014, -0.015918586742761316, 0.08015747230345409, 0.07057026800013001, 0.07501698534813825, 0.10462933014373547, 0.09045220903961039, 0.11410734909020998, 0.03496205785124801, -0.05348939177626618, 0.07948583442462555, 0.17368570629906638, 0.27561567840409246, 0.17459990820232654, 0.04644207034397192, -0.045477140884630125, -0.11124512209638933, -0.026294800698682754, 0.0181836640096662, 0.017914851431968866, 0.07021901740376374, 0.033020447408908214, 0.11462656358068385, 0.011866308323653969, -0.016807720823663393, -0.04387483171400855, -0.014571445454857886, -0.00024405070516277038, 0.01378070501129814, -0.00811739296087422, 0.048694614370763355, 0.061815412835813544, -0.03320119727820813, 0.0961918465516964, -0.014678593610009425, 0.0597092636224173, -0.13795643982696965, -0.035025801867393784, 0.22394647506443674, 0.6784992521373312, 0.5749610222115101, 0.421789466897793, -0.03155724870959176, -0.059623615972410636, -0.05670040739298468, 0.03168710223630756, 0.0406455139088542, 0.09772407101610846, 0.03896138925227896, 0.06063945846630845, 0.09201492964019453, -0.03890201870344514, -0.10889787303047739, 0.030818337527657037, -0.022874563484282563, 0.01934575747550802, -0.0002891520830453557, -0.031194948042439635, -0.0019705664860825128, 0.014924738871354157, 0.012403801005450733, -0.04046985096585188, -0.03351377299630028, -0.16073878080800957, -0.250881469619206, -0.026981225720740024, 0.2881767593105062, 0.7444028780931141, 0.7227612888119151, 0.5313550870643617, 0.06747151796417908, -0.018445845879555483, -0.02709209815372087, 0.0008780102902568659, 0.06392037344897934, 0.05968079327085521, -0.012784776870268801, -0.04318026582324328, 0.020725522841921435, 0.08143959794180676, -0.0324673031855793, 0.02318723401511369, 0.017798735203830886, 0.014832384485762759, 0.001968620668469767, -0.0008884437672067088, -0.05117030108118562, -0.12791085607535987, 0.10130927358772501, 0.09226890334836059, -0.16820445189154115, -0.2972138100837233, -0.3208065262553437, -0.20440309597412756, 0.5037834338111534, 0.37489367563330095, 0.5496212270434568, 0.35779992729080806, 0.048994234527767154, 0.03172677988376633, -0.012720935741356599, 0.06442254192289805, 0.06535990860704759, -0.004963443353133609, 0.009191753922073264, -0.05303763302303347, 0.011792880951626318, 0.049647723081440484, -0.007678273709271245, -0.05099228272195374, 0.009712698903699326, -0.006722533836759097, 0.0007956028243969415, 0.005518673564953032, 0.02568856802023434, -0.16492524786977159, 0.013799488081377403, 0.003919767533835879, -0.08440996081672308, -0.3267626342324964, -0.3946118886455479, -0.34141748968806507, 0.07935635812219863, 0.07553005437129125, 0.0735121092094197, -0.05070004828444996, -0.024637004211134128, -0.027942356440307993, 0.013062882771570732, 0.07064801185641792, 0.11639051799808421, -0.021007041162342255, -0.011953019649636062, 0.008655796654026637, -0.0025997787016585976, -0.01294722787354224, -0.029233444780549518, -0.028057374989419966, -0.010240006263274428, -0.0368968547829715, -0.0016956830064057966, 0.02072507927077409, 0.0903375088657757, -0.03912410185370494, 0.056702562577156584, -0.1903095682245488, -0.1951753581268894, -0.2836486087164401, -0.34517875537456305, -0.21368120881888578, -0.08369418375565232, -0.03087901091993542, -0.11035357436854057, -0.11226042773561645, -0.038116949706493417, 0.05075510879089574, 0.08283487785140325, 0.056873091704038876, 0.05271605276402698, 0.013705350456860471, 0.04114226930394307, 0.08315966688132638, -0.03439886253009016, -0.01670398992002746, -0.04648917530890863, -0.04251348180872476, -0.017296521560630534, -0.012989618532457678, -0.00014462625802326383, 0.005854166749757703, 0.07813631969255772, -0.008598341357781744, 0.02530574081863991, -0.1119377721253387, -0.23326688710240617, -0.2245842446767709, -0.20710509885779987, -0.05254090309922446, 0.061066834563239636, 0.0470430545517249, -0.10340571983895404, -0.04475955315679976, -0.024353130327445596, -0.00402494169779965, -0.06085150863714558, -0.030161199338609904, -0.026713592151346933, -0.024721568240882823, -0.02965261831550041, 0.03800404269622288, 0.041555457675609156, 0.020372207698108307, -0.060766918367992945, -0.04625163525368417, -0.055775651011684045, -0.01530055963318041, 0.0006685170149055157, -0.0007655257433873269, 0.08937139377412417, -0.11378232445374917, -0.08427807988050379, -0.11602937934877383, -0.16442096226863254, -0.1340515499077959, 0.006545078542676478, 0.06734023904549141, 0.1374376021497404, 0.02511004873718869, -0.03950285812889364, -0.03179956018515223, 0.0018844193868318767, 0.010824651584006873, -0.013345083250014737, 0.03582950390408871, -0.03153596366466673, 0.005186678667874155, 0.0420358905720177, -0.00654946699298574, 0.01061835475958524, -0.06753170800562612, 0.028817373887469216, 0.009238884784636445, -0.12910541535674633, -0.059681059069210986, -4.605710484563072e-05, -0.0031753590610436974, 0.12146911280275535, -0.023994929011523693, -0.03626541108561429, -0.008834310297948275, -0.018564661992451822, -0.03993686650966259, 0.04176995191219566, 0.029701196010429993, 0.07820388846109215, -0.04266471705100219, -0.0411990497379108, -0.031966186984031815, -0.019103228803584962, -0.02172313441799914, -0.009855684026937959, -0.032140434019804424, 0.013245957966418713, -0.012963252002756187, 0.047158500871502085, 0.03107798078066089, 0.011109048027220491, -0.1336083463777985, -0.05646917543232746, -0.06379892312179185, -0.093408350086228, -0.05065853141987178, -0.0007468050847283256, 0.010508604664275686, 0.08509708790037873, -0.007980208838981715, -0.08031400881407573, 0.015796399986675067, 0.05134358653758962, 0.024973981126209348, 0.091106791560445, -0.0318745809655294, -0.07042734844056012, -0.10963042876530775, -0.027050736243899063, -0.021729640400120473, -0.030388940858747764, 0.00699369087197412, -0.035304484975634216, 0.01555734477655928, -0.029894344181656336, 0.024344646371965428, -0.09293400158171534, 0.0814619315351032, -0.13122166630644336, -0.09805716241025281, -0.0372872913068798, -0.055671155402531605, 0.05992642473480641, -0.001080374822058298, -0.0003757194975785241, 0.012237246712945508, 0.09500710947359038, -0.05803585511723053, 0.014073505061426883, -0.019852086480889878, 0.100321208916616, 0.025139590150044494, 0.03845652209482264, -0.015292361164748898, -0.008444260295243533, -0.04946986980707146, -0.059191923674159014, 0.12127032960561643, 0.10525511029927218, 0.019672423562363255, 0.055506072109062395, 0.0443145067495404, -0.032685785245062694, 0.006195483091991853, -0.03242916243494047, -0.018318980224338217, 0.013290784659757512, -0.014751997473784159, -0.005085767825094377, 0.06665713713830097, 0.0229674106629213, 0.0026411269450554537, -0.000799402190179268, 0.0007949508035859681, 0.06719465169366938, 3.557843498809011e-05, -0.10168480398347644, 0.029824552268730885, 0.07466068463345293, 0.12247279186550278, 0.04649199603562429, 0.046347503587851176, -0.024966639908929434, -0.03089206197381756, -0.06893503217803544, -0.011994072422854024, 0.08766378578069019, 0.05343737740426127, 0.060250522612141345, 0.061041987364691866, 0.035823037992296886, 0.005763768188179345, -0.027346835273301937, 0.059984585932182484, -0.00742577100826149, -0.07422267806754416, -0.03720051967393824, -0.018429647931919875, -0.009188976174590321, 0.0066336381616241115, -0.00020598006815537254, -0.0005076662691725282, 0.015071506374776129, 0.012063035920589231, 0.028665506042720196, 0.08499556863545539, 0.09526628758551375, 0.06999522759781937, 0.014092366746249791, -0.006895281564897518, -0.026526870683878042, -0.02885752485701437, 0.032865568771073383, -0.022955945719884328, -0.007475164153689104, 0.04742811631007179, 0.10341427967701335, 0.03555538571323498, 0.014378719212254407, 0.049372333138584704, -0.01724477025901649, -0.06947571655015819, -0.038133677738363805, 0.024272859008574524, 0.014942857377636171, -0.015075182338605669, -0.01911875033181962, 0.00011148707801266154, -0.0008599946882577503, -9.265573802216497e-05, -0.009122227214322398, -0.007530597074879431, -0.02022696672705782, 0.08571334282066165, 0.019153178422517098, 0.05748668405325671, -0.04865851535821198, 0.023828533683028133, -0.02069872515668425, 0.03868240110908676, -0.019316563467139926, -0.021210714290426303, -0.05722265018195013, 0.019622505840648608, 0.054542780853990405, 0.006910718776539605, 0.011627375572748599, -0.11712396353254319, -0.0009766048106343698, 0.00886097170410446, -0.04288223330069063, 0.013649603917207598, 0.06299552465075031, 0.04799420443693947, 0.001790249534433566, 0.00016274822776749144, -3.443106073722924e-05, -0.00032757588644149153, 0.0022445647845816077, 0.0008688072447965894, -0.0046523519459655705, 0.01992277457296492, 0.008560533731828102, -0.016354587402739446, 0.02392239682089552, -0.15374094013445774, 0.000424264853509139, 0.05625202996967328, 0.014224251028666073, 0.001197824164788343, 0.004700588034753868, 0.04282439315918028, 0.09238591250657384, 0.02224471750941609, -0.13489997442358725, -0.020386780886948386, -0.08464686537931611, -0.12341214067038843, -0.024295145569170073, -0.040911752438912374, 0.023945990511088932, 0.0018557599173282026, 0.004252235735086861, -0.0005353418972597221, 2.3634413932125434e-05, -0.00011394724621335552, 7.764892523829913e-05, 0.001126515357093253, 0.03948719259206313, 0.018150845465539515, 0.036653783907126015, 0.10047396449272697, -0.015841667311498366, 0.013564977604245177, 0.14978222467676303, -0.1054330565139111, 0.01726597802991973, -0.0636179088643159, -0.05158405743260416, 0.016064164865407404, 0.041482167076298516, -0.03968773041330492, -0.10584269544559755, -0.032067453613854914, 0.04812281597674743, -0.039534957692204116, 0.08587913806442914, -0.022212027388081593, -0.00020343817284285978, -0.0009689812731657774, -0.0001457683161393562, -0.00043558775868610957, -9.656042672032625e-05, 0.000518235943298976, -4.609232565455511e-05, -7.925723723484434e-05, 0.005563080501567336, 0.0033632610757999516, -0.05268028269837912, -0.022816254238038385, 0.0030493365287352107, -0.03799405865675215, 0.06992611080879449, 0.054609320771374044, 0.04478665372499831, 0.033696166134013425, -0.014086999689480297, -0.02371716279742336, 0.037374867079470526, 0.0057035777697948525, -0.03649200857788506, -0.017287817888640332, -0.09989422960772146, -0.011022352652521753, 0.01969680156536782, -0.0005358688916556514, -0.0006182589383635386, -0.0008178078004805746, -0.0005645863702982404, 0.0001365531805924022], [0.00033590772519585094, -0.00029373725181602894, -5.315510021768928e-05, 0.0006139143600480029, 0.0006210985966685158, -0.00021224328100154677, 0.0008680525617408032, 0.0001937760237922049, -0.00022239873737158478, 0.00015783127497026914, 0.0004890318671458913, 0.0004390230159574471, 0.022707457630106773, 0.03884176352097855, -0.01318989107301144, -0.0001255803720126308, -8.216611609359082e-05, -0.0004912959210443504, 0.00016082439443879516, -0.0002575645722003277, -2.051087242531011e-05, 0.0003896312328904224, -0.0003353172748491184, -0.00031742412378081737, -0.0001522608115761019, -0.0001311304194514116, 4.8934205085110985e-05, -0.00037909182148739495, -0.0006758481061338749, 0.0007439561898846894, 8.534382879283587e-05, 0.001111574100456462, 0.00032140486527698164, 0.0005301156483412472, 0.017583912886869623, 0.02722710819109169, 0.05478635883237909, -0.008972785646211125, -0.011439526423801591, 0.0414181708308986, -0.01362415994767821, 0.015379258495249118, -0.026002775706353072, -0.008437060787826788, 0.022848091776667922, -0.05104206137997638, 0.0003901257783302815, 0.01845367391430445, 0.02089583933614481, -0.002634006885901419, 0.003340847453768218, -0.005077704359160446, -0.00019432901006573194, 0.001104235638075449, -0.0006371452194262417, 0.0005492435055414478, 0.0005677240542110361, -0.00017966271452363433, 0.003077209465153226, 0.003916463281767774, 0.012092686952004689, 0.0017101402533206802, 0.015948642047021323, 0.023071079907233887, 0.07376554959408926, -0.038520505658280385, -0.042502822919877184, 0.04923856502014871, -0.04570114475587259, -0.03941525265592224, 0.011521484810555262, -0.07775913199742139, -0.015039356866242564, 0.018684235465718065, -0.011240125437393018, -0.04537758602250546, -0.019536785303138467, -0.03952320037159072, -0.010415596975864283, 0.041200683676674316, 0.012308611446767556, -0.004486630258575069, -0.00042672856682074634, -0.0005309350249503139, -8.942708390206036e-05, 0.0002140405873814843, 0.004834764866841071, 0.008322003401776069, 0.001624667950545154, 0.0036725729090337843, -0.03031349412035689, -0.03844224028084126, 0.0032036506041348035, -0.028452934331072058, -0.11895103849719937, -0.01271576174040672, -0.02932360727613531, 0.0024706502814152167, 0.03963912322333277, -0.03494326030943682, 0.04905877570180064, 0.04645231496446964, -0.0026282851337718115, -0.03961792716420398, -0.046696687878060215, -0.00411905998836895, 0.0827287483415712, 0.022424989070462035, -0.07388672581391294, -0.010665661742620184, 0.0019982920760982614, -0.0005465055853242497, 0.00011640140046967665, -0.005514152851528724, 0.004545166095568777, 0.01793250262356569, 0.053988917035898046, 0.01345788825641148, -0.04990019377668817, 0.008775593514258889, -0.06914700017114113, -0.019206936202511717, -0.013512373393490209, 0.05818586466299567, 0.007227860314798988, -0.0029575609737002772, 0.05410994360031544, 0.011368028577462478, 0.02014698671747317, 0.053707128879436926, 0.03063200505921499, -0.02247030877024898, -0.0460427879676738, 0.06101153512828894, 0.04433937600127368, 0.03608526371448689, -0.03754250089005881, -0.040336229752076354, -0.02774311835480051, -9.421735497372416e-05, 2.3067144212079288e-05, 0.0002916199020269519, -0.010497671989074244, 0.039082569333953925, 0.002764873744223022, -0.037295007661070426, -0.13013912662963917, 0.02408149106306714, -0.050424045230780735, 0.009274487965851699, 0.0457318110337532, 0.1181882207292194, 0.12438818290282404, 0.064700700168357, 0.027910991681346056, 0.09519296412549706, 0.05557350385456813, 0.03574493846674937, -0.01720997341392941, -0.010591610526663641, -0.000180955892771678, -0.06304104009823998, -0.024703306501401234, 0.03216805276478486, 0.027826836935376954, 0.02300150304648335, 0.01473466771012952, -0.0020871817605049854, -0.0011940958756945159, 0.00046648777593743135, 0.012004922844985373, 0.02921581238635195, 0.004420859507216619, -0.012089261064092418, -0.02327390231013821, 0.01895828584368626, -0.05010672149378574, -0.027121032633149994, 0.08050634344541031, 0.0963502391545515, 0.1563354010957793, 0.04089198526345893, 0.08911205669523545, 0.0008385026089842038, -0.005431274841075553, 0.04016463943533814, -0.004936608142470482, -0.0023271110662420563, -0.021291939562538414, 0.01694157902179086, -0.06897721043988013, 0.05596983917719776, 0.21952220211353266, 0.019898894698251863, 0.10694635975711346, 0.0034283999548377114, 0.0008339871329067946, 0.024259232200760258, 0.01816843929826613, -0.06624441359792055, -0.12241857128712337, -0.08046282911818362, -0.043216002044575125, -0.06918030490227207, 0.012424313623070317, 0.017923123630416322, 0.040595504954297014, 0.12049361366255906, 0.034078193481350924, 0.0033047299429432605, 0.0220991305873598, -0.002648509911949653, -0.010833728688407044, 0.0287604452076204, -0.07024038017101092, 0.03520517140744085, 0.04256222244522788, 0.039238390994608234, 0.022338170375202984, -0.008644693926645406, 0.2787112005038472, 0.19445215828250867, 0.014746026759563888, -0.025615853443907766, 0.0024765447614252547, 0.05088629091456642, -0.049761140678731906, -0.12461859632675164, -0.00028706912838786185, -0.09299758881128978, 0.02694641330577097, -0.03885325332153576, -0.017106673158416387, 0.009534589405942725, 0.08007748902138369, 0.047963817361480275, -0.01487239655309441, 0.0026475964937320985, 0.037015852961207414, 0.04075317124208609, 0.07018448228893603, -0.012354129552054173, -0.03735589827496214, 0.03598743404037606, 0.03830664600557403, 0.017505519658093594, 0.057458115588307955, 0.09151451291534302, 0.24693028746516033, 0.18205243339162888, 0.03102470606433708, 0.02029596892980561, 0.0030637890860567, 0.0347310424614201, -0.04908178707128683, -0.16145242468476173, -0.19512538026397852, -0.11413750041992778, -0.06852219231827673, -0.03364932474405028, -0.0211085886401412, 0.023693201574546005, 0.04140367815152167, 0.03326913511513514, -0.0013156886455835432, 0.03559148374295696, 0.18183756980041285, 0.10588886360921232, 0.07691367363338995, 0.02859361190621785, -0.057284160589382294, 0.013174132488218759, 0.05066625764401379, 0.06472898264240867, 0.03041991222525851, -0.008319263628058116, -0.07937207034328374, 0.05846160197199909, -0.05958638875143724, -0.002194471588812514, 0.007895334820836847, 0.01906932988734724, 0.04999549315920865, -0.06781971131841165, -0.20656509565999018, -0.09870205877827254, -0.025638587681523304, 0.015750057708499667, -0.0035345810761414505, 0.060653019875673994, -0.06125162309342212, -0.055939902407288467, 0.053703540431724796, 0.032472701368609067, 0.10723842312091968, 0.1653488635647725, 0.048656632542673314, -0.026318879349864058, -0.012410610600987436, -0.0140157063555531, 0.027547254127392482, 0.017345756499771773, -0.04170365176317357, -0.026814432859411146, -0.14958682965641726, 0.023390525301585398, -0.0299225143864253, -0.0011129958172370934, -0.011258217482111123, 0.009993798531096741, 0.017230513767685838, -0.05199151274512028, -0.05825774691959454, -0.06760224991574502, -0.11244483174739912, 0.025547861816003537, 0.026999758879479432, 0.003464913676442138, -0.08080544220423347, 0.015826212939331424, 0.0060424933066073536, 0.06369023537217781, 0.1484267071539162, 0.07574088897454581, 0.015005473038096212, -0.05643236479940712, -0.027458617185471282, 0.00475324485533013, 0.05360160817425585, 0.006684441481999103, -0.08557395289877004, -0.18959119548076375, -0.16766399736699295, -0.02564574983188466, -0.08431282328380056, 0.0012656748947098221, -0.00100053806142309, 0.010957881365880709, 0.009766148979259096, -0.07266533102644597, -0.03901308806014994, -0.025946037353407905, 0.027347824107831004, -0.018221153380105687, 0.006802993772196221, -0.0025441184345713053, -0.01358874045712931, -0.0035760350709332853, 0.02447516730592254, 0.029008031711267653, 0.06141379341301664, 0.0923863618860109, -0.033357741657760724, 0.04371781062505424, 0.06877185192737413, 0.08200356726979285, 0.04517090302277157, 0.021604017428582797, -0.0648739627949561, 0.0007290261750066423, 0.009205718364339087, 0.0016491212416797562, 0.07308672440681825, 0.009240228619378399, 0.00037154336356423314, 0.03805926340007649, 0.042335705709431334, -0.001056650013093965, 0.008531894624983171, 0.03221972309047592, 0.06490695309301357, 0.05340813266029606, 0.034682655126019854, 0.03451935648398783, -0.025736524521162832, -0.010125329496299672, -0.06812416743216723, 0.04938471260562506, 0.016155473172343084, 0.026077973918762598, -0.03922604284452917, -0.008941197953331616, 0.11487687382183233, 0.2293124668930088, 0.09848155974653838, -0.08370054324601227, -0.09925261408574777, -0.06962843253106252, -0.07150544779841163, -0.037729878847284216, 0.041028658818112525, -0.0037942271335204927, 0.009077915722722563, 0.01465559389207217, 0.07162541020427758, 0.05770382790005535, -0.009203611181600641, -0.11330602868033317, 0.02904723525274905, -0.0429222048977819, 0.027048137061818554, 0.0038275516922512166, 0.003570137730311954, -0.015906026288504634, 0.014798751549166295, 0.03581729717170284, 0.00011185914421383151, -0.15004575982993879, -0.12295740105180551, 0.03617765290542713, 0.21464187977832966, 0.13501498442109217, 0.03970566648569045, -0.16014060936281146, -0.10242035446093077, -0.02460501237357918, 0.11304972445677725, -0.06268178745924641, -0.006062964377835937, -0.003934650173724923, 0.0027116580796718464, -0.011431026115792836, 0.05041198313531157, 0.01541325239900122, -0.17462793494003676, 0.006775032493552654, 0.0167869561120936, 0.002718595810238013, 0.07175441417493839, 0.06863643026056371, 0.03437113265772887, 0.020332687292693108, 0.0077354716892842216, -0.040434490932508636, -0.14693689483599276, -0.3362618210174595, -0.1707160990332547, 0.08517784368259733, 0.13169091449889406, -0.08558774714571274, -0.23511205563183699, -0.34693171136732726, -0.16843214124165448, -0.112078843704859, 0.11900440404045037, -0.058894261002836554, 0.013017974411991472, 0.005225573667418369, -2.0908373035760905e-05, -0.01163120651187116, 0.06309386035532995, 0.04788704678626551, 0.004282405328429329, 0.07165235900996927, 0.08103097163461141, 0.022840054398741757, 0.06467466847727299, 0.07768259346343519, 0.07695709571745152, 0.04921611852108711, -0.007691437888169613, -0.07363904814121497, -0.2399984887679318, -0.28200669727417554, 0.07913732308640956, 0.21372513034146545, 0.032956957200388874, -0.3568136050779772, -0.44209252057006165, -0.42020919229563736, -0.2506603648536223, -0.03774693714342731, 0.06920119782980216, 0.014963939000830371, -0.0019683313365920886, 0.009373293112035675, -0.0004252343392717068, -0.010392378871202309, 0.058574216409237156, -0.08918439903623372, -0.010178346045606275, 0.08337494102105784, 0.07807294412066192, 0.04889188180737536, 0.004654987548869007, 0.03810869346523634, 0.09396836495754639, -0.004088527261699792, 0.059314471014880764, -0.05866712022752535, -0.2039745882431629, -0.044677957476149444, 0.5088226098378491, 0.4199485331146085, -0.08105036697891486, -0.39269134786469906, -0.4944648693405061, -0.4029810992019405, -0.20950149824342568, 0.03432272482307013, 0.0351034804059378, -0.04531478667202352, -0.0730512032400656, 0.012560137326987516, -0.001465499042357177, -0.009429647144197072, 0.005178591562881582, -0.11966194507911346, -0.0003092913461047353, 0.1174418266627035, 0.13653392643630116, 0.08155951691147151, 0.0835060909209847, -0.0017598272246592307, -0.07123948680808796, -0.006123173809862298, -0.02607222625696669, -0.08562255931327968, -0.2590708731954462, 0.1252164996233529, 0.6396375006649648, 0.43499496571595775, -0.011296110832802108, -0.519348918525731, -0.3899153266287411, -0.4498166288437731, -0.0817220075544184, 0.04418419959343429, -0.032239148942503806, -0.026331361128477806, -0.11966657711438893, 0.005282335326064862, 0.0005305167931643217, -0.009043522391857153, -0.012106641836151089, -0.0601140353013625, 0.07824761425725352, 0.08388019093700232, 0.18926902426290731, 0.13742103956563598, 0.000570488580202021, -0.11806970732738685, -0.09253325348828426, -0.10783050995327993, -0.04016299481169365, -0.11695535056865024, -0.24748238366858819, 0.14233424675942016, 0.5428285096255951, 0.4219368881840822, 0.16601466750335414, -0.340360921897799, -0.2917586351196371, -0.32715156325023304, 0.02459439237792977, 0.06876999457680423, -0.06549471914349494, 0.02718600464926744, -0.054352543642443525, -0.012608243272794532, 0.0003791928388938396, -0.021890291763564947, 0.015417620651126986, -0.007632889110830244, 0.004057075111124306, 0.10390800763689059, 0.1497757754025919, 0.0240547348991351, -0.0013490436323443421, -0.11892808444323853, -0.1055549171621185, -0.17016694635055526, -0.04344481140578499, -0.1334625097679472, -0.22207722228313903, 0.03687437161733834, 0.3651088126117639, 0.41216413448325045, 0.1064326627186478, -0.029020654487393428, -0.1412293236957595, -0.026968876941357016, 0.04596345108896727, 0.012427489080830158, 0.07374793919331236, -0.004164075916835176, 0.0024530777780997015, -0.0016993042729357916, -0.001209619545334473, -0.01608582807696283, -0.015530972993138475, 0.022979282825561803, -0.04734875887140044, -0.05635663978755567, 0.0584449663033382, 0.11516924990689215, 0.021572300576819223, -0.11627294069649105, -0.08294683222049559, 0.02093323847421875, -0.06304602892507083, 0.023627324501947336, -0.10838132936016727, 0.03968097552770491, 0.21021258041378, 0.28645830381161125, 0.07839407833276561, -0.016553802343076737, 0.05932996848192624, 0.089694711282823, 0.21391350502085701, 0.07845548289817178, 0.08403624209563784, 0.0190484309807904, 0.036095143704097186, 8.413933857379513e-05, -0.0004648648167287592, -0.0012962552353637652, -0.027049983236153534, -0.01745519008222789, 0.033151398497010064, -0.008044948415378287, 0.07238181323533592, -0.04189639259244399, -0.04676209493241257, -0.099081220236035, -0.03887096590090639, -0.025681450759631734, 0.06224452365398793, -0.009377150936941542, -0.005707822621377826, -0.00025638233542928714, 0.12922192795928084, 0.05674755396220714, 0.054033470787260784, 0.021799004994091115, 0.15463675660999496, 0.09500348707637297, 0.06786268440613151, -0.03097916130758963, 0.014901456825435833, -0.00936815918161178, -0.007561487371229056, 0.0006917213650318466, -0.0003529418843819821, -0.00020957569057417834, -0.01979545798858522, 0.009067841626568379, 6.518623409863736e-05, -0.051241885881447374, -0.03079705626251919, -0.10146839710588536, -0.03471560587505333, -0.07025652349243257, -0.11892392920060252, -0.06312060846759664, 0.09381907143894347, 0.0628220279415256, 0.005646144958142042, -0.06744135496858626, -0.0190136051531606, -0.06866044395887232, -0.029817123108161928, 0.06917024513173392, 0.08144621659857429, 0.0429010556663204, -0.0162339616570432, -0.027212050742119548, -0.04306836893871837, -0.02142463731244312, -0.014709882926505151, -8.243138244214455e-05, -2.2939829550923086e-05, 0.0008119068959506972, -0.034908264323628424, 0.007185708094305957, 0.05045390309624363, -0.011435503186784988, -0.0025679202049043413, -0.030200267902508418, -0.09630475233032532, -0.07538438297364995, -0.1779351514303535, -0.1239694420115686, -0.14812484966337333, 0.016163354082920117, -0.04062405267617824, -0.12136620026000082, -0.05389443922772408, -0.10988966390166188, -0.015059426205214478, 0.13840716314531, -0.02010659529369383, -0.08037640789548077, 0.017423096816383776, 0.10796462024487002, -0.041110505169393075, -0.03114237591557738, -0.004723081566595067, -0.0006300895657989278, 0.00023592026823763556, -0.00039042029623394774, -0.004849900352301322, -0.009195912754700027, 0.01609694236769873, 0.03698464559425775, 0.030183577159272907, -0.09079300856589437, -0.013593940998195891, 0.040294675839712864, -0.10840631139517397, -0.23634959834968003, -0.01834831472823396, 0.04764181126600308, -0.12163834592264251, -0.059043447115146225, -0.2198777241096812, -0.2015654558276012, 0.004125051761051364, -0.023969950357940473, -0.03463924053149007, -0.03511829754734239, 0.03331347420691414, 0.019456863484731482, 0.016499345056448202, -0.003946846801343513, -0.005161439274119728, 0.0002458150914278861, -0.0006463165344773768, -3.033220842709364e-06, 0.0010163314459135223, 0.0007354135632375758, 0.011174391828829065, 0.006056175699456523, -0.075637339207465, -0.0679810207437722, 0.03073708273529988, 0.014160849270156019, -0.10422481253264226, -0.07969667796729193, 0.08750749467049788, -0.026591334368197217, 0.014436478042574726, -0.055296040985113815, -0.1400619379072857, -0.09026007753903376, -0.054629177947929985, 0.06353593453976833, -0.06857129881574277, 0.01606434262963093, 0.004369043304967687, 0.0070343939834819555, 0.0007315848429532775, -0.0018930809039387107, -0.00034227031059301494, 0.00039712055690049755, 9.839805966788587e-05, 3.607560383470363e-05, -0.0007762591707801694, -0.0006595691504472439, -0.006406794124156084, -0.04081209274899657, -0.023270783994191736, -0.003322541362243957, 0.021012324270914956, 0.009889693510648261, -0.05960323473106575, -0.06814110096563886, -0.0772497713916089, -0.14411207035565318, -0.07833306817517004, -0.0322782172556454, -0.05690163710713846, -0.025721298537231194, -0.04518479533660471, 0.012315872629679448, 0.009485090585488735, 0.0006327894715253221, -0.021123323003264062, -0.004782353244319745, -0.00021644709238212995, -2.3670691180026715e-05, 0.0003866623622277846, -0.0005559205538098211], [-0.0001450140504972462, 0.0006222987590070248, -0.000561550493910132, 0.00015153476545473878, 8.044761835269618e-05, 0.0003945607918836687, -0.0009328070448179002, 0.0003285826734150416, -7.419084505218234e-05, -0.0010914794242392614, -0.0006870983169496755, -0.0007165687416510086, 0.0019363653945870087, 0.004399006040965722, 0.0029594007848611236, -0.0005020103983767974, -9.984199886665071e-05, -0.0010667312776513292, -0.000516314862690002, -0.000556009284010639, -0.0007624717102816352, -0.00036623078731337166, 0.0003708055210265647, -1.560740079284481e-05, -0.0005402276666511955, -0.0005119870410529331, -0.00026970737471663803, 0.0004925227043125716, -0.0009796246315104957, -0.0006765681790112364, 0.0005523725993550637, 0.000528021239415235, 0.0001748650056126518, 0.0007152729104932542, 0.00320399576973997, 0.008652913166285211, 0.0061389605577519945, 0.000602401154107123, 0.009670816557346737, 0.01561770096845778, 0.01237580137490845, 0.01878877190761172, 0.014784622271917342, 0.015309668384565555, 0.005031477434304969, 0.009551394797704569, 0.004502922729713806, 0.01761837034730697, 0.014280964838057362, 0.0019324628018475003, -0.0008739208396928691, -0.0024741500303284507, 0.0006365501678569168, 8.605914770635618e-05, -0.0007935781108566896, 0.0005359946393609786, 0.0003003348792009107, -0.0002483294831739159, -0.000643019899965752, -0.0002060041185544011, 0.0017540887744533153, 0.0015677569406483904, 0.0034852546708280716, 0.007240426506665457, 0.01349717573041493, 0.018548010024186917, 0.025117609134656025, -0.025613134836642803, -0.040072837001671434, -0.046168642845883234, -0.05137002528647788, -0.05683525987085223, -0.13461392901421435, -0.16993032806793756, -0.09613173356658854, 0.01410773819622771, 0.003772748847884268, -0.01477174009902185, -0.0018681466572356066, 0.006659729330873507, -0.003453940083706841, -0.0022032661084646007, 0.00038750689239537214, -0.0007636470836821306, 0.00048673030601267326, 8.812370181837183e-05, -0.0015374129169092453, 0.0001623077165576549, -0.0018281829289615841, 0.00013419627442074852, -0.010709871567606047, -0.0165176184090316, 0.0032729239163899536, 0.05194278469736589, 0.07140874861507536, 0.017233528816534102, -0.017052412910446506, -0.04558538332347751, -0.09640268510832013, -0.16630499674481689, -0.11174955129063607, -0.11103385387661019, -0.005575938072097649, -0.06651369333930769, -0.07407760163181663, -0.026684385086465572, -0.010385321023573714, 0.004964082643574896, -0.005969489237944314, -0.002654294087043459, -9.928679569985236e-05, -0.0006129050580513924, -5.741234376587655e-05, -7.643463923349558e-05, -0.0007099831852110427, 0.0009785759709953629, -0.0023224478313013087, -0.007212250193923276, 0.029303603212966496, 0.11583654633747506, 0.1635284426114045, 0.17810087439121097, 0.13229111253220696, 0.005747092481777221, -0.0301488429905809, 0.014858997431658402, -0.08084165496831601, -0.2531129091655986, -0.2969289189924805, -0.08358749883557345, 0.11959957339490344, 0.00024680708099322573, -0.20915047461233066, -0.14058915345737827, -0.022253525543044442, 0.028912339688973436, 0.030519811591098765, -0.007740841534552845, -0.00035854895934397084, -0.0014037910862926817, 0.0004084472342390204, -0.00039527136332627113, -0.0010350787952040491, -0.0030599300269449387, -0.030720984412860475, -0.04301106208587264, -0.007193342391819376, 0.090719488129705, 0.027190823310389547, 0.017517085007678675, 0.04138636526064907, 0.014086585502919307, 0.017510332557239775, 0.13408395871442366, -0.013614847982180786, -0.36086999094461486, -0.5497658911390348, -0.191054869057769, 0.17505661976601009, 0.3331997761756614, 0.31358379561257105, 0.16965826168308965, 0.17185947068691962, 0.07218005752365082, -0.01778487049151912, -0.02812149227095335, -0.010922984714918652, -0.0016595048199538579, -0.0002917308375119913, 0.0010387300373956563, 0.0032557316211756543, 0.0013054245373189885, -0.03146069978796107, -0.013715571630240073, -0.051087551011085815, -0.07632150184524802, -0.1835286418422167, -0.09506892062365818, 0.0863112434829954, 0.00982710006429791, 0.10509268286161119, 0.17319438618226113, 0.05037873485511904, -0.34941398684495995, -0.513158866860279, -0.07370478817692447, 0.2235688342602827, 0.3309927202582958, 0.24078900265140205, 0.04653268194821787, 0.01170154150329515, -0.037681629084193674, -0.10699343241405557, -0.0926016287916266, -0.06347917575864694, -0.0011213709044175686, -0.0004041363881479571, 0.001215967335439954, 0.004234857207103497, 0.007487472128615132, -0.01102038117519653, 0.029839507594483346, -0.21535557539796032, -0.39588072632589283, -0.2585152012251139, -0.1630187171416595, -0.1519931656143055, -0.1148701421056425, -0.017405733500621436, 0.2730016532341163, 0.46674029891338525, 0.006890881485447865, -0.40913174267803765, -0.004240094427084472, 0.2690246388278005, 0.14898014380424093, -0.13605722803508194, -0.494918704912781, -0.3365651601526958, -0.2771608606336359, -0.11149893151463423, -0.10353472025690479, -0.02902667195655243, 0.00016698409767868346, 7.47412085715219e-05, -0.009140340022327017, -0.005553317485799264, 0.007872068567395177, 0.047315324594929056, 0.05579585108978962, -0.19112794590090904, -0.276914037347002, -0.24872662810149174, -0.09217002562180661, -0.058587901940747394, -0.2163854203556083, -0.22833849414201227, 0.1273975344871604, 0.44287927248420644, 0.19050104081708288, -0.25718536157037925, -0.024660135940661233, 0.17408678967673, 0.05757149830011954, -0.3736481917507318, -0.6322722824452892, -0.35388560893170046, -0.20135570010149012, -0.04870466807751295, -0.04091757552203737, -0.01152922958858306, 0.0003650572846114632, 0.0010355775532556238, -0.005857914161155762, 0.0051710654426942665, -0.018406801669028004, 0.04283866375004974, 0.10566852019602188, 0.007665904449073433, 0.005401212328767121, -0.012090588920186987, 0.15090907375346133, 0.10987776714388371, -0.25025760225393623, -0.3065248310156966, -0.032710106925972475, 0.3653195540723778, 0.1429801472750479, -0.2046089051199599, -0.04827242533667424, 0.2687908628674909, 0.25910049073432495, -0.142179001930094, -0.16706121720753164, 0.07197955385239711, 0.16431026276686378, 0.05714455846506468, 0.04139332010487973, 0.020707045807394745, -0.0017076444280004536, 0.00026857652295873667, -0.012013060438598119, -0.027755583348444905, -0.04565309910098353, -0.0476969129479998, 0.058289255073607035, 0.0528849647805058, 0.035973642938565246, 0.14807906452650668, 0.2181429831373487, 0.11474164952719464, -0.24537056038651076, -0.22480097024171675, -0.03405744251493116, 0.272897564512518, 0.0831917851123288, -0.15924821540190984, 0.04145790724812401, 0.2314094343632785, 0.21584962462234591, 0.2427301676342966, 0.351443575526472, 0.33694720657831717, 0.22519406662980337, 0.012169311620561092, 0.07427102147944724, 0.02667114166841518, -0.00046240561881449616, -0.003746824927308387, -0.015089662532516757, -0.039197221178369455, -0.06342082297987782, -0.08242591059302135, 0.0678540900938068, -0.03263321522739038, -0.09737444321733757, -0.06355547730435297, 0.01350320213786278, 0.039998485154572744, 0.008141804662204743, 0.08278113101013716, 0.07032694380980029, 0.17003183885810536, 0.0581008597636363, -0.134347880109587, -0.01014233250444659, 0.05692387609948043, 0.18306440543858943, 0.27647164473022223, 0.3513455912378244, 0.3349487163134433, 0.1845836886982294, -0.08906094073363889, 0.009034986125748112, 0.010210544559783647, 0.0008669001584465048, -0.00034520887329420453, -0.001789928788242391, -0.01759490072453209, -0.03687957029410396, 0.023715436864183922, 0.14493547664928425, -0.0691754650605244, -0.1977896702923855, -0.3784019440026102, -0.09161833898819088, 0.05535450687639002, 0.2608587122140683, 0.022851013505754136, -0.08946940892695499, -0.06980038039765783, 0.09599688947301119, -0.06274280650883467, -0.17523791267633837, -0.24437735510150096, 0.0966734099438075, 0.1768854673963674, 0.35543961409653807, 0.3402830735975585, 0.13255758156800596, -0.03491361104565936, -0.011939752087696324, 0.012316484441572607, 0.005344117896270332, -0.0007899944958097413, -0.0008381654981445904, 0.0021290750152080187, -0.03436340627039765, 0.05598339702018085, 0.10607859062361515, -0.009138377379194514, -0.33315410839389187, -0.36077758159112766, -0.016850630560854694, 0.11065859363226455, 0.11105563813120121, -0.10265665578235618, -0.4566474803251968, -0.09031359277380913, 0.22480172467882906, 0.09638932506401919, -0.14444745715220808, -0.09870311382429013, -0.022705160902045537, 0.06395311155970881, 0.1835300608780706, 0.2912603427563547, 0.11605084463517626, 0.04537792107761683, -0.03738268133614446, -0.005599976288579844, 0.0017620838246050245, 0.0010915200690455923, 0.002074528778958862, 0.000470337403771362, -0.013505508454894736, 0.0633300184172982, 0.11548602598495541, 0.1496149516414544, -0.2285330021748146, -0.29994805658825086, 0.029429622614086562, 0.2783138461732232, -0.045107353184672204, -0.291349626129748, -0.43740406252661895, -0.010480294220379332, 0.34051073452547587, 0.323791813269766, 0.13186827597982612, 0.05884641582043182, -0.033489933229359004, -0.13915039532425735, 0.021590441003343116, 0.12840395058290094, 0.08251113121808133, 0.104732915934601, -0.02493731954833238, -0.03187270752465613, -0.0007252201630945763, -0.0006217671499769222, 0.0027756461933543084, 0.0005415581486204405, 0.004576045060591967, 0.00716801667909081, 0.1961431478983652, 0.211617163154731, -0.05884392173088444, -0.02355509944209532, 0.21821613024450567, 0.41283888512118194, 0.19200961656534965, -0.1259644370096126, -0.10640928667234109, 0.03604389031428259, 0.21230675694303316, 0.021290421634687785, 0.12162827294812076, 0.3376517027684012, 0.016652220790072718, -0.2815143876148761, -0.22564269306498563, -0.003709039478196573, 0.08868578767905905, 0.11702755657198916, -0.024765525464067364, -0.04402261231651251, -0.0023700385841643142, 0.0005015871670907098, 0.0013067522466335276, -0.006433032026523765, -0.026404705330711608, -0.06605758878879156, 0.20390432656438645, 0.16859932896310018, 0.05992347568663483, 0.06416808221678236, 0.2893410775371869, 0.20331420748195717, 0.07502906411327559, 0.039224052963255464, 0.0385275116582347, -0.059281222483420846, -0.40837007428532696, -0.3754230400399048, 0.01107325131858648, 0.31745694595109714, 0.12583010109902634, -0.4380988943796048, -0.4838786319819405, -0.2502168607061714, -0.027425893479964582, 0.022852528419415794, -0.02851846155457667, -0.03691359774677322, -0.0030982806429273235, 0.000478771211345812, 0.00022262165580510103, -0.007737195381946993, -0.07170442965929495, -0.06289234053723355, 0.13457213415421942, 0.1843990891915743, -0.053570671437719014, -0.056908842254794034, 0.0002768798009971273, -0.018200756700462985, -0.022921686961618632, 0.019048338863298032, 0.048585365302080234, -0.1258963416546547, -0.5052189724206637, -0.40896749062194476, -0.05083276434327498, 0.3039148508593854, 0.18336417381870407, -0.32883547616596803, -0.38466388373642296, -0.26003277899637184, -0.07996341945586555, 0.012743629385382397, -0.023087420408803433, -0.021614805288453116, 0.0026300577576043706, -0.0007653607404392255, -0.0007880289267306337, -0.006565760605788029, -0.08202270824666079, -0.04681610295484135, 0.10342902300402618, 0.17788604744508732, -0.055373658336817705, -0.19925780593346187, -0.2262963897289297, -0.14306268770789235, 0.05057946828566426, 0.027123570929059856, 0.22990472131875167, 0.3334616033600131, 0.11176769567891871, -0.08414309058808275, 0.03100933909300544, 0.2540633090384527, 0.2289113267380972, -0.06789739737422686, -0.11269052368283172, -0.037875962178297494, 0.05339994535228228, 0.07233896891338998, -0.04307286163976887, -0.023253076141677542, 0.0021965883239082307, -0.00047554737292661227, -0.0018954557936262393, -0.01719003324641354, -0.05308538445914602, 0.06787954830174728, 0.1740838827859451, 0.09719655957373675, -0.12254432121957069, -0.22300368671644424, -0.14870167925737426, 0.06367482944541318, 0.2284521490489916, 0.2539145160441011, 0.3544251208798824, 0.5312575959467067, 0.42265375435170993, 0.11035037369461842, -0.04153484812639861, 0.007068046802710128, 0.11988833148530009, 0.020118752228085054, 0.14982528223644184, 0.15139740492092607, 0.05762729726039348, 0.0028112424900574064, -0.03866986621420618, -0.007207139865988316, 0.0009252401887083045, 0.0005979597253842525, -0.005190686786760159, -0.03451394410117271, -0.036611201041516904, 0.07939256410261124, 0.16655784540512814, 0.0035261758485404713, -0.26997981670179383, -0.15637401463217565, -0.04603038273127901, 0.11386734894324678, 0.008663149661128838, -0.16863184956070323, 0.08210373747860499, 0.41275464882619195, 0.4512553237575423, -0.049945999258351303, -0.2258758575026524, -0.0499252718344568, 0.23536170007012228, 0.21520523062673166, 0.25758241725836706, 0.159597407834632, -0.050917570571785586, -0.05321247344070732, -0.04002579925902142, -0.013450172177070861, 7.497320697308841e-05, 0.00014563336499328328, -0.002006506854207603, -0.03679950574420946, -0.0609144116838996, 0.02495785902949061, 0.12420089311023187, -0.02929695273304346, -0.28261791099010686, -0.09500218527365911, 0.02434164661234928, 0.16815540761542896, -0.13403665938859446, -0.3986532825475358, -0.18647475723042617, 0.2210257781686357, 0.10714163158973466, -0.1576017639408278, -0.23464525844550269, -0.12051361356313102, 0.1971782410124201, 0.35936065478939366, 0.20686627692992182, 0.018157461943179156, -0.07972569890368027, -0.06469566654050041, -0.01667481458608005, -0.012441982435924981, 8.458235102671429e-05, 0.0008501748983269621, 0.0008953668631896713, -0.018386659810287972, -0.04556278394131882, -0.08129185320727873, -0.1351619786139006, -0.12817590796768244, 