{"layer": [784, 100, 10], "weights": [[[-0.006258620562142476, -0.02074513816353407, 0.0018176300549390477, -0.00011033742596418883, 0.00804164775710741, -0.004114555676862856, 0.002832746433833493, -0.005124355093521559, 0.005334012738657925, 0.002059655693779422, 0.008316989636685342, 0.02328254584683863, 0.0009329593925520615, -0.003964305789362419, 0.003316201794637837, -0.006448162762196056, 0.014493581869627792, 0.025528837714626055, -0.0013184187097125257, -0.0011917842180847857, 0.005087395942167851, -0.016301346757607846, 0.002890631473581066, -0.003193703675827201, -0.010032866960270845, -0.005727118911403303, -0.006002831054356607, 0.0022131984615530835, -0.005893215187128448, 0.009574224613818696, -0.012849443986181866, 0.009433078103622027, 0.005850201144121481, -0.0010188639131154188, -0.014572830046096776, 0.000643171053342301, 0.016746633543470262, -0.003019614436478556, -0.01750937804232516, -0.012367091181304413, -0.02242763272704545, -0.002671552152975499, 0.0033427505162415406, -0.004015116501332567, -0.019999078749520324, -0.018217122133489694, -0.022465039917650736, -0.006532379200832929, -0.0027952230216918422, -0.005574543631391265, -0.017199643921407867, 0.00024638002123353217, 0.009815039684229162, -0.008219029886512257, 0.004403069325337377, -0.00982699035566309, 0.00015554694015728777, 0.003987618252927921, 0.00883396539424912, -0.001510938719499026, 0.0036899497780942913, 0.013041434961239006, -0.0008758458200926814, -0.004160982553676222, -0.011298932494628953, -0.02342766482207593, -0.04404758269659343, -0.060809560871228865, -0.07996287019591948, -0.08852171187815677, -0.035086100628077675, -0.0014607408858962688, -0.013769236155990745, 0.010310327738892386, 0.027112648724313616, -0.011210529771279204, -0.007372677394558296, -0.023797821799516013, -0.020895963554922604, 0.007148966368987051, -0.014385165802758774, -0.001326828882696595, -0.007389723413965048, -0.004657682317647343, -0.015202296895195632, -0.009802213795634654, -0.0003682524634476031, -0.009423601014544545, 0.02127295692112921, 0.0210193916988838, -0.007225501242940719, -0.010936310595891459, -0.01613864503400357, -0.05292215758932698, -0.11772949915469312, -0.19547991136348994, -0.16397310083483957, -0.1080857945138886, -0.15320583016409708, -0.08358771813402703, -0.05705802885484148, -0.02509153221935545, -0.03247126353489381, -0.10723729650695392, -0.09328845266298408, -0.04225273720189634, -0.042123717290639566, -0.017014115757504188, -0.015437780688496555, 0.00047494792403555866, -0.0057441207498916255, 0.010529014186413915, -0.003641676215241748, 0.00382890360045157, -0.006117798592043727, -0.004486085303152217, -0.0020042328642958535, -0.040174035216857515, -0.011486470446253238, -0.014916754624261624, -0.11017593333767361, -0.13907862667842105, -0.23586819275420326, -0.2094177718980261, -0.2113945911737745, -0.3176211186808646, -0.1736061079533961, -0.16189740243660639, -0.18280453206352243, 0.0005085835303687047, 0.07005499117884413, -0.12461204213982524, -0.1398282737694698, -0.02581790112294704, -0.03376347815162153, -0.06739841809171664, 0.0162047567109097, 0.03334814365325836, -0.0018992901415420612, -0.03791345272708451, 0.0028524073968322723, -0.0022493204616164833, 0.007007664482909815, 0.00045103821607997717, -0.02801815244522081, 0.00498813958667662, -0.023151221728576317, -0.07135242559118211, -0.03621531917374965, -0.019261944554903265, -0.12141380108036237, -0.04259951687686564, -0.11409648525583385, -0.21251765982514953, -0.19412396898307782, -0.3331784347584892, -0.03592853416689551, -0.15361139026094278, -0.17631299163483047, -0.1982142529852489, -0.06508257526563761, -0.1035422905913499, -0.08471466914708822, -0.1337663248358288, -0.08611069594372463, -0.002104354671373627, 6.169471469182624e-05, 0.005026070227920898, -0.010068579839247077, -0.0037746539640678978, 0.02246543513605912, 0.0006954136490541252, -0.00662174159886253, 0.0775682746024847, 0.06150243093212225, -0.01059417190728713, 0.08816654132912295, 0.11515853560488315, 0.1324950660648395, 0.0022758935971743466, -0.02035157893891327, -0.016876594911395162, 0.030329989801898542, 0.018846272099274256, 0.05703862331717899, 0.07927830214220913, 0.15675682537450306, 0.16213410212236973, -0.08159090608615563, 0.014873262218374147, 0.02301353196304989, 0.0013335788209275635, 0.06222495571152572, 0.017702710343400523, 0.0237803087280753, 0.006322605122760171, 0.000774520413329545, 0.008856873903005661, 0.030152735856209766, 0.03779887659672198, -0.004099331019438205, 0.0033183889166105837, 0.04250389050125509, 0.02710742984407411, 0.22259501215225053, 0.12600101270650552, 0.22213282000433185, -0.06704004665621363, -0.03922663047351865, -0.04599326928194836, 0.009025834229137672, 0.1719938206073794, 0.1328659003740579, 0.11375128608312263, 0.17683117966150677, 0.11500832869761742, 0.10016476838829563, 0.06912010464190434, 0.03342036118208604, -0.02512055000676216, 0.07123098639991049, 0.05160925268932949, 0.05013425457322211, 0.01910239066671549, 0.006777578259964091, 0.0010969657760414716, 0.004213421448691291, 0.02833266141924996, -0.026510541349101066, -0.014132677957136342, 0.016263933381161732, 0.13085188717234586, 0.23426418975030527, 0.13414711633460139, 0.15472725553578823, -0.038992181794624124, -0.20547536466980476, -0.29540542651987667, -0.10476160278638184, 0.0732494710680394, 0.08333386807426985, -0.01620655810568673, 0.113847798526313, -0.009957859503462731, 0.16887282222766142, 0.0659854084890652, 0.09614422414805833, 0.20043382567766932, 0.20316653358098005, 0.15240561807933278, 0.04586042852535708, 0.004985197009407845, 0.0023931493484783267, 0.0010867886642246002, 0.011236032924245425, 0.02331464366287531, 0.019394132180005966, 0.050976659213967816, -0.008027264981713272, 0.036630253516344205, 0.14088203801430832, 0.12584139421890295, 0.035035543616522655, 0.1631473762671451, -0.017419587590281397, -0.3925553470665627, -0.22316995158992758, -0.1003737698530155, 0.02835776693024821, 0.19238333400024082, 0.06327589597887504, -0.09742774151217062, -0.07147077994183033, 0.190427302855642, 0.2328596077939485, 0.12672041280096702, 0.1097612820882657, 0.16569899394883728, 0.0930705079185027, 0.027710074093978757, -0.0018212598686339029, -0.0023407533388031918, -0.017659471431904043, 0.0020365471027232805, 0.021612790541670462, 0.11896549007643768, 0.12084098940429246, 0.09028072914335211, 0.1404164343224642, 0.1417804854890468, 0.1499571292603521, 0.08562558424034797, -0.13650736354007598, -0.3350165088759941, -0.4560241441660182, -0.08647458093707863, -0.07237694329717068, -0.18931799839805055, 0.04860253165890145, -0.023785005066223552, 0.04311180687938704, 0.16091891010036977, 0.1262077074548759, 0.08538891553833892, 0.1961934342948587, 0.23229822343483836, 0.09401819672900588, -0.0020314299227183587, 0.020093369129520467, -0.01956940673500935, 0.008843205101687159, -0.029988941105393373, 0.02347265348606312, 0.12187382185325363, 0.18287278266440074, 0.246646401527157, 0.18590141162368543, 0.29008192007052, 0.17218997095447824, 0.30600009649163606, 0.053506755793258864, -0.17718356529470547, -0.3919096789072402, -0.15077608321793876, -0.09398844654995983, 0.04516470595278656, 0.036039151349950393, 0.056988463524620676, 0.01853760689332937, 0.03020879690481228, 0.08845472107763189, 0.10990352842204829, 0.13473809127933078, 0.1725591908037818, 0.06999479160011413, 0.002167684469519386, 0.006374964036368511, 0.009412805098980124, -0.006725417743494309, -0.0203749091618436, 0.0011367859502615194, 0.17841718080278957, 0.222095218568806, 0.26892863866439715, 0.2495866697704846, 0.17378402238240295, 0.3482078037547546, 0.3356232738892905, 0.15332224844546558, 0.11197695841630824, -0.26152589964950207, -0.06331791296442217, 0.024450356774942224, 0.05214742251074258, 0.18442073683092255, 0.09716905726329529, 0.06105974749139131, 0.04262221919655778, 0.10559774501566611, -0.05686860790437312, -0.11408942675280075, 0.06929387507754503, 0.058043159898938844, 0.0022828592450564815, -0.015127522370059833, 0.0037532020659246886, 0.007337727226936973, -0.04438584562639415, -0.004511757708063595, 0.1767690967341773, 0.1543226471858038, 0.2936005325056063, 0.29451723694954474, 0.2072723810108359, 0.38075586501109937, 0.47306064367930467, 0.3142471938022838, 0.20127589205007915, -0.054648710654216295, 0.045672607848428644, 0.01725043910625385, 0.058251637811532676, 0.22775785186547895, 0.20837814887373662, 0.1249051717914523, 0.04635170188218826, 0.07076444396893156, -0.08153034203484386, -0.11470407160168408, -0.005678874236893215, 0.018339419658171246, 0.0013040971158209558, -0.012827369261905362, 0.006761956301996329, 0.007689685100579486, -0.03382423547004003, -0.0013311873138475245, -0.005546353762858927, 0.049455003276857125, 0.24802106885969327, 0.31982567277987284, 0.20848753234354117, 0.34052127319670156, 0.2670742639465271, 0.501732428476813, 0.27908155018052494, 0.12220453151255764, 0.1991536638379622, 0.13558024055547654, 0.2308423903863313, 0.2570967320089376, 0.2698512571668986, 0.02170396325105733, -0.09590203221778038, -0.0772719931348162, -0.12588820909239584, -0.1017254618107359, -0.08569602520392187, -0.00327977884886963, -0.003435984043449115, 0.008882707467225553, 0.0002524903250281689, -0.006607038111527223, 0.010058901051707751, -0.0083430899536241, -0.1177130891062861, -0.0510480528200668, 0.023065871051534046, 0.1055125730756176, 0.1628956460135322, 0.23420506824461826, 0.14910122436697512, 0.3296923829183776, 0.32358621521831693, 0.37466084604538635, 0.3534366974190861, 0.19976686921990314, 0.19210155872295168, 0.13350152763198891, -0.07202279840878296, -0.29943342331287376, -0.11821522228893919, -0.13423705058481186, -0.12863276575971888, -0.14995107856787768, -0.10428219057088688, -0.018043486353700983, -0.009634431560150085, -0.0005620371596339801, 0.0018663021902675533, -0.015433339304959562, 0.002472990370746165, -0.08162446204443471, -0.14721394846033878, -0.16541622088891209, -0.1221762431412354, -0.14922103165056377, -0.17990659822365596, -0.055342002348911214, -0.05732126878059356, 0.19683864698393494, 0.20363610512782376, 0.09482459647543268, 0.3040905141187469, 0.10453077097719406, 0.009628540312996656, -0.10627118836183332, -0.33519595300040494, -0.340376077809298, -0.17789967202392967, -0.07333819789575863, -0.12326782713658249, -0.149422709812795, -0.058232016751288355, -0.0023987302262404144, -0.009986386862422795, 0.009656870449063657, -0.0003636198837546091, -0.013776221351215116, 0.01759007696847031, -0.04301801213862145, -0.08235597397328838, -0.12256705000496725, -0.3078601950032501, -0.3794103789358638, -0.3781613724688276, -0.41443124980483476, -0.2527375949446681, -0.23658997263688133, -0.019975657229938347, 0.04815845812801457, 0.31717828198237136, 0.0678927960303828, -0.0633363726432258, -0.20666420785760298, -0.3137347234022919, -0.12841475844462408, -0.09098059346231645, -0.05701044197725826, -0.0655905068358986, -0.0026909944420609854, -0.0449252808332626, 0.04569098245569194, -0.017317777069894316, 0.005945274962018236, 0.003760969026381645, -0.007826773062739554, -0.039010783026681324, -0.017321103776697096, -0.008369218139885688, -0.10643997701650293, -0.1827731595195196, -0.2481234503304044, -0.3937479968541693, -0.3449915055667928, -0.21667423473024275, -0.18500314140126695, -0.03526584064628046, -0.025706949385331784, -0.06435751248385864, 0.0289748947648453, -0.07567952685713111, -0.19824195829291796, -0.17799159729405967, -0.01257677139535224, -0.07075733190382769, -0.09290483863399923, -0.0441775282879187, 0.0045376865924383475, 0.0015598139763929027, 0.001701945777733771, 0.018286297513572625, 0.003663131158000361, -0.005981738075349152, 0.015070543545913155, -0.0497598054511256, -0.08395916183941977, -0.0287621394906586, -0.1350431029065761, -0.20162609271317222, -0.1944598395522291, -0.29731206740877214, -0.20989109120887264, -0.22983319748513054, -0.2730311337079982, -0.2716003690909985, -0.18924531375787515, -0.2803325144821996, 0.05590846904628259, 0.08266943439796134, -0.034238332131599145, 0.004258016237443024, -0.006365488947755395, -0.13480273825372957, -0.08959782449361553, -0.02796858043958126, -0.014873861821098528, -0.021940809416255952, 0.0031229106818407865, -0.00602330654370572, -0.008680381398293356, -0.016786812701022717, -0.01934462884121844, -0.057724073832861676, -0.17973597347417955, -0.06793690114592403, -0.10589395851735751, -0.22752481376548322, -0.13694698652283277, -0.08609434828271735, -0.072821806336806, -0.2562250400821313, -0.4609567717819649, -0.16079407143583935, -0.15286079897517957, -0.07614957934453045, -0.01006745899769808, 0.010529320087758063, -0.15701302017256608, -0.06611334193366883, -0.13146447316604568, -0.10508333129257826, -0.013835693078889488, 0.02352600827201508, -0.040572195334031634, -0.017638846801006428, 0.001610034351944425, -0.005925648619290521, -0.02267795936203675, -0.010018983429521558, -0.01471335626359814, -0.052578653271109485, -0.07641302320522354, -0.08417754286182934, -0.16645404377111953, -0.1589726422810132, -0.13384420062112054, -0.16158715023947653, -0.19154632599412966, -0.36953456333134277, -0.3722617294044592, -0.2107141032290711, -0.18626082902434835, -0.09570315739349361, -0.10870154560401485, -0.02807607191576837, -0.14253785543060482, -0.12290413994628345, -0.08860248226254004, 0.054750977244960794, -0.062035327344375335, -0.01564680579807885, -0.025741949115606524, -0.02665402649750384, -0.030060159004383587, 0.006190512280839046, 0.008763928239790447, -0.015755994081256327, 0.007596885900934923, -0.05491635511865846, -0.012945598433127592, -0.10109646918508063, -0.19045366230674765, -0.12509047765279968, -0.13257778980020113, -0.09998841583512683, -0.15817997427337904, -0.20665190408990172, -0.12905234775134183, -0.17799286375095758, -0.08629814843658673, -0.18872817661860483, -0.19527602642721364, -0.17292534507033064, -0.07770487633272555, -0.08238457700240674, -0.09906222549996474, -0.0686160096183264, -0.04583741552631984, 0.0025461972206990402, -0.01225003284638422, -0.00316780584816197, 0.005807905500211019, 0.008890207307924862, 0.00017119752021898545, -0.003830210021001502, -0.002959324719074477, -0.0014810942697339028, 0.04162461839630538, 0.021245490425910864, 0.00857952215273775, -0.029856026321555037, -0.05952641229335892, -0.13664991082368788, -0.13033001372564793, -0.04882754468080833, -0.07315343743467874, -0.03512631983682841, -0.07902794730682389, -0.1395405441274332, -0.0421416080545689, -0.2199690984726675, -0.1439482391762411, -0.10771927830867055, -0.1512985023568406, -0.06097519141628098, -0.013859494372780695, 0.02737106678596547, 0.0253259613315419, 0.004793550657680241, 0.0007620251334969938, -0.007294318076611711, -0.0008856650481647516, -0.003595046133735056, -0.005709686731872814, -0.014141293392272391, 0.0020333512099429394, 0.038192803672204165, 0.059153731197021504, 0.11132090867530411, 0.0398681146273054, -0.13572623189845204, 0.01724957904634567, 0.07453888697162214, -0.01140645441503173, -0.04287057488745907, 0.016720925485012167, -0.0076880195197337195, -0.045105642169171546, -0.03644467169311128, 0.11882210316741453, 0.12428556760556549, 0.0349797528669797, -0.004951591671347919, 0.019360045190846737, -0.004076536687104945, -0.008076233522272389, -0.018675884645316665, -0.006169415386754721, 0.007594563100348211, 0.004984674446085065, -0.0010738761191779922, -0.0047904780080859, -0.0019996126185163193, 0.008296530885642516, -0.0038933907117120908, 0.031689036378149925, 0.07345861175328666, -0.005434840378913891, 0.016709524890315988, 0.177976400020607, 0.10801894345871134, 0.19719299931748652, 0.13092161950792247, 0.20492003367303424, 0.2808745815127347, 0.2078031225050161, 0.18759279597983797, 0.14576219290513592, 0.08408273399044659, 0.051650213856602706, 0.07070847175751102, 0.01896937368496513, 0.00800175361238315, 0.012734931066165264, 0.00857357214117979, 0.008015679895910347, -0.007695621867567983, -0.010111887549322275, 0.004966459146144543, 0.005361870457981524, -0.0009803791767947203, 0.011112680992717824, 0.020374205018124626, 0.006407194925510578, 0.02751560521409197, 0.017446117231961943, 0.030276322124875084, -0.01736016757366995, 0.020679217782700546, 0.10199310257589657, 0.11831939562121736, 0.07555884842701803, 0.0551695764039736, 0.03955081210911211, 0.03925576036555854, 0.04255723405415755, -0.0029324854781791216, 0.006108069895584361, 0.04080910931196981, 0.01701363092422714, 0.002270661813985034, -0.001318593241306471, 0.0016864715622282762, 0.02403089811091603, 0.004185897395234295, -0.00728980038747298, -0.0004853533433041951, 0.007866203206360504, 0.010537520666543112, 0.009598014112912088, -0.012413842938376244, 0.013565240856649936, -0.003741950351949097, 0.004598626652995082, 0.014833793704007593, -0.012418804002395247, -0.004382256613861534, -0.0046239838271976245, 0.010238025050191576, 0.0008409177824263544, 0.013054612603753188, -0.010283586635730976, 0.013658088583500648, -0.002528033033207551, 0.0037570912574606398, 0.01058385522196374, 0.0042256594699747645, 0.036148711060305705, 0.006579932283746557, -0.018424153960731, -0.013252547069578426, -0.008461237378624803, -0.0007711452248391474], [-0.0032331834294650097, -0.006018707347936645, 0.003228065713339099, 0.012493246301810045, -0.0008321722039071345, 0.009444227624367387, -0.010202631666097698, 0.001976304005347594, -0.0022839362749111016, 0.002552136009870512, 0.009419959618595996, -0.01913456156085214, -0.01045902651701276, 0.0004915677091507295, 0.0019680410600362557, -0.0010013386726747168, -0.00020235485372740915, -0.009996552051957947, -0.012940195705050514, -0.001727491686628098, -0.007425576633702292, 0.01377386494347952, -0.0036070560492583695, -0.009379094355330088, 0.01716871717217257, -0.001289498975281396, -0.008439627916765497, 0.024541390118429054, 0.005154149360055939, 0.00163288421564286, -0.009774128124767243, 0.016344929420510586, -0.011860021811594757, -0.0024142416934330325, 0.015991289200024628, -0.00925634931341489, 0.005084381078999956, 0.009700072925476921, 0.007530846120531423, 0.005299566066017771, 0.004880068080686426, 0.015028757175802513, 0.00408639333460635, 0.0026633339974090867, 0.0058213472363732, 0.012181884266353771, -0.01216166568684823, -0.003972552479500517, 0.010618565355203946, 0.007390290676598175, -0.019354149642298906, 0.006619205979588574, -0.017540249530008874, -0.023996887295511075, -0.019259943333309538, 0.008497778505858786, 0.002158072377001701, -0.001649602688004294, -0.007838520065195545, 0.002677369521313529, 0.012211206924491437, -0.023149086219277804, -0.0005298290594036233, 0.003981069781247096, 0.0009409153202975393, 0.016615313643534878, 0.01516066641780862, 0.017500244321044363, 0.02803182434015179, 0.01835115900692198, 0.025599169454473325, -0.009533128480172027, -0.011774838318818266, -0.016910258667085502, -0.018414917033755307, -0.013085457724749196, -0.011940772881808073, 0.0035836557596112687, -0.006135963591389833, 0.01936086230838875, 0.009334484355005699, -0.0035610152821448663, -0.005474099167480361, 0.0017141727519789213, 0.008540122334838323, -0.007131202921810651, 0.0041525132054624015, -0.0116462007936085, -0.005351288409125012, 0.023434508369667772, 0.007640354257621736, -0.003009404038577241, 0.0022194732348554467, 0.043457477329744996, 0.05612691480009818, 0.09506060646462187, 0.07672708134127719, 0.07933398778492315, 0.04321103335701174, -0.07587161185343147, -0.06849699711937553, -0.04357749663335524, -0.05933456653112813, -0.05253600986971283, -0.049752785571600844, -0.02079442548044062, -0.02585030709222038, -0.014725481165045962, -0.00487268944358986, -0.0007829320895481052, 0.010682935932455305, 0.0025007586968718454, -0.005422794030066054, -0.0024241113169540243, -0.004669479951497889, -0.010178465868179722, 0.008669357849573373, 0.060583376266371676, 0.06554700438624782, 0.03768145985659703, 0.05360288543065774, 0.01900277500516064, 0.02990501378228192, 0.04675384853425527, -0.059339009464031665, -0.09210547000230385, -0.2596836922043186, -0.22187186488313523, -0.21047454725787565, -0.20499435789241724, -0.14123839649602188, -0.1854793336860367, -0.10455798700441617, -0.05337838076227084, -0.07428035517524209, -0.058650521706356644, -0.03649392497462213, -0.008846892198009795, -0.0028617679723433507, 8.06704408251131e-05, -0.001544662690154539, 0.009554455894944023, -0.017729035167281457, 0.002760757226988439, 0.08940550164569495, 0.08264024784591506, 0.09271533069003361, 0.1715873979513688, 0.14854445366236446, 0.10311772574843116, 0.10629420210807075, 0.018824327965149257, 0.05704255659258738, -0.003252589741695668, -0.07842255211746418, -0.13861686470503928, -0.05648267674352799, -0.1445502111132365, -0.16526965622684267, -0.14684125577014995, -0.10703717704651336, -0.0715454269581044, -0.10940447430417688, -0.08588841222198902, -0.042478634995222524, -0.00834731933661355, -0.0075440037224308275, 0.002983828863441666, -0.007274998185656122, -0.004700549114731282, 0.011082773290603054, 0.044141398157066775, 0.10413173573777132, 0.1693594339473126, 0.2723503919618672, 0.2740174447888102, 0.2163606480796816, 0.3047308258754346, 0.4101742332425651, 0.29273448351369835, 0.2828441212718767, 0.24757488248521878, 0.24251332339149684, 0.14148894156820335, -0.009839700300205827, -0.10325044327146372, 0.01447644068182235, -0.0705022153958364, -0.08154437351462818, -0.007005894273163775, -0.09830511867297706, -0.12694573462646988, -0.09924740375181573, -0.02677701024712987, -0.0032537248096262956, 0.0024502418608969008, -0.0009195554729776566, -0.008632764889394995, 0.001837465439618638, 0.05272163618926787, 0.1251190398474511, 0.19123680134705845, 0.32815398114389716, 0.35506470004193846, 0.20963691257330083, 0.334932586067629, 0.3218283024972362, 0.2707202382294416, 0.374714637054117, 0.30666140648496926, 0.18151648744258878, 0.10418888010685326, 0.03232533171021386, 0.0651579094491873, 0.019963760307010414, -0.003260861372776385, -0.012817042970801693, -0.1240389689510803, -0.0558201996387614, -0.05046442897348544, -0.08428028423703685, -0.031284535365537054, -0.016736857594820197, -0.016846644705127947, -0.006174796864720468, 0.015238402927954402, 0.009579572074486231, 0.06918851781649393, 0.14741597366318077, 0.2303885397385222, 0.15280537054369092, 0.2002819148840718, 0.20886811235861402, 0.15916485645002054, 0.24662551259089852, 0.21013988428110406, 0.21787856430981187, 0.17629057513166743, 0.2366498747068329, 0.1197841658447703, 0.025414127812582617, -0.0056772782046619775, 0.025879265203756913, 0.09774601652960398, 0.021721516864753942, -0.015640555446891954, 0.11060530804278369, -0.023275505901797385, -0.12511064027518287, -0.02963697225803404, -0.036505681323074954, 0.00515767262983888, 0.013779702286065737, -0.019986926318928403, -6.158506033051287e-05, 0.0683214317852851, 0.13959439348169106, 0.19852651495655435, 0.08150378058989541, 0.17042558666181104, 0.08280075327526928, 0.15074103459958282, 0.17711272340951167, 0.07667447539360173, 0.1773635357303155, 0.24433494138312464, 0.4276914415047398, 0.18983467755603559, 0.19615693640706666, 0.11369220052537268, 0.06964564805409447, 0.18118486742049858, 0.09074420840440439, 0.04420313452833733, 0.21967082925626927, 0.09856180433772253, -0.049926845722916745, -0.0336141708977055, -0.039533883098966216, 0.008835777977893351, 0.0064771097299321494, 0.012941842805373078, 0.018283783606935677, 0.062273930520102994, -0.01115143559849179, -0.01109856994378466, -0.103179432514338, -0.08710264374589007, -0.07870478413576865, -0.08975093740529771, 0.02817160017556349, 0.08623389600641662, 0.017347806225622497, 0.26464884229826413, 0.19900714688199167, 0.2226472720384012, 0.3052924441585941, 0.20542246813213041, 0.06296916151514238, 0.06927219549554321, 0.09567690507372581, 0.13651674473192177, 0.17320914697411272, 0.0886735254173094, -0.04185783706718212, -0.01122937330211083, -0.02497985890766416, -0.010244315647554717, 0.01851581524859736, 0.013615165960517164, 0.01373797634213841, 0.028187798106720046, -0.09370198441188181, -0.17167021016430212, -0.1680385159062499, -0.2629362737262958, -0.2442397121161699, -0.15371966938879147, -0.2126276567804786, -0.18537245390399829, -0.31221648411124603, -0.3397806656767109, -0.3513507534862609, -0.09912904423893677, -0.05367063204382802, 0.11106841716461499, 0.1431351464643365, -0.005382267733828518, 0.09649190239219271, 0.1019738223469126, 0.14113931388268758, 0.07117883777366246, -0.019513589246152457, -0.021715577958517137, -0.0068443583959822705, 0.00026510750903238205, -0.007639704233991336, 0.008874804542796556, 0.03067942571124244, -0.032922843233943996, -0.15195156243213145, -0.22713998926120993, -0.11378211710651252, -0.2344296522624936, -0.1427264723307549, -0.17858016188830056, -0.21079102116597237, -0.31369561418510233, -0.4831613005986879, -0.5737473700494075, -0.4418852183036063, -0.17889751931653058, 0.07570566929693155, 0.041825756563271387, 0.1947504211512417, -0.006818427129045572, 0.038045072449426426, -0.0946470917401779, 0.06699068868472975, 0.07508789203414065, 0.0343748706694895, -0.0012407315048909627, -0.013843566137081242, -0.013995408158682845, 0.004711370610002283, 0.0040079978222795935, 0.01711138106790114, -0.0564605523668016, -0.18372821383396243, -0.16794873641110808, -0.03497729026395763, -0.13289639823322008, -0.10555470204159835, -0.1737965259767222, -0.08084288258498276, -0.24983584112500454, -0.49187614142712677, -0.236413130881901, -0.046623447397183757, -0.19901057004042697, -0.041461380919954334, 0.12430266745849176, 0.12850639665184063, -0.07646788043897385, -0.05383912269782249, -0.053755812477059996, 0.0043749882743445425, 0.11923184940285624, 0.09598065806369566, 0.017012838211636957, -0.018989122383130226, -0.007130547004142973, 0.014482413110934133, 0.017350553333305676, 0.016146814681080184, -0.023423748594213097, -0.1506376344624038, -0.10664309920224885, -0.010060574082503533, 0.023689196428601223, -0.025920315541465688, -0.07813089346586748, -0.14477840363632125, -0.2272582143047997, -0.11722945476010184, -0.009562812250821928, 0.19348853138974867, 0.13657903100478144, -0.020343961747002884, -0.021761405308780072, 0.09746106143001088, 0.018585049827191797, -0.011200021883029074, 0.024251845424158255, 0.05409914089964917, 0.20706901886557808, 0.18457201819842955, 0.03904624526415084, -0.011472658135252558, -0.005912865431775292, 0.036291939306591116, 0.01188562112947773, 0.02489790253764988, -0.017845033393017483, -0.0300061026691874, -0.003200920789784945, 0.02006876292233485, -0.03133462884590087, -0.10878809783074844, -0.07012548090965402, -0.02521444139124348, -0.14571181931619945, -0.13673478199239417, -0.16245666477944312, 0.044147206172433166, 0.21092594570597667, -0.1201506733580549, -0.0802992333709346, -0.033016988446693894, -0.10624332617541861, 0.0709274535920791, 0.16827957469187438, 0.24462882548268677, 0.18952308923917308, 0.15830020967917244, -0.034910070579614046, -0.027839578187152672, -0.0002806913912998704, -0.008812392821809623, 0.006123691594541606, 0.018774655655253474, 0.027705648701144735, 0.06179108111968849, 0.04295209059096291, -0.04553945499786801, 0.014405344683624756, -0.02710796112833005, 0.0588886095730992, -0.036039281299131656, -0.2705683845628513, -0.20701698048144873, -0.00456919923637362, 0.013476222899744015, -0.0319907872142645, -0.24104258571797263, -0.2669251599249447, -0.19278516682520278, 0.006333952373913612, 0.02237060647176782, 0.13583565564343267, 0.1798225722820085, 0.17459859567848954, 0.11587538212621692, -0.06257563502642603, -0.03199649760336604, -0.0032385842472477722, 0.014123934263203025, -0.0033593607218803424, 0.01233407137967258, 0.04906115407403746, 0.11276996643437225, 0.020316273189122748, -0.12308494704418235, -0.039964801596005274, -0.10101903946424169, -0.11290012633856582, -0.09489949845165015, -0.12948266070631395, -0.09972321598881578, 3.7393941036685844e-05, -0.10911452802343846, -0.2140240885294405, -0.17282922071977738, -0.08042237127394854, -0.08016560503743864, 0.0860043290419004, 0.02833140313499462, 0.2162124375143743, 0.20087380616751485, 0.1643614365592544, 0.0379322024778762, -0.016107248816253684, -0.007588738793241343, -0.0019413901776197974, -0.016765261360779996, -0.006321980064844251, 0.033276677851720386, 0.037064535163895816, 0.07351359814295624, 0.00905941213709529, -0.1251331182679016, -0.17754321625091377, -0.17192155208178872, -0.09651218863476305, -0.040970178336523375, -0.10767110715680898, -0.034515899727972484, -0.07202079940565527, -0.27039919962126346, -0.14873886195433414, -0.06847946715632636, 0.05672070304958223, -0.02692888517388169, 0.13900919498294612, 0.047453808205821006, 0.19367239472482262, 0.18572563643672854, 0.004726726173857915, -0.12055408488195278, -0.031204271861547107, 0.013216087604467186, -0.013577769448584503, -0.0027518262281520226, 0.006763153717412111, 0.020621761578414794, 0.0023654019413750114, 0.06115306433620767, -0.01568261951904938, -0.20213940161254493, -0.1829430565063699, -0.11348535682195203, -0.01774799686748323, -0.09133993627321174, -0.08091225259340507, -0.04349136422419643, -0.17147949440208654, -0.1949813548339922, -0.21087755305188324, -0.02555147360759006, 0.07512341378763934, 0.0049502617357256, 0.014323068114480851, -0.00643852873040993, 0.08580495098989648, -0.030057697944810287, -0.19227845666524662, -0.1502594067857133, -0.033746178283024945, 0.0006806262937493599, 0.002655263514938347, -0.011251662564342025, 0.005488054351906266, -0.01434503012369431, -0.0038770350320085807, -0.040583717044488564, -0.13305670938259936, -0.22126636538851777, -0.07185377771455963, -0.09855387055851592, 0.0918796429985954, -0.07307322266854918, -0.037182862969914916, -0.022079091491210755, -0.1083402000120939, -0.03486078692358878, -0.13220241145204611, 0.019168188968522463, 0.07436530353917675, -0.0286346621828772, -0.10395625303866096, -0.04479483224351456, 0.012796552520094293, -0.10946449512229955, -0.2068129003040603, -0.11217532844089755, -0.03534865796323026, -0.0162623800116056, 0.01898546240405634, 0.0002735322742793524, -0.0017706149485685555, -0.021696219257450244, -0.015121685459288155, -0.020083502586018365, -0.1768180097689328, -0.15334182771634033, -0.10693225932468477, -0.07541684898516128, -0.14951646004886315, -0.03758439272851648, 0.021859502038010167, 0.0020954694152570705, -0.10088516163344555, -0.014466760138056494, -0.04843380471028102, 0.08716500127125269, 0.03439944668105287, -0.058346678853400086, -0.05113680625333303, -0.08967631271267469, -0.10998060563479811, -0.15830505576246698, -0.19813582458274118, -0.1116912485285696, -0.009250076397235314, 0.009542031581942242, -0.008190587560710415, 0.018864439841226703, -0.010506047567558019, -0.014750949879072486, -0.04973190547814994, -0.031016736867549084, -0.07718253168325984, -0.044753019026010296, 0.03720110278851131, 0.004017112723384026, -0.01665340531801678, -0.05573754328629074, -0.09462472846635604, -0.02907090582021121, 0.0560097511447409, 0.0736056653156226, 0.20500451848114473, 0.06419212284890677, 0.061930602394202894, -0.1320183702862411, -0.0349145205661232, -0.0316241771063513, -0.08973595108822596, -0.14220346900311512, -0.1396535987003945, -0.06565768774310089, 9.112202004345869e-05, 0.0010396565006651167, -0.009545159428894431, -0.001481394224857075, 0.003389627764130585, 0.02145349240204052, 0.016848264604935093, 0.054308778977219904, 0.06849714255025893, 0.11728182017635333, 0.20073128963293252, 0.02828870179564412, 0.03186388649925328, 0.10485431488875935, 0.21446438698902034, 0.05458876286641441, 0.18302014692354457, 0.12457186733106324, 0.12378498136230935, -0.12715371844706655, -0.02035587616974452, 0.013960122699846136, -0.04519521791916709, -0.12237618210166358, -0.1182309841299565, -0.11482301569770853, -0.056522813356690814, -0.02340440387847008, 0.006405371749294057, 0.002001446753020641, 0.013235014980679917, 0.005121459432045854, 0.019124194453293678, -0.016523976900405763, 0.031212547348589706, 0.1414074691319662, 0.2366948564860994, 0.3280598506311873, 0.24706835199240823, -0.025722560056117026, -0.07165026288278825, 0.00035835452440186456, 0.06633155919515189, 0.09414773416729509, 0.3023484514003531, 0.32061311167975004, 0.17853894638085344, 0.05537717667780183, 0.09329451609774407, -0.09008341339933719, -0.14910397795340502, -0.10313287638684075, -0.07007669033668817, -0.060872411355213644, -0.038903939129188055, -0.0020487231350318586, 0.00012003045180353104, 0.01574291926622513, 0.016745931272608188, -0.0019040444042966588, -0.012874397052028242, 0.018967524152615378, -0.00941693805250944, 0.07396343885898225, 0.1045049306919557, 0.08187747011848852, 0.12598999774405495, 0.1679312940485445, 0.1604274405887296, 0.1980933832246591, 0.1886518348743233, 0.24034855360817178, 0.1721163515462433, 0.10441245175703966, 0.010692928254345313, -0.01684124387970183, 0.00012927021305539, 0.04846718469613311, 0.03607148294749992, -0.018575592362238078, -0.052827146105367324, -0.02204034007557533, -0.024042645758262222, -0.004729342111335, -0.0030692530729076943, -0.011442315253455293, 0.004662218757610701, 0.0007544865130434743, -0.013682746741549071, 0.015709240858368112, -0.005121243052523834, -0.028982565895024286, 0.007214229507162515, 0.007222767930355356, 0.071777497077238, 0.07604217393168294, 0.06887041404917407, 0.09426099262237875, 0.05129623750765406, 0.019635784817199776, 0.0879829309473062, 0.06380250202138246, 0.09404788743986339, 0.05635009014290666, -0.005491594328964815, 0.04415236552460553, 0.049484247114846384, -0.02115199962833462, -0.01641046465637628, 0.016257049011264624, 0.005268659314511309, 0.0016222211679232262, -0.012651520755145472, -0.0008005246771438765, 0.0030085648367063314, -0.0039664432688891, 0.0020499603993447595, -0.0040258774437242515, -0.005263592167574087, -0.016023666738348482, -0.009947312088481784, -0.003030267916388781, -0.01425095052936898, 0.014048933076779124, 0.007838811485248327, 0.02764784406642737, 0.01519489159380106, -0.019368380203043496, 0.02478200544846227, -0.007462009896726737, 0.0031636713388215817, 0.03119206344192625, 0.01579115590091311, 0.02249797443906137, -0.0013592017510647343, 0.026234279575557986, 0.007986530326545229, 0.025097975093703283, 0.008659854836198558, 0.00881474002026768, 0.00035647142905704187, -0.012554428973394857, 0.0025826430706629975], [0.004778476850272121, 0.006416788649974848, 0.0027500758920033478, 0.012773364572654853, -0.014070139380458842, -0.02650809661024177, 0.014492059045730466, 0.006367675658581922, 0.012542475438761249, 0.014281314078493756, -0.011708422436764029, -0.01074131633776511, 0.013889488158228073, -0.008743233351726816, -0.012287177408524336, -0.0025282322106756844, 0.004261046446367391, 0.012229297047332633, -0.022890441012092585, -0.01685475434508633, -0.00030123047217223104, -0.007453431608468686, 0.0001782558696961075, -0.0050803628993569255, -0.04265029681663451, 0.003386359479903257, -0.004913101831806861, 0.006309591342351621, 0.0018036899342842572, 0.017622824923985418, 0.01142959789884307, -7.557400193771626e-05, 0.008199411962961988, -0.016096411691901163, 0.005715746622426626, 0.005893041787649696, 0.011577871273219409, 0.00543266245060865, -0.010160491375152961, 0.0015475701778472192, -0.0015815916038098312, 0.019064713614436762, 0.008676303712048037, -0.015539785390159057, 0.007408334438561837, 0.016669057683931832, -0.006660167529906828, -0.0023115507296234635, -0.008413081468812334, 0.011957169736361368, 0.0009961678321666182, -0.0037107286821378496, 0.007062611076254418, -0.010482904767319782, -0.016203347677967588, -0.005883312839430044, 0.00908533324901584, 0.007869315073198971, -0.010438903344154347, -0.005660842101795944, -0.004423986023961818, -0.005005242128869348, -0.0028972921188409524, -2.5762047460380456e-05, -0.012848173600323984, -0.004708435415860115, 0.014258442905568292, 0.012749775194905697, 0.042131882433892695, 0.03265964848209975, 0.05267110574225695, 0.0022508754175895656, -0.029713633264906936, -0.030537882533197416, -0.03084344778263271, 0.0067079388223725035, 0.0023611194357919855, -0.006896033342088131, -0.020329639987933787, 0.005412406476338952, 0.0012252984246304106, 0.005214946931561564, -0.015492284037233399, -0.0001577523055810204, -0.005049352517269773, -0.001999617342084084, -0.00987839609568494, -0.006915931990941756, -0.0023463174360382495, -0.0038500633486264163, -0.014830647127058168, 0.03266076001466692, 0.03805161621495815, 0.07402760405745522, 0.08232414150856139, 0.07092890478685064, 0.11908724464540937, 0.10628492547872422, 0.04320950748540029, 0.05289213167065369, -0.03376533738716256, -0.08956912389721289, -0.08066737795075861, 0.002785617162758855, 0.010323282301699793, -0.022066451637062556, -0.022142311813014657, -0.03067169900225837, -0.008600086274151484, 0.029156869209610893, 0.01515444859494647, -0.012026093336744596, 0.004942016723249453, 0.009400203201167402, -0.0017397830045326901, -0.015528185896715608, 0.0006890826996067594, 0.006966620023551098, 0.02249612009474817, 0.04454993344354348, 0.02710772207943438, 0.06868558678839866, 0.07209357185151792, 0.20015454291352422, 0.22572567152885453, 0.1244668566381286, 0.17124892573174527, 0.2067823778632741, 0.1379032270976508, 0.03620667566618859, 0.01986788657928234, -0.05569243633014174, -0.06846596223471775, -0.08456660501219783, 0.014578700156243445, 0.053436652363806986, 0.07571265862000458, 0.02674470018246338, 0.0024013997518089907, -0.007555276375571264, 0.007909404024976847, 0.0033944385393952278, 0.002908507253324911, -0.003408217729804521, -0.02282627887625555, -0.011992850461553331, -0.03715379464083602, -0.04171981891409117, -0.12041749557100263, -0.2098104210940287, 0.026892894095142186, 0.054437337644988336, -0.005043033563042957, -0.002656483660342389, -0.09883758230826134, 0.03872425315188754, 0.1847345593506821, 0.16417728008682003, 0.1640185134369466, 0.12623869484692002, 0.10464706905793944, -0.039447123466104156, 0.12496519708981753, 0.1581966027475962, 0.08485245286588863, 0.006560712907146947, -0.011750632126912786, -0.009142929768332541, -0.010150036144947978, 0.0025959005593457264, -0.018568472622027533, 0.00027786223671991546, 0.0037913086226318603, 0.02396865194412595, 0.06638734469460718, 0.050481057849645766, -0.04801414007894591, -0.06736085590182968, 0.02464589206706762, -0.0725280274076307, -0.13090258745929692, -0.09047707030727303, -0.014961818811883578, -0.11182834996725884, 0.04614689114153702, -0.008511331919924552, 0.05587720335831597, -0.0036976514719309034, 0.05346025314852018, -0.014753300854074232, 0.022774752254761776, 0.1389210255151363, 0.21206439092686727, 0.12529500059951432, 0.05469290394755419, 0.009254276688501317, 0.0065982561650733485, -0.0017600467621180387, -0.022739130244696357, -0.012460298490738615, 0.04630405163237896, 0.1487328322327118, 0.14494822286966388, 0.16434670790365163, 0.1712988191087749, -0.14017236710461664, -0.10775106160787062, -0.05222780368510749, 0.1279731184395564, 0.06234956678929137, 0.20346916662710873, 0.040579547209259666, 0.03407413700941259, -0.14640098362230566, -0.21160198748392087, -0.04803521629991157, 0.016782424782580133, 0.06673524928667386, 0.021529475944862524, 0.07350017495576106, 0.12910961749657382, 0.09405039750067826, 0.02441853349670853, 0.008780280862144527, -0.0022632097839965165, 0.00346126724505222, -0.04532001881221286, -0.03728684585011421, 0.06883638028238637, 0.17897934891538075, 0.1282701101234736, 0.013816545425973634, 0.03021220323219129, -0.007348247076486967, -0.027778062983823668, 0.032245291999306154, -0.059471087266514344, 0.028222609041811245, 0.1548749991537815, 0.018031485288047926, -0.041699178489377514, -0.16197858320671116, -0.29065958772643513, -0.17941514955582064, -0.09955036693220953, -0.02183991268230109, 0.0342010056101422, 0.11560610132123944, 0.13026925743981183, 0.12807532053368145, 0.01880261140325627, 0.00391781672944372, -0.00519376423592266, -0.01587613809908315, -0.004718185808040356, -0.0574512295093933, 0.012183164546999312, 0.22035868903981606, -0.013591455029889543, 0.051465913391064926, 0.1262660699393605, -0.053524388937062385, -0.017690503049100758, 0.04557274414600432, 0.0587909571091696, -0.12240100947382586, -0.08467375694302111, 0.2885810147500454, 0.1587060807236413, -0.1035472563670148, -0.02972356789554384, -0.13985401050765073, -0.23071579719128193, -0.19507061748475052, 0.0859796883494544, 0.03606627049638251, 0.06446833063352302, 0.0874507049862057, 0.020637026830883587, -0.002245504072408529, 0.015568686238382316, -0.020034243715853287, -0.014089666483818635, -0.03909256147402879, 0.007831156837862356, 0.14148991288848975, 0.00541338275177962, 0.0615340370339782, 0.08940509174776833, -0.19355283684499136, -0.13268383251257065, -0.11293458353920609, -0.037550728434712, -0.10246075810787311, 0.05643174845923239, 0.18849059797764206, 0.1169263448241539, -0.08087912388902953, -0.07297845985533302, -0.06678630281919158, -0.208621059475518, -0.14104980438410722, 0.002898235359694375, -0.10705980814377149, -0.03308944074422621, 0.10001003034935585, 0.03671576505921907, -0.019921116123323698, -0.002349418972198584, 0.009331478460250626, -0.033076193143897016, -0.06617300591856824, 0.048537749194969004, 0.0816323625482335, -0.09210884477094655, -0.08099517284494855, -0.1414413549594635, -0.32083991281645624, -0.1251255965857781, -0.06627866648978153, 0.10063323762900324, 0.03083414846193217, 0.17476118718771658, 0.09090056907627701, -0.039967188826296976, -0.023580378946783623, 0.060703042059972095, -0.08729244436496064, -0.16921927115462618, -0.10349534568429435, -0.1077259878928809, -0.13141488568013104, -0.12568554296263637, 0.04160669021260617, 0.012977991863191915, 0.012273375888334652, -0.019507977030013206, 0.003340275856138799, -0.025408732160214175, -0.049944167126849924, 0.09495717621371567, 0.036915713408884686, -0.04416406500844743, -0.06880189036053516, -0.04703749788832583, -0.05241141895342689, 0.1430631826789243, 0.11994640767560026, 0.07202692926982496, 0.0013114029325482477, 0.1726331958694788, 0.04147242588425193, -0.02237774623150879, 0.04630802599682534, 0.05241895645791417, 0.04830698967042815, -0.0036236798178548636, -0.04918436364170846, -0.14556233042163932, -0.18129342974210136, -0.15959216121939257, 0.0023271934564031145, 0.014051699687034442, 0.0007801185048564596, -0.01247797382642832, -0.006861787421901848, -0.04763963314050539, -0.019133312275340562, 0.015619319280567492, 0.03121177183816844, -0.18993124922198779, -0.09285016088697505, 0.008666129864731476, -0.06358705237088462, -0.004220401950385165, 0.0003861884933422927, -0.10673419657832992, 0.046209559623010515, 0.18094656234274, -0.012238146782360201, 0.13060781400503219, 0.15615240936865252, 0.10098950025812671, 0.07193656988941091, 0.07034756023536755, -0.042981519041515655, -0.13443673749730645, -0.17629301915310802, -0.14811603374285065, -0.02916713447864282, 0.006520198770655585, 0.004404467632370881, 5.7363253035540606e-05, -0.019435215743363314, -0.02817756390849381, 0.0036216206247593886, 0.025940602374380596, -0.1705375526690207, -0.29041795444234797, -0.25264783018077486, -0.21631004046992394, -0.2830757013959284, -0.292875163632483, -0.210388429166326, -0.255483751257855, -0.23578415470262826, 0.011150255370138267, 0.052797486307799985, -0.001447599957396344, -0.1254935449117177, 0.044197808722434166, -0.11101944356554853, 0.015430393226710637, -0.06076940857181884, -0.128861877820672, -0.10286147276852263, -0.13409498208785375, -0.056793519519881756, 0.006769520419282648, -0.016964330609123918, 0.009507448928039992, 0.02019614756511298, -0.007476167501231242, -0.014362222060524529, 0.025813911888730567, -0.22588539525740464, -0.35303169109382493, -0.5263414588030167, -0.46499157915353917, -0.36989574398713804, -0.33473785852543836, -0.2768687355658388, -0.2744539930822886, -0.12164885709613445, 0.02785540815984384, 0.07786004909533592, 0.016766782640229332, -0.20751307601233898, -0.22576458702304192, -0.04902447443224385, -0.030723059813811293, -0.005635425048242416, -0.09233672435901077, 0.022067036561944132, -0.03153225824869972, -0.022486765738412615, 0.006154410070141447, 0.0004041753777552221, -0.013345157943937315, 0.006990436956630304, -0.009689689972410855, -0.009422857800001428, -0.020016537688648996, -0.2372876528902971, -0.4246876574926185, -0.5985368898663962, -0.6562565418477435, -0.635000789057347, -0.5222279605942894, -0.5544095216009257, -0.37241889843503206, 0.03368011265450461, 0.06685334960775056, -0.08907913890125299, -0.1904902095078444, -0.21867868887032188, -0.11846823367115047, -0.059575979173287774, -0.04069304727674952, 0.00955890773744097, 0.08456402791141988, 0.14230287374328374, 0.055533712507773, 0.0401190178617071, 0.01456420242893099, -0.009498528902817409, -0.0006694514236709322, -0.0031587551702144494, -0.015984556670749495, 0.029906234774491575, 0.005717398160918667, -0.11595073478104158, -0.19732440839654716, -0.4052581648316411, -0.381946191475012, -0.4006416194770988, -0.501674889792559, -0.6075573999712005, -0.33537494329045636, -0.10376987143636865, -0.12777559698590338, -0.17660560194654734, -0.29195211380680836, -0.1709520889052359, -0.06712121598986384, -0.013966111938406911, -0.06187229100559218, -0.08132509089088746, -0.10609198529904355, -0.06812526453569621, 0.027216020758668767, 0.05413632730824644, 0.0075630156446819885, 0.008037742238924636, -0.002757443225691625, -0.021425574797290087, 0.006925562662439751, 0.05591169939877567, 0.07558310937446923, -0.017848176691357007, -0.02388630344172979, 0.006889006760119931, -0.1470934747273722, -0.1511989945882855, -0.2095914547132954, -0.2504838935587426, -0.24932659112699948, -0.1973304008084558, -0.08670216350788647, -0.17778435089247505, -0.05487396804918451, -0.09488251189854095, -0.10044598147356042, -0.061827077045136625, -0.10064893254483347, -0.04724920722855097, 0.03978346041280174, 0.07093269522392726, 0.09639951671887342, 0.02503982606256658, -0.013218806265141629, 0.02250581332146649, 0.002191429579540493, 0.009145509340506505, 0.012395386896342338, 0.04497485911909424, 0.04819715866653007, 0.052861447702257466, 0.11363600341359606, 0.16745755073845323, 0.025467812666071135, 0.01809490729576306, 0.07029775840385133, 0.12090021749541853, 0.05845825036239417, 0.33819170105857327, 0.21435361621325313, 0.11987790676643163, 0.153031444484236, -0.08572760232841176, -0.003078714685805248, -0.043932485298216806, 0.0037314331110014517, -0.0047378763023651965, 0.12734868272621516, 0.06121889187484488, -0.022083339769591787, 0.021672613495837937, 0.0027302373411821125, -0.00456766808629452, 0.015311490401209257, 0.013318514070892079, 0.0002990306223189926, 0.019799192038769134, 0.028659393750132343, 0.11703609006313703, 0.19594755298272776, 0.21978617953055823, 0.28014093252773076, 0.2841760536750868, 0.3391634777561521, 0.35195391314222213, 0.3421891537233714, 0.4110341734619156, 0.2847030336468636, 0.22389385616486826, 0.3912568404381796, 0.20424045590511541, 0.14210541660198808, 0.09377509383586631, 0.07653782577108738, 0.07414204640596013, 0.2501511981820965, 0.09910498583973452, 0.0035388328553975943, 0.02820863863826459, -0.0008979844348833621, -0.0060789376857297486, -0.002002353024320123, 0.0022520122194784986, 0.0005424542867189406, 0.01483834409901848, 0.04567580562838473, 0.11064651091300214, 0.05464894842061953, 0.26348240830587233, 0.3547660646191482, 0.39246150780780015, 0.3347203312444537, 0.32953435476952603, 0.22167267553553727, 0.3138674394664265, 0.21931216779143764, 0.27169436329923874, 0.12295569509162921, 0.20341055732092778, 0.3166099770879367, 0.05645042482712502, 0.09538427758664011, 0.13729362915849544, 0.16675889038285016, 0.16394323700014624, 0.07195136432107202, 0.024498965476056112, -0.01520713189285262, 0.009789798786764935, -0.006395482153188302, 0.0053678481418411176, 0.003062354410455816, 0.023067018336036377, 0.02944103725608459, 0.07905540487950515, 0.032808970261656224, -0.0019112440848857715, 0.18718170924800775, 0.17872173091773005, 0.11859400515499088, -0.09037489712197479, -0.11384619799593179, 0.03258464686610182, 0.042670545254794724, 0.08321613073865561, 0.1951398169191029, 0.17148301848798067, 0.24464915131253395, 0.17580512219090463, 0.1690043216011771, 0.1346872978193752, 0.10397545338725837, 0.09824931581357493, 0.04936955274369623, 0.009739422892954814, -0.007261602796608183, 0.00957872664377199, 0.002378445098075652, -0.004849691561064393, 0.016174703746546747, 0.03685786235427701, 0.029424936842204107, 0.05362231264030033, -0.0370931883114109, -0.07301710011565715, 0.16135459307724398, 0.09734729842286184, 0.18137835328951712, 0.14060469834137765, 0.13528004308434713, 0.10529745146415553, -0.030957591497939783, 0.059665692675685424, 0.16069342298581166, 0.20001953508544845, 0.17308848131325633, 0.04816748176201694, 0.12979753411648434, 0.12417318251993983, 0.08388609424190677, 0.06536331242415194, 0.028797829898496143, 0.002462003054663417, 0.013877281731837339, -0.012514381622990038, -0.0214645112294109, -0.004644869694986245, 0.00607856143120367, 0.007654606893713698, 0.009202457031611745, -0.05423274050256425, -0.07734487074853352, 0.0009670657342121169, 0.023071657282963065, 0.01214139465259056, 0.05146949155015876, -0.05825629472735214, 0.025126415837827563, 0.02170925823305867, 0.09480276095091753, 0.15703730259631557, 0.39488907306551774, 0.37772811837347336, 0.1738358636495276, -0.010458074441544795, 0.01420310711692352, 0.06601392142401111, 0.10700988420418397, 0.06976259023454877, 0.029321048950172155, 0.01394544247822272, -0.014067653457091621, -0.0024754809503461433, 0.0021885137641980547, -0.017391730400431377, -0.008376837720465281, 0.0023250303959499777, -0.03359633517247099, -0.0036421299524830087, 0.005047812496206117, -0.02380416601366532, 0.028663390066798185, 0.024355347745418185, 0.01774197394342086, -0.026724339816432772, 0.13991875501157702, 0.2943584101934426, 0.1206593028116087, 0.22989631855202206, 0.28510121694021245, 0.20844248135454285, 0.06794684242623242, 0.008365745620759478, 0.0022343508124191953, 0.012060240753405723, -0.0065135578213195355, 0.008813008784524533, 0.004969253383678862, -0.013318778569093283, 0.015141392639631329, 0.010286292070119312, 0.005050319071354981, 0.0043654996269353805, -0.0006766508627565066, -0.01008240433684647, 0.01578400075766691, 0.017831569126840745, -0.009715633158368977, -0.03268401867059306, -0.04427108708790764, -0.048335163200128914, -0.007411381400921394, -0.018661228119328837, -0.0016503415732475849, -0.07035971155327055, -0.05052909578276324, 0.04810763548285034, 0.0049887918277040375, 0.0011302349367755642, -0.04970322112647738, -0.03594178542345949, -0.01578000576997757, 0.00013407377937492616, 0.008976454134600525, 0.013123075556576116, 0.00815330460523475, 4.259109489595945e-05, -0.015538808119724192, -0.012275603809897315, 0.001015800294278939, 0.006159917186400792, 0.013396353676648131, -0.026873796744049754, -0.00854340331797443, 0.001840725905727488, -0.006700020355759922, -0.01019979328718685, -0.0038246651452774334, -0.012248926120062514, -0.003607443765893992, -0.019715536454469558, -0.0029730921182479363, -0.014283576512633516, -0.01089323367490372, -0.0028662531121514084, 0.0007079886213119162, -0.006538015063792367, -0.019767907729055262, -0.02014608916287406, 0.01360528553633935, 0.017257275629055886, -0.0015346943243361806, 0.00921007597570412, -0.0030379026518287727, -0.009980088449936917, 0.006785204095904886, -0.0003974529567863368], [0.008656152619112813, 0.001105806281437242, 0.006405033904741164, 0.008883562598389997, 0.01687618775797956, 0.004563391716333251, -0.010980937709454968, -0.001541594805977038, 0.007325581989182345, -0.017972484635234737, 0.010398456579935864, 0.013062253001520434, 0.006311565115410624, 0.0002618927347069916, 0.010937337443610457, 0.01269237635590856, 0.004632757040791421, -0.007849905687219374, -0.0010783931760155348, -0.011353731200832691, 0.005232992080846405, 0.022549559147449473, 0.009001272204229537, 0.0006458083918040933, -0.0036175198629522817, -0.0012293499143776476, 0.008446927877183928, 0.00915534714230378, -0.022007668233247082, 0.02195510046002786, -0.0024924151514964816, 0.017217461384742623, -0.01767638550499458, 0.0008196838073383785, -0.0015370382000554229, 0.0034215420480441607, -0.0021207554921805604, -0.006170251631340226, 0.0069297151365311106, -0.0014404541356974935, 0.008672611591944228, 0.013554372198251056, 0.015402514728802844, 0.016143710991020892, -0.017871423308522434, 0.01131454685514827, 0.001687597802387644, -0.004454511395847154, -0.007945846610015333, -0.017002181627781877, -0.007295573595621124, 0.0024122765014270744, -0.014118109227597563, 0.018057663751142105, 0.020795826443422077, -0.015291377632443405, -0.003141431849751742, -0.014450092516759057, 0.009565765465537621, -0.0007263322727491748, -0.006472822322295254, 0.0008300875059844376, -0.007349988414023695, 0.00966723117503492, -0.021421359234911824, -0.02325417849266507, 0.0044400916389573004, -0.008128391924839691, 0.023262321090327654, 0.08543790334187716, 0.09722406019678616, 0.14198248186915335, 0.14381554963035073, 0.05504712382393343, 0.042411095057787514, 0.0443147467739509, 0.02819338239706762, 0.020992418290181235, 0.02634873116377551, 0.013565913695593993, -0.01474114609848794, -0.009175848086329378, -0.017186278550536522, 0.007655793380932498, 0.008986452447397736, -0.0012928996209567514, -0.006856058168217323, 0.0009410504022754475, -0.011811499604242829, 0.009425168240671758, 0.013075529159903948, 0.01951330207356483, -0.01573393898261749, -0.016122334744452505, 0.01788835935134873, 0.024353251156347625, 0.039732943933994576, 0.1473198897437435, 0.24850968946387672, 0.2691181618184944, 0.22465282365684508, 0.17360602316697749, 0.09704541350701171, 0.11615504421442728, 0.10808745110587996, 0.057880186186137654, 0.014414560034108674, 0.006304552156973223, 9.221540018537426e-05, -0.0031656028345241065, -0.00549740585287423, -0.007974024626291017, -0.010022786627521948, 0.015110326928607946, -0.009754958058787304, -0.000987131932104998, 0.003555342872678639, -0.027945149404812755, 0.033700966761257244, 0.01921790572826254, 0.029294852666485575, -0.023396619952177195, -0.028658648926345176, 0.1207043474685584, 0.08228715811489874, 0.09941719314331175, 0.16524199438988227, 0.2859778505777156, 0.23988006573717427, 0.14900018575293852, 0.09400825166275936, 0.03800978492489767, 0.028856195212137906, 0.04863315465406302, 0.039372861350451246, 0.024968717003288895, -0.01754764561235673, -0.01496719426540194, -0.018055929777800395, 0.016484822614914695, 0.007464565445105419, -0.004945732818192101, -0.0068992017882675205, -0.001487715841280256, 0.004077473587358828, 0.02200372698958857, 0.03534205365498284, -0.017388312066518117, -0.09769737783802375, -0.03524407383582918, -0.06715977796728954, -0.017510419452217155, 0.03882632783813615, 0.07491759045679085, 0.020055874625905974, 0.0922326881969248, 0.15132393810308514, 0.18432312098588793, 0.1608705497232357, 0.0808364041387466, 0.05865963351663124, -0.030201257103541372, -0.010341043500341806, 0.047678679026793784, 0.039396246780819176, 0.00553979940851408, 0.012298150554213787, -0.0001616239464665998, -0.00288980518350817, 0.007486206820426745, -0.007532084763499312, 0.004113505475162813, -0.009425260601993364, -0.004264453014656233, -0.09363146125027554, -0.043304171708416196, -0.07717399388340808, -0.04258275670880307, -0.03121040429942326, -0.006028408415042459, 0.07325077826314788, 0.14776338647385692, 0.019565384927221496, 0.09081567410186997, 0.15126781884112372, 0.06260522438128421, 0.1456599601907026, 0.058052519443621504, 0.16995788022681085, -0.03716029995209464, -0.005943221458529133, 0.061664736875044646, 0.06458962041176888, -0.007032157563446122, -0.018847256280864626, 0.0009377636533861914, -0.00877021102120244, -0.0070994137607719755, -0.020685018171583764, -0.042213595693460094, 0.01603023812730992, -0.08172382989594167, -0.0475663720904953, -0.0058719716301110616, -0.07535880055769494, 0.017104088466954246, 0.06257239933837634, 0.18000458458820232, 0.053836675948579986, 0.033029989107485995, 0.18986790411893587, 0.2526309519919966, 0.23436983048282806, 0.16228605914848937, -0.07226826813372607, 0.051027542968076066, 0.03570005838990633, -0.055731596785976896, -0.139033670024184, 0.08321157752316184, 0.025248374280784844, -0.0033655068700244265, -0.008790170789935308, 0.01407238840211456, -0.0017437985254518274, 0.00024305198154408772, -0.005643735364354779, -0.020373309410305507, -0.08582922437755187, -0.13623049084554845, -0.1024845121796589, -0.1484179441172399, -0.10572048155744926, 0.08038589337289734, 0.0014944316544043025, -0.059104888453445144, -0.002343373495570986, 0.06096637043262287, 0.024912651950274464, 0.11716631853686624, 0.20413536043058791, 0.014560323822875948, 0.10978809819214183, -0.01598936824639179, -0.07975155817431923, 0.021375792817056267, -0.13578757911822556, -0.1891049459137938, 0.05849073486734951, 0.0517397975054846, -0.032304327069033856, -0.002549790677284989, 0.0049582466377045, -0.004832596930957403, -0.0057175802416046225, -0.021406740396799132, -0.12185651445439474, -0.22133592192334706, -0.13614158866806728, -0.17821253187298838, -0.22494616332990414, -0.1835387903485724, -0.11166424251241634, -0.10125036275794126, -0.18764730192449708, -0.09846628533648545, -0.14314509222303023, -0.09305980737875545, 0.0016112765395612314, -0.06776382533130627, 0.11090367880798489, 0.09843498733197756, 0.07403813900360709, -0.032747248928477586, -0.09449677662654107, -0.21755063688918316, 0.023363477496451273, -0.013983459493611784, -0.048732599938352036, -0.017174327219836073, 0.002378315096909437, -0.0030738027812402674, 0.005015051931076722, 0.018844996597377536, -0.10924818078255195, -0.2472807487531858, -0.20477247304395907, -0.18909568773839838, -0.277337827764447, -0.28004098154911605, -0.4309125517621119, -0.3904956391307087, -0.44625123839335795, -0.562608960663829, -0.3473066190554372, -0.19843179391987012, -0.05626290092529565, -0.16054852453773855, -0.06505115942172275, 0.058006264629408694, 0.08085050575428943, -0.08851945253608673, -0.04081464848044959, -0.029555794297508372, -0.06567559131927746, -0.016687859731064028, -0.03291456908166351, 0.0051649698937292435, 0.011528848906995164, -0.009113764841187161, -0.0037251141985697464, 0.005254354512772098, -0.10550536160246136, -0.22042892462293665, -0.2028332171779713, -0.2711662739473687, -0.1675050083721994, -0.2985749803397389, -0.20328424056760266, -0.36874171295531183, -0.14174031907220833, 0.022487418611578238, -0.03136668371393406, 0.06697673903962456, -0.09156398057176504, -0.08643889359868154, 0.05726888448777772, -0.074379211145718, -0.09459896325247849, -0.13069179334279693, 0.017058817101784324, 0.08051500400347741, -0.012081349480687776, -0.03783373806499271, -0.02877075545182347, 0.007205228396101453, -0.007065541073718377, -0.013297958284020438, -0.006849234578268027, 0.0016549167712152618, -0.04337449049269488, -0.0612215870922961, 0.013361005874609408, -0.16692592329763065, -0.1845077771949826, -0.15328363262625466, 0.07415943545559198, 0.16770071051058846, 0.25989732371863417, 0.569846708912376, 0.37524387569501033, 0.26710225492757017, 0.22568653472436123, 0.06098619002346769, 0.038281304283709336, -0.05031357419507674, -0.0042213585969236855, -0.023774066550311626, 0.1641355906158518, 0.2270794217385771, 0.007879425535688666, -0.07720310652066928, -0.025986246452922163, -0.022200936857300662, -0.006465784499354904, -0.00011668636073406602, -0.006785880240315041, 0.03724217954834423, 0.16116427615241985, 0.16803338930914577, 0.21719596439339875, 0.22990203974863452, 0.24091154679153795, 0.18563471408168086, 0.3250028268547795, 0.35550345281757767, 0.5016093174623284, 0.36025409069528364, 0.2679422061257719, 0.4054758079417323, 0.2721721417391185, -0.05304506712898883, 0.05776298525396318, 0.06184004003445416, 0.07800380851629421, 0.10604727799815394, 0.11133736198199931, 0.11170705825687394, -0.10010626699379957, -0.09119072406443943, -0.06719627222461098, -0.04369331009485162, -0.002413990275064764, -2.000208194993604e-05, -0.0179879019219858, 0.08506208460876254, 0.24220553940685155, 0.4019827470699391, 0.4288570221841961, 0.4961833771860189, 0.6156367640521652, 0.7362473456130247, 0.49893729450869057, 0.3835203313222329, 0.24050037194248533, 0.11500015289234737, 0.24232371824043436, 0.29238183455354166, 0.1887019559219414, 0.028304574191336026, 0.14311553039340982, 0.02167932762092005, 0.16861319695972637, 0.1531825065776668, -0.03827988695352984, -0.038592195338177024, -0.06560240761178493, -0.04993326695138403, -0.08369947616498444, -0.001460124883182124, -0.01611993445636305, 0.003745865744821919, -0.011051526212653855, 0.06536375620576684, 0.2690234052342903, 0.5329476132308725, 0.4753211015140632, 0.4605400388413786, 0.5589924656930774, 0.37570238368912157, 0.22194827402415315, -0.04418287268784272, -0.17724959572456117, -0.09106641264255001, 0.19400624278024622, 0.3301789933520369, 0.20731399965306888, 0.19083002441788707, 0.1519484211084118, 0.09538245610983508, 0.07276906952883064, 0.034318705736164315, 0.01833726847270054, 0.03523396972092315, -0.037379758438063945, -0.07058249335748323, -0.07858970407431146, 0.012711356772344879, 0.006560471008325851, 0.005742427607483852, -0.02019120532969316, 0.0462953809964683, 0.2848608230480417, 0.5085902187524192, 0.4181281465716814, 0.32241135335878307, 0.20087483186384436, -0.09463596444717576, -0.10211680437078052, -0.07443243105730939, -0.15460329279406684, -0.011697917959350978, 0.0674447503798536, 0.1292940895281069, 0.10690260770545998, 0.20351748815243909, 0.09764959295612188, 0.02481129414600671, 0.09141615468808435, -0.06410677953538668, 0.12617931526626247, 0.06466669372372282, 0.060977518507380354, -0.04611052885375099, -0.03691260211475497, 0.0006734035028587405, -0.011718754599120172, 0.004129004978864315, 0.01021899021490936, 0.04589814998200929, 0.17659343970675245, 0.26197369895802425, 0.24141238851526992, 0.12357540615332845, -0.07025949887982966, -0.007410094891816057, -0.10085966549481178, -0.15981512470201467, -0.20093169969784025, -0.26031430325511645, -0.137510915914439, 0.06305884406476424, 0.07327410226866699, 0.0753701237696554, 0.1910751795689734, 0.16189662251765236, 0.07275709619371562, -0.08297538397496214, 0.11428203830874299, 0.11024160267807513, 0.04485932874647076, -0.0977630675973248, -0.04273769129515312, -0.02622132548010344, -0.007248697104707743, -0.012097633267697543, 0.007489384736395269, 0.041159719407903236, 0.0344062771076687, 0.006257900257983922, -0.024587038841685928, -0.1375328069041172, 0.06870305019836744, 0.15378497717795211, -0.08470476502971563, -0.215696435615237, -0.2527207813277039, -0.10164771285513288, -0.02339579276757799, -0.13647140938064073, -0.06929231193326013, 0.08217417339942372, -0.07749095804698825, 0.061666494622793194, 0.08252259530439253, -0.12922620789406553, 0.017892840924580156, -0.03145939197949303, -0.08991579185405589, -0.08316372059917927, -0.0416564751336276, -0.02753591714005351, -0.0027976255669314525, -0.0033671539400367827, 0.015267602260322833, 0.04853152978958042, -0.025889309055030833, -0.05513641876477675, -0.0932381259993871, -0.0191436458021445, 0.08349713594290033, 0.05599408552077936, 0.023745462591264446, -0.2632746716537219, -0.1778173662311155, -0.2166183349249366, -0.18095308732503498, -0.18895579304334184, -0.05353177354050398, -0.04883758200763379, 0.01978719123126415, 0.027691592343730646, 0.05849688944751753, 0.057213230266507424, 0.10347772526365456, 0.05695505394419378, 0.020837155969154933, -0.04894020839339155, -0.04085063538953068, -0.003174342213079255, -0.012634206179371785, 0.0007703160364030962, -0.012363710437268364, -0.047078055455091264, -0.034415272208225746, -0.1116065327743011, -0.14772099204467926, -0.09611060616139606, -0.1286201394415055, -0.021919992229627556, -0.16286963575976793, -0.11795598624456424, -0.04979169358731422, -0.08108502650235386, -0.1016581963052774, -0.06753579914562433, 0.196788704850072, 0.16650618515578403, -0.0370846461310473, 0.1343286952319923, 0.11434652731593277, 0.1840016946695431, 0.26572129895270497, 0.07416339025257652, 0.08479176334611542, 0.013785510107286866, -0.023318884501085862, 0.0018090796802630886, -0.017337417744534244, 0.006022847563996755, -0.003308445122020361, 0.01923940914703729, -0.03357777524759361, -0.05814198847557967, -0.028910049912386014, -0.007198533986434075, -0.028788704834553848, -0.08687661106409737, -0.18222654288909299, -0.021686250133376366, -0.05375103791550789, -0.18569803540172267, -0.2497644911870496, -0.1192875642941959, 0.005818742023768654, -0.05913522332338914, -0.17352496854021354, -0.022240135230320344, 0.13129867612811885, 0.0852651626214205, 0.06685605074044121, -0.07219702360127493, -0.032881104844367674, -0.014396493999823469, -0.0074034847266529315, -0.01803299985456435, -0.01228967794306323, -0.005088225281913762, -0.0284897430456645, 0.013934169984188137, -0.0160519283441489, -0.045632313275006255, -0.06545390837226386, -0.11261163809300148, -0.0642666827602025, -0.18614339579279293, -0.032126402375429255, -0.023044252934172785, -0.11359013824302058, -0.1235899721639893, -0.18465229214417436, -0.11654821624242344, -0.06821871313535659, -0.0412485402604243, -0.15897180139750225, -0.12226665624908424, -0.026058460952558118, -0.09709652819596461, -0.005048957238714879, -0.02625806813253072, -0.013887914347029224, -0.004498640168535051, -0.008926473704512907, 0.006091593503063195, -0.009183220879405448, 0.003251898230368094, -0.0056145141433254706, 0.007627131153129698, -0.008682251302443553, -0.025639746336817707, -0.08833550388174166, -0.012564187576753948, -0.049506321885297376, -0.15888230019211494, -0.05807243132134068, -0.18240759745536914, -0.1795385535833442, -0.09243625603308563, -0.03001123144694046, -0.038055018948981986, -0.14260774680419244, -0.11341921250440405, -0.2244921933772108, -0.13851349611577876, 0.005089112234049648, -0.09006068728236265, -0.017133908347148487, -0.018601602537759634, -0.004694955917185303, 0.007495786328046526, -0.01643531397363048, -0.0071212864982066575, 0.01561379358998101, -0.02887811068862828, 0.009787842181373133, -0.006788861017684569, 0.022203838596374825, 0.07150225176884287, 0.005554552496073068, -0.010615600359096086, 0.02257488357520712, 0.019894294761823906, -0.01850027214094757, -0.06706603319764365, 0.026608283163786026, -0.13151572611696, -0.0605750605349533, -0.05424799765405096, -0.10558604250117722, -0.22299194881267473, -0.22051318694445476, -0.16829295489362772, -0.0004296429854738463, -0.03460817369471594, -0.011565540333756478, 0.03199085104538687, -0.04016989631990046, -0.012407204114012874, -0.019062806974393318, -0.006724558345616391, 0.007354095962889743, -0.013816416178393881, 0.0014788474699600376, 0.009854344711319355, 0.016372969484118177, 0.05671034522192955, 0.04748953950489262, 0.07278736877145865, 0.07152573233626666, 0.11778680634902579, -0.022740537037818965, 0.02003639684020679, -0.004465716689307944, 0.05125362446126006, -0.03520845449017018, -0.11962390031586426, -0.1626339728282432, -0.1458424851787151, -0.18708714215781796, -0.0881390170323674, 0.03652108609205381, -0.008681708192261434, -0.001891777726111195, 0.037300994518058975, 0.02272515113397782, -0.0016421536980367683, -0.0043265647623287, -0.0038902958253996937, 0.006174105069041642, 0.013041820069326778, -0.00868405242906081, 0.013722974986801566, 0.014915589309212366, 0.0317271214911262, 0.07468889955419804, 0.06990438552920157, 0.061284161061670575, 0.07068052495972475, 0.034694787505220245, -0.07245172296006408, 0.013688978158870883, 0.029446476862503013, 0.0901146557170526, 0.06499289921076208, 0.04464404005612075, -0.014819936271797084, -0.06175529470548536, -0.10090719642370874, 0.004966334487986325, 0.005271155855498851, -0.0072381076793476915, 0.002640806846703474, 0.010102108243581287, 0.003253319622341119, 0.004672301117453326, -0.0047201526295788, 0.010597090623022283, -0.000360227328635954, 0.00857970136547524, -0.011718282104895674, 0.017204311364525927, 0.012621115075196856, 0.0013583410440991851, 0.010635852700998321, 0.016913742431585707, -0.004951089025339234, 0.0016140069013362282, 0.0019243902606554694, -0.000876278162631277, -0.020142103781647304, 0.03265522254974288, 0.04852152259508372, 0.0003027027590845638, 0.0044122930924736375, 0.02438788987279169, -0.010834152739530561, 0.011319826249355245, -0.009444457544102903, -0.011934278685782044, 0.004413499274952854, 0.00021341847758150602, 0.011179680615779435, 0.006990318302712443, -0.009746011963143475], [-0.004379155563843792, -0.024061128590745474, 0.004513692210429032, -0.008493539078347625, 0.002772610991413828, -0.00889234303896107, -0.00967569564388375, -0.00268357543049896, 0.002244403321825636, 0.010962417076686227, 0.0022964217299930663, -0.017478999664256607, -0.014098229979321813, 0.0009500133507491334, -0.008418398131314474, 0.008810747275574385, -0.006007043683356912, -0.0061128904611402555, 0.008701227624602735, -0.003561361632828753, -0.003966150298642365, 0.0028741387777999807, -0.009087098265406041, 0.00010704852804366448, 0.006179665667385531, 0.011572905596375617, -0.014467285268323686, 0.006034998260171895, 0.03205578801154917, 0.00401497295488696, -0.008118145595230138, -0.0027387112638634368, 0.0010596535175734728, -0.004596703507420887, 0.012802520999544239, 0.010237713693805595, 0.003224352448567418, 0.005901460015244132, -0.021380540220191414, 0.00328535605717111, 0.00749965223816059, -0.006966402816198802, -0.013234751872967557, -0.029344062210906675, -0.003522752207005829, -0.00658723828617374, -0.010381862485976369, 0.0005822437089579943, -0.016862289734228802, 0.0011516492537777933, -0.0007132301362053594, -0.005205647736000607, 0.007331378724159032, -0.008962204643233725, -0.004964624833591615, 0.009837146433259046, -0.010053479710545807, -0.008343520510266315, 0.017534724242314666, 0.004232189358753508, 0.0013700023570866176, 0.013563495675450383, 0.01868500508963707, 0.005666017556483119, -0.012348620881422663, -0.0058100457517534345, 0.006287869638970543, -0.012135256211056841, 0.010345015326063236, -0.009769126269486172, -0.03555657612317312, -0.03975030551149314, -0.008342620270454742, 0.011339159916784412, -0.019518097618637566, -0.015862869656886, -0.003960195718168532, -0.001765254911133467, -0.005725163447903208, -0.022016507491888288, -0.004168725676195219, -0.015650995648779937, -0.010638514899924017, -0.0030755969740988913, -0.009980854454485037, -0.008510335083243859, 0.0031296751396460275, -0.007107623539472061, 0.0022009800517776602, 0.00808488695152128, -0.01454060158088031, 0.007693988806614786, 0.023922670196498238, 0.045146193045523655, 0.023981278551871398, 0.015822153129717822, -0.009017800131253369, -0.04470493442049524, -0.032420821091134006, -0.02924497435788628, -0.0685074201932146, -0.08324936710425186, -0.051601104976737255, 0.0293764399303245, 0.012029017312874394, 0.007515631061337275, -0.00450112602460105, -0.011892085807367656, 0.000278221267693791, 0.004976920891400945, 0.0019353251515225526, -0.010739346737254678, 0.008315948129093358, 0.0024686642405994286, 0.000743135600614698, -0.007041075167050202, -0.003149276387730752, 0.003401913648274162, -0.009984524481053825, -0.057224991864259965, -0.07867958006004419, -0.06119896604137542, -0.007278156832656822, -0.05898772559698178, -0.002651779935454638, -0.09928028720810693, -0.04939804982671917, -0.12483290617791731, -0.11788114906113585, -0.06335622136978218, -0.07385066936929167, -0.09128962210326977, -0.05650429466651747, -0.00941697475519024, -0.05947182430601387, -0.015661473958502186, 0.034979875341731796, 0.028183591180165942, -0.014792705128481987, 0.009888514261223367, 0.0002381490667835876, 0.012821423862654138, -0.0013371322970337435, -0.01059946553922766, -0.007151113966506799, -0.03170836991951455, -0.05378605539209635, -0.0810960675099945, -0.08084725877388707, -0.09020634532549635, -0.12181220455176985, -0.20686529814428906, -0.20356291966521883, -0.2741799569480864, -0.14490866643632427, -0.0233706715272409, 0.10416568018758252, 0.0721562771011379, -0.03766996723829437, -0.23089823171385312, -0.16990516983418194, -0.17110978934516505, -0.04549370690166471, 0.05332308939588655, 0.022393143256656218, -0.04218012413844728, -0.017557523870378622, -0.007351892033949309, -0.008709546624427952, -0.0028242436965826784, -0.0004886907433713574, 0.0049546175535871055, 0.019681819556194663, 0.041319932191754644, -0.019272886467187823, -0.04354672445432831, -0.035822502646189594, -0.14958943962908594, -0.23114037861711859, -0.2219559097340824, -0.15193037167967752, -0.3105148804381087, -0.13395555434157877, -0.20081119235642203, -0.1780219911298126, -0.3003068951614527, -0.3584980638330094, -0.25716884774151827, -0.3178573515709387, -0.18056691992120483, -0.030079931677567125, -0.02518378036472161, 0.07787870772036651, 0.01555015345512391, 0.017182726416879325, 0.0023568169492477658, -0.027006728086578696, 0.016301882476858987, 0.0036441124713850834, -0.005669722317565638, -0.02501014110062728, 0.05862296103031158, 0.05319976295019305, -0.0372064127217432, -0.12954277911871057, -0.05073493759994102, -0.09461243495157466, -0.04948022367284792, -0.15273784809094085, -0.23197409151792378, -0.39093719104706376, -0.5557485396370003, -0.3000031460272091, -0.15794792900254986, -0.31857707026994614, -0.07585966384531363, -0.03791218312973448, -0.12198755641908984, -0.03320681320992713, 0.059258342585077936, 0.10809544679640075, 0.07651812558189758, -0.013675611205150592, -0.0128473698969656, -0.006706479705490649, -0.0142625964408339, -0.009533876175476482, 0.004116722274699962, 0.04335165484984861, 0.10787721668606973, 0.05933462469590272, 0.009043179181023028, -0.11529993145901532, 0.0026043494659345958, 0.09545526621936201, 0.10700144987305106, 0.023197181714025048, -0.09721237180545532, -0.25470362132324126, -0.16685527591567828, -0.2117516160355893, 0.028739019495937088, 0.029341469353424167, 0.17932327928260142, 0.08897595495842166, -0.08964002710158513, 0.03942398456945291, 0.04836432940895587, 0.08973467804981979, 0.06438121705608484, -0.020118328408478256, -0.01979520041659799, 0.013319761307504244, 0.005643866706735279, 0.016813410473619568, -0.01981055874584969, -0.0025751533425542655, 0.11316483299873363, 0.0092426742137317, -0.014304224210756961, -0.013213136259064336, 0.09536872666555252, 0.10379550003335027, 0.20089172645513, 0.31173887245512877, 0.14435586170593698, 0.11663239488878083, 0.2105740754262685, 0.3052674797492627, 0.41005276569051274, 0.32041131999102135, 0.1306360080991323, 0.10121622103242961, 0.027642164425361115, 0.0893082413182478, 0.028086698500593584, 0.045235058100204895, 0.07771866119801359, 0.006211997602113266, -0.004045687360145872, 0.0033998210559515593, 0.021867539757031252, -0.005978295760790813, -0.01066019406734227, -0.002277665478883896, 0.07326075130719127, -0.01628938400728009, 0.04894427731932969, 0.042835578925615084, 0.16215098632248956, 0.08346099050956318, 0.1225200936092629, 0.25383087306278174, 0.2355150478967156, 0.11804081416985585, 0.2542403817112778, 0.2183117215010181, 0.31736486132725145, 0.08857606819054471, 0.12825471775872294, 0.08972147136294165, 0.004300409243967742, 0.05383320450616724, 0.024026801202180037, 0.05895168145577295, 0.09303218067363386, 0.03797598977659584, -0.018995955530923498, 0.010096803373517435, 0.007866642412607951, -0.009744637117589928, -0.04467454221169007, -0.013175434562849917, 0.05408927269222385, 0.09139876906021963, 0.05669236624000818, 0.12632629331194942, 0.13921559541417491, 0.11983149878839829, 0.13677522208929552, 0.14242528819187877, -0.024156679371388937, -0.11476674066231712, 0.09295924110938616, 0.17649563692073172, 0.02843214019830788, 0.05616939419738872, 0.1731064917640797, 0.12624569550745365, 0.0756994364491795, 0.09316253521322729, 0.0456675802590803, -0.03361784337565881, 0.0403318601661141, 0.006102629367515354, 0.0010870098698436527, -0.007522077528743785, -0.0012129545597898746, 0.003360058719401698, -0.05699477615645205, -0.04164524267894477, 0.020349305160380207, 0.1424778610616288, 0.13120174275681554, 0.14916016754407316, 0.02785775291772536, 0.22461153786530186, 0.024020044787160997, -0.02498784637824239, -0.09995096234559984, -0.12538448049283243, 0.07309054265809044, 0.17392059544784688, -0.03005917513064408, 0.08128743070735871, 0.2851455922933126, 0.2143045588104544, 0.13015870902524296, 0.1205543639461939, 0.037349340353725134, -0.04498362792895853, -0.010115514532579386, -0.01679856107057294, 0.005908957051185311, 0.023598560804871504, 0.002893242582926418, -0.0029931445630340067, -0.06847865163869032, -0.003091173511888506, 0.0824156450389651, 0.1594331317216721, 0.11737149137885823, 0.06487844058663271, -0.007358021308269441, 0.08322051819925577, -0.03475186203106355, -0.07673531475125722, -0.047712362322973864, -0.06240955094756709, 0.04413042361812545, 0.22754155562602013, 0.13172074069651468, 0.1622099113378026, 0.2016074706153649, 0.29305123669072103, 0.10845619420448167, 0.06984570795236132, 0.10648101544653378, 0.021308467568857636, 0.03572025265089224, -0.004116230947069463, -0.008934678979432913, -0.015129078676979008, 0.002060158204422524, -0.0031756334639411556, -0.016700215361134623, 0.04148805119659051, 0.09443898405778148, 0.12808372575648333, 0.12761778387964756, 0.058266202941609876, 0.06352538968680237, -0.03955428501048489, -0.03813251623875233, -0.014136637123211886, -0.1235678293976404, -0.09081972047434377, 0.04931626537540714, 0.23649844371774123, 0.24681050632751672, -0.0354015285617415, 0.12430355229575418, 0.1291108889118958, 0.08627644011981184, 0.11275230300441708, 0.09396079957723356, 0.03639045550515215, 0.013621825173920077, 0.007400816548929875, -0.007706141577144297, 0.001991747621826596, -0.006839789177125633, -0.0019064726746953458, 0.026748227142195345, 0.06742739433127139, 0.06524148905385153, 0.06818137766119305, 0.09647968313035295, 0.024840131402342792, 0.08075378447586837, -0.08930286531720688, -0.04607111537559059, -0.00032793335261192407, -0.030870208800307452, 0.011976995518993632, 0.18834944822545444, 0.06437009591793816, 0.14123039364347342, -0.11685571937702356, 0.020793052730094647, 0.003159548641124363, 0.09461826029039438, 0.07409089717285254, 0.08522925937679525, 0.035692749029670824, -0.001982132565241726, 0.011468890454556296, -0.008870411497694276, -0.0001535200668339697, 0.00918332484428803, 0.009522490118031903, -0.012323412646274621, 0.014688966818412506, 0.019294347042179878, 0.038515455096315036, 0.09255282850270906, 0.21452498584242943, 0.15540896831119377, -0.02852527079772098, -0.002422816447219683, -0.004629191202584961, -0.010654214547410612, 0.010058659417887012, 0.2159253480005671, 0.12267017157042814, 0.1912807594576446, 0.028495356328296927, 0.06849629697916544, -0.03578005321254951, 0.05023061523336262, 0.049241286933048, 0.08187591090444465, 0.05068562871983422, 0.005187696944007803, 0.001895391050739087, 0.010876228190419593, 0.014623312084744995, 0.008206704013783263, 0.01095995910219714, -0.038230267807590014, 0.033287399168890626, 0.034329572301421446, 0.08016104760879508, 0.15246002816000762, 0.3632325431532854, 0.28787380007989766, 0.10139861336041606, 0.0008639907164325051, -0.0886934008770231, -0.006968014289136829, 0.1382212550410766, 0.2584666999544916, 0.14275697533894807, 0.1639918121939774, 0.1793120624431735, -0.06229844862043352, -0.15158747886147508, -0.011239084611750851, 0.06181808512136182, 0.025830710593664836, -0.020491932213605023, 0.018062308242111975, -0.0025933142827726328, -0.009881674953244173, 0.014840240999995563, 0.0061535028641557365, -0.014143529948927437, 0.010047147108198594, 0.10615462028154624, 0.11280026942660093, 0.10248589864740154, 0.17194744563254807, 0.20878319372454415, 0.22390569270757846, 0.10908391246492843, 0.06964234353398716, -0.0017693922418485152, 0.1723412031351904, 0.33778916886751115, 0.1934670684205174, 0.11497585163061333, 0.053416754170623006, -0.018255276132122827, 0.00804381507157937, -0.07027020346849777, 0.008740584737014702, 0.0366193520936502, 0.07678568584300122, -0.00462142871439743, 0.015711290272568866, 0.00260836874543515, 0.02233738629239161, 0.003210092925990841, 0.01586847060768414, -0.00045692809471904137, 0.024037959580860017, 0.11256676118617184, 0.12774276961581937, 0.13383045153141568, 0.09500827907156677, 0.11536810933836777, 0.17471469974453485, 0.11581417212077266, 0.15112232033615264, 0.03454681078046378, 0.10427054667513608, 0.1434794403664532, 0.13863484026818954, 0.06250473958372083, -0.10889513421782439, -0.1372381206662743, -0.09902843296052985, -0.04002892482299933, -0.009844518880997018, -0.02823881969623482, 0.0431903144759452, 0.002407337952127818, 0.04815225253186767, 0.00206751072351937, 0.009513209354803456, -0.009843145791496425, 0.01858421630145125, 0.0016832994340917292, 0.03728753000270517, 0.049603361115507165, 0.05039486774292333, 0.13657649005942366, 0.12486106216836888, 0.11673928681944835, 0.23928710703289705, 0.15964430965342322, 0.07394321335327227, 0.041832547362949335, -0.10223982546333069, -0.18798235869306815, -0.2470999107960657, -0.10929206935180527, -0.10204643422649981, -0.13970757591705601, -0.18143500909240887, -0.20919576813425889, -0.08637550939769535, -0.025846322444281363, 0.012934596012981048, 0.011142832618567054, 0.03155161496860704, 7.583679727298688e-05, 0.015783782663302645, 0.0060810965216504635, 0.007451036479991187, 0.01661960329721362, -0.007192554741214606, 0.0006527436951781783, 0.004479417939685332, -0.020699783660584652, 0.0014951944104706657, 0.010215051610364293, 0.17663427309334478, 0.0436906134396554, -0.06782223357240394, -0.13706762640747824, -0.29469179010430957, -0.39357514406329547, -0.4329159416059733, -0.2607911208412905, -0.18489576333007388, -0.1638116534573554, -0.14888187965956534, -0.16705366016597065, 0.015844953106804175, 0.038487269482744335, 0.0481455913823463, 0.006279403908616717, 0.03490874339174265, -0.006084284782816924, 0.006267464302211346, -0.0030445951626540692, -0.0028109285622108485, 0.007187580171129015, -0.011745322580694386, 0.012491130620271998, -0.053609690393925824, -0.11377629188820593, -0.1850194372032014, -0.13582551618294963, -0.054359484459372734, -0.28406508368501676, -0.34932601916817035, -0.33717281649411024, -0.3619688450082499, -0.357379243910129, -0.24280360923504268, -0.20786962179426002, -0.14879562635338475, -0.1192068071013307, -0.056391263420268, -0.15438075778440558, 0.03312867243241769, 0.04855345799989216, 0.04094161915201131, 0.03339763484063968, 0.03367736123661101, 0.004314212735430494, -0.026422376291932996, 0.011697919798758493, -0.001652039804399357, -0.006450831888753506, -0.020922664874805777, -0.003690934764042985, -0.038787722761321114, -0.12873924421468652, -0.15330303775418244, -0.22880327176038717, -0.14932971535890535, -0.14570397467118526, -0.17936803258367817, -0.2168275142065433, -0.35417908919701235, -0.19003871795087826, -0.2449861060004597, -0.21182415543525998, -0.14591075694922537, -0.05933658251152348, -0.12418908599093591, -0.15444449031107488, 0.00908602053120489, -0.020224693126382753, 0.018429578143911635, 0.017161565319215467, 0.014356556216452201, 0.0030833724651991453, 0.0025744350879153407, -0.0011513506404794533, -0.005624337877360673, -0.007892966778578321, -0.00018718320907133286, 0.04222427671916231, -0.03121995276006831, -0.08546341928833001, -0.13835912467748385, -0.09170440864151815, -0.033871695928783085, -0.04111588700181976, -0.08864579887809369, -0.16055717059995506, -0.14993607361596847, -0.05324309110910706, -0.042152701240475175, 0.023364177616564757, 0.06610566222083025, 0.0520783945635982, -0.01162167555401374, -0.027130573008339057, 0.0057806416914100165, 0.010710505721645648, 0.0014868310009755047, 0.03130165343998925, 0.010116677142933156, 0.010853915240665719, 0.001256777336677545, 0.025032332585003033, -0.0005229410304354035, 0.012430421995797008, -0.0007105619675938477, 0.011654306477616021, -0.0002462516082200481, -0.05506214332088432, -0.057299484003045784, -0.052773737685945316, -0.014742962654616413, -0.09232945692876857, -0.030920477502633395, -0.04946560949775305, 0.04009984420131129, 0.03385452467271442, 0.02796700445177194, -0.01547860777142551, 0.030807285446934726, 0.07177657300337076, -0.04557348914955162, -0.026539250733581373, -0.0426525772925064, 0.012120720292712609, 0.023264367481798, 0.016933650958615456, 0.0041100160905992895, -0.0002049513371251819, -0.00047659037160735035, -0.00034175559356406076, 0.014913527780001051, -0.00193211407073629, -0.0035912205058990397, -0.01886503639504536, -0.022841041635068015, -0.01877700333168324, -0.01322321974864145, -0.03233445899750804, -0.0679255120658615, -0.07121741421937922, -0.027156951781011962, -0.02758062798133312, -0.04757232121957162, -0.056630972511988446, 0.04221922499705106, -0.04079834698736198, -0.09855211881357964, -0.05653550438345841, -0.02962854380830374, -0.04489414063463751, -0.03691368361574665, -0.007405854795540754, -0.005824659578002322, -0.011826110164238164, -0.005185634087979272, 0.013646713954829474, -0.00850061492787743, -0.014490830859934588, 0.00888124049189022, 0.009000867474970014, 0.0017860635034595222, 0.011010693428833212, -0.022099428400635075, -0.00932331755967146, 0.011149734370975679, 0.003333855884629041, 0.007555706314460616, -0.0098197998179429, 0.0024245337271254354, -0.001071000090506312, 0.004277395908224031, -0.016106210396843214, -0.015308180116961058, -0.004217508757595819, 0.016252009205623228, 0.006212677674432175, -0.008576740268059551, 0.0005384968031460034, -0.008920604083419319, -0.0025680240839765717, 0.031498520075957916, -0.013003367997931824, 0.0016350589045030694, 0.004360611411935181, 0.0013099361002927462], [0.003847662053438946, 0.007978635466029392, -0.008463763896997678, -0.0034991489082145874, -0.005733540662208453, -0.0018310598614871124, 0.010602734441784062, 0.011443265793354184, -0.0039058371546586363, -0.01982850614315749, -0.012732851459595995, 0.004616064589346771, 0.0033616631944535236, 0.0010121671628923945, -0.00840259689167093, 0.021293574031026177, 0.004270686516849109, 0.01808184899004559, 0.011606693440518913, -0.005394812917030421, 0.00565694286599373, 0.0018048749945543494, 0.00260766256797334, -1.2882599945552522e-05, 0.024718936510746366, -0.006480677892017755, 0.005721609429753202, 0.013872508902454261, 0.0005857804020780169, 0.002521154754853273, 0.002875106491859481, 0.006476466766482204, -0.005802175739267777, 0.004380595089559499, 0.01821111075453038, -0.01144698127054449, -0.008638869512697121, -0.009408880459696383, 0.006267317229467176, -0.02356693042413724, -0.003932662237587833, 0.00029082256735363634, 0.012886055711902811, 0.016092068650034815, -0.009153540766549216, -0.01544851524780842, -0.004252948670976389, 0.00493999801861899, -0.009829880680122218, -6.565885355196995e-05, 0.007241400539495728, -0.002104013051598426, -0.000631299946035848, -0.010806794367870154, -0.013074463851981305, -0.007708690191505911, -0.019564319617889594, -0.009260142331514959, -0.004695889920985881, 0.01410571856985083, 0.00785326116681815, 0.0025227096723519694, -0.013643844701621582, 0.014686952050831497, -0.023417292207318793, -0.01681111495914448, -0.010926020959692948, -0.049621170574212725, -0.05325649763705636, -0.030930492214515173, -0.024288047373433905, 0.06248036400972411, 0.05034174936262682, 0.03999433828411228, 0.0701194859472045, 0.042585920228405176, 0.008312514093573488, 0.009457557681644892, 0.0006892197906816023, 0.000537031099387948, 0.013595274047353239, -0.008029024378490708, 0.010337482444276899, -0.007303761715390475, 0.003185476191585008, 0.0013578682668302724, 0.00041433416067307617, -0.0075959230833545985, -0.029015370817983388, 0.017593770107998695, -0.0010513893575660668, -0.018931939064821997, -0.027109855905993876, -0.01705245059661203, -0.06105837300733948, -0.08892169142487577, -0.024177729808712016, -0.07383948427682219, -0.10664475826130868, -0.004546506455029753, 0.014905150134145274, -0.032641857780906426, 0.01751407762767027, 0.09707311255035611, 0.0803076381021675, 0.07682293442457469, -0.01464161212819502, -0.048605539090061343, -0.03933636996775991, 0.002290124951121507, -0.015462118259063597, 0.020479622250984642, 0.006028970329901203, 0.009659693695205739, -0.01592621484285952, -0.00020931975064458655, 0.030422626514385015, 0.0013833407332834837, -0.02660248512941968, -0.03525539485964279, -0.06286563458031647, -0.09632092787531861, -0.16125648968642875, -0.12285940523666293, -0.15774587949527794, -0.1626151214000085, -0.0938286746887173, -0.09009374464490043, -0.04354188386876369, -0.04155414610767822, 0.011899836081798202, -0.003217591441769616, -0.006853354579128474, -0.011476547863043867, -0.09221117574700599, -0.051122763535571596, -0.06800318971602609, 0.018769194552601624, 0.013519929179836436, -0.018671147262904475, -0.004470014427443059, 0.0002852380804321296, 0.017210622081556597, -0.002014897105955012, 0.03755929732385267, 0.046289288550688534, 0.027047543036305216, -0.05054037555666393, -0.1372588756606741, -0.1093643832528776, -0.3017018431991372, -0.2568716018413379, -0.17925414490340677, -0.050589796857935215, -0.04772320438970457, -0.1807724962044153, -0.11303588192633635, -0.03582120934054186, -0.18993694820525242, -0.11896533796315047, -0.05138008764799964, -0.09618334363510642, -0.005638079004016729, -0.03212839745419261, -0.04578494760447723, 0.020652104657052955, 0.012056461068049872, -0.0017156827026847267, -0.0025339387434262853, -0.013661977307755693, 0.0063049695440573665, 0.0038333809241158593, 0.024112905730621303, 0.04344119779340154, -0.010199983348816772, -0.08994027968373579, -0.1684856978064874, -0.19269080530610777, -0.22930886989365126, -0.11809204553336566, 0.047729885524229125, -0.010993123926968055, -0.1663670525423833, -0.1503269237135982, -0.11324942826094449, -0.024626074267995336, -0.06989440908553782, 0.04629749197973146, 0.10831983536540252, -0.1114349291899089, 0.05950771520328166, 0.14434980643831086, 0.16334661640170767, 0.026141724761752305, 0.032886743854822376, 0.00030762601150028176, -0.008162947543138864, 0.00486000704808715, -0.013691032316271078, 0.008909025258587402, 0.020045193433852502, 0.0038684084848062206, 0.003273842335560131, -0.08291783156447446, -0.197390772334843, -0.15998033294911684, -0.026474979247790326, 0.02964897446562695, 0.2266780162134411, -0.055314084344803, 0.008170964095815763, -0.07705521016614951, -0.12629249001875112, 0.01786841751080642, 0.0651567294281469, 0.10790525134371538, 0.07703736306909625, 0.08651413164425727, 0.17063354157723637, 0.17351582516098268, 0.06101950120234873, -0.006708686280001231, 0.06604641715308048, 0.0018655502252637117, -0.031590684918003466, -0.004574133229602026, -0.017092161297011216, -0.004398128112712447, -0.030228609481895184, -0.006508666067566686, 0.021036079223419754, 0.07246076510866364, 0.022789090723661417, 0.043946275680964014, -0.08797968511079958, 0.037969117830438825, 0.30636817610738964, 0.380044876328838, 0.4052276197738783, 0.21368307140908174, 0.13608060676445582, 0.13940837954693178, 0.22866809962772214, 0.26583605855730275, 0.2283626774296422, 0.2075676502626877, 0.19079192172548545, 0.15115229938037192, 0.24559203458487955, 0.16872728754510388, 0.049812508781000846, -0.003610460774002473, 0.014641474265823105, -0.007690689512160948, -0.026671334534027306, 0.012426421565554485, -0.0026336077061696514, -0.026307222732222458, 0.04968363296448691, -0.02795865516417541, -0.02708822661378849, -0.08642309574326482, -0.2949229202264292, -0.19475869024413942, 0.04912902124541063, 0.40927807899918667, 0.4961278975376602, 0.39038357980198785, 0.3181702536956399, 0.4256747910759775, 0.38373520373955267, 0.2881194207204928, 0.1968251440902138, 0.31980579714015567, 0.21151142654831942, 0.09089573858769602, 0.23092892423767095, 0.21423143579129714, 0.04565989045209239, 0.01720658744236312, -0.01620882857316353, -0.00913256805287536, -0.004462917598749861, 0.011429901196857906, 0.043681927860761915, -0.027570897385803015, -0.03949032538119669, -0.1858686017779697, -0.225253114762976, -0.21675114150578528, -0.2920004369342484, -0.4079297028351266, -0.29521443137693104, 0.23098697487849057, 0.1945486004724836, 0.2717684692942282, 0.176293305991546, 0.13971705555877625, 0.04644804145086223, 0.21767950618988519, 0.06430304723294998, 0.08656837927913788, 0.02093595801937006, 0.00029163160811949144, 0.17675228349369926, 0.23171583607317942, 0.045431748908687924, 0.013826593091399329, 0.002542704347904362, 0.006593699795086493, 0.01154622910966776, 0.03855223853986827, 0.03721655913007397, -0.09519587546914748, -0.1318252334961116, -0.16130456805894752, -0.23968079589627772, -0.15952575903405852, -0.3721290644900111, -0.6622578128820332, -0.48941896140652247, -0.17626300387347635, -0.15422649200231703, -0.05168593654123298, -0.05161868302504095, -0.25437261383165033, -0.33971353209176475, -0.3112725594708077, -0.28088075841789584, -0.23789885113781717, -0.2744176861680586, -0.10397985093729545, -0.07286503481501032, 0.10997801258582993, 0.02104816651522884, -0.004332866720350338, -0.00898061690717879, 0.027007177401317403, 0.00592501366063907, 0.021707481252995563, 0.02729024705748501, -0.12697113512728794, -0.1819144370305388, -0.06371019061845523, 0.038119841349202044, 0.15609814823301094, -0.13768785687594648, -0.32332615815895194, -0.38470228839646425, -0.21417340584811168, -0.1533689239525537, 0.019935235753466306, -0.11289121433876924, -0.28308284221090735, -0.39692482597717177, -0.48508230985543144, -0.4882424747596006, -0.5434167269701446, -0.42785614417294854, -0.3303154887400928, -0.19710547730374492, -0.025382506185221306, 0.006013305338993438, 0.002755254220154654, -0.00830255787640871, -0.010579816571285585, 0.0030551106961633377, 0.010466003352500827, -0.053498793281111505, -0.0893089124569294, -0.15755791281238432, -0.11820486139580412, 0.006321633902677189, 0.18457965174650245, -0.026114106503991433, -0.19006079519772323, -0.33439490751060474, -0.321860581095955, -0.09595264375037761, -0.015953244301216595, 0.0682106376414345, -0.06369949215116497, -0.3455071096894471, -0.2903774958315601, -0.32630581949601833, -0.39141423431422423, -0.40550504577291263, -0.35483049057188987, -0.1908845624433422, -0.020002229082994847, -0.022498764679309988, -0.014925934880416672, -0.013633886965964452, 0.004092804595606976, 0.008325998601684871, 0.01939577033718226, -0.009524209975647567, 0.02448609288139058, -0.15389863626120556, -0.14849983551695844, -0.09988164997552362, -0.018119209631049224, -0.04743117721958611, -0.31867066229923285, -0.33584078000587214, -0.24311663006670928, -0.009706566454688877, 0.0027124521079958186, -0.04229566454077613, -0.19764288543449446, 0.004048052569071802, 0.08250848795905599, -0.14838751644510698, -0.2337886851196242, -0.3021167663506262, -0.21300140686744803, -0.14854266042360598, -0.03469554562126373, -0.007476535031648348, 0.007916268723929311, 0.008574278055611293, 0.001898409038362626, -0.003094448932467767, 0.003445476073027871, 0.003893613785452724, -0.012551404777481496, 0.004939919859384648, -0.06946410910234062, -0.11747660686842282, -0.023058126421070153, -0.13165823682791747, -0.18649753105062444, -0.09528767093731394, -0.1805629022154309, -0.058321380586581435, -0.0587839589737885, -0.00786046559500963, -0.12389092796266736, 0.16533107195454383, 0.01959239250401228, 0.015920727002009385, -0.1471487502487609, -0.18863422299662921, -0.16537914253286282, -0.1647860716301228, -0.05507551527973641, -0.009468450590411489, -0.009221556380312712, -0.0005998454888863095, 0.013212237947965548, -0.005761351947016314, -0.017522381210527484, -0.026979218796747653, -0.04760274825080626, -0.09920925334230628, -0.1586299171193946, -0.015288720177478793, -0.01650602320250747, -0.10921003797108504, -0.1223967147267539, -0.13026739294966572, -0.1578549578727907, -0.10737655727673782, 0.08171913661685534, 0.020010844577401158, -0.03595478852698595, -0.002952556354134716, -0.013821647984870043, -0.08561864010451631, -0.1124804715647015, -0.16275405887124975, -0.20902370708842893, -0.13739272046714626, -0.05704542746009433, -0.004225387804269796, 0.00716276651047213, -0.015340250442272493, 0.009519116211931354, -0.009407467368867, -0.05175337644815356, -0.06041107227086325, -0.0985831028036502, -0.04124364302432359, -0.043685534275219415, -0.04856442317709508, 0.017190687191765964, 0.0052385345704899266, -0.06736473624993598, -0.23261498745569695, -0.13439864989226896, 0.11004806035130736, 0.3493120927246972, 0.1347010405676451, 0.07382143005481914, 0.10488256630476767, -0.05144174926783957, 0.01623536216475132, -0.07540915457004496, -0.1271052391550017, -0.06761727564916237, -0.02419355252622747, -0.046819305881594823, -0.0009847599600149417, -0.005990749621688665, -0.0006094234145491133, -0.0052787746235731185, -0.016418144189802805, -0.06700598972100437, -0.15969693762259576, -0.2328939918560905, -0.15383522608875108, 0.049126923988119825, -0.007134575452039758, 0.07055029533545044, -0.012777535809700289, 0.00047893605315612225, -0.000961391365439492, 0.08465323644511519, 0.14453165733416587, 0.1708804264805389, 0.03422146984885623, 0.15872195312862422, 0.09632275506997477, 0.019942091079992032, -0.0394809333853241, -0.14606595842094255, -0.22049836796272287, -0.1326184807853692, -0.04164587002522702, -0.031561227255253545, -0.00018454031229012789, 0.012591972546856246, -0.0031181717627213053, 0.020773545042564963, 0.007241227841853108, -0.07194261736670023, -0.153644387884759, -0.2165092476042575, -0.22178956334263777, -0.01844784252037126, -0.0386430738860916, -0.002534450438023926, -0.06313522006885167, 0.058408395599795986, 0.05050727277003721, 0.1318207770924645, -0.02495622817699744, -0.012397924386415984, 0.06766848343424176, 0.00010277235529229393, 0.07814595055362694, 0.08310676796015583, -0.1374604206158295, -0.17722879944909858, -0.1975442708307589, -0.09706275691425635, -0.006390434542865285, 0.0023645365740600378, -0.020488178180566544, 0.01729161374962235, -0.0028813878039946144, -0.024028542138080807, -0.01700469785131816, -0.10408797365955628, -0.14462776056756738, -0.052319792726407355, -0.09191108863653434, -0.002039060765110395, 0.04064878191192757, -0.15738788666747425, -0.12405835185484584, 0.07186655085746854, 0.09785235588650225, 0.06267450379153172, -0.09799838804279731, 0.03848934822648134, -0.045676951212591674, 0.11065336864773404, 0.08533840090565567, 0.05601715643173407, -0.1830551589094583, -0.18563542608867925, -0.12891650825891743, -0.11030432242624011, -0.012027633388774439, -0.001881373243597911, -0.01287794167609599, 0.009076589478754778, -0.0005700659745360064, -0.017158468432576676, -0.0063434477259100485, -0.04543923515636036, -0.060988889373903434, 0.07933665428336258, 8.506407491757179e-05, 0.12441372431108638, 0.0756072375784754, -0.019175462050813337, 0.011391331472553147, 0.1763582244075862, 0.2545579611783536, 0.16869421646422017, 0.04619195394657336, 0.09237560374436352, -0.020553985418102313, -0.036145060107283716, -0.11338702228653753, -0.127415301477844, -0.0712605855094782, -0.030271285271641586, -0.11962473828256805, -0.09436613789847084, -0.004095945033485876, 0.003256879504750985, -0.005336388922906636, 0.007093723579549198, 0.008141926332359337, 0.012526778710613725, 0.004237102111775398, -0.03589813616178557, 0.0556404505812721, 0.1197086882542713, 0.07648608530497086, 0.03479687027878678, 0.05799250130344449, 0.06985466111008824, 0.07386496960281368, 0.10359089592607824, 0.1806403856581378, -0.02389853262986309, 0.06614526321022168, 0.09476448082758517, -0.005280135819082096, -0.0773137091698475, -0.17597972442591267, -0.14356776501560858, -0.07478480088986988, -0.08889043715964304, -0.09731287369690428, -0.06001456313673984, -0.013111931231617536, 0.000992618206257152, -0.014193781905464952, -0.00152112922104593, -0.00017441590007065703, 