{"layer": [50, 100, 10], "weights": [[[0.7784517717839405, 0.20598666448152908, -0.009333773932270065, 0.16177802340186803, 0.5859573737578507, 0.13463227706384615, 0.21985451805201076, -0.7622565928765284, 0.3056927603870374, 0.16672456087605073, 0.7009867569432479, 0.38112596064376836, -0.06000717279104208, 0.7992423995346704, 0.3013075407023274, -0.5040030126843261, -0.6229481174329177, 0.7452101554046783, 0.4416523875010673, -0.08825410277832406, -0.3608439999626207, 1.1135284900826063, 0.1819930342979821, -0.742480182888396, 0.1913178391515639, 0.2767774831296459, 0.14984750930381632, -0.029670988105630396, 0.09253574141006873, 0.09883972087703406, 0.1956899537865504, -0.08180394827892515, 0.17018390129165195, -0.15011608199401882, 0.06922837155143391, 0.24749529057876204, -0.20884110158593766, -0.41517033626796257, 0.23534366564010678, -0.08736673851489016, -0.2758391439227198, 0.11658779704103243, 0.217386261598171, -0.2965803995778014, -0.20849478923579529, 0.025236694619458922, 0.05539142973615381, -0.040764742144777016, 0.3353573640668453, 0.17610490522167888], [0.924871444540947, -1.3344034382522902, -0.18116053352683148, -0.2783222017314577, 0.37700778819313985, -0.6290480055518664, 0.21120481987533907, -0.5148290028450141, 0.6621048067979876, 0.0027931626141722795, -0.45615725552401765, 0.19712928988442943, 0.8179363870274118, -0.2782371065824136, 0.6201382232276866, -0.644077847794708, 0.9898779086128392, 0.23642959978393488, 0.36802833869842866, 0.41387865489246717, 0.1422217474843509, -0.4493115777112065, 0.837723047849948, 0.5634956546879596, 0.16361478540559934, 0.055399845896081726, -0.20336113737230974, 0.25217248605398873, -0.6325026919953637, -0.20646939475838827, 0.01904222468856579, 0.1425241273420491, 0.22295083358821263, 0.4823604514018556, -0.3585215591936219, 0.006434293335566549, 0.6975607489092844, 0.014653489677473697, -0.03948635820886188, 0.3617325436150105, -0.13242928008196223, -0.5777722220010015, 0.7420553739269822, 0.14238797026467404, 0.010152249646490252, 0.557586734559339, 0.216957201363319, 0.36233853012524353, 0.004309536626879349, 0.017960316091057162], [0.46158933146066244, 0.5233171302702633, 0.300873601812409, 0.26862900592930106, 0.9398270144647226, -1.2731238170236399, 0.7058904082553542, 1.2189519502481292, 0.5779037011101259, 0.4427944959137395, 1.2957110303084287, -0.5591415343678735, -0.6288736229118161, -0.45142960787920433, 0.5378806259796867, 0.09222021144036777, 0.12105708956385892, -0.31722571410478767, -0.3325634576322463, 0.7658100956334265, 0.8276879021477809, -0.1921677975156197, -0.3078060685018949, 0.46236191976540597, -0.43544752582873575, 0.15766218907409144, -0.13084380020949996, 0.3696243856454446, -0.3591203122379628, 0.47743788220276484, -0.30445200774946657, 0.6023779824139511, -0.18452835958681893, 0.023883238193457706, -0.5323259588952094, 0.37758463012012733, -0.12057401849829456, 0.2577486560374171, -0.24622105802565963, -0.1967290892287631, 0.6507150436363418, 0.1953625881790911, -0.11430801736241357, -0.21298272821543854, 0.027028240192843167, -0.001869057874085174, -0.21475113795401496, 0.09002810245637566, 0.4912688658989388, -0.4120154015483333], [0.3983844469615915, -1.1880485783486041, -0.2649971512871116, 0.9371943013861452, 0.021212558461505816, 0.24926911981685732, 0.3375952974731763, 0.4105324840454815, 0.4792575405236083, -0.11995226406697797, 0.17937450369884797, -0.6240954503535066, 0.5537187819148426, 0.5605594852171553, -0.5216692657949269, 0.5740610452951711, 0.1007468078457269, 0.028474331922165707, 0.2190393803417369, -0.6189996039771133, -0.2073171895569877, 0.3027786156320024, 0.4573893680256236, -0.18326580507840953, -0.05442522772938041, 0.15409839548180485, 0.5558627622566935, -0.08532566077142509, 0.41835298518219766, -0.5366970541962507, 0.5639306693235214, 0.11726074832377803, 0.15004373156315237, 0.19108304487119535, 0.08476120915705264, -0.05587315658489174, 0.08809068044236971, 0.03997331489364553, 0.11377764681970043, -0.20286839576769822, 0.4327925659299811, 0.38051168012750486, 0.11204763054851258, -0.28660973893475733, 0.215448122588684, 0.1105241049816124, 0.2102923266179895, 0.00847390363683642, -0.3094374017058849, -0.1745163122202531], [-0.937300075790023, 0.3431245691452028, -0.06254937170918207, 0.5670273693147608, -0.3944999165946968, -0.07174790975611824, 0.4628283408820458, -0.5362450022120606, -1.0896145749622321, -0.3980433397820698, -1.119795108086901, 0.10694722796175593, 1.1683597394995082, 0.7301645639414434, -0.5953556146364989, 0.059155082640853805, -0.012740631083342174, -0.07379750998529824, -0.28826521969240965, -0.055361163513677564, 0.5071490305750894, 0.07895844133356464, -0.35811299048608247, -0.2911170328088601, 0.1711154339877113, 0.036892961347886014, 0.3623888545285899, -0.9629851420366687, 0.41680992247528587, -0.181032739280707, -0.5287745641989519, -0.3656461486475493, 0.05268828360799479, -0.22791187930312004, 0.32689691394467946, -0.19480054720346468, 0.28617793102239164, 0.3081444361046179, 0.09956064335990353, -0.08579166366722991, 0.6401433440304184, 0.2770218341694704, 0.26725325623608076, -0.146281975641448, -0.5819379614058864, -0.19599858303388273, 0.3698516935556892, -0.18561412260199212, -0.7480174224820012, 0.42326384671453726], [0.054861185767594835, -0.870344112247144, -0.29741494299139637, -0.954383055859082, 0.971369312301784, 0.13800091825163896, 1.0178720865494317, 0.015754666401619002, -0.1774618306087472, 0.1588106896677095, -0.350510429010595, -0.29067492135884043, -0.21492653295695166, -0.23836948018832493, -0.1869245516148497, -0.2492991532693394, 0.111649640826804, -0.35475344557510247, -0.2649898948885839, -0.09228957011825646, 0.5630383642321278, 0.17517593881326807, 0.45480309319741935, 0.2485634805015777, 0.21162966420180757, -0.1532153935793538, 0.25416437153983723, 0.4947949988460819, -0.1888951325067971, 0.4219488454595751, -0.24444208783399124, -0.28785415730263075, -0.01906403272775635, -0.22174196932120044, 0.27945060188494497, -0.26514951484335053, 0.3055293842384493, -0.19229633965480486, 0.3146243970966419, 0.17458413713620002, 0.025329194033600927, 0.03549063947415615, -0.25432101703383286, 0.09271722540919909, 0.37594701736187647, -0.13285213300163176, 0.5019756606834309, -0.09285392876036964, 0.32405983195579974, -0.2420612156372405], [0.7998285145984182, 0.8204660360820277, -0.6226971146545759, -1.9204983019238473, 0.28745656303854406, 0.5243324043333587, -0.44581576464939243, 0.1417581783215469, -0.26587522863399443, 0.16242904451600657, 0.31802199486278593, -0.612883756704143, 0.317599202265781, -0.486231801665239, -0.03365946809047979, -0.046631438379121225, -0.3979833206375054, -0.5181521595182648, 0.050692156486169794, -0.4835454233446692, -0.1302384391991201, 0.1960653074904961, 0.10171249083776068, -0.01478199216988528, -0.03424731002453741, -0.4157940032732542, 0.172812488275001, 0.4636448586655945, -0.29567515870563305, -0.19184528898513964, -0.4990882148456575, -0.4471734580934472, -0.5428687075094478, 0.1378309133856866, -0.08853384839257691, 0.13766074243122298, 0.22592980548328198, 0.3517548182420741, -0.026987595254124044, 0.1846552980311515, -0.0014921076946343222, -0.15145977455441978, -0.21444457700106542, -0.11484721751964486, 0.2315836658106159, -0.08959851757953384, 0.025799355260832872, 0.20700565091352827, -0.02227506154864972, -0.12260796502894221], [0.3967442363014771, 1.1472134576707116, 0.3783852409692026, 0.5302767262495592, -0.12333974486886826, 0.5670192694966982, -0.02544664742501657, -0.7552752300484871, 0.35490879818792165, 0.04551771820085084, -0.4674772300255939, -0.06282884828241755, 0.07432449586067569, -0.6430964092030607, 0.1537090590709735, 0.3828417504478924, -0.3594152457792083, 0.327031598309567, -0.2348764063112987, 0.3273480015195727, -0.21918589503620195, 0.5503808171947733, -0.5714659660647963, 0.2062147806492681, 0.27097792964352074, 0.4710681792314112, 0.44943086569501545, -0.2842521821414571, 0.2068904304567987, -0.08727149771011541, -0.40484075011352794, 0.3510546908105994, 0.2617089880776264, 0.27856709746051145, -0.058788961867496145, -0.28351471532776673, -0.11718364690831698, -0.18291056492929297, 0.14036366000764122, -0.021186095675839938, 0.49588746622717134, 0.39264644277212146, -0.18324781549766012, -0.09985835863426785, -0.46700671072236216, 0.31565899554913684, -0.12704423829574862, -0.08837357989070038, -0.09362358454348249, 0.1668752172372365], [-0.15835553409285913, 0.07509993996797337, -0.0798646660331153, 0.4288077457299213, -0.2361493207570486, -0.45616552800848886, -1.4361145635985901, -0.3250497352953141, 0.09332763339890142, -0.208332789722663, 0.4106781642683501, 0.7374544596392396, 1.0289180616335747, -0.056316574886102984, -0.11277817957820964, -0.1507746656581886, -0.6162960517231763, 0.7448738227866567, 0.13666254118411425, 0.004495198646257156, -0.4393804448717234, 0.0475489809754741, -0.410055950573608, -0.41021967287886785, -0.7625675057150254, 0.22739293929022758, 0.18780696264247057, -0.37563107368071097, -0.38267317892135666, -0.3378494495924656, 0.1545758056054501, 0.17804947742857857, 0.7368701161631596, 0.23270305785864873, 0.11558437339893778, 0.3340670064525947, -0.20458182168146974, 0.14965656313935485, -0.02599757307786923, 0.09552187865635932, -0.12090685404772492, 0.4217722335041188, 0.2825384636711554, -0.35225609545155184, 0.007992024756715174, 0.05909671264624887, 0.1598515007228774, 0.05319241791485758, -0.29085555662690127, 0.020318037542331295], [0.24842359911028591, -0.5767583221090203, 0.8138725231953995, 1.079597098885592, -0.4080509761455144, -0.25786128290676935, 0.02571941540600553, 0.3961887960678287, 0.39963607153512776, -0.31649411495740915, -0.9199278842902562, 0.5900555817835795, -0.23925702660803988, -0.297666599206092, -0.3249338314612924, -0.7946301671807635, 0.5006019836991803, -0.5213401451287016, 0.04302157667195189, 0.014685313148070306, -0.2789371216477789, -0.7102589723954781, 0.5145562573209378, 0.08083373722368084, 0.45829727370742024, -0.046654498410191675, 0.44189172325013837, -0.19527441397661693, -0.6823934549266543, -0.00558107886781197, 0.30022002970562217, -0.2798764971720401, 0.6543434705685853, -0.24157403607963396, -0.25821192961909006, 0.03191476703893214, -0.6288055704475574, -0.35594083103342744, -0.012119796659736243, -0.09469617810874571, -0.3197695760312286, -0.051894946866835545, -0.44418877178188926, 0.3732325636055151, -0.23058995682470038, -0.09399070990494235, -0.25605096760580476, 0.06965911605497256, -0.042981378409879666, -0.2138663123890468], [-0.0588008018216633, -1.2488623210427037, 0.19486214075791192, 0.8113809789312384, -0.5503061595548329, 0.0875634559104268, 0.6849393204961892, -0.4015605551001881, 0.9353615146235065, -0.0930364720987038, -0.000499284722375947, -0.1718354789335835, -0.36432090226471525, 0.5871171954365773, 0.27392801396070676, 0.14866395148077782, -0.13253949320738864, -0.7883986290200952, -0.07977749428463751, -0.37428726166138926, 0.49012445554525075, 0.27710094480285224, 0.43361246419430666, -0.6715311246700715, -0.3436883150943204, 0.39737905656259115, -0.03445542931399847, 0.23059637947665862, 0.536820233157632, -0.2091060170126795, 0.40892375261360764, 0.2750303724739246, 0.21835494387561105, -0.2537948352791753, 0.08056825228968095, 0.007344501878732824, 0.10897216575955997, -0.2010759152335533, 0.47644971049007834, -0.2727488775127998, -0.1316712014747773, -0.047926067660292566, -0.46517080093827645, 0.36403481265500454, -0.08200997700066694, 0.5440814178724533, -0.40072394603554057, -0.17401897927331747, 0.24186372262445235, 0.22649157959735236], [0.7656414947657371, 0.021239985384197243, -1.6833244881200107, 1.1924565611139726, -1.0790163109985593, 0.14729235074578387, 0.4270226189519938, -0.18816406263985172, 0.26606423513564603, 1.1764837268385477, 0.911298930160404, -0.1532240128982193, 0.38571291727310075, 0.2653490265220794, 0.4042574476728564, -0.3665926859560889, -0.2753693884432921, 0.29823279106487266, 0.26902715852553805, -0.5879113667883741, -0.4731272290677217, -0.12889030984043756, -0.2472202550564724, -0.30595101637535216, 0.4984118463418206, 0.08272705287435486, -0.3690758442839891, -0.08231073439196754, 0.17938595724969406, 0.48395658763334054, 0.04644627356416614, 0.2298825317234608, -0.10400321094983137, -0.07884390135630874, 0.4550084370816445, 0.22263227814397185, 0.11520706560324548, 0.20009294850508472, -0.4966201287857387, 0.37201849877892734, 0.40660524008213705, 0.07379880928440744, 0.46641428190673995, 0.3023480649062681, -0.05718881385693943, -0.08374616981906553, 0.0880177949091479, -0.11382813552039589, -0.19326974288642695, -0.09272533278108179], [-0.4839941428940432, 0.8753608427770248, 1.202049493430305, -0.3851503224594141, -0.5441294077417194, 0.2370118472629753, -0.5407148037264398, 0.03155825841704162, -0.502402336401882, -0.18178297787257353, 0.4465923483112536, -0.12678100335173814, 0.180446468178728, -0.36554633303128903, 0.07126200411221566, 0.03404199000169319, 0.24979864953283493, -0.5904027109249568, -0.1442509397915038, -0.01028609689058202, 0.5156082847005508, 0.5134144310040608, 0.14251143299423136, -0.023324250315846916, -1.3250649721339933, -0.17215907787089899, 0.45228827363072266, 0.3042216021666268, -0.046354167776459315, -0.6079860214381424, 0.15041080864645018, -0.32037225290534893, -0.06746466795232738, 0.05400223369130278, -0.16729099716573176, 0.08956675430858485, -0.4002384387587582, -0.19975908425006722, -0.21197894325326921, -0.041225111498734555, 0.10231209527334392, -0.024531079922272138, -0.37281506090902283, 0.26968851463398763, -0.30291742658832005, -0.36689649709796374, -0.08265176853011492, -0.09845452963259686, -0.49479860179613333, 0.021097026250364685], [0.5181992333231633, 0.010161617125559678, 0.5948400636189232, -0.2272520189401514, -1.0850870452046875, 0.8834993946197894, -1.3248917632656256, -0.20074771246433037, 0.3652111214064617, 0.23670156615375795, -0.8036785934487314, 0.47330364248856094, -0.47085855039032504, -0.5720662240545522, -0.04909950834488739, 0.07679109303862895, 0.6332294696050936, -0.23276230950429144, 0.2051795084879237, -0.45625832009916584, -1.5395845662685763, -0.3034768019038269, 0.3742773333784007, 0.8115780364855016, 0.21234590046550003, 0.2526072692607101, -0.36543287950096587, 0.6963566053953466, -0.425500157405737, 0.16676913530655385, -0.018736101090176333, 0.47038872915447444, -0.002997812383603305, 0.3146305277410891, -0.38350330163688306, 0.8049059844123169, -0.36365790898153966, 0.47958629130775077, 0.08098025960146123, 0.2606134952595226, 0.46170449587144474, 0.020909504756158135, 0.1515535301023607, -0.07869087026101404, -0.03112405952650197, -0.0803703097550373, 0.2328951560732337, -0.3220869150533711, 0.07212564816828534, -0.3116842461475309], [0.8337095897073024, 1.0300442996763226, 0.10364422229660149, -0.36276651968772183, 0.060296973415849, 0.038497781582732434, -0.41676952052499266, 0.19723859815849587, 0.1687355622385181, 0.3829011310555965, -0.4304764866983907, -0.6827317766836047, 0.3294308511742833, -0.03556439634866128, 0.468243640949096, -0.6656387960195309, -0.01755763059275881, 0.18904002166490302, -0.18433418234579702, -0.031855352307428704, -0.21241221188987836, -0.2532998530625646, -0.5009271333802284, -0.15813798357330547, 0.08413475797538184, 0.2917169270263495, 0.12172731442950009, -0.02468834156126822, -0.5339316606277703, 0.7182388348102835, -0.03672966397658824, 0.1707965965066279, -0.04690231560301841, 0.32218265670800755, -0.47638055188433504, 0.2637003981211711, -0.020730038321534524, -0.07838123652330299, -0.20271268610541596, -0.20433734069113849, 0.09555452233491218, 0.13404034596338438, -0.35981177147303584, 0.041049682843840404, -0.019953097703115923, -0.22449811842861644, 0.010240628269507182, -0.3195189679413807, -0.32823541389525324, -0.018429975502803165], [-0.5608499229212655, 0.36412660064825836, -1.1233608261734003, 0.26482542736544096, -0.6703221490518269, -0.5735556515770253, 1.1943031216983417, -0.2903409522749855, -0.6445931754229387, -0.0798183196399994, -0.12969876648732495, -0.082497913371351, -0.21841056302048906, -0.14534197355537667, 0.5980659647081659, 0.17269816385719267, 0.03545346727172952, 0.4234128532818234, 0.03613091381338754, 0.3499201274818132, 0.6371914930104515, -0.1570678106903567, 0.017751687849827197, 0.17934427813947265, 0.019017146617273162, -0.2597143416347064, 0.046425121473655837, 1.0626482518284275, -0.12524485492745235, 0.30260085548001814, 0.7405135189752482, 0.3712958816925283, 1.259327209888144, -0.09058646742914665, 0.07696440955822884, 0.06548974743751526, -0.35914072043092476, 0.3357158405449018, -0.436395750570286, 0.461457670946244, 0.5144137963631117, -0.15230296296873402, -0.13161694486233855, 0.6023417761819161, 0.37283826033091627, 0.2878341268575106, 0.167683466747611, -0.17912921061770787, 0.4913980612602622, -0.004016647797397713], [0.4316931740473637, 1.0501374924457691, -0.023208385093705017, 0.5103740371255183, 0.6924526855850699, 0.015863100296684373, -0.09505692229916167, 0.7718514785852959, -0.6705756155242024, 0.5296664240836083, -0.9834883766223989, 0.32296224020809516, -0.30819876937896, -0.03909338751343681, -0.37110149424278543, -0.2710999353511003, -0.16156687373320464, -0.42293954892652336, 0.17645087962763756, -0.7326019327076578, 0.17965152704642098, -0.11217657988293492, -0.7877692485648564, -0.6722296798977836, -0.0628815079226695, 0.17080290289691363, 0.29958249990940683, -0.006390806355516321, 0.5294481241091328, -0.167174854233086, 0.13880420107628028, 0.24767818883556478, -0.545368445903071, -0.44312827376698727, 0.2254390149405166, -0.16470424524482719, 0.3498562847847981, -0.17015773336350842, -0.18544166537169526, 0.5162207516032645, 0.1712391980994409, 0.39023645543573, -0.046240711343861804, -0.004934397724214797, -0.2687655680210833, -0.14480440955327725, -0.2112776451595534, 0.47884716587732673, -0.2609837254691721, -0.004017702461609856], [0.15461429501485732, -0.11128827842727787, 0.05223762800463337, 0.03573633365046258, -0.7033507473140207, -0.6187967823586518, 0.07181037021314708, 0.6296489001032849, 0.9928722274651696, 0.4585730540875394, -0.321387728451215, 0.10049429563968008, -0.8367789258682127, 0.015740237689775644, 0.7462737149867862, 0.15994118386365372, -0.9000933998826407, -0.019299088637731745, -0.17844824229603207, 1.0289616688565086, -0.8230700847682328, -0.4387653523178605, -0.2978166698712951, -0.4714996330924125, 0.16244845240965602, -0.4781874787104459, -0.3156138639968382, -0.567282604720442, -0.0028953630262470507, -0.9808155041762736, 0.28236832079821583, -0.45762416922457166, -0.23900592307684485, -0.28281518085443075, 0.1448120934239845, -0.5103448495322146, 0.3800138295931712, 0.18391308803707948, -0.40023429182110903, 0.10086960053516662, 0.069165600005855, -0.3600435211822994, 0.05722064161746981, -0.13654549630724416, 0.036775847303000396, 0.1517921952401649, 0.0451427571357338, -0.24616114378011178, -0.5363976104259378, 0.0562237499555763], [-0.7155869405943954, -0.7218427606039931, 0.005245133889113623, 0.7429333777486586, -1.3852971196718262, 0.21245105551515098, 0.0031356312209387597, 0.7047669894480942, 0.34742763959332573, -0.6204674586519704, 0.7489189428634682, 0.10801673809267445, -0.128724136351315, -0.060673240776324196, -0.3001502449100433, 0.18703126581610863, 0.3498970782516289, 0.6031597751784298, 0.3723819194223446, 0.3596533162900375, 0.05777046204140412, -0.6756370893379077, 0.04442820275310075, -0.22163143967921167, -0.2663582512974269, -0.2992898990440682, -0.0780990178127395, 0.07772531629501143, 0.2562933896594142, -0.27636542539330106, -0.07425577140890724, -0.09708299110668046, -0.05953978411434949, -0.22442207829019123, 0.02060543503781201, -0.11260288771795779, -0.1501789049641167, -0.2010274781745667, 0.18163910286739107, 0.2503059549356288, -0.30916833715923225, -0.07835116862338716, 0.14320956715715819, 0.33721897779150684, 0.03569416777714743, -0.17212786699982782, 0.18602317811912594, 0.14617017042045127, 0.09869741723865254, -0.10879211322613991], [0.6485983602892001, 0.28258608977622957, -0.07733916088342649, 0.8481801142228196, -0.7470420993095476, -0.7968891605986937, -0.16484367726078364, 1.1351365491888585, 0.3851085095090691, 0.5462509404597445, -0.5193829251207799, -0.4457133480208879, 0.12351354555593154, -0.11054310836257462, -0.1976077431393419, 0.09565355125245717, 0.35815003920576505, -0.015101478067512839, -0.34183859700292757, 0.13927928652046226, -0.22919120621598743, -0.2150277938284306, -0.38274304748513804, -0.11442689959211158, 0.456182105496726, -0.3718993465687212, 0.22300520591482126, 0.9422219927109908, 0.14886252818711043, -0.10521403433444802, -0.12737414930079344, -0.22192746585486375, -0.5393842799970878, -0.46501713349816226, -0.19230474986537718, 0.4089638637055289, -0.5950455109102719, -0.1676557516584328, 0.14281718864133797, -0.2681329288428517, 0.2062111868187377, -0.12137109801456823, 0.19080340344235242, 0.16580224611281913, 0.12916337461928662, -0.31382861849272387, 0.33391464707612495, -0.011343550159125925, -0.08582805009763596, 0.08796020238379273], [0.29978702297308657, -0.11222503561718894, -0.0666234267255078, 0.39105452976403593, 0.5659833537705394, -0.7666843942572293, 0.5439346999511935, -0.41439819747597195, -0.5851815205755778, 0.8570660361701399, -0.19532078570960587, -0.07990697452312363, 0.029816607786065524, -0.35110361055472833, 0.046343212122532264, -1.0905176646451513, -0.19187078436076058, -0.0340116992072925, 0.6889526350308843, -0.5904771065426254, -0.10527250299070208, 0.13370564383959033, -0.3910973999123443, -0.4014981911213567, 0.3417735712561478, -0.06692753119877634, -0.8961093738849326, -0.17973795116116656, 0.20103833513192193, 0.06723634158792977, 0.29795101092764475, 0.4563158493504212, -0.49640000752423763, -0.4111404827896564, 0.09007273953712305, -0.07147714824567489, 0.16192867722437432, 0.10627311913602813, 0.07744141467990093, -0.10358370167875833, 0.19555456403283852, 0.15388134456643135, 0.12242563359956966, -0.2926736716744966, -0.21023803252620418, 0.313199114727397, 0.17396929137481085, 0.14407438061413308, -0.34748491057836606, -0.3982339846302843], [-0.19516702791709456, -0.6733180736215413, 0.43676867176037076, 0.15246447419504616, -0.3108174944151995, -1.1806722528377394, 1.0322852857010139, -0.03800247097375696, -0.6168411942563206, -0.26173312398913723, 1.0740829378168189, -0.009123652695381441, 0.3537232184459767, 0.025641259128561203, -0.5394473285404474, 0.3700595715466021, -0.11626275339768165, -0.45725086182496016, -0.8412308120489004, 0.559070275947267, 0.366350081117793, 0.058744879074972466, -0.20228402489358013, 0.549891341649354, 0.19152600645722498, 0.11893989115871802, 0.10548958815318002, -0.32129945585938974, -0.08941383583392366, 0.5901957500046437, -0.7980985588169446, 0.6491770184567872, -0.1470781694337276, -0.01704722706471268, 0.3230862108313469, 0.35230012925712983, 0.09718447089039668, 0.5074480348637415, -0.020161163340564406, -0.13291326585061886, 0.09360397593368619, 0.17322980882884176, 0.3002690209573918, -0.20184577971932413, -0.6956112312185475, -0.08906250255836998, 0.23865216024833213, 0.0185861773759482, 0.5994605404262818, -0.2706664887435913], [-0.8416684588458279, 1.5149999549721076, 0.14940883843472394, 0.11677456576574774, -0.7196197353380108, -0.8255967675856957, -0.5576965269515543, -0.3554753579836596, -0.0013629386863756342, 0.8474123695748117, -0.30443891981838095, -0.269366489761434, 0.5004147174485605, 0.5192800904971908, 0.0656145607751013, 0.5442584255444891, -0.31575038592646054, -0.023887355962775816, -0.3996114520500553, -0.5691010239843325, 0.02110316789025519, 0.24060965079780583, -0.8179358180713311, 0.09395464046786252, 0.3258551158996444, -0.06130951716250319, -0.37785342672117134, -0.022279571000869844, -0.37756033521458965, 0.1680875871245877, -0.3941694878160072, -0.134479231849962, -0.2703964400414951, 0.41816423278527476, 0.08443132858333538, 0.18947020943175996, -0.20435450759372856, 0.0916918063949274, -0.09612593499085945, -0.24377279656835352, 0.31420014845710087, 0.06390156535593279, 0.2058264883986146, -0.027932434494715885, -0.5102913910173651, -0.6398086331776853, -0.08046325024806132, 0.021752589640294355, -0.7351107716167915, 0.18713402355063138], [1.4252835097933714, 0.7127016794833625, 1.2279975050042164, -0.24889687080140688, 0.11239834514030009, 0.8915745330330423, -0.8400912311938069, 0.41437823699069903, 1.268713392180853, 0.23506677505000556, 1.5285832185042847, 0.18164340944833995, -1.236796923979258, 0.024202401604079438, -0.6244765588603909, -0.22692509365015825, 0.47682066274273643, -0.37361472509899235, -0.7553210034109825, 0.019647766243256395, 0.12255372310375169, -0.029215508468477095, 0.47630771581992976, 0.20244207320676408, -0.39413021601882, -0.14864264563279903, 0.943085871282424, 0.3870023531313192, -0.5449090460211605, -0.3012451507074603, -0.35939088017527177, 0.05028518867174348, 0.40790711000234237, 0.43633617903453176, 0.06307451538236514, 0.21571883510750045, 0.27427979761911925, 0.2772716754219239, -0.16471157491195457, 0.2204461898848404, -0.33028522560881834, -0.09448625152541501, 0.053126851106167744, 0.28682715782190815, 0.12907970654095288, 0.003990657479561131, -0.3486791557342306, -0.3898751381904311, -0.3119872627559589, -0.08432410311130628], [0.15345178642454066, -0.0007018652306996856, 0.8124907444728122, -0.6540151329611518, 0.4056726188371051, -1.4885943700662125, -0.4896352862473617, 0.46889817742104734, -0.0023834994048877027, -0.6600841552653871, 0.44761573931168364, -0.7237020215426975, -0.11855494411630413, -0.12819297700588736, 0.2845408663678622, 0.30418164156266864, -0.22797502123396549, -0.6453376944322846, -0.15135389187369966, 0.38407458692424856, -0.30784163103851386, 0.11958551535578894, 0.2225817788191802, 0.0905885027735152, 0.2471614186851959, 0.14808670695189619, -0.3706468059111893, 0.15321328577150428, -0.23229941274293117, 0.2705689792373069, -0.09426334012730268, -0.5265049610055144, 0.0071157603128535725, -0.002492257320947122, -0.2200412480138687, -0.1135495224222095, -0.08616670066761979, 0.2836923157744481, -0.1404083859811359, 0.06277258102092327, -0.04502067044513479, -0.11673622602429719, -0.20204242768597383, 0.3097380761516744, 0.06626066112297269, -0.24547607445806097, -0.06702368180075859, -0.5756445280318543, 0.2017774436522858, -0.257512539315458], [-0.5689862838411446, -0.1548671793649194, -0.5437526390938785, -0.456868995365585, -1.1423276733455334, 0.5791973528218783, -0.15095757517101424, -0.6720125779316938, 0.26647318989349333, -0.1623671727249599, -1.3118580202055339, 0.41635641810542695, 0.7129745212955787, -0.6842789664097435, -0.1837821074994136, 0.2962301800261512, 0.174050331177065, -0.8318507113007685, -0.17825081935445256, 0.5210142084973705, -0.06904021280646173, 0.18186738038143, 0.4563389755512386, 0.2417582928536664, -0.3177078261865767, -0.3033611657384716, 0.014050668979070912, -0.30786603004373764, 0.38002438900964963, 0.3532684806346019, -0.2623671451885246, 0.4995248462739485, 0.0075338406240043265, -0.0723589513280338, 0.4081981344647192, 0.12101384220895661, 0.550032355280361, 0.5604233890263024, -0.5500037003685824, 0.5343035441807107, 0.22983261704892896, -0.031600388198168156, 0.04450192786591517, 0.7030653934476556, -0.14140036481329402, -0.003525701143694974, 0.18108553698602825, -0.16971723206469638, -0.4354107999757583, -0.19183125315613758], [1.173561031738866, -1.0433118004039725, 0.19007773207910028, 0.5074932769468424, 1.6832827785482578, -1.0139095495622004, -0.19780999549951264, 0.5283391370963905, -0.33695293089915335, -0.22672816825187284, -0.1222580213472628, -0.10918677390976185, -0.03245884708211857, 0.5765474453679625, -0.042230211000020244, -0.7539027165053331, 0.5683492503791561, 0.6806491014679474, -0.17827122119109592, 0.08197343624742107, -0.739908800265371, 0.29372253855321345, -0.016521245686320487, -0.014935243830291295, -0.07712473033106544, -0.028881961516292947, 0.2585466839931693, -0.07652324202013182, 0.04559991574499144, 0.16532785655477583, -0.07475277792899501, -0.3936337844568677, -0.19191152003930123, 0.017539469542980385, -0.18357215797587578, -0.3925874515798784, 0.09045323771711916, -0.24146375464931244, -0.3171162767220969, -0.07589302960685387, -0.17231392393870734, 0.15400478517843375, 0.017383671063563658, 0.11320476388230424, 0.2112260636542125, 0.1336002301547139, -0.22910324047032432, 0.00795010216856678, 0.24117109642942025, -0.6277954723943927], [0.19974102906601948, -1.7513215341002175, 0.13711579731158635, -0.09114863855533209, 0.2565183316666548, -0.4110289399549528, -0.12031623311196993, 0.8187996459502801, -0.06238801249846809, -0.4972952638311874, 0.25593332171160726, 0.016411814656800857, -0.46346210331845283, -0.40587226850727076, 0.11968389998974516, -0.6709062681721977, 0.5055317159095172, 0.13506562090128524, 0.11507884772235316, -0.023493015775782902, -0.06688206022295602, -0.34057440374701803, 0.22838814186161385, 0.1298587493764413, -0.43636856011348096, -0.28672020041324786, -0.12971222677996982, -0.013360081527447618, 0.09048947467970303, 0.2949008048830726, -0.03298571490937897, 0.03745440271517931, -0.25487708841822804, -0.4033699752242588, 0.08784710608206585, -0.1729240823498971, -0.058131188556831914, -0.18000551026926584, 0.03846216692013385, 0.3856893783781348, -0.38885972465653446, -0.13584732640693778, 0.2197335432665443, 0.13437373448611253, 0.3052963204102326, 0.13860583701830395, -0.11552845587726235, 0.15198741773356203, 0.27390365050106047, -0.0952126487528447], [0.30950181358522727, 0.7551335533733552, 0.749456207801239, 1.5478325418041161, -0.8711581256385593, -0.5802408511187908, -0.2533733270669256, -0.24363046025223287, 0.07324688969736819, 0.06359579367549907, -0.08488689703332213, -0.026874009050413518, 0.813062508110516, 0.6489857959462887, -0.32346336114635604, 0.08542698302353798, 0.17988229897602717, 0.23898829864826188, 0.6186058065579974, 0.14311162083465404, -0.21292523438889843, 0.4826808024108004, -0.5289296556237566, -0.1434275508555953, -0.4188778216269206, -0.6802832672685969, -0.3978443133653225, -0.7019371562551889, 0.2595154520837945, -0.17608357858953047, 0.1813865855469127, 0.5328686117741503, 0.8279672732429812, 0.22402834373280747, -0.1833527738195338, 0.26433763769860263, -0.30719218021865213, 0.4537922916734499, -0.44293579938754113, -0.17040293465962533, 0.336043054826077, 0.11173197533689176, 0.057576397544553494, 0.5224121679391414, 0.1404887768372482, 0.07201614554446609, -0.3634495958254529, -0.02150425800518072, 0.2546429281092627, 0.024083891561768978], [0.8553635959756388, 0.14500539471467666, -0.5399368352380497, 0.12552177394209452, -0.4623747847406257, -0.6694075763182024, -1.2599935531930846, 0.12163204417306527, -0.6260874766767514, 0.560166241970517, 0.19965431770058406, 0.7288416759646449, 0.7103926234817637, 0.6961283572491647, 0.6829284378661594, 0.22009659508972884, 0.77193407590554, -0.2400452811505751, -1.2169231851355535, -0.09069446877287791, -0.29206100126870704, 0.8516508201350227, -0.41406043658240815, 0.06769249697800768, -0.30673414457367293, -0.1852153722633736, -0.13107495659102608, -0.08692926913000722, -0.49996328950876284, -0.02902568464845807, -0.13090157805882832, -0.04831056078941459, 0.8239102767333754, 0.1685929865197665, 0.39941774551224385, 0.21787123432745928, -0.6230510632379133, 0.11001182546972836, -0.7001339292662483, -0.4257034735330177, 0.10859381017661714, 0.11765333720985767, -0.17407847028358434, 0.22469807610536763, -0.21815168496849116, 0.19722315548943978, 0.13359578100765482, 0.19166960578714404, -0.19173239044142976, -0.17868186381632545], [-0.41358362551911754, -0.7139316716526751, 0.17419243566087328, -0.33433802336729357, -1.0447501456489194, 0.16084803609105042, -0.8469460939672228, 0.5862544167045098, -0.38173383735593863, 0.24824080421535782, -0.24548182769985483, -0.9916604813947238, -1.480727320087119, -0.43708631290751226, -0.6442632000856626, 0.08756434685232763, 0.643485772239749, 0.1722413252570785, -0.6030980308793419, -0.2089110565204007, 0.45673754819649187, 0.029341353438341714, -0.40883855494409643, -0.393580232779192, 0.023359922220140102, -0.679543594955805, -0.15391460349109318, 0.43355129494514766, 0.02033934134542028, 0.4975645120777471, -0.2585830338819975, 0.4511105359831821, 0.2947875742351834, 0.4086941044388325, -0.16312619338051634, -0.6496130740017388, -0.6250431577445175, 0.9198317001584895, -0.07626895304156536, 0.03917545763834859, -0.3949056622995516, -0.18037716243205662, 0.27228024153854286, -0.022745626905766585, 0.4543850448213913, -0.23643634359827662, -0.10104651393603364, -0.008033378943812099, -0.06342431808927027, -0.012234141692795082], [1.0815433754861532, 0.14672461013792115, -0.08651557365871654, 0.27641482993663136, 1.1356294839538366, 1.2125323275593298, 0.7266499345617545, 0.8857172156299021, 0.05921222680637567, -0.7868643995697184, -0.772764815237031, 0.4228031005166535, -0.34860470612216465, 0.08121397094623516, 0.5112428624003009, -0.15734119474431246, 0.37211277799188386, -0.8196011743875115, -0.2073821466471703, 0.5563744820078969, 0.4234215647567077, -0.2607513864072101, -0.6999299421514087, -0.3183187791123651, -0.6575008795481472, -0.07556922740368133, -0.11130690842905198, 0.1932958855744177, 0.6317684647852015, 0.0548267154403456, -0.16988047280929222, 0.04854089262916192, -0.2590985150858046, -0.31927424476813365, -0.1683649778015198, 0.03517258136059517, 0.1413588474345083, -0.2809882546312191, -0.1622431629290083, 0.3633747251597072, 0.08088262812953649, 0.4141816455620664, -0.18551335750599462, -0.2538631743402089, -0.166505797953524, -0.21128263880735731, -0.30108463746220254, 0.586022008263572, -0.1959441314862006, 0.35229195154993204], [0.4176502589864569, -0.3987781216354689, -1.1738118899994565, -1.5803448522027563, 0.33472765036350255, 0.7895860342822575, 0.5575997489038421, 0.17441197874910686, 0.4694418325459539, -0.14636781091727735, 0.08525698779709066, -0.8918011711910907, 0.12077628161132065, -0.351574668052418, -0.3252923906198717, 0.2891995458613029, -0.2786185837332671, 0.28845192358570343, 1.127672846166105, 0.18878298478141717, 0.607185286266565, -0.1320274648292452, -0.26070489608271424, 0.17693408969833396, 0.5791697862157736, 0.23243364880813924, -0.08171430054662965, -0.1815118259081563, -0.05630313302386228, 0.4323515371593661, -0.18435326038535635, 0.5340093993702778, -0.7362917932766649, 0.017689256475563582, -0.003740804976833706, -0.6806499725524822, 0.28988005919373944, 0.11322570841240964, -0.14938096755286245, 0.20752195984171748, 0.3342915374967652, -0.4179021037580485, -0.27588041017104525, -0.013635338824528345, -0.07464506643537124, -0.21520555904457028, -0.25042950978348616, 0.15523046779282104, -0.09792342078831301, 0.3355599531083443], [-0.45603742571367106, -1.1038870725712673, -0.19795259707755417, 0.6604813320064671, -0.6711739426242539, 0.13731266423267877, -0.6103209047984308, 0.3882655939237935, 0.645316664082997, -0.02399491198971808, 0.3899185192985782, 0.23300627520017436, 1.1790292360663248, 0.06856900119508816, 0.2655421991940794, 0.35811812023539535, 0.3453223914984053, 1.0291713855847304, -0.47645370358174116, 0.4593236031302768, 0.1030907843166336, 0.5820229176390035, 0.5465434345977778, 0.4236390989428753, -0.3696672450433844, 0.1778408664781688, -0.009223836406651805, 0.411382119166063, -1.1044855327449434, -0.4110204842732946, -0.03960378318524647, 0.27963910793819613, 0.6194927025728756, 0.0937006339928939, 0.16110054830079654, 0.15464354896761548, -0.7546661043137132, -0.14326840188601506, -0.17188357431922333, -0.352595633306359, -0.3911439576853792, 0.31536469216067237, -0.254530620375709, -0.14627527056192785, -0.18617922110307422, 0.5334641826780355, 0.12611892294288796, 0.04817325011373614, -0.573316990336386, -0.018011251545125086], [-1.0420908572092487, -0.032823055007745974, -0.1666314817205235, 0.23592413638474025, -0.6785277838493808, 0.11964122294726344, 1.4006907208901322, -0.07874725298215512, -0.4702516238307987, -0.2457516902440433, 0.5153256410057431, 0.1257269995150548, -0.23171117951830014, 0.7604601495058586, -1.0139488637778749, 0.43572718983492875, 0.22188107889567513, 0.5038328151142691, 0.260033003908398, 0.3839906013868663, 0.77345023639878, -0.21265463887542774, -0.03382443648701273, -0.2378894797279233, -0.12802168506648484, -0.32795214875944007, 0.06388157992910995, -0.5107954857784242, 0.12878493154403295, -0.06491648148030683, 0.15748838273476287, -0.3191102112325175, -0.16147146743899232, 0.1577999173278432, -0.16222553650197757, 0.0661322001379652, 0.033424102280614064, 0.30776137932475695, -0.11886316153483543, -0.5441908755002011, 0.44352604215962854, -0.23635027057253746, -0.5465767217839034, 0.32576879935943837, -0.010417723669700245, -0.33016234891733715, 0.29289760006104093, -0.34744416141393264, 0.4619673042464778, -0.2731088884269764], [0.7055411157979538, 1.0944515847437926, 0.9768832518664569, 0.15967374426555567, -0.06625806110598921, 1.2338190977860133, -0.1919932252947641, 0.1645773115959342, 1.2502496231753288, 0.42827591782876784, 0.35454593333506573, -0.05025562270228654, -0.1638355161285077, 0.0978824597405116, -0.26723307464942225, 0.2755054702212357, 0.3568844744764332, -0.4937047687963469, -0.03184086568120383, 0.20828747259150793, 0.2544246303063357, 0.7392709670371941, -0.05256937150540497, -0.32527912818645377, -0.11061415530470846, 0.5622205804274584, 0.2460968277376846, -0.11831547744507087, 0.003454358698398166, 0.20237862448757113, -0.03521952135800325, -0.21175312209734776, -0.40645920821428844, 0.4357851419552412, 0.22813523904396021, -0.08542368477649247, -0.38341840746775113, -0.035696702021175766, 0.2212446677246033, -0.535193070890595, 0.08845048479000511, -0.0871338299264385, -0.2862693482226052, 0.095230212867537, -0.07263199938813261, 0.18117245648890176, 0.1836151086625155, 0.03229564346144894, 0.2858829076864184, -0.23419460398913708], [-1.9185792072360146, 0.8834425679055843, -0.5603742452305885, -0.6095476613876636, -1.241748722133529, 0.27284316739872305, -0.6191335961896376, -0.1807544578613192, -0.4330455567987781, 0.5655235679504119, 0.5836061456005714, -0.19087029114944373, 0.18081954239048154, 0.47938819417721695, -0.1766565317701582, 0.6897356680100456, -0.16419668628778705, 0.14200977310327684, -0.25731027954096436, -0.10116287109727369, 0.9075214505908591, -0.03416323460303812, 0.13826135509361903, -0.06077709625624873, 0.21492602882212783, -0.46430060890299135, -0.5339317304170248, 0.10275603007472742, -0.6120519372202153, -0.359835108419986, -0.21194548569861904, -0.0963937834403354, 0.06415196670355189, -0.12224926315237616, 0.25005791143357803, -0.0028542744783084458, 0.19923388687236543, 0.015586223595714611, -0.1384850058007555, 0.040118490318374424, 0.008566897831255907, -0.22945761848830837, 0.38092638807518536, -0.19486962168056338, -0.7033953344199371, -0.04501260099602714, -0.1506614068304573, 0.48921771239955597, -0.09037286491942992, 0.3682391816075981], [1.2900817720174387, 0.8433372522162307, -0.5607215518791413, 1.2981529641491332, -0.3304748896243016, 0.0650321872460021, 0.16113125477003826, 0.6155575054119216, 0.3037924605606015, -0.581036098514588, -0.9336891242252612, -0.14781412637968463, 0.02708479978533764, -0.455571644210616, -0.5326340318180498, -0.09846561172118638, -0.2465110332513496, 0.3348882810290566, -0.0250881292947912, -0.24214918206923436, -0.332761734715036, 0.1545951875699626, -0.17567369393936624, 0.1587203201188816, -0.16655172898568302, -0.44545777290649924, 0.5814660293576899, 0.4574540539800243, -0.5857683526392709, -0.6392851899860521, -0.1012228061676016, 0.19791996315922336, -0.4035455411590792, -0.43275992828517784, 0.03485814960845732, 0.5101105750562923, 0.06974713006846944, -0.5006934264992676, -0.21855977954538353, 0.15824777045964786, 0.29421447215941454, -0.053078247809457184, -0.5870675495622009, 0.5124515763662001, 0.2297476256667264, -0.06366432057199059, 0.5560232770859005, -0.09463420189280028, -0.22490210978396905, 0.07853294712088103], [-0.30848584647553556, 0.3324585584234976, 0.5745447279007824, 0.19693585540701003, -0.13607621088003413, -0.8306616726993308, 0.6129365128772256, 1.301220478097416, 0.37067198315871974, 0.26793345436438115, 0.07801609658538475, 0.46840924881469487, 0.6137222277019263, -0.0880898600416404, -0.2818673953705201, 0.11329303950557383, 0.1537538814396043, -0.13106842773102567, 0.04658290393308317, -0.4929747475964029, -0.16275752989878756, -0.23307097353458614, 0.3936378007379494, 0.14867291002268554, -0.12824502498204263, 0.4360920818166031, 0.11601879175843988, -0.2353898298785004, -0.04431972262648298, -0.1892968738037784, -0.10808157472503861, -0.04583121418818946, 0.20629051954255692, -0.038109809497301236, 0.09543859466688176, -0.10828251031180328, -0.2084735411583408, 0.016048227628453864, 0.06231269808541795, -0.022404929360441108, -0.29869502291542394, 0.13146490893801538, 0.5116384985496488, 0.1792550056976016, 0.11988352160090755, -0.252418269518875, -0.23868021613327617, -0.003386901038663891, -0.2386407877411064, -0.42204007750615463], [-0.9825409367439655, 0.35688503231754143, 1.0558845239766954, -1.1240304249786226, -0.5559181357677148, -0.8927897258634031, -0.05470840855785112, -0.3709250814169497, 0.5828507208740552, -0.16504082242834303, -0.19864884538228578, 0.23499766877266862, -0.2360047031212074, 0.23077130303889132, -0.5357153594976299, -0.20471733175197213, -0.472873058523708, 0.5732690081079317, -0.04509307235518926, -0.12074586518323652, -0.08677649625536735, 0.07653909774715564, -0.04756072831075272, 0.4808056358577028, -0.46825045043831565, 0.5329301209741213, 0.6916189909423716, -0.20657920447447786, -0.254333718937913, 0.46868456205936226, 0.4508145708806744, 0.002818522429463846, -0.18251415950956307, -0.5031881513635174, 0.03108174320443784, 0.2129812531189692, -0.6572407016324504, -0.39942387244076455, -0.06200011781027679, -0.23320306650418685, -0.32410860977161093, -0.0407682494142879, 0.1664736083909399, -0.11888074080961722, 0.13085134226764433, -0.2846525003357973, -0.14043182740748375, -0.2628489698054522, 0.12357064562688103, -0.3106103434525738], [0.6685600187056202, -0.5510281744903461, 0.41082373534535205, 0.44140441258158775, -0.22136785431437622, 0.16395868713533415, 0.8105422561178233, -0.4876298880605864, 0.069620151737284, -0.3366647877844213, -0.6951510073898316, -0.14746278541186436, -0.5389626598361552, -0.25368176651246277, 1.1637802401143562, 0.11885056848245426, 0.2965832943710758, -0.34150243065506825, -1.074734903998266, -0.542009346881144, -0.08989000427366545, -0.03538894889300169, 0.1084663717509281, 0.014845074589922066, -1.044767465322855, 0.016510135351195648, 0.5320164541540451, 0.29646766607404607, 0.3139256960509456, -0.3024271578280038, -0.06811962202296643, -0.14840334425283894, 0.17330627470391005, -0.28684543259049045, -0.012789268974526057, -0.07221142548264922, -0.12127418252555544, 0.2424717593300315, 0.4918773403749507, 0.020357037027575284, -0.31603130365488963, 0.25605454342922973, 0.0669584417845035, -0.6939417042490341, 0.4527654386081202, -0.0826716247352485, -0.09856451127867537, -0.2443029387145356, -0.22742624321824575, 0.23089672897277472], [0.0897935456449473, -0.6952919199026104, -0.5882466352548441, -1.208001913556849, 0.7067656221349484, -0.009614886319904163, 0.5885230183194624, -0.7025713529170251, -0.3737691674921451, 0.30068091285761817, -0.8890661785152472, 0.24953487137583236, -0.8733099142603019, -0.00799410221254426, -0.1109419436604597, 0.48484923998636, -0.11586800606888217, 0.677761065282119, -0.4432336291573027, -0.06539063350239868, -0.32218533733034704, -0.504446027957699, -0.4253604460908952, 0.6862048350572822, 0.17072777431861963, -0.13814220191653426, -0.4546191785723595, 0.018892216509930934, -0.03910672951410668, 0.288209986303608, 0.06502309775741104, 0.01873570805100119, -0.2506940612175133, 0.6222980931210299, -0.1067328223533247, 0.7348295660792495, 0.23853485683775388, -0.3742446976241228, 0.07709416041512195, 0.26456133544193866, 0.002879345110413442, -0.46544113353741756, 0.5609744692014321, -0.3305566408253345, -0.2685149349731101, -0.16204843918934975, -0.35508601414258095, 0.32053334831192565, -0.45205815940657124, 0.20031930588956362], [0.19284156032048733, -0.14823302797533341, 1.1784527997865828, -0.11337490970934554, -1.0164716201100739, -0.3534678251820242, 0.2865781525655393, -1.3225915598398557, -0.08667808213000028, 0.24060929241547033, -0.06927667221339706, 0.640049890294318, 0.19422747677428875, 0.7253677348013478, 0.49436028542660754, -0.4876330229739633, 0.029270560472098785, -0.30501099655738406, -1.0696877043849689, -0.21287828375732176, 0.04250824781217076, -0.2514518916171715, 0.26128712139964566, -0.11758482950056587, 0.4526999064903683, -0.2659601804920219, -0.2793612378903333, 0.08459927170580882, 0.040913216759066236, 0.23325588348186863, -0.020687472041806192, -0.11954682609912393, -0.02660574770617431, -0.048190378503398086, -0.552178126836344, 0.12859092356399604, 0.033910797074281594, -0.07366965682384519, -0.3498898185880332, -0.11203905250491175, -0.03574970595226943, -0.2058669047062409, 0.22510441437140713, 0.2507000339798015, -0.3819822186913739, 0.07807064681976028, -0.14790227757308672, -0.28801029879340667, -0.12084220361173904, -0.430498782081749], [-0.46421092909544304, 0.036166878116997446, -0.5466773644972766, 0.29417830958909663, 0.18599458801425542, 0.6523314564211925, 0.2399019139407127, -0.42689317684388084, -0.7157456475749543, -0.4204581248935069, 0.5304471943060594, 0.5753888367707414, 0.6797446740950848, 0.5789407929565129, -0.5261479325646671, -0.4659586494744125, 0.3207353493904154, -0.6378947391166199, 0.0044172456524299705, -0.7798027189104668, 0.2972570122098012, 0.12281899294948577, 0.9393729538444826, -0.1165843741675197, -0.2546734105125359, -0.05673759936393843, 0.4826771081759425, -0.024351727660980135, 0.38204681024516124, -0.7056590122077289, 0.14384513662647666, 0.12871401677200886, -0.36070755122885745, 0.1433453019225909, 0.8923225783013776, 0.5837818299418177, 0.4297490677830468, 0.016282220252152566, 0.08016368676334867, 0.3406716865486217, 0.21782871424804304, 0.5893337212710993, -0.24093546825609555, -0.3727960255132683, -0.5812713701860378, 0.17685597374931106, 0.022067003066058646, 0.5284212381661126, 0.04058088520731979, -0.0957877842357677], [-0.4325885158951782, 0.17666225300143248, 0.6907597375146645, 0.16664132966686845, -0.6191445275859941, 0.4575300827613751, -0.1380896098130907, -1.136315638464925, -1.309199693124759, -0.04798326347328019, 0.36998450714780146, 0.6147016707974324, -0.597248716996107, 0.010252675659245135, -0.694214197030316, -0.2199762512351098, -0.6283998619570295, 0.6666497791499165, -0.12781449888648552, 0.11611088141230404, -0.46272601783281125, 0.1585610011565583, -0.21003567619632443, -0.029929768739322158, -0.24888985416680304, 0.22269299630357878, 0.4025764549833895, -0.4957026467637574, -0.44830082889247824, -0.09583024595319699, -0.09675238795906753, 0.3495809943934759, 0.3962360304636789, 0.12307312513974376, 0.38916894579105116, -0.019499698926016055, 0.06715181888301139, -0.2622331180286149, 0.2707779803239876, 0.16594860079164475, -0.4142040081845689, -0.08032533741090592, -0.6235935747035617, -0.002987527513642756, 0.030259666847638297, 0.21185011891522393, 0.038617686726911675, -0.24355429378519042, 0.27315032486387386, 0.31013529750394947], [0.3040822273875606, -0.9936139363974608, 0.02995902976901057, 0.09305763002879662, 0.02015713877802524, -0.6316113338761193, -0.5233227308115195, 0.17925590893049453, -0.3495978744971616, 0.6939658213256477, -0.0884930178787449, 0.9015591609644785, 0.03009930821738102, -0.30009417881211375, 0.07597094616942109, -0.793790508469174, -0.49372564350416603, 0.0952984079854488, -0.4804417624999593, -0.07304130700565781, -0.1252202495972225, 0.9744151362621816, -0.2757914807481689, 0.7074174689616397, -0.2587142075499015, -0.7006463646812211, -0.24550957382247532, 0.24157999755837417, -0.6106064349614642, 0.32921654677041856, -0.11657733849362821, 0.19741078467401096, 0.4925659972471571, 0.1299984039276003, 0.3705381015523374, -0.5084312820260409, 0.19771246378813526, 0.15427737085261478, 0.14508926891112808, -0.4438796700054217, -0.4443631769496726, -0.21384229018877388, -0.047355114322859576, 0.44478062348780845, 0.4113625495149146, -0.1738009161700642, 0.02865213790514788, 0.13684915333896125, -0.7077593652929784, -0.7592397272698358], [-0.20828378837298006, 0.14015920772253154, -0.5402177400177037, 0.8845375137860387, -0.8801937254450657, 0.4378113305711281, -0.19252366146135852, -0.4348616171072583, 0.015922492475551168, 0.1689272313592193, 0.8004620782323627, 0.7318342454942288, 0.5890541633198003, 0.4285211390873416, 0.5569938174176549, 0.38410079043766876, -0.15938795798449007, 0.6444812523153336, 0.20263397679721076, -0.1541096234144614, -0.4675281184150275, 0.5875274489090772, 0.20007191384816814, 0.3490874124642581, 0.7352075741938602, 0.6970378068323674, -0.40782539428703696, 0.4783649232257984, -0.46980155155814046, 0.06095156529703448, -0.03811425949267357, 0.3849920803248157, 0.8202171631413164, -0.37311529390600623, 0.1879883885160909, 0.07899197301802598, -0.18473922517404817, 0.49604336757237305, -0.30652016535926857, -0.3141185047670038, -0.3699422962211381, 0.10237383819394989, -0.45959895503351444, 0.10698039324697377, -0.24603926899816847, -0.043122449782326766, -0.22255200978805997, -0.44553159132910936, -0.6546449738243189, -0.08991567112565574], [1.1525009397832873, 0.4910596014910329, -1.0793829763319442, 0.8213793567991626, -0.24817410340414853, 0.4159782559368098, 0.30906483388341904, -0.1261929454424526, -0.3829155110399187, 0.027118342962443226, 0.21860818697402803, 0.2554374002332565, 0.5380095999184796, -0.11940459057986148, -0.14452546428573396, -0.3114377293921184, 0.7506060910872943, -0.24118963715470482, 0.567375535479655, -0.583910437692694, 0.09882955126776163, 0.18999101156102263, 0.6293397979907525, -0.22421903350209227, 0.15101296080392326, -0.10342523082269241, 0.2484098158681585, 0.2969246635293697, 0.48856992710166885, 0.041100901252878685, -0.12765042929481232, 0.42541612681858537, 0.07568870376553449, 0.25871872638659904, 0.019052111223375422, 0.19390671517244465, 0.06521774314544664, 0.16574382028829396, 0.28689880274973967, 0.10824066364083186, -0.271531544250833, 0.44843496407472294, -0.07631532360361232, 0.05099573403702554, 0.257146314486368, -0.16393194241893844, 0.15191212450943078, 0.1015828781448541, 0.10251277823098638, -0.0185307873632484], [-0.7462138853181467, 1.3718763983665716, 0.9286636759993592, 0.9090555439208129, 0.3681382044542797, -0.7676003127203749, -0.14974975924359357, -0.2687792356852593, -1.6978244760979626, 0.0846705097773407, -0.533140291002464, 0.3013675105308069, -1.0717595952122263, -0.16336304987013117, -0.6185478552944733, 0.036937196521388646, -0.252363718400954, 0.09781181361965217, 0.03454180519264174, 0.26677701152683364, -0.4709049614948245, -0.20148778334640785, -0.9473753660962216, -0.36097303068032405, -0.4080023177023879, 0.040593007851008445, -0.08763211201171535, -0.8224611086053395, 0.2055857649127391, 0.35630525809182456, 0.05850407591704704, 0.14294229668649502, 0.027770617903934855, -0.5304573757817435, 0.18210562547428694, 0.06178069295457829, -0.0885263343286637, 0.20733833653537054, -0.1860768440134265, -0.2065390302081484, 0.001416473990290329, 0.1486215863287215, -0.33258713906613047, -0.09579354559906096, -0.06810518009603174, -0.2049058291016288, 0.0032988002445273365, -0.08817023243626082, 0.19355954747291743, 0.008353822845687935], [-1.2075064757953735, -1.0380857421165106, 0.9989884349040224, 0.5020780885883599, -0.08613931381317577, 0.9572588441115589, 0.5319687169074246, 0.7116793763032585, -0.14137723783634443, 0.40552353732030605, 0.12318571843375674, -0.04301792310100869, 0.18508229974396684, -0.4638956799041364, 0.992722167467684, -0.3705559177243742, -0.3958157036410584, -0.46555399140770565, -0.41394117159233584, 0.8004777274279832, 0.060016193032267386, -0.8407071726035152, 0.22997068928040384, 0.7231549871034194, -0.5233962368862385, -0.1780435309111423, -0.7018607117805427, -0.46216194716571096, -0.02321263809788649, -0.04149017762894122, -0.5521778212969516, -0.12430621988513559, 0.026769729639911158, -0.17595033489931478, 0.01925727669201964, -0.16019225037347246, 0.360419284524633, -0.14936270099472534, -0.06607209084659704, -0.11447982883160944, -0.30238069570838194, -0.45332668360809675, 0.16126221557721412, -0.25201718440469867, 0.3821391854421226, -0.34704337189900614, -0.6539211984850655, 0.17608906822674433, 0.1564946159548191, 0.32737384349730386], [0.22402175077257513, -0.7498814370378287, 1.0629397701358285, 0.503680870359549, 0.7515223757964681, -0.40212259454752813, 1.0405434805822231, -1.0900277018058195, 0.031335272250226684, -0.44417495681616487, -0.8978762853386267, 0.10520255558049935, 0.12171232983861141, 0.2010200614381999, 0.10606641978408757, 0.3320396052703175, 0.24865297777509093, -0.06120498470602485, -0.38003955912627263, 0.1948147891589511, -0.21762131156406136, -0.23091710999526435, 0.04130658755689134, -0.13544146912897076, -0.2727533919239024, 0.4297864149036533, -0.3188176601068054, 0.3428570916604753, -0.27544975764549984, -0.1737002422205965, 0.21837967550180404, 0.2286161468814083, -0.039230476393813093, 0.5363950147543248, -0.7598849698593187, 0.12183272019486548, 0.46213200854931846, 0.28536542962100786, 0.46627547025051097, 0.1025929994737839, 0.31204608440724113, -0.28535549741034216, 0.2046032768183194, -0.5217692076952367, -0.34569447959466443, 0.11217053509508622, -0.714868842068511, -0.08964957241020725, 0.056428977571170595, 0.22088280321868894], [1.0163688917459273, -0.2191532090585163, 0.024646749558888934, 0.1491804073457518, 0.20272643002600596, 0.42104238275189765, -0.07781072816519269, -0.4133101093701646, 0.561504877539737, -1.0023912901400214, -0.3288201218906209, -0.4593735879083333, 0.12346136499540208, -0.24601315315325234, -0.9813786512276067, -0.29437112135777327, 0.2962056665825444, -0.1844206554778157, -0.3668266891963078, 0.35603206943937826, -0.12266364833506545, 0.4509671074061646, 0.3626851393443412, -0.06666064170790453, -0.16239579562244852, -0.30376092245440006, 0.4433511052563208, 0.3817365702332294, -0.3166387109656659, -0.15845886945271417, -0.05404046570192567, -0.2827838813309688, -0.10740298652186378, -0.3091885183275477, -0.1766953042874099, -0.20133460120503185, -0.4779093048245083, 0.2279947379460139, -0.1006645964842531, 1.0995164422475483, -0.020072108665020776, 0.5348689403824866, -0.5548592461792138, 0.219707827985835, 0.09271662393553334, -0.034710842379634003, 0.24954624451369956, -0.449383161715998, 0.6771253845361254, -0.3684864859935646], [0.05877854016124781, -0.6702682324885628, -0.9813851254554855, -1.275851675096316, -0.13419511390994962, 1.3712344184682574, 0.7234026566083275, 0.8969637858598393, 0.7681250522674271, -1.2812156823453562, 0.8984094316007116, -1.2408078379466132, 0.3410568894580757, -0.14432668559974665, 0.32548646325257696, 0.5558906796026346, 0.686599137492252, 0.3187064691766596, 0.3028849795466078, -0.1322038643706064, 0.4667249323689, -0.39561489764691005, 0.8227314647610946, 0.17314544082518157, -0.17987431870247694, 0.25742767658934695, 0.2685464612104397, 0.3348176547404855, 0.09952291506577048, -0.8024260064198379, 0.24062442788546187, -0.14592972886148237, -0.3072848378418275, -0.34293517649570965, 0.1340671700830718, 0.1206115609490399, -0.27796176664612243, -0.5960573435929047, -0.2650131424460733, 0.08187812459941647, 0.01878457980184561, -0.28548151402522076, 0.2497131453824185, -0.5462799593416122, -0.02597735654416917, 0.01407999041952354, -0.11993758293620074, -0.42634304572718906, 0.35184601880214, -0.11491425001673332], [-0.19306955307106713, -1.1263148858941974, 0.3212822033213155, 0.4035563371261835, -0.8351414751321096, -0.4470905590696174, -0.881951030927685, 0.1646855965202293, -0.4217310320147095, -0.022161198388792228, 0.7739468515255197, 0.41515267501965425, -0.7717422122511056, 0.08895557359080132, -0.04531470131383841, 0.4550122049202489, 0.18644786348779774, 0.5863615319178163, -0.16371471933265228, -0.19327396449690587, 0.4049802149976261, 0.06271628863379504, -0.0033596462860158573, -0.46458907609162264, -0.3135044438691003, -0.39930515523195553, -0.30808622236742267, -0.27337856757296575, 0.14098356513154742, 0.13194857977231292, 0.014844729858720264, 0.4471573542725676, 0.3674469450906157, 0.4460061343053349, 0.2741912633674942, 0.516894589838369, -0.06730736706662196, 0.44614862441423525, 0.2969190047103392, -0.2607011488379433, -0.06870438369548448, -0.30596160061186245, 0.012988760383478827, -0.2703570186169765, 0.2101342026788498, 0.5784405519630689, -0.17989472293162606, 0.026472441167510276, 0.06244720565125624, -0.14572102744374552], [-0.18106007085526415, 1.3537459693373308, -0.3539853961805349, -0.17043220115261612, -0.3969636017663089, 1.085677793658164, -0.6084096867086489, -0.015156441883556011, 0.7503997370024496, 0.1138885242179378, -0.27599998240423285, 0.5413599983314047, -0.8854169552716551, 0.5526315417920749, 0.427735163526795, 0.7616999678755051, -0.03648414203809228, 0.05029727542271167, 0.40262363293371367, 0.7800275601816042, 0.03618224689029644, 0.616567162991953, 0.37220996507674065, -0.1814542896176225, -0.08427021864557567, -0.020881689881426205, -0.12502554756548112, 0.3136064314049733, 0.2838789941457663, -0.5983429222664125, 0.09582798831921183, -0.6192749426319109, 0.0551134338345878, 0.47559238707535273, -0.2447330311769727, 0.1263639889871668, 0.04736245817533732, -0.5915976833256075, 0.22411112373204387, -0.24802681040125096, 0.09436522145946581, 0.10649872051490913, 0.029102539095582528, 0.1444963860950152, -0.10296987720920607, 0.18863962181504507, -0.15924982118769837, -0.2873442131433876, 0.06000545434585318, 0.6218180658030605], [-0.9293875901584845, -1.2517086517854923, 1.2671596717195168, -0.24323463854220673, -0.5190893644871584, 0.023014860597543308, -0.19475455265087985, -0.43181117048905415, -0.45231713394813133, 0.10761400617814763, 1.1897749441382472, -0.43855890754025356, -0.40583070148646583, -0.34534430198720767, 0.32010515754846436, -0.09274421501042492, 0.12121282796534326, -0.21944197308966107, -0.2108482094569503, 0.29069623416087587, 0.07978009084347602, 0.12065400796863872, -0.006843919564835104, 0.23947817896869625, 0.15236465122930462, 0.2450320353178581, -0.7528100134538417, -0.6436119681950625, 0.010058185530750012, 0.5295531708426933, 0.17636831839164377, 0.2103051347458763, -0.02769241155750492, -0.05192083964210881, 0.2197475433252392, -0.11186629789003857, -0.5255458088755054, -0.3440323942477139, 0.14340304744039953, 0.19494883248841474, -0.28417409784431014, -0.2583632044767642, 0.6148094608008291, -0.216649523054088, 0.4397495105412067, 0.04920630195725529, 0.07501688924585298, -0.4366942467709976, 0.31571678523820995, -0.064906559873507], [0.32644332869230097, -0.3558733299219389, 0.6361008677017909, 0.2585566607751517, -0.4045879303739389, 1.1378611911028673, -0.49195944038686357, -0.004373840759321149, 0.07620391970749273, -1.3920318842258377, -0.10169501776932911, -0.3602435807799013, 0.02190183777364332, -0.9542105067478284, -0.1762051434623404, -0.08447806121207012, -0.2720710462177906, 0.3097226060268759, 0.5269722269171098, 0.5896437775846152, -0.12158052948300511, -0.7649026717404617, 0.32310287562019735, -0.1917875277551181, 0.23761958978870099, -0.19302429564930598, 0.2972309045715086, 0.3189173963561018, 0.06536579898602156, 0.06749979297831726, -0.2736494758532643, 0.19965107087787215, 0.0673511824396654, -0.05028735378096966, -0.06771404607880321, -0.1734615908277917, 0.09583496762321424, 0.23751581858854434, -0.061200906560050734, 0.1649185392668729, 0.040022284050095495, 0.04913211651322479, -0.05629090486478059, -0.46109780175838677, -0.17121849392714936, 0.011747299133880625, -0.3236274327506099, -0.19774369751246496, 0.07186898251516707, 0.06494102868149812], [-1.4416761848757773, -0.07327097304677276, -0.5637127417564609, -1.2198844656367491, -0.37770036838808413, -0.31287748810328014, 0.7552912153567432, 0.15416168316129583, 0.0294192807633296, 0.27988809241806495, -0.15458132129392393, 0.07060444049138447, -0.21282762256299464, 0.14786626407405631, 0.6093428996117057, -0.06677786457306205, -0.16418133839324475, -0.849979698237686, 0.04963260659653747, -0.31093678056071794, 0.13852659022697092, 0.1981724679846273, 0.13081233141099907, -0.0023269118949362385, 0.1368770381926886, -0.5680101026443615, 0.6951790660285223, -0.049071504786032234, -0.18322232549259485, 0.05093925217556687, 0.049588547822607014, -0.12099494590526037, -0.3714490144978057, 0.19795332761501597, 0.022656867925921895, 0.11564424589989991, -0.05398031116790405, -0.14363039566903948, 0.30827575445849414, 0.1270049176224396, -0.45136580912829966, -0.25506978962730725, 0.18881827669605605, -0.35522293869092575, -0.32358633521958713, -0.2795339327683007, 0.36714299556759794, -0.32342104456290255, 0.13848815638255887, 0.007387173012143422], [-0.35868810266461937, -1.5908960985547218, -0.5747800407004041, -0.7532767533899886, -0.19922755650114318, -0.005375756445981871, 0.8137381764916274, -0.7848575435747703, 0.818017920256257, 0.35818236761745614, -0.04023055435631748, 0.0917206353073632, -0.9770742205292471, 0.10261217837822416, 1.2827794738385037, 0.10875900386904831, -0.27776787698379807, -0.25952919349429676, -0.6102067448816388, -0.2786115698249906, -0.08179111685477038, 0.027559462881702867, 0.09194357544542725, -0.14277763183035272, -0.852396439350808, 0.20664397103935422, 0.2342192654068907, -0.21828519828561943, 1.0749655900293251, -0.8005716674985089, 0.5013852644545956, 0.2316897349597284, -0.042938647321043445, 0.13361901163580475, 0.4805994599613765, -0.15584248912646523, -0.1822706612288748, 0.3193639782102129, -0.07647315096628855, 0.7421074718866875, -0.17894699018050453, 0.3377774944478694, 0.5662153494624615, -0.46197459106105065, 0.43516936215779467, -0.24877109986572857, 0.13461127120333072, 0.47286185130654634, 0.04349230431588949, 0.2709651858649285], [-0.404136144733751, 1.189773114535694, 0.11229293531244337, -0.6461884871478725, 1.3025666949876207, -0.06325362571879384, 0.36960960896428524, -0.8939071051464201, -1.3238804303928144, -0.34071621902023846, -0.41925598772305617, -0.4117386533632778, -0.7638145791219106, -0.42036960003090973, -0.12009471057347944, 0.20702381157621952, 0.04196391738231622, 0.575580529165195, 0.024025776061098153, 0.6582371722642968, -0.2919279274109495, -1.04711525097522, -0.2929646737185891, -0.1522567017353613, 0.115410556801929, 0.34486783193328596, -0.13253665990761007, -0.18376216653903923, 0.04169822358719127, 0.10348351857016562, 0.29004553257423965, 0.10604302154850394, -0.09874114825627658, -0.0336803278232229, -0.09483623955028594, 0.3673312197648034, -0.24246798242308984, -0.42929747018102765, -0.05043961353258611, 0.02928072545486528, -0.06387469760839487, 0.02403099906940996, -0.37266939467412097, -0.0068123156355197785, 0.02954647858159206, -0.1705885208534475, -0.2548818032087665, 0.07722225173334415, 0.0386306846593928, 0.01966360817815438], [0.976628631992247, -0.0004124179754815947, -0.3976778957369918, 0.7374656042275304, 0.40263624127382613, -0.11496794352847721, 0.15406365366002878, -0.2750244215427148, -0.45271308552574024, 0.3349090208630663, -0.5839524450355478, -0.044931210812766804, -0.0629520630665879, -0.3841749089498142, 0.1874780531718732, 0.6484281510550759, -0.11525374200236439, -0.749493267081467, -0.3764046516205928, -0.6548281397526444, 0.01770421313110632, 0.2630575934486964, -0.425277203968371, -0.10209553019869658, -0.2143322149941877, 0.6055350081120281, -0.44408081511704073, 0.41646292413646163, -0.13010657802593156, -0.47538009065004294, -0.7037390761264221, 0.038204100917724325, -0.10373316544037614, -0.0600229581425972, -0.20544935382908647, 0.19353003316191206, 0.38907870887516116, -0.10842516433270581, 0.11574784683590662, 0.37216567541217016, -0.09970996560466612, -0.320806218998928, -0.09112855755256086, 0.04509805181527716, -0.16783957955222092, 0.08507517892093186, -0.01343032171506489, 0.2131852406733509, 0.332040778091741, 0.1806039078981959], [0.7248470686999431, 0.2623943927372916, -0.14606299763302658, 0.3840604113040189, 0.49525593446506194, -1.5650687212589351, 0.49369970819534353, 0.24485811452291237, 0.1851055458515397, -0.003115552977915653, 0.09178485735631292, -0.2006409150061457, -0.47724324422778214, -0.8419352075405351, 0.44788965889891497, -0.45754017647608497, 0.5813054094870482, -0.030559271179625796, -0.320089274031123, -0.17651791512761333, -0.33705137101474314, 0.30070523423722445, -0.06070001287452254, 0.38723268005142025, 0.05260990827247405, 0.02644680314298635, 0.2190901097059385, -0.3761850530576268, -0.018871444240872143, 0.43633195287740334, 0.42632949918423524, 0.024359132380089937, -0.29357034887367583, -0.6934579434486626, -0.1225871384081843, -0.40991067332242753, -0.272967741381916, 0.2277595820985252, -0.3040507805340344, 0.14568844310775156, -0.1960224210331175, -0.09615133156686773, -0.016933653516421395, -0.168510960330006, -0.12720531811297547, 0.09178546438348172, -0.43729163230295715, -0.2484930554518558, 0.16274815030666664, -0.37135493137164416], [-0.3763338355518381, 1.7363891447635553, -0.4800660393450802, -1.030910290244989, -0.04426841289156393, 0.06932851614899914, -0.887854082982349, 0.3757169535901333, -0.8589201647973725, 0.3451935399341979, 0.5441955861971282, -0.074855507716885, 0.10378861243734255, 0.8798665153582363, 0.06311776035671085, 0.013352430610645201, 0.7711901268608523, 0.4045052160893622, -0.09563863133581565, 0.25134188481712866, 0.15833664620666552, -0.17597894163437, 0.2580382951278175, 0.13068706996956428, 0.6258994462679737, 0.6188002940256925, 0.07976488117775953, -0.16532832940325093, 0.0012798243986597497, 0.5740027406484352, 0.19461929520388593, 0.0755945696217008, 0.06658067212519723, 0.18126592656040635, 0.06988322456732146, 0.06399219145904131, 0.6434263163954815, -0.13935313394974413, 0.06464937467966769, -0.47011740158149706, -0.42848201940372094, -0.24074812082565863, 0.1848839519997924, -0.07999954069962356, 0.18030424861315872, -0.2260722989278242, 0.0743800606880499, -0.29056431597032045, -0.40636995505867357, -0.22525291690016563], [0.5404878412538979, -0.7134416692037306, 0.5284660974508355, 0.4650405588641298, 0.36802542523894927, -0.9677269135603773, -0.12685012466267664, -0.16570029039072037, 0.19137239197849518, 0.8798723869801013, -0.19283834502487732, 1.0704278266190619, -0.31947295233435385, 0.05046180720496511, 0.13886130453325118, -0.2879940889736888, 0.2855650765681827, -0.5981580730982522, -0.400279039762582, -0.45586775955493264, 0.05881833562293528, 0.63797365933285, -0.1334848987700553, -0.2615539836753499, -0.027933820678583347, 0.21197750518050468, -0.04585585291997811, 0.24755743303001854, -0.4187853909161279, -0.08767746855826329, 0.3200027207717207, -0.018445253926084315, 0.24499180035007154, -0.03943078757901302, -0.3056271938210781, 0.12421394280163779, 0.04476901079976012, 0.21959163209337662, 0.2559296695626034, -0.3013105767152916, -0.41051063372459656, -0.20982422012938914, 0.03279911696165224, 0.21376192045705786, -4.53318125440125e-06, 0.23550056754736912, -0.22129942908345632, 0.1564122716732974, 0.022769053573594777, -0.38787522078739023], [-0.537823767052032, -1.2054474092288308, 0.5914354155148922, -1.0614967740672372, 0.47015258463202814, -0.8601191857303199, -0.43944451197760237, -0.7040181721221682, -0.18637743381959093, 0.05554912770003847, 0.27757596436281756, 0.02432886435223117, 0.2953245243910104, -0.026440546938289376, 0.8772255568315598, 0.29264193520708837, 0.6206497129196785, -0.7323011610599589, 0.26527829428088623, -0.15813272490994681, -0.46970596317357016, -0.2290473161297523, 0.22652076715003153, 0.12418407209930651, 0.2327650879873733, 0.37706058802227754, -0.3293857610747406, 0.25940404572377085, 0.38339193818142636, -0.44262034301722175, 0.2685098764423899, 0.22741451733517473, 0.47004832568773036, -0.09797733515166959, -0.27921363495552065, -0.45150730472489853, 0.08202320907023758, 0.6753428991202289, 0.030909452711247523, 0.5375489246967473, -0.2570839317103627, -0.0933108181232253, 0.31466464515200593, -0.5893903839389529, -0.010949304114500368, -0.5011753829322747, -0.004994703500690899, -0.08579707381624771, -0.09191204799736863, -0.09839789706984602], [-1.363595018193875, -0.035787523901028816, 0.03953711367122406, -0.3905282937627027, -1.2862041451797679, 0.5407089079061445, 0.6442636829074033, 0.49337349090007226, -0.3244363746129448, -0.12829832215913486, -0.7720703489039545, 0.4892639207706665, 0.2482989540832821, 0.0674511874382061, 0.545678419794053, 0.30804024622400816, -0.33068315017978106, -0.7410229393284301, 0.5786962511714262, -0.5253220037422403, 0.4898138515009158, -0.328736601522759, -0.2961982510001002, 0.40625502445372913, -0.025865433240651922, 0.7363686951251166, 0.08720585487579566, 0.2340705077889895, 0.12192140859515017, -0.007226700322687934, 0.02156428981952529, 0.14131404414886872, -0.4079662351139186, 0.2348608497216907, 0.040472411720566155, -0.12253280299903677, 0.05442339363025931, 0.2000882950296306, -0.010703255027965057, -0.24016991544237365, -0.0436739337690892, -0.040302826075289, 0.11049393122029216, 0.12169022528087735, 0.1082490618701701, 0.03403210439946664, 0.15240751524534427, 0.13015012925465205, -0.03493918421827586, 0.1585445475581286], [-0.21183407213906338, 0.15923816547047412, -0.19516733962804172, 0.5927966316280106, -0.5717553719250781, -0.5153078916216169, -0.9619069310332644, -0.08407737635357997, -0.23324945960328075, 0.20037806129090602, -0.18287466950545747, 0.7347252387759251, -0.21770961780131437, 0.6200335141817095, -0.7749639458769914, -0.4578753183760753, 0.06510937165872337, -1.479207938661275, -0.3642533770364344, 0.0663727416824308, -0.8288628171932656, 0.4267912868123983, -0.3176689248926965, -0.3820826885048821, -0.6551610319191938, -0.535476057099385, 0.1369457075712802, -0.04951418678916117, 1.042756270641968, -0.01753200046990614, -0.30375059938939103, -0.6202669137082905, 0.8977426951476699, 0.4564554448443522, 0.6565881810107731, 0.10455405944944711, 0.12849669531795505, 0.6573576562624452, -0.17764057235690361, -0.12008623557548422, 0.18817930175110295, -0.43045136199840606, 0.3797506416369018, 0.2665757123509901, 0.28660766397936327, -0.21339588983842078, 0.33987201306136394, -0.28597679264225195, 0.38086946703899016, -0.8182786715317424], [0.04315243169520627, -0.2567301034660618, 0.6381176364717579, -0.21522164178840303, -0.01554007983830296, 1.088756164670165, 0.33773089738819945, -0.06419359933214099, -0.3271566067906433, -0.12952308658359368, 0.5039832076294235, -0.023019624465777693, 0.16424062384077517, -0.2400305031316829, 0.0831105607723974, 0.9775798400834332, -0.13608132443321727, 0.7219548417531441, 0.45634839922657383, 0.595930291092579, -0.2622787625155771, -0.7611703891174734, -0.026616572833813135, 0.4029245572241372, 0.03895817327112091, -0.15204347035343382, 0.3284289190977736, 0.26924521603841217, -0.012527836970400337, -0.026737616100357395, 0.19028034837738422, -0.3072395600398706, -0.05064641687556464, -0.5204256569471294, -0.23445947164558784, 0.45148115433883074, -0.1121914962088836, 0.039675715648638775, 0.07367013309813357, -0.16952865910957712, 0.1239380557290794, 0.10923799122184477, 0.23326986061470711, 0.09529543059764123, -0.16056458627033762, 0.44234145310978024, 0.05908368924270061, -0.07377217125803145, -0.4874762875021372, 0.05833038562148338], [0.22655438255709506, -1.2638250957202726, 0.05302731984202408, -0.5238737644474357, 0.09276752008557285, -0.2823023038764148, 1.193223639746547, -0.49143745156088164, 0.7387678404128535, 0.2430804883473617, -0.5108570921837526, -0.19908589097468649, -0.3787258453547309, 0.19417160007313844, 0.2903260585213036, 0.19627792340988937, -0.481681967790585, -0.28106114161974777, 0.0637700211154955, -0.47206964769316545, 0.08353906535099875, -0.9283061036825595, -0.37808951834725424, -0.5018693688712562, 0.2288508234147592, 0.29192750537501094, -0.027609232465139147, -0.27422096421486275, -0.06450282321891598, -0.6283458536045807, 0.8227204915275409, 0.11362306715781183, -0.4093775570127068, 0.4123268864157413, -0.1873777793237539, -0.19299199718591806, -0.13009790149883804, -0.24794253996214702, 0.24309952763574824, 0.14685037899963913, 0.33331790869396044, -0.654050095716727, 0.8072297159823094, 0.15171050135285824, 0.01937154282664632, 0.04247430880914663, 0.09726854932531304, 0.38894367114558287, -0.1325571690189918, -0.11997006376569219], [-0.04209844578487735, 0.05225327970712945, 0.8823715808137095, 1.3942280661680608, -0.15682551245488116, -0.5803043168830971, -0.3300544933196111, -0.4075931374348606, -0.44727658532425807, -0.5662390786839172, 0.36440293340866176, 0.9054291355356308, 0.6622757383031027, 0.30228518266064974, 0.2252247610396053, -0.6488556546088383, 0.38890326621635046, 0.286915758926535, -0.3373607304486531, 0.28116842271961734, 0.31865738956247486, 0.13413320552759941, -0.6207852802519688, 0.19452710831883352, -0.4331957194470603, 0.1527594634542463, 0.8343732062996447, -0.3408288657058321, 0.341673175909051, 0.36761070067838386, 0.30215458957325314, 0.79555779742276, 0.7351280259812812, 0.6060917671119207, -0.13279954691041085, 0.8099880425125854, -0.22438703435890384, -0.1732898062781841, -0.27216555496185757, 0.4379994714287393, 0.228269453179309, 0.22141258622627602, 0.09932575314888971, 0.0016151358172658168, -0.09948953577317936, 0.10792970977687948, -0.10601191190290166, -0.09933547091093653, 0.359065695069631, 0.4560446216063036], [0.7369286992586731, 0.1383453386627381, 0.9529134388379246, -0.05781344589582545, 0.2570563586945862, -0.7734721453711773, -1.0372828092145552, -0.0032842525651404584, -0.6071355245705428, -0.04498138482783929, 0.17377552114123673, 0.01533878293186854, 0.7865473143249883, -0.7996912196283614, 0.011452733310719547, -0.3197388182025516, 0.2244456838187532, -0.01779164643815633, -0.7462383994252614, -0.665772426668637, 0.19680797937161862, -0.5829425494769119, -0.3136338369437682, 0.42610124271969346, 0.19353830026458888, -0.0886644603968473, -0.1729683618366923, -0.2606113849729933, 0.32918265291657084, -0.042974256170545455, 0.10399032010535697, -0.29394527938585674, 0.38969430681181655, 0.07513606325106237, -0.012941566926682762, -0.14414937364153732, -0.0693942422696398, -0.09672902613957521, 0.12924643562708743, 0.19704737283044282, -0.17886142708580033, 0.25872747071337154, -0.024204645986271915, 0.150949843493675, 0.12595673410665678, -0.48614309031592573, -0.28417811785616387, 0.42251096219938783, 0.1580951872718397, -0.5191703167685264], [-0.1598889299521812, -1.438413797857157, 0.16746227421448526, -0.3627762095289498, 0.13756130938019429, -0.012140644650734292, 0.7420041590274215, -0.060097680287929375, 0.5698576427213633, -0.6920848997843061, 0.12447791296437016, -0.9411848937976763, -0.581305743946061, -0.4681197899238734, 0.49646213573845965, 0.7757989846987106, -0.13062246191029422, -0.18090779546538394, 0.3350162420400951, 0.6604031010448831, -0.16352018244320615, -0.18998327155233335, 0.07439605965597962, 0.3457973592095855, 0.02333507501365963, -0.030901677482755623, -0.366853661206262, -0.12224469007221628, 0.23823383430479772, -0.4651625749939632, -0.052159809525959805, 0.49584352088885547, -0.23993481260933341, 0.024394640604169012, -0.020459831191510604, -0.8799042366043155, -0.263020332943846, 0.12957654063506946, -0.24508903792647402, 0.4858139303938809, -0.3431094648888911, -0.23584999341974155, -0.10380919006028999, -0.41248477681655976, 0.39236945265687106, 0.10190082512068067, -0.26143771974008334, -0.09096253101781498, 0.0636293052409403, 0.5286000229355864], [0.01533323365292763, -0.2561142860161422, -0.25030151818328866, -0.18038851845911397, 0.7061500017162595, 0.6554646725997189, 1.0737235376386263, 0.2926752057568493, 0.8023850979924709, -1.0304630047358327, -0.49606588316863115, -0.7880193272749779, 0.2011332359171784, -0.7057440416274838, 0.09361405390540142, -0.46581236169578805, 0.8435240802820672, 0.16103888128224061, 0.8183539156986389, 0.09139882682025814, 0.47704002817248903, -0.6793859850631128, 0.992162135307606, 0.25134966150822746, -0.1548868774944061, 0.2554644272160318, 0.46621675110912053, 0.07316496535029061, -0.11173941631653733, -0.29313030637985593, 0.13600492700480146, 0.09734335848062395, -0.524737736687399, -0.6213334268314075, 0.02710394716434168, -0.11947630414822603, 0.09441061581285348, -0.2609002565786329, 0.10627985367654995, 0.3262803768200162, -0.09527837893277494, 0.08225054417779845, -0.07600582507961766, 0.15762167416381528, 0.20452913106799675, 0.03558931219001386, 0.14337102560422813, 0.16898678651330648, 0.25990410724115337, -0.10479919831235357], [0.45526379023657787, -1.537051348326868, -1.0588142475163058, -1.4864839427595138, 0.06624153627808532, 0.1375785158095777, -0.005987832292523551, 0.6771280532293942, 0.5649464065355716, -0.07027765281574071, 0.5404947495318734, -0.11113629823296253, 0.051631487403447786, -0.5597541608337994, -0.507819286124051, -0.5457173746193077, 0.29411716972907503, -0.5994908777209134, 0.4847258413660579, 0.2154360636878729, 0.4749296766906921, -0.6672446902982857, 0.5436385976551874, 0.4048953755679531, 0.1977664291114579, -0.26603527989882736, 0.08766842253860556, 0.32590201050524514, 0.10300155117389716, -0.09562380184401513, 0.010888594304472783, -0.20889354567782978, -0.06673139789587318, -0.6015282464652799, 0.05399811066224364, 0.03646227097918829, -0.24321232872545873, -0.0948688282682694, -0.26767211764046117, 0.6363500760758704, -0.2051496407982281, -0.09605580534745223, -0.7625178773229752, 0.29298411236173855, 0.16798371007865662, 0.4688485801594984, 0.3408805114387195, -0.13847759379261468, 0.12833808011499492, -0.1991378522748962], [0.621963989841928, 0.38275709662789, -0.4542054881426858, -0.6534514026516103, -0.17052700064928472, 0.9594766974203167, -0.34718046238109346, 0.017668412798082983, 0.1575358912461555, 0.046022653126771014, -0.9164828445217735, -0.21877594787530652, -0.08812867354640808, 0.13006134352974894, 0.08068938036895443, -0.1498286276040166, -0.09732867160668268, 0.23826220212903285, 0.3734467442028712, 0.015930646467882077, 0.1325020945889617, 0.17575697518640945, -0.6641594759046292, -0.13249008498341364, -0.055610366480085834, 0.009694273332851751, 0.2924191568565078, 0.40242462134950235, 0.13654436931842695, 0.06174758004707978, -0.27979130514874706, 0.2695291997939506, 0.16714406566462756, 0.08347535527372707, -0.000619860314257168, -0.08628668163654904, -0.0715833901617704, -0.1676466135982247, 0.1470826124696488, -0.019653102143432105, -0.12494465824069242, -0.26425390575405777, 0.1761648986502857, 0.00933032400378457, 0.23408094683418987, 0.02826541777277287, 0.2387453923870494, -0.25372738618839963, -0.2882164489916273, 0.22833028233955213], [-0.27346774821556613, -0.3459980917857393, 0.1397684152036609, -0.017101067220198482, -0.753081260092918, -0.07924620057676605, 0.07567087508433232, 0.35467794268397085, 0.6316190458590067, -0.3258427254438619, 0.6986839124872757, -0.23762676703181562, 1.4280591881272657, 0.761871298066283, 0.6584061729771314, 0.16462812119072465, 0.7968892765948292, 0.6534668657779922, 0.4062439807327893, 0.06744866171038506, 0.38438204279637256, 0.38924563353258373, 0.5974096458454619, -0.1782266522960383, -1.054484038905386, -0.3466154959661536, -0.8221218720256852, 0.33638116211981745, -0.6441904158059345, -0.9455366914708563, 0.0759362581418999, -0.3983375394220827, -0.09572736908769136, -0.2259777386515943, -0.23087321165334757, 0.3281089701148588, -0.38856761725511996, 0.6571232837236032, -0.6560482878429595, -0.0756457020745863, -0.6448711316211438, 0.17268729703286617, 0.46631615357961853, -0.29274549923570414, -0.3523617590365483, -0.3110074177430186, 0.21924044100287762, 0.4687264581070446, -0.14681589318528868, 0.08402707916300635], [-0.8426846228906991, -0.5229300167782174, 0.6784288762064157, 0.47737851732399766, -0.38259634567686096, -0.5359590046452934, -0.18325472886147615, 0.8978881774733088, 0.11291926889101711, -0.03475977693819647, -0.4940339470330025, 0.3924520264828944, -0.03264785393405465, -0.15459935151409632, 0.6219497541673177, -0.7324700357336562, 0.4215079337308542, -0.9000670517324264, 0.31272896090108143, -0.7576831992793828, 0.5333301215527798, -0.6982297677607358, -0.16440721181454263, 0.6956007069642212, -0.17010617422466717, -0.2372826031679037, -0.2615980320868534, -0.06887138025178709, 0.10756214738524489, -0.25705099711912277, -0.12331969851496913, 0.15119157210862463, 0.07065803342081396, 0.29821247546976076, 0.28099596508794383, 0.1589222442315643, 0.12955580685716772, 0.3156949703827692, -0.07133318125577053, 0.17491412872439113, -0.27918994035543193, -0.485250307125891, -0.3053458576835579, 0.20519827485736591, -0.411183741926563, -0.08522362284509984, -0.1290974311221548, -0.13165520339512596, -0.01545507690750694, -0.22474348828245608], [0.38975554682405106, -0.8487353177497988, -0.6418458981415351, -0.12678782196261856, 0.04294543642970025, 1.4132300257978858, -0.18248122940617692, 0.24828379216660126, 0.04485905347185767, 0.14629798019108764, -1.041691809446355, -0.17802527340314475, -0.3848382081636082, -0.08955291200914084, -0.9862571338484717, -0.12497472059663028, 0.6491407950285497, 0.645413727948212, 0.640193501060759, -0.7503307474497765, 0.22402570649813033, -0.32240234495533215, 0.8209573359227275, -0.6633571416402967, -0.1855155333536671, 0.24946554221372688, 0.5046182824258907, 0.2618292394222291, -0.1510328493130713, -0.7655124307113877, 0.05467787550522708, -0.47119071800433326, -0.27716595086200807, -0.11071093820346907, 0.40732643798834, 0.057660957298376364, -0.008677535195034067, -0.13371115201413086, -0.1104237953553636, 0.3192168986766067, -0.23573834949530018, 0.30532776402650974, -0.32699690108556073, 0.049380080611188565, 0.09965426836834748, 0.2738159740008675, 0.030230541666157507, -0.10907670130604624, 0.053719863860382945, -0.0392085394980678], [0.11257117699488516, 0.5479895674542975, -0.5354166310778445, 0.061734429744406634, -0.6755984851475396, -0.022490306437892408, 0.18942502985502982, 0.7060517994831809, -0.9147502956068423, -0.5184120526253965, 0.2784729558676532, -0.2161811446422873, -0.04938167903151339, 0.2764010513891074, 0.08337134216148986, 0.602563787023653, 0.9428415328181103, 0.31976437425146187, 0.8979315024524301, -0.2665821665163599, 0.4319471737359015, -0.5072368747080588, 0.4365978340586332, 0.2368384109834415, 0.5676262894659302, 0.13315800040838094, -0.5427354995551186, -0.35056031077784655, 0.0835780768691206, -0.5781337135402814, 0.44086228991680293, 0.30205185319186934, -0.2097176470118612, -0.24591421899265703, 0.10524105823295139, 0.4009975913011, 0.12624945339451815, -0.17484188508070042, 0.07467855040375951, 0.01573050418153745, 0.07126633117178087, -0.12685883254888627, 0.5832515234333162, -0.0933620745358016, -0.36233660493118874, 0.38011154109483736, 0.10259824225209843, 0.6319206446680645, 0.43132824799577335, 0.28759338401761364], [0.853872654746632, -0.46073700468205975, -0.4268809465731, -0.25590581620700653, -0.0736211346047251, 0.6163563277826124, -0.8636159401696162, -0.7785080210253081, 0.058072083234003084, -0.2082685643346148, -0.816188549846891, 0.49140385031185496, 0.5281258314152764, -0.11249860220486163, 0.4522341132838334, -0.46982509286612995, -0.0076116534856767466, 0.318270777448311, -0.01876910149718872, -0.45567118340449014, -0.5649107820624457, -0.36884711561383493, -0.05950362654100825, -0.06590879549210286, 0.304294443238268, 0.634711907850163, 0.49840240428737964, 0.11456179548080792, -0.14643551218331277, -0.6476045521317056, -0.35905641294547375, -0.14776813272787936, 0.10941614188268671, -0.3934589611045536, 0.44465206203025104, -0.32168791928523277, 0.3602328590392632, 0.4218465379988167, -0.18889446831980294, 0.4356262191062799, -0.15797156362613363, 0.008331937391771632, 0.26345368207545217, 0.17826384814770987, -0.05098328802838012, 0.06790473231432084, -0.003193845718047498, 0.07846427886683079, -0.02704280874649888, 0.032943360270010484], [0.2956576267341838, -0.7500929054037887, -0.19578034883324502, -0.12218805201914078, 0.0507430585452322, -0.35427531407941715, -0.012495258076933063, -0.574149740533535, -1.0020057932996216, -0.6402090522101992, -0.9472156307367731, -0.163298480359858, 1.4026674196663043, 0.08242476937880894, -0.12923645636396883, -0.24704158256191658, 0.11939538409313373, -0.2105723395159698, -0.30837434259117075, -0.7774380897902056, -0.1658186779167781, -0.37570269703145387, 0.3630568235082359, 0.28937201697903464, -0.14089900712320008, -0.14976439683674084, 0.199214869699701, -0.04464876518885518, 0.13362402498125325, -0.5498117172591275, -0.38605919671583755, 0.20830237240296753, 0.07461167136103082, -0.13001090515002114, 0.069223323920764, 0.09232996001632773, 0.33737803797253024, 0.6009043940184191, 0.18588086944884438, -0.25342331366211635, 0.5829539925924004, 0.07916893593723962, -0.017040748672783344, -0.04979461304812726, -0.6364985338959128, 0.06513822662175418, 0.13707586055624757, -0.0523876747776104, 0.12074382958813744, -0.18934613520267984], [0.20312133071992086, 0.6535501974335182, -0.4655132608982482, -1.4682245909299239, 1.1851550738408787, 0.7443323482671449, 0.5655481434792251, -0.2605763842238169, -0.5496498601095178, -0.4685014534673982, 0.128389735975843, -0.9372768507108213, 0.13778929140914745, -0.19833201856410826, 0.6353017088233583, 0.30772680868304414, -0.14060017530072705, 0.8207886650011642, 0.6513465161512053, 0.29877691453286875, 0.6281536693621175, -0.044127517256767106, 0.48135398365783916, 0.0972726079404997, -0.44723054727807, 0.22155527111044598, -0.5101601789423437, 0.1665266494831444, -0.10544756279831463, 0.047587816207285326, 0.21568345839671985, -0.08576098813782271, -0.16644990248948008, -0.36476027777173325, -0.19390681735884854, -0.170850450378081, 0.20602789826805468, -0.13008406841099915, -0.14255057858237827, -5.947449548247228e-05, 0.10744122395722372, -0.029367581409068238, 0.09454249511110172, -0.0746153651804456, 0.1619864508697119, -0.08391769170568232, 0.05670530862508163, -0.14637314936948687, -0.07050519027883634, 0.34519141832800126], [0.5315397543981484, -0.2836805586249427, 0.3799912176552599, 0.42465510086219704, -0.4643657359413432, -0.600840717820419, -0.8599262328705503, -0.763801806650121, -0.5188263832872073, 0.1408437957846258, 0.5135987529269938, 0.963008576010476, 1.1682158481779474, -0.38667005129598325, 0.7901395084716308, 1.2480572442575266, 0.0818363142557703, 0.6224899651249473, -0.5724773086977593, 0.7662408860036272, 0.034714118089681736, -1.0116365682448691, -0.24808562455717728, 0.16288049817934222, -0.0743762400594544, 0.38699529146234457, -0.5846071116563489, -0.8502815514623718, -1.3573187229544146, -0.6228071455696829, 0.037473257183319585, 0.12686030676925492, -0.4405612695269563, 0.047860662507065777, 0.10866306491646179, 0.6761385614729309, -0.07367008900246738, -0.22985550041908656, -0.1565464901758972, 0.07079001149696917, 0.061972621066023484, 0.30607409320676493, 0.5824693908730173, -0.23324548944209378, 0.057798841181431464, 0.0855576966936469, 0.45996031451591435, 0.5553354040876406, 0.3806361204499254, 0.2581783609316249], [0.48072515344596856, -0.05865175788918066, -0.20947312865474224, 0.36102848721696723, 0.06759586311479703, -0.00943944997984767, 0.021613522496773535, 0.5249293483087316, -0.5831975096896879, 0.9794410965807983, -0.5162585801654443, 0.4920610332822205, -0.4911620107649316, -0.3996930653672198, 0.06259247128974858, 0.40035270926328864, 0.29722622479030925, 0.27144637747433037, -0.7637475588469864, -0.9016384435242139, 0.9069221691297591, 0.6343687471903691, -0.1401570392103582, -0.07924632963070773, 0.8793511361794045, -0.6487219785041398, 0.340698500483652, -0.409903654549236, -0.19838089010524698, -0.23270831031488853, 0.692934097476284, -0.26752133117862276, 0.06287329357650662, -0.2997589758505593, 0.42156641236738834, -0.6413619242918273, -0.031009609795892762, -0.1858939277722616, 0.5995759086625377, -0.9156701183140951, 0.30193817390462746, -0.3106317634771257, -0.0031431394193340944, -0.10002067940210183, 0.1688077535870215, 0.37798008637966696, -0.08771320371508931, 0.40762948191873527, -0.015162193370863317, -0.050048354602430276], [1.2053640685047111, 0.42214128029286296, -1.3520008996816228, 0.6789472756666418, 0.30087252133774717, -0.3018218310427519, -0.3104892124919082, 0.08991627467420799, -0.44300867975138725, 0.1283913780694614, -0.1400175625448344, -0.9628307593456029, 0.029646304149000362, -0.14429424902098426, -0.057026361897338874, 0.20182820609788946, -0.5388079677563887, -0.10504220081885153, 0.4104921939744084, 0.31009486383066615, -0.30309522524724725, 0.30736998277764066, 0.3098677961067819, -0.1917868364312516, -0.3105989805799796, 0.5117813475460029, 0.5420534570337866, -0.3733910477423542, -0.1552583994467726, 0.38978017211022603, -0.009243545619241518, -0.4020147350878705, 0.2787727928159524, -0.229812604314371, 0.12313161123409917, 0.0175905740511034, -0.27868768432652946, -0.10984787449213801, 0.4499918267020234, -0.31757720862503463, 0.08688819927045924, 0.3401704118221273, -0.07297284551081283, 0.4526330333470547, 0.20457649225992477, -0.01498010816573107, 0.3539958022931807, 0.23794198847210313, 0.021159180856784345, -0.04560536336280572], [0.6627848139787397, -1.7177470570113575, -0.25252154249179365, 0.9694673531486652, -0.5742282136713865, -0.3251902987527187, -0.09510986213129988, 0.18011536519110227, 1.0699527221248681, 0.44399064875653094, 0.4301628417963252, 0.6964563108181874, 0.2835699574763545, -0.11237933327073431, 0.08964362853291158, -0.8790271826672557, 0.7205544643543794, 0.2773896568192301, -0.16846322714369205, -0.5969091097627012, -0.1436886391113632, 0.8461450784468357, 0.12772599936370968, -0.06401472760036458, 0.6519552639555087, 0.6828261384863135, 0.19235629827591344, 0.6006216789945578, 0.3296037622373677, -0.053244969095552444, 0.5318147460521724, -0.13817509753417323, -0.11866647574157402, 0.1511568537048721, -0.07222414139078227, 0.047327283330240895, 0.13153386500364586, 0.037202027911603736, 0.46055450949592086, -0.06908810675062198, 0.04710238903323533, -0.036486213774835734, -0.11227675548560268, 0.29828742554879617, -0.42222538668292514, 0.31430840083326095, -0.07822954278087066, -0.0202380502311769, 0.11408119484553497, -0.49383421448060166], [-0.22438552942017118, 0.8700311409439554, -1.2045553693581836, -0.8246941573634555, -0.0045029222580501545, 0.9224665669479539, -0.6055621099065053, 0.7553976056646456, -0.3682104673423997, 0.34013920877355985, 0.45726765553755233, -1.2417368120856693, -0.15272916634478637, -0.5305698732007186, -0.5172817000654276, -0.15799812113980835, -0.7610253345807912, -0.14298386107352837, -0.546770442618467, -0.595817028566435, -0.21904551828824576, 0.20961225504623823, 0.17890104916656616, -0.3638596184781721, 0.36392274457674917, 0.34362074949811916, 0.19017916378747723, 0.33049079778667406, -0.16576525458897315, 0.07060069280239749, 0.1435902062636648, -0.34793073554698256, -0.5457076118673218, -0.11900691468691724, -0.2410574112667779, -0.440471418708718, -0.30149478035577293, 0.02721993980727195, 0.10208765244350249, 0.3423657822973831, -0.3008258015956982, -0.4495771078875208, -0.47225538237486275, 0.4161261323868309, 0.007812302888286674, 0.2638556623318751, 0.71483186773467, -0.018355072616528932, -0.5668777083344902, -0.10407401066870833], [0.6369199648454057, 0.963008397080432, -0.7112550742980112, 0.24943158965177056, 0.05829958356581432, -0.7798056605653357, -0.24549177262467303, -0.953211284972477, 0.9751552522001299, -0.311155704140722, 0.028137628016627333, 1.2829510193624731, 0.2883127988824801, -0.736382483526474, 0.24913157673522016, 0.5059595697407492, -0.25002656424210784, -0.2523410036253676, -0.07068080557594074, -0.12306698503731625, 0.25388432610270595, -0.5347687972183158, 0.029577207164076663, 0.2627425189538614, 0.47444400292629146, -0.013693228247163972, 0.4550052449002983, -0.2692156703654336, 0.5741743622674338, -0.10217965489977376, -0.7442527342019992, -0.868177352384715, 0.22440911065970504, 0.644762514294987, 0.14337489958680477, 0.1517638060906526, 0.5013352143446245, 0.020895337217229647, -0.013144600520337472, 0.10480807238896271, -0.12615177480153267, 0.3296712648111322, -0.34418624858035235, -0.03552203283462123, -0.5024560179971017, -0.16000727283218497, -0.14556362539849357, 0.2647632616670027, 0.030394047016143046, -0.1253389541393732], [-0.026044584181285434, -0.8321807482613401, 0.021752780372134954, -0.9246826917319423, -0.039240763438316055, 0.5936935707942765, -0.43447046103490183, 0.28153962239719116, -0.06307660408451522, 0.8439687239340794, 0.23569017944733317, 0.30133579136773275, 0.07130198073113962, 0.6772215490232033, -0.02194310561441314, -0.5831204624526032, 0.9120733535208786, -0.04421304382345075, -0.07155616053194559, 0.7170305783460766, 0.6085756912835036, -0.004738513614561138, 0.7948406417201042, -0.3743074131103522, 0.5878509386127246, 0.46659101422166105, -0.3108100107033764, -0.10363820059620506, 0.011319676573173872, 0.18152158925317075, -0.16884602015546676, -0.6125635053914446, -0.36377376527807825, 0.019724998136876642, -0.44171919051841374, -0.32685775140958073, 0.4083668447899628, 0.05708908985617203, 0.1698150244924317, 0.32266733698107314, 0.3036000977616829, -0.31498181000813746, 0.14286429909487725, -0.23199681349732226, -0.19887714984036173, 0.21597470484728643, 0.1692741152671667, 0.32211770127497474, 0.1242095615052986, 0.05073616459763568], [0.17866858038715064, -0.021308054754682726, 0.29635873300695753, -0.26655870829571426, -0.0694750168438367, 1.0049008876286332, 0.2769542915864009, -1.3957874665017844, 0.45203617036146976, 0.3049019199770296, -0.4690863846162568, -0.33163144089845936, 1.0425449629812102, 0.0023671983094618273, -0.6327812110545331, 0.1921311176824131, -0.4665568541157864, 0.1705707912088972, -0.2357981249766895, 0.5501208210707998, -0.10281891212122415, 0.8401568512570344, 0.6755430639330511, -0.2931801275871459, -0.46710931872519784, 0.051806351223495674, 0.49659536684737243, 0.2606361865286546, 0.2774974587388189, -0.2966450110747997, -0.7244056516444484, 0.14073837709020606, 0.2644509322803586, 0.1378009556967493, 0.4191502393344659, -0.5210849902409316, -0.07447867437193706, 0.4231123902802549, -0.3128690160549515, -0.23298062962968102, 0.34367110621766456, 0.2430945934472748, -0.09326570284574179, 0.0011564188905617023, -0.011777381362957294, 0.004254155477569336, 0.2108434099116101, -0.25691829887681844, 0.021539422517122184, -0.2326224530026864], [-0.3783158113833819, -0.38572218863524277, -0.4416762892049811, 0.14470460688642864, -0.8558264028351634, -1.1055811844767411, 1.0801120110228237, -0.3970582175562464, 0.8262423800826335, -1.1242232087953672, 0.6733817457866461, 0.6645161236764533, 0.08182612761970859, -0.3072861540253416, 0.508901849966179, 0.641939685451177, -0.4686231539149113, -0.7847371831707038, 0.6210905818105674, -0.11703167787343152, -0.41417109309190936, -0.2876075459415972, 0.11172459366364602, -0.5418392004889394, -0.22496100314766382, 0.12313526935281825, -0.44889748837548427, -0.06444672103279825, 0.08715269649259354, -0.3731089171724618, 0.39306123711650115, -0.47273437223525266, 0.08716939029087103, 0.14847484946279466, -0.3555881632518413, -0.14689073299935532, -0.13737409043311655, -0.058856096679228594, -0.08654821554948697, 0.22217323432916783, -0.5310375693744672, 0.15219580335401756, 0.2048707547301204, -0.3153186920394272, -0.04139062004793015, 0.25340145256667346, -0.42286051404914093, -0.39504394900092116, -0.04748601786038772, 0.3935376653418985], [1.1047876618153136, -0.02034828465989679, 0.5596127640251634, -0.891575605600833, 0.1515261631920032, -0.6984211029672752, -0.6269446628618743, -0.02925276298789201, 0.6384787751951371, 0.2230321029945452, 0.38074897896045773, -0.048018572531006276, 0.5961183257549664, -0.23409692272374208, -0.6631859386935394, -0.29889280148431935, 0.7234423974862939, 0.4919628238900253, -0.3037641888387145, 0.0535346188889507, -0.49967034939298194, 0.045474378385367525, 0.2542499820995771, -0.6778784376293217, -0.3980604760474697, -0.5457219039799918, -0.525793971813268, 0.13687007708220003, -0.10553114197929636, -0.2706918217805186, 0.4257750285189756, -0.007576095783149712, 0.01658998664895117, -0.17905570466595944, 0.09049813848908925, 0.14922144578927893, -0.288253963050127, -0.14054659997882796, 0.1785814710796611, 0.7700143835779802, -0.3054457874620465, -0.43532242625000855, 0.38244696712604553, 0.485350671467103, -0.19716089283842267, -0.15038887140201312, -0.3491875749106941, -0.26957949613637594, -0.07183471921865144, -0.10808049163176266], [-0.8563430846237915, 0.8224481695673002, -0.48073733894235, 0.29612687613812555, 0.510731274434161, 0.022558358347890165, 0.5281528819537014, 0.23491943915436572, -0.03326881843107514, 0.47715397482924304, 0.009248924146625908, 0.3552770808394149, 0.17833139878165305, 1.1189431903259388, -0.6903502261215061, -0.6655961527503265, -0.5721480549559179, -1.4813614385137632, 0.11173015355571671, 0.08181658127827696, -0.596491963011307, 1.0710933639662918, 0.8415559944540255, -0.5356320011761113, 0.8134470831925706, 0.6373555593385551, -0.06238222209084397, 0.5469879654336895, -0.5614688443978385, -0.42714654538779806, 0.5403800515623289, 0.13465341430617483, 0.3458960115141219, -0.40612347135519344, 0.13912880707987255, -0.20788609365477986, 0.1536238843315125, 0.1063231010392619, -0.4763745231274622, -0.10205655769351052, -0.2152448706698634, -0.01873751610488215, -0.13755751131297272, -0.07317322199115246, -0.7624474256705147, 0.36368992577826753, 0.3769886089785284, -0.2884545511620915, 0.46845610614577, 0.279645681761116], [0.052017902314840554, 0.41428024021636956, 0.36187173966794633, 0.7789343769897442, 0.09547394212677703, -0.7861387582659725, 0.37296875385210154, 0.4409616192346778, 0.43038720675089204, -0.034286944317586214, 0.5831859202027019, -1.1573758745203528, 0.36229168251852245, 0.4463969313124382, 0.33922378259897523, -0.6308572084804712, -0.0404439278489083, -0.40145348105812584, 0.8964360367601697, -0.7467006552896728, 0.2085381701259356, 0.5416058448610639, 0.30973211822100855, -0.6763583586149768, -0.07525849815542826, 0.040555196295108176, -0.18385197350940827, -0.24994803845137328, -0.1759563811104996, 0.5714396782242136, 0.4884655874939598, -0.28278513607718253, -0.2175408574138949, -0.7908759594142094, 0.15290422612185706, -0.36974648292947654, -0.4391930839387463, 0.6805548858512859, 0.07697709376393545, -0.3282864258954802, -0.10435290093076532, 0.018592057903856707, 0.1890040960658391, 0.17675828386358874, -0.11870269879416988, 0.29679171421316436, -0.0403715366068479, 0.16535635569532722, -0.4126347846549208, 0.37510222087664935], [0.14111814960949173, 1.063414799537146, 0.24665532590152775, 1.1483982533824484, -0.5119551057794938, 0.21655090454164097, -0.33848137186083915, 0.39761781021707315, -0.5980956952845757, -0.9562967844204325, 0.33630187372753617, -0.143725697590764, 0.6996452727943044, -0.6556110781076722, -0.8841498589022002, 0.6763078551670525, -0.7631044029232998, 0.32310828318798007, 0.6672579565398472, -0.06672171934057053, -0.37544455044676833, -0.04083344406307963, -0.9005971456718385, 0.6479510344545518, -0.2528689416053508, -0.48788779949761024, -0.2779145957134219, 0.1080817698856459, -0.6279501105494802, -0.6453252731614724, -0.06834320094260653, -0.13364343937986617, 0.04413987380106624, 0.06599890872479214, 0.33616513239492163, 0.47976366868759285, -0.42959156338661714, -0.06400972831104264, -0.5954298848329047, -0.07477426984309338, -0.22792173992114265, 