{"layer": [784, 100, 10], "weights": [[[0.0013124572912750084, -0.0011288778471751743, -0.002249160491919222, 0.0011442453544270445, 0.0010486917209763297, 0.001976443839956213, 0.0019080842510890575, 0.0013230106844693656, 0.0008132320074254302, -0.0016032335546988775, -0.0019743629503855492, -0.0024013221170331445, -0.0004862773089641241, 0.0005229125650964582, 0.0022413492676751534, 0.0001951205165165183, 0.0012407598385601054, 0.002025397779190399, -0.0013975244778923865, 0.0007271782916593598, 0.0011162435700337416, -0.0017796947705763205, 0.0018045178094823029, 0.0018106731932413106, 0.00025570513395628037, -0.0006407216265618825, -0.0001727002011093551, -0.0027609558221741433, 0.0007023589797427391, 0.002244580596064369, 0.0014912965522217558, 0.0010832359878843209, -0.0012020332168018702, 0.00031447294538968634, -0.0013883794509524287, 0.0030551100792296864, 0.004682950347521119, 0.004296518801459298, 0.00834022099352292, 0.004300382039581652, 0.006536946766659084, 0.00618218493232726, 0.0050056849638614835, -0.01290993713327479, -0.03433075387714258, -0.013065010788517616, 0.0038007304340442016, 0.005932227414983597, 0.005256076444061111, 0.007768472860399134, 0.0024136523530634527, 0.0013810016759459225, -0.00010334410053337881, -6.821118881197232e-05, -0.0008591246023452036, 0.0018005134132288863, -0.0024650417214143626, 0.0016418556659266188, -0.002108024221087362, 0.0003920691492217571, 0.001516939681924165, 0.0010319699706155489, 0.0005716691943681954, 0.003209936617969127, 0.015928205589598093, 0.02901890699651027, 0.03072530715238184, 0.019283958060241514, 0.009914799185860452, -0.01192949522536283, 0.02849381497034628, 0.023121113985079926, 0.009454363078659305, 0.034056825303294534, 0.047255018176062584, 0.03701598482086688, 0.031395186062976824, 0.028559740390515346, 0.019785475969695404, 0.007560211265136956, 0.002332837072790498, -0.0018678805659383727, -0.000397913139129538, -0.00013341890692460334, -0.0012836864838334076, 0.001197843593436955, 0.0006095675769350521, -0.0029874502912874885, 0.0011275858019694884, -0.0005612645733463541, 0.009892704441134955, 0.016857023451903954, 0.0466076889185457, 0.06100344920454261, 0.0585074758633579, 0.041227780647505034, 0.0453197788878112, 0.02194941675101409, -0.02191111470313501, -0.030282159465162432, -0.050986182292317245, -0.02876840899353969, 0.03552181484397343, 0.028261083822489343, 0.04994630925552282, 0.07175867550554008, 0.038957455533501266, 0.0037385241670728083, -0.004489036668418364, 0.0018541222259405479, 0.004101098585104135, 0.00044842683677900376, -0.0020598430801517667, -0.001452769960615718, -0.002214953632094135, 0.0008237482050671837, 0.009232508309927064, -0.006508361529596345, -0.007545428192236924, 0.002732047438549668, -0.03859034685350699, -0.05462519629568543, -0.02584016733765576, -0.005094094187437562, -0.017345763824598414, -0.06518921503862235, 0.0032398032264107555, -0.049088930031307716, -0.09012174547619717, -0.06860940037661711, -0.05614665120955582, -0.07257417917891713, -0.014986407578242092, 0.034181929465447757, -0.006188249520519445, 0.024386888118128707, 0.05571957779761945, 0.026292773965174977, 0.0069328029510367754, 0.0008839858321956438, -0.0010298153784875294, 0.0007826350839700695, 0.0012854845382256226, 0.0028393912653459754, 0.004581675436522438, -0.004660123557556992, -0.00565992192488864, 0.00033516129388777924, -0.012441109684008814, -0.042326615781878664, -0.1731171047754638, -0.12069328037436315, -0.077923598306283, -0.1658494138667406, -0.21742050144378144, -0.2673830122694153, -0.13523603437957504, -0.134629616027992, -0.26628349060222317, -0.2400288283807909, -0.12296063727794873, -0.047514332709678496, -0.05465440547349546, -0.02353646981363498, 0.033167172938166053, 0.03777973201875189, 0.023317672867423016, 0.01390327233876854, 0.002114266388250998, 0.0015069110202952899, 0.007352134797052348, 0.008530153559618057, 0.014905296369437451, 0.05397340906118723, 0.017004953697718726, -0.01859135308316491, -0.07493437105576065, -0.004307805352526257, -0.1179076200332559, 0.02587482124031778, 0.026212770291820574, -0.03352711298098119, -0.1933077588958068, -0.09978795353799572, -0.079959776756331, -0.0612134775182068, -0.10570098224125524, -0.02787827394575113, -0.07232054048956142, -0.014407154491721471, -0.015775741351112826, 0.07767902970310814, 0.15998492286558463, 0.09638596629031326, 0.05715550325090956, 0.030600844796373563, 0.0003719951013757461, 0.002229872758017009, 0.010237192171409008, 0.004019061428120026, -0.030361077210508416, -0.02929709819293163, 0.04478786502486258, 0.05946354040204033, 0.06114312513692977, -0.03619972216380029, 0.029574790691555376, -0.07330108437484845, 0.005126745898043858, 0.11674157377469702, -0.024891443016382853, 0.011819272109301567, 0.002024438201674075, 0.14037376022991294, 0.022456728516112183, -0.0006761728334557295, 0.03777558164111951, 0.0875482641445173, 0.029714008746792375, 0.026511828894430836, 0.11972130491593654, 0.07452602304835744, 0.06413382593938458, 0.008784168046312796, -0.000987354355877899, 0.0006370008370692093, 0.010086218360519225, 0.0056859451778910886, -0.02407473024260509, -0.0033107166972086433, 0.05341194131064671, 0.07804948085095485, 0.09561890314895159, 0.02205229674620826, -0.04391268106607386, 0.08806249383666542, 0.03565391218697018, 0.013151454314016067, -0.014174667028258857, 0.16812191542875626, 0.2618167145305672, 0.31124699394303224, 0.22271993162480314, 0.11758477312727898, 0.3121733285993159, 0.26165352448407797, 0.1980877485925172, 0.09350086206769946, 0.19541163419870378, 0.1187442260588693, 0.032714616780820514, 0.004880519286392723, -0.000300737216319593, 0.0014721244607490075, 0.006251142139162326, 0.024936088627723726, 0.007959588959150676, 0.012269452042901238, 0.0770473199741907, -0.03698023671169897, 0.05105725083529215, 0.08610433250511478, -0.056105628102355184, 0.09910184278525463, 0.04952785148559529, -0.12716064016489073, 0.03517760766988344, 0.12020250631327549, 0.301270358658122, 0.33175536222513047, 0.21185974652086303, 0.16582736986024382, 0.2831971485146434, 0.308911054414755, 0.20161952294526023, 0.11572025220525209, 0.12472921292191684, 0.08673271709688055, 0.027171448565303746, 0.016651005733705277, -0.00023603307230003222, -0.00022510161894263308, 0.004893102969996725, 0.0437294486818692, 0.03303352359779407, -0.007212369330198678, 0.06999281629268045, -0.04124523040101871, 0.007032062874747058, 0.09395446742513039, 0.08560850619783812, 0.007740123337632163, -0.0904937899347153, -0.1581703235125845, -0.2749922960670785, -0.06890774199492347, 0.020136637375827885, -0.07740782330218596, -0.10302281811175404, -0.0679422762271761, 0.0877192403589327, 0.13128776700585598, 0.11346938132667864, 0.08318424474470182, 0.11186936827125786, 0.10129287593729486, 0.019313564420556786, 0.008252688299648567, -0.0016349570808913355, -0.0005840839688691022, 0.024473728005965346, 0.05052992379287262, 0.05470199176035184, 0.10997025138138704, 0.08021689058100892, -0.029401492039244245, 0.06386285957157055, 0.16227647343888116, -0.03785281565801771, -0.015525159784638731, -0.26535769803883125, -0.3357579328213173, -0.36334176131478313, -0.34806527854583064, -0.3863260294157399, -0.46795899746514336, -0.46581490098679146, -0.27261271302305073, -0.11061082657738652, -0.09068121351648024, -0.05411454463832444, 0.03245811913595954, 0.05640780926102155, 0.06869124130573302, 0.01453136759148793, 0.0028398407378050572, 5.8867962234913545e-05, 0.0013912832752919677, 0.0062674344566325925, 0.027696107055833846, -3.941254949168979e-05, 0.13072777572151076, 0.0436398433859249, 0.0686709047405316, 0.10673675668111038, -0.030724418616598505, -0.048227949481336886, -0.18701934088222646, -0.313126556089173, -0.3187294708473974, -0.3653031035471698, -0.351966371923472, -0.4641930428771196, -0.5076915557558906, -0.2988377038597258, -0.3119809983920819, -0.14612959843014792, -0.1679145597334517, -0.20037280657483136, -0.12742208177125214, -0.031611437830992406, 0.035374174469071755, 0.020740291055001806, 0.003076851507994896, 0.0025852763836692614, 0.001089467278301606, 0.007309091745450111, 0.017136572296482952, -0.018561415526537443, 0.0937328547093461, 0.01806678584050718, -0.0378700516338705, 0.012466006598364492, -0.05653033318757124, -0.03800911577288257, 0.017791880239097474, -0.11076306456328953, -0.12735556241271018, -0.06968883350660461, -0.2316304479788117, -0.12824821968903513, -0.10428745956463625, -0.00546499778198358, -0.046233720056789405, -0.05405442595550541, -0.11050643607834877, -0.07596035490192297, -0.13610215594019304, -0.05281378133393948, -0.03511928320730494, -0.007656947907278792, -0.013110323392325976, 0.0002818542793552011, 0.003216473593883864, 0.009019850963196373, 0.011431821700917567, 0.007227806687232961, -0.007721748716998887, 0.03567677091692832, -0.058811552692637534, 0.022163531903206076, 0.032439031460308944, 0.0647610581974597, 0.15479925224134572, 0.15424452890211202, 0.0640128276733358, 0.127989260893246, 0.15609221615421537, 0.22945536428381647, 0.1983218529604685, 0.019051281687785422, 0.0791795320333363, -0.0642587610116525, -0.12431480365338606, -0.037207108975496665, -0.043228241585338695, -0.12591354214327277, -0.0922927773806382, -0.008393407934474387, -0.002778090910061087, -0.0009007893837334028, 0.004698218186151379, -0.00024271870304598417, 0.016292246948465566, -0.008834350079838283, 0.006061181331291281, 0.19748009448518405, 0.06602492502188208, -0.02452171203341361, 0.04868612909978569, 0.20393311028517377, 0.27963951652486463, 0.3025231271672186, 0.1537447500949996, 0.2338239136199408, 0.358543574731029, 0.27300037220268103, 0.24591813630578355, 0.08633323294857327, -0.05798880605910789, -0.14288856541890307, -0.12558717149497153, 0.016018769905484728, -0.09199299803490742, -0.19921494282097194, -0.08566783659466246, -0.02371759220357075, -0.0016180427227558602, -0.0011357016418962551, 0.0014074787231935363, 0.008893061059050685, 0.01933898962713946, 4.841981637452819e-06, -0.0019300306132659921, 0.17352580404556978, 0.09345297798496485, 0.10051728959578413, 0.08830750758987012, 0.13398088377636672, 0.23917566285034897, 0.22637869040361466, 0.1875154168227772, 0.12107420280824008, 0.257115813069561, 0.3078605147929276, 0.22916118435360414, 0.014975876855681082, -0.023036681468988345, -0.16586265727914762, 0.058992720212648425, -0.05312188607122387, -0.23993907394707656, -0.21447441712460585, -0.07005073147593853, -0.023662722304772555, -2.5607698943337487e-06, -0.0016577881596057248, 0.0006516367912251871, 0.017157906971710393, 0.010195301757301664, -0.07961682315633582, -0.14718164168767606, 0.042985837523415636, 0.05965201014156401, 0.0092753428292609, 0.03150566582145206, -0.060055006578146775, 0.05679802268137066, -0.03840009495163374, 0.13095768953983755, -0.021319623745787084, 0.1209490227766479, 0.2462782420988167, 0.1399387828488878, 0.06157807468955183, -0.09290908859904355, -0.024021398797294664, 0.025598791691388213, -0.08448551205231056, -0.19975187494986243, -0.14522624716276109, -0.035495283201669545, -0.005884802046573587, -0.005610923326965827, 0.00019732973227555914, 0.0020678700534113134, 0.008952203421851612, -0.03592412680903369, -0.1528054537507854, -0.12283747483123846, -0.09182886604646208, -0.03955859718046911, 0.002843879929734164, -0.13917007651758984, -0.08266634046072713, -0.08596662113268583, 0.1160061873110529, 0.15606409413058306, 0.015652392757037642, -0.02448914491391051, 0.1563269589397256, 0.10140187497980957, 0.041786540123933825, -0.008727056925206244, 0.029248707032804758, -0.010193550864101794, -0.13421931169771387, -0.16862694074352103, -0.07866543345957043, 0.004970156443117562, 0.0065152270295029515, -0.004009975178140575, -0.0027365352645615498, -0.0009347588758116175, 0.009994501287057006, -0.06269642868646112, -0.17148083636153033, -0.11926186512443976, -0.15330249152495098, -0.19899453616847748, -0.08399247508106017, -0.0849275057540162, -0.0653595897265243, -0.031270699815476935, 0.025171405849788546, 0.02845867845153743, 0.007672330276583126, -0.22991219718679032, -0.058717850569217966, 0.06520106858228035, 0.04177255574255119, 0.049263474586048746, -0.01798090000036462, -0.04137475059159348, -0.13958754650581925, -0.04988226732427303, 0.01844326070771152, -0.004749180533095566, -0.009765447131186357, 0.00011201664842217447, -0.0004900977491068071, -0.006608817307874988, 0.00107031880527159, -0.047621464614744535, -0.20219278715020692, -0.13412459896110468, -0.18775282099780582, -0.20837674828701222, -0.23469630870361335, -0.13900969683604644, -0.09773582957742298, -0.11017535343703934, -0.11779257828218488, -0.022780888130721558, 0.02519994707339443, -0.07509103419435487, -0.07270011739101605, -0.011607205319607104, 0.0129561030893144, 0.054990945125967285, -0.06128495045419844, -0.021412827877010165, 0.0011013363355035618, 0.05547524268378695, 0.03227285884493098, -0.01199074837062184, -0.005292034399364561, -0.0019745174476906674, 0.002685895525968404, -0.0007854229927520706, 0.0018964496667219976, -0.04374851508617543, -0.03952262148277738, -0.06902848208818299, -0.15775684254807207, -0.20492260868367385, -0.1966299774851486, -0.20607902441654904, -0.13931998549685043, -0.0568217657871072, -0.12199367092490614, -0.024905769956193743, 0.072145781732768, -0.032408643221771234, 0.015696715092495074, 0.10905195552853493, 0.01452433327767883, -0.05556217066559495, -0.03171799326289862, 0.06524651450018522, 0.07990093252722422, 0.04743975746443792, 0.020277315345335886, -0.004079708656790112, -0.028119531354018578, -0.0008669047111113632, -0.0004951357852475208, -0.0011105594747596104, -0.0010011321598545843, -0.023234522183263488, 0.04824920442513113, -0.0034361239914632653, -0.1356155587811663, -0.04456263596971728, -0.10108013718068815, -0.05055752100943537, -0.028315391078032374, -0.06031170367587831, 0.036988491946723594, -0.09009519987630511, -0.07646836385440518, -0.08119114330817874, -0.04926686217097082, -0.02242741217665048, -0.04896692445437202, -0.028925436243575367, 0.009533130905936769, 0.04862958352544612, 0.015371198547502256, 0.019906234987291646, 0.020651619542045807, -0.008534086315384038, -0.002635666138512317, 0.0014177819450606225, 0.0019537864578848827, 0.0003325400535661114, -0.0002414054864396884, 0.011688622470311638, 0.06484346451206661, 0.06884116799166884, 0.03400237471914181, 0.0034432361957798525, -0.02443973454718377, -0.058804083232872, -0.040855992357805425, -0.012951621442499731, -0.14660793430427302, -0.08217621156845721, -0.05254839391195809, -0.04358548084323827, 0.032705651590377534, -0.0840427436379996, -0.06167220931896667, -0.010351862599095814, 0.0788405721732511, 0.07087142285593151, 0.04032217571838091, 0.022188639465775595, -0.0002843630615685118, -0.003354780645769072, -9.89291900405973e-05, 0.0016610552694418534, 0.00045301088927600765, 0.0005661179722245828, -0.0014353798113693286, 0.01274944418393409, 0.013052104086299778, 0.04541744017978753, 0.11845499002755613, 0.06062725979259905, 0.004391890975290586, 0.01395635107443389, 0.1520714204746591, 0.221817225609124, 0.05293540628855512, 0.035629541997409586, 0.049284723170036106, 0.060827092171706926, 0.18696261555309157, 0.06114859718370857, 0.009129152495245907, 0.06306938196309117, 0.09875384863832228, 0.07141983849403957, 0.0238486500802975, 0.011984534645685434, -0.005888578183237006, -0.00393723323834935, -0.0004847227696274938, 0.0021523019440776725, -0.0007165668385299701, 0.0008639462442816012, -0.0008452068391952833, 0.004947385624696212, 0.01631623326878676, 0.02896175121586735, 0.08078921989755712, 0.10011108057943671, 0.10327124486353183, 0.15626543248065225, 0.2604368297624344, 0.2137104108969094, 0.19087825979527226, 0.14658588742976356, 0.18999362304685957, 0.2568369333696709, 0.20303779250713255, 0.10073376726761694, 0.12902465438453284, 0.1394537359199841, 0.0662005671318761, 0.08057650594728123, 0.039652528934445826, 0.02694828337064256, 0.010681493174460457, 0.00013685823972397609, -0.0013709027043906157, -0.0012969439209912614, -0.00033541637927170974, -0.001308968384752879, 0.00017778545572018684, 0.002598390548359402, -0.0013935097439012022, -0.009566836405627, -0.003228790452501224, 0.023761810541369353, 0.04977711719732203, 0.04864388106042387, 0.023642603329106143, 0.04695897102407549, 0.08583162895116438, 0.13233087658484255, 0.09777278110439634, 0.09199281647340932, 0.07658941357396809, 0.05106328860002555, 0.03139566431869796, 0.04608853290116732, 0.022025692634927155, 0.023450321311402084, 0.01580364434184076, 0.0031815501282300884, 0.0001854340655212998, -0.0006237488476203451, 0.001061778147215553, -0.0005654683250431843, 0.00019483566846902452, -0.0004147988909081093, 0.0014551653448773999, -0.0016563283977462757, -0.0014011832021374939, 0.001131501811461486, 0.0013309804488665408, -0.00028742454123689893, 0.002029928910950073, -0.0012886361801793143, 0.0023320446252051456, 0.0012521095981412465, 0.002786927376826469, 0.004001991083854496, 0.005322654350784928, -0.008962938168093591, 0.011563812175012586, 0.008379380258553708, -0.0013642887275698737, 0.005111489426884893, 0.006502390155577778, 0.004379331018028654, 0.01556307982859097, 0.005626074004900001, 2.45273521582009e-05, 7.778075378832655e-05, -0.000291297355446255, 0.0006885521758251801], [-0.00017603554847362657, -0.001138059639110133, 0.0015259879328618333, 0.0018268701957486597, 0.0014351946213428549, -0.0005505681994530321, -0.0029585122812823984, -0.001765085009284015, 6.710678248492654e-05, -0.0003503544990458546, 0.002087491670543655, -0.0020546919341890594, 0.0018436684530250434, 0.0005259158546064614, 0.0001250852894443659, -0.0012839242190950248, -0.00010839455309327252, 0.0002135112683760336, -0.0001378854652837601, -0.0006188204881605428, -0.0010069649350810319, -0.0002756625766635161, -0.001437323097261014, -0.0007235242971790975, -0.0003774054005187284, 0.0023176945519472413, -0.0011683845675552567, 0.0002898581842507625, -0.0012476000434695322, -1.7165529117096104e-05, 0.0006963157562215641, -0.001037683306574635, 0.0003123735399839983, 0.0010430305667059028, 0.003123463720988031, 0.0036370308819369114, 0.0071786928385940505, 0.000710992633847356, -0.001299492607585942, 0.00047466848360140575, 0.003390330472387236, 0.004518801398052688, 0.0033062646072382854, 0.011044262153590246, 0.010610796693902634, 0.005677895210872053, 0.002671084385190707, -0.0029094731587781665, 0.00082862890748193, -0.0013963074152888348, -0.0018656674637257085, -0.0008146066506464178, -0.000333492469699767, -0.00044889552541046605, 0.00018279027951463955, -0.00013623646592029402, 0.002700528482075297, -0.0023520060673039036, -0.0017916429391665154, 0.002810600116723942, 0.0018104315239803287, 0.00027913465773749484, 0.002042615612621368, 0.005685381054035547, 0.013281297519287933, -0.0011859930683283748, -0.011861214156285873, -0.012957251991962938, -0.005003302253449627, -0.025077800206100252, -0.020735922372447552, -0.012004737118735781, 0.008125435228107127, -0.01523965483566397, -0.008816682535090653, -0.003652693899656584, -0.0054925091823164966, -0.00861256589848628, -0.0056601398489451215, 0.002583982836977824, 0.002766246837483386, 0.0011633318124498059, -0.00101913304821769, 3.046679266886246e-06, -0.0009105415714049659, 0.00035369048824454016, -0.0006008473923406621, 0.005191875152679511, -0.0006873637116747726, -0.006611371743266365, -0.017412495635293485, -0.005445691728263254, 0.032002665089927614, 0.042869501730965626, 0.040346326598825456, 0.019765580120185856, 0.0335480213640264, 0.05629286760545524, 0.05927593211158731, 0.07012422793646607, 0.09574077658739462, 0.08348088488567312, 0.007673522778930828, -0.04146423972667125, 0.007408291695882389, -0.010933382221155849, -0.024648554871490896, -0.0174185358229826, -0.007601051314999218, 0.011398831270200752, -0.0008688213151951885, 0.002642475816469211, 0.0014477061124617242, -0.0012847347288608704, 0.0013797894895466831, 0.0013302299575098364, -0.0033914920566556813, -0.012346063064289757, -0.0028047979014353196, 0.008642903023202697, 0.049122357479476166, 0.11604069986257497, 0.15006020041261806, 0.10429947082662379, 0.03602718551016872, -0.015638045039912344, -0.02424537522323968, 0.09816573405422949, 0.04820625214095443, 0.07689199489497818, 0.056443253538357066, 0.028366116281232503, -0.06771998166391235, -0.09015241480191528, -0.08693294496628329, -0.08721161958380129, -0.04349740434599892, -0.007185770896461478, -0.000212106622272038, -0.007706135437934043, -0.000880629170507484, 0.0017071590622339163, -0.0024760372323895594, 0.006058674518316686, 0.021003246951656354, 0.07141453484330683, 0.04972370237117078, 0.046108628799480356, 0.05743887698337132, 0.05395832398262578, -0.08488038053770217, -0.06375520661507088, -0.10661236574824326, -0.12845884956012832, -0.1416465838217056, -0.08233819518395431, 0.005587794784063545, 0.0430978492576005, 0.026264289993658558, -0.07417777841002092, -0.11583793894984047, -0.07586403147499272, -0.07816224624957258, -0.13412159208621033, -0.11382842506197142, -0.03216288576532867, -0.01043571472713608, -0.014961844429296885, 0.0007005273848958834, 0.0013847754215160107, 0.001225286617003533, 0.008967530507508474, 0.028350639853867588, 0.05926302023902094, 0.07222129911872005, 0.00012282055241764453, -0.0803785958405083, -0.1711441134293971, -0.2318688996637705, -0.1578264733166077, -0.17405811115142347, -0.13201467255966223, -0.19629327231659705, -0.3583283740139291, -0.2081941026536761, -0.057608477010889045, -0.015345364499262264, -0.09510848553112933, -0.1489690419473015, 0.07932515711803145, 0.02909627041880172, -0.10679922210879882, -0.08899300014522014, -0.0049543859262433775, 0.0014852521652780038, 0.001371750960479332, -0.0005627957179710435, 0.0006713745352190879, 0.00242695332469216, 0.03075873800519389, 0.04119499517191312, -0.024116052770913513, 0.06311979913588138, 0.04772801198645911, -0.16253318915613163, -0.21625092189959572, -0.1375227887340969, -0.2700077640039797, -0.28898675755907677, -0.3573968265484051, -0.381279447624161, -0.46358131224811444, -0.4695000426338971, -0.29475050594036856, 0.05155484468847335, -0.07007290634018415, -0.1235353216048199, -0.058946127099681, -0.03524578383462839, 0.022393057529646217, -0.005521524607641342, -0.009481196588731793, -0.00991362350949332, 0.0011649466463276414, 0.0014482558893904624, 0.001734970566282559, 0.0016208892498505228, 0.027822851681070754, 0.001210676186850604, -0.005121319034494933, 0.1124744586854515, 0.01110427942402984, -0.042257782310734814, -0.15940773183455614, -0.06408148632932634, -0.2740024388504812, -0.24327155836228997, -0.3992851057661538, -0.21495836093005047, -0.19656888975060205, -0.21553461571187102, -0.1318248532494658, 0.1838789785819902, 0.05220387654512016, -0.005461698960141344, 0.008498541527710003, -0.006702083516088453, 0.10091311252995307, -0.016691544456449818, -0.07338010685077874, -0.015166766604933013, -0.003403525833159989, 0.0020568124028437435, 0.003814803352954718, 0.002786526247705267, 0.038043755039658914, 0.06464494752315413, 0.1427009743910654, 0.20440387142428465, 0.04555152387867328, 0.009093995011539666, -0.018377205977699873, -0.035315746530237745, 0.05626756415960327, 0.05505058275512176, 0.10459618998795392, 0.11751398125818095, 0.017515157049564883, 0.10744159778132052, 0.06751221919039535, 0.06371542313090982, -0.06722414183828641, -0.03300987734663323, 0.07109604576253743, 0.13499932830306705, 0.06614849915511804, -0.010066895145667566, 0.0029480380646788287, 0.018859166739618894, 0.04499121536119361, -0.0024934253220612822, 0.0003283645534434124, 0.03741064630983793, 0.06632701549613035, 0.03627042050484114, 0.09187519316054202, 0.1297689283278707, -0.027170185084506096, 0.11214841741819698, 0.15014261262346773, 0.14008399431562335, 0.33532838519333713, 0.2836858814983866, 0.46069053665282206, 0.22219272874719645, 0.11407049578469974, 0.03855970685379311, -0.17662253425443075, 0.028194440646120228, 0.03836340704465589, 0.14667493495375036, 0.13477372769919926, 0.19188470878181205, 0.10079885783033193, 0.0035494242501073405, 0.05752779013717834, 0.03644691994498436, 0.014009120449490684, 0.0005567963172406592, 0.000648651186165942, 0.06403148034365783, 0.10940426504406185, 0.12294169247677392, 0.02391182341714001, -0.03072061000461549, 0.05431057292241055, 0.1079806883169476, 0.12581911293179196, 0.29987046142840196, 0.5103516941806258, 0.38885139188878526, 0.38212850890694094, 0.3384205001207138, 0.013398810795892918, -0.3475313669022321, -0.23886700900792102, 0.01637144498669055, 0.02129875777673618, 0.2756171985098156, 0.18311190147590412, 0.14816567203812872, 0.06467995134047698, -0.0007730327761612976, 0.00935009829197574, 0.010972589100281826, 0.004772724127146724, 0.0001560175433273414, 0.00011960909500692258, 0.02273627378702111, 0.07524391632513246, 0.10468300761574599, 0.07588184572621898, -0.00957467501916276, 0.06383131395569953, 0.26912901710030396, 0.23558396895258954, 0.24433196094144272, 0.3680398103021902, 0.28417508914022194, 0.130740639000463, 0.15981362059000873, -0.2109482593239611, -0.3161183167072861, -0.27778598128550996, -0.0838786832548288, -0.14880979612529882, -0.006675803836038673, 0.016109812533833725, 0.11604054956350722, -0.06866963038461886, -0.027132485381087944, 0.0849786204555075, 0.050502006605438535, 0.01597155147288329, -0.0005567526762573945, 0.0009616154296868917, 0.016394911040183435, 0.022691683772349713, 0.08720377952710587, 0.10318336137823662, 0.10208837501726546, 0.0038908936136001324, -0.05428230503790058, 0.08195105481614318, 0.13414748783384356, 0.1635283461178648, -0.02010682875226397, -0.10332924019806104, -0.06691209527459994, -0.3551791402966985, -0.3031305321862754, -0.18777456157022004, -0.08987970121023055, -0.26325717247215286, -0.11407237722943413, 0.0069703003127514615, 0.09256244193915608, 0.047083137895723624, 0.10589505103875387, 0.10577572071020488, 0.03856272886856976, 0.00010422272857887202, 0.0019221808057348123, 0.001815597771524752, 0.013128814257885535, 0.0020913095655976863, -0.014165145392176776, 0.024156384788228853, -0.04567517055054568, -0.1358052935511835, -0.17118323523238496, -0.2109254783435853, -0.02124704066354067, -0.01182518965079101, -0.05012860073977322, -0.15208939962081688, -0.15671406077373728, -0.2554267753343134, -0.3077996526734211, -0.10494600164397455, -0.1833440608635913, -0.12747439772723315, -0.04924382083150111, 0.056486184778016424, 0.1239230476107155, 0.18331472218278574, 0.10391100608571557, 0.021134372961527988, 0.01604309294813665, -0.0026357789633884013, -0.00021197189589450936, 0.0027413434280934763, 0.0019390797646921764, -0.0033976057246076045, -0.07036219362942701, -0.04973547803234666, -0.09124633557845566, -0.14227932692639256, -0.23387891549341375, -0.09220580320963277, -0.044159974549789746, -0.1336627681640521, -0.26113037938663736, -0.1566767526210206, -0.18022981155187412, -0.24477995536020042, -0.15406586889564194, -0.09892443384596694, 0.0068477460319942614, 0.042537477753621905, 0.0748677332186325, 0.15971157748119133, 0.15286790403532682, 0.13851607395603382, 0.12686111572494166, -0.014310831109990737, 0.014240047375618362, 0.0027010099674041627, -0.001666775358510081, 0.001962388117404568, 0.007224611616261657, 0.007371565681511987, 0.006908278398264879, -0.10453297965202493, -0.20085206373215903, -0.02833671259359357, 0.021831141459027197, 0.006487501362329801, -0.05579795408871974, -0.2234594831961716, -0.18560556253268287, -0.1379952206682239, -0.12628392048269815, -0.09057285635650004, -0.13267871944418802, -0.02221248039451284, 0.15550920553293657, 0.13118827667807986, 0.09688107387821757, 0.1629462039930114, 0.24250325515547835, 0.18370382880078653, 0.1097258570485999, -0.016119114880960534, 0.039406402498392695, 0.009572993398965834, -0.0013116897036178888, 0.0026166650430774017, 0.006389829095362195, -0.0031917951155252472, -0.025872994186088055, -0.10270867801653104, -0.14798733483550777, -0.0033804249394275188, 0.028431049045435006, -0.11947328096398811, -0.03924389172960477, -0.04496136017031936, -0.22025626811265955, -0.13780285263390862, -0.15580173404816108, -0.02840248789798547, -0.16967468293257496, -0.07583828531084852, 0.08409437192312468, 0.02310280472299215, 0.0785910364923799, 0.20598851173959282, 0.30514664292245486, 0.19829508537754975, 0.11752242793453255, 0.028849838356304548, 0.02576258523141531, 0.011052903822702131, 0.0020133182864039956, -0.00018728169159787912, 0.006553437155420733, -0.04833780618777478, -0.08427670523074676, -0.07985664084791153, -0.15454245689552124, -0.06952475544014919, 0.06366215819224155, -0.13311912362067485, -0.11431814017597769, -0.025940556917116324, -0.22853346642063035, -0.06660765552555596, -0.22452478498718484, -0.22848088894698704, -0.2492002934372488, -0.034251925372718366, 0.010172819934130687, -0.057915276227682784, -0.03150772222587186, 0.14228699761599703, 0.311574607093602, 0.0813164541487937, 0.049211567963059394, 0.038746272657591174, 0.014554113087140719, 0.0019141362468546043, -4.0165804815491844e-06, -0.0018525631052354644, 0.0008988790647439531, -0.07536437109050277, 0.005771887111501167, -0.005501311730982523, -0.08353850247743355, -0.06965042136364902, 0.08821446580545765, 0.02637751333058591, -0.014792725732067842, -0.10358774314049571, 0.0722019669343398, 0.12252927079202575, -0.13608232936130635, -0.23884432295387903, -0.17298065065866783, 0.06915854763090458, 0.01548046743391284, 0.011320768666753984, -0.018337033024802225, 0.0995637913307243, 0.1432514769408757, -0.05915554303693825, 8.16397852815087e-05, 0.019783965973866707, 0.0050261647652817855, 0.0025321488413292364, 0.0010230692922318552, 0.002539827005025037, -0.0026792108436312885, -0.013277728740230067, 0.04685540498276288, 0.041966788262838436, 0.03132339491989696, -0.020770654042092124, 0.07427321060530857, 0.02753823989927937, -0.05515242055128287, 0.0390281301732519, 0.06138956277525508, 0.0968865423573698, -0.15677521614156034, -0.22624353727126612, -0.13495574231006552, -0.024406531414034767, -0.011559588661331862, -0.005720390173916179, -0.0991736603317374, -0.022196281214959902, -0.011182154774479888, -0.07871973885825675, -0.031122096694794325, -0.0027106981055318525, 0.002321688985105797, 0.0010160154853160667, 0.0005357137060512502, 0.002137590212520527, -0.00011987430375050386, -0.003295152618124547, 0.01563614824925633, 0.028843065725168794, 0.150281597907051, 0.12216299111218223, 0.04845508530628587, 0.030626923917245048, -0.026110475912728373, 0.022187197642563945, 0.025329340000989936, -0.12042558600474741, -0.05967316312366578, -0.0641628427342034, 0.00470099968102146, -0.059574373597467006, 0.12847593351759093, -0.038478651630367185, -0.17151858765437844, -0.12660844004115052, -0.09486886032917181, -0.05095017842066456, -0.020456680857027586, 0.0029698822749850066, -0.000663588058200882, -0.0007981244721416393, 0.0002637547399801771, -0.0003322152883001174, 0.00075101697147392, -0.009030628022149479, 0.002433263575039382, 0.06096500178472447, 0.1984217752082221, 0.1713609123714862, 0.1509288467988921, 0.10291107611281483, -0.018251654936290503, -0.11018520003096743, 0.04496411254826849, -0.08766463728510951, -0.027582735609983016, 0.041262070838657905, -0.15543577227331892, -0.027482004934454348, 0.10157189424754827, -0.06521028288980169, -0.12119809742297871, -0.15979966220100789, -0.073548188570457, -0.050065483580581535, -0.019573819130779758, -0.005670671447797638, 0.0020276869808489705, 0.002194515882554317, -0.0005182013638454226, -0.002832116044875775, 0.0009047548933074471, 0.0017006411427322823, 0.0458719879358339, 0.08401345940961863, 0.08310784406428652, 0.03667033389383001, -0.016294755739385627, 0.051013071507251886, 0.05699763163910851, 0.004616694835651539, 0.04614558898686034, -0.1076483176659674, -0.06689647064502764, 0.017111730796204642, -0.12290940427886707, 0.021701067669676045, -0.03716436390995725, -0.13444318139115632, -0.15432238697108672, -0.13835790664890002, -0.060973744902290176, -0.051090260708663265, -0.0047964613471286315, -0.0021054838339839626, 0.0009531208864591039, -0.0002827564453424506, 0.0011359662726030382, -0.00019919351516750348, 0.0018703951945845086, 0.008820642827688165, 0.04998430275697115, 0.09642612132597458, 0.0295102162180105, -0.0400479105502275, -0.06828651133225994, -0.052055074899467396, 0.09925006074537206, 0.06687483254778476, 0.09179783694501469, 0.02592654442227065, 0.06434046845428194, -0.004866588285714638, -0.01881052421262373, 0.05241564916253487, -0.06037805530193496, -0.0122250108880487, -0.03761954700018183, -0.06017638289648377, -0.0494098723101646, -0.011056569682608638, 0.009954721038409813, -0.0029856116452536877, -0.0011868651392942294, -0.001437232133953489, 0.00015635403384814083, -0.00031870431768704063, -0.0020626524578512165, 0.0064785880643213325, 0.04387966526192686, -0.0037651004242787397, -0.05461503850943619, -0.037420322819147374, 0.010085950979809558, -0.012465439610069642, -0.05776931667979457, 0.022753092571772247, 0.14140248598339106, 0.1282034654618008, 0.16834213874697973, 0.08403935380958692, 0.1731028656408558, 0.11000463618551586, 0.005897161173069166, 0.1320197604210911, 0.029673239728074223, -0.04076817729315747, -0.041224026816539056, -0.025800421248937503, 0.0062275224822359344, 0.0021821155050596504, 0.001969673767883119, 0.00012062208220870219, 0.001028917694714566, -0.00048373787168333156, 0.001120039641156266, -0.0005429094773101036, -0.010121245381297517, -0.04022893755821773, -0.0363830916561941, -0.010110382265379527, 0.02875386213474903, 0.05941841204094595, 0.006711974339702127, -0.05593896599806983, 0.03497268604914186, 0.12261264249548097, 0.036085331330597915, 0.07754563771262227, 0.09835215283012615, 0.06742620457807064, 0.04927877336745792, 0.11413093100692916, 0.02814441078787655, -0.0011555832035229062, 0.001186962067504013, 0.002833388931369294, 0.000726453374629538, -0.0004870695660283217, 0.0003363528673417799, -0.0004593667407510121, 0.0011730486109465925, 0.0009205778162063329, 0.0007419344632884923, -0.002993933920179773, 0.0006501934801742907, 0.0014045594760521253, 0.002304918660504856, -0.0016984310050431404, -0.0006750309787352577, -0.0005931113343838435, 0.021709513035200814, -0.004473996179566855, -0.01754044171726047, 0.00032849387118282273, -0.005895923831991578, -0.0417325794067104, 0.01698473248291095, 0.014004073557091145, -0.015559794457658184, 0.0011132365880938823, -0.015384120100210927, 0.0016830413135956273, 0.002619208168820076, 0.0029825678263725864, -0.00048825922485446556, -0.0026723033247019563, 0.002174313973411086, 0.0006512833496535704], [-0.00043556022326907606, 0.0001595310225621695, -4.06007531751134e-05, -0.0018658560297189475, 0.0005142802118188768, -0.0021946720000252853, 3.850942331373016e-05, -0.0005703661223498287, -0.0014174943924306572, -0.0006700426180780334, -0.001401403365490584, -0.0013304806101405954, -0.004644006974624263, -0.011213540812027183, 0.0007302886885407375, 0.001254230472791026, 0.00047021214597459137, -0.0013584976983656168, 0.0008129438798161729, -0.000712302754453634, 0.0005065277418040565, -0.0007386607085700278, 0.0011979985198361295, 0.0011057521110922949, -0.0006975166193886666, 0.000771550635364265, 0.0006011445688394832, -0.0008500400342147283, -0.0014403647227505785, -0.0008593344478780085, -0.00031156351476687485, 0.00010609472479830398, 0.0013321153214553472, 0.002086227429847799, 0.00048593833206541786, 0.000142356276154949, -0.0002879120424204767, -0.002380965042908848, -0.004319219316928184, -0.0008543558426458982, -0.00814020672491705, -0.01421278214975841, 0.0010135242671849046, 0.0024950436405861967, 0.009345231382218426, -0.00084741476230467, -0.011991920724791171, -0.012086878761116904, -0.012642487096475957, -0.024170067791118136, -0.014246620411993741, -0.000928859238539962, 0.0004485201359608605, 0.002379519790552294, -0.0009852339615278906, 0.00046773763667733403, -0.0018142443565497646, -6.78644359077503e-05, -0.0010219471220457809, -0.0010750331128485018, -0.0006057366784729102, 0.00011171292120146913, 0.0013809772009408877, 0.0015319200854987767, -0.001270622898039223, -0.014262634211804215, -0.03387719885292086, -0.02178336796906173, 0.012777838295754353, 0.014451925358350697, 0.014611600696173177, 0.0028078325219555297, -0.012385080238537644, -0.006829225746656106, -0.009865055295793143, -0.041016331129781786, -0.023198795972214685, -0.03361476904237051, -0.031819008983129865, -0.010578070745403864, 0.0055241829644936576, 0.004715519447220139, -0.0021631055074540014, -0.0001207609408179004, -0.0015467855492027275, 0.0002185017794754531, 0.0018567296689106407, -0.002574278712147593, -0.0007753052164230565, -0.009718212970481909, -0.005139443021149155, -0.014851903994927654, -0.02079482034580209, 0.018264131954587242, -0.026908748214806197, -0.046326510278314505, 0.034442502223368573, 0.004151368581781483, -0.02662397585070674, -0.008235321643337573, 0.04159846623735127, 0.05291564301117078, 0.09176974824945858, 0.01748504652646769, -0.11084121697061561, -0.03204970628656082, 0.0041420936267856905, 0.008344501183123965, 0.01479040517465583, 0.01131902944754166, 0.0006035338468368425, -0.0005159332630665939, 0.0014311444509260596, 0.00034985061881730953, 0.0003186448458865259, -0.0006496576269773615, -0.008874097735974688, -0.004387886441509541, 0.033526400665287275, 0.037146185218302485, 0.012116716104125307, 0.07692832636715236, 0.04496451610073876, 0.014493566427225773, 0.10257570202936384, 0.09148196165875548, 0.15452157602626107, 0.1438166746559644, 0.18061822401962932, 0.20979166364522592, 0.12478851992038778, 0.03792347525926597, -0.058844801914983584, -0.10954519552094102, -0.06502645516881089, -0.008414732951643947, 0.022171521575497635, 0.02393735148626239, 0.015286726375715848, -0.0024672884042478914, 2.5956428369180016e-05, 0.0006431658637506751, 0.0010093187283432867, -0.0007213785658551817, -0.01858524328032814, -0.021699823844859027, 0.04360753255341729, -0.008469266566596058, -0.07604307719544642, -0.019654273383125247, 0.06181115565968146, 0.12607635075686222, 0.0599291801406206, -0.008104803370246466, -0.08824982441844949, -0.15326009422042036, -0.09729541254270241, 0.07306673280857298, -0.07789424757936109, -0.16759983324444616, -0.07068620886470808, 0.027995968851922612, 0.032212332882194, -0.006769256988294046, 0.03130555210009124, 0.030152083557585013, -0.002544290907986536, -0.001193253861866622, 8.938945807464466e-05, 0.0013319509576979558, -0.005809389288914814, -0.014458530208454492, -0.029204882408244075, -0.041283214108293234, -0.045381584832263955, -0.06628878523461068, -0.07825815674591566, -0.012200925120615219, -0.07814048034585347, 0.05482823110703882, 0.01124073581229607, 0.009411019532010161, 0.22077112843633187, 0.07276727569568966, -0.13645699532602296, 0.03580507608169583, -0.11615003762200689, -0.06005038686709631, -0.1788694669163697, -0.09566238395499661, 0.06353425404322142, 0.09395522538773962, 0.01638356254842978, 0.04507006878887986, 0.027911712004506435, 0.0111414499451456, -0.0003112139502397477, 0.001107730794857312, -0.0040311449365630645, -0.008036634644280666, 0.015422015047957585, -0.029788936928138738, -0.0484104546151039, -0.026946955939180714, 0.06984269403262999, -0.10943610676064672, 0.01974905645816399, 0.04266750033779133, -0.029145051348232785, -0.054122983323175174, 0.26695468374652437, 0.22759427415152717, 0.14012233989204864, -0.12878008407350833, -0.08445514488229497, -0.01070527705303888, 0.012740015865270115, 0.01439766662106231, 0.04838838534021504, 0.0024357300484114932, -0.034202087066961706, 0.055536998483667874, 0.03544812839810918, 0.004147905680322857, -0.0003530218993864244, -0.0033055312171347564, -0.008298219168125377, -0.010832356852354898, -0.030303403827750784, -0.11373203741487214, 0.07883016387506392, 0.0849875022559253, -0.08174213886262903, 0.027545101422833233, 0.09785842729463796, 0.1117622457754961, -0.22942142371278162, -0.03153655135056784, 0.23716823356205774, 0.060068479924931285, -0.07272335262968636, -0.050317022418458236, 0.015541197021526095, 0.18902193438650278, 0.13425510752545683, -0.08597795845490773, 0.023352973474457688, 0.043763905229691154, 0.02458730304284972, 0.028482138603510267, 0.03511945366347936, 0.009816870986466995, -0.0015367594642140534, -0.0017682906818320776, -0.016770447083973503, -0.028500748464056196, -0.028725726398512078, 0.031230568825355576, 0.058364207579734526, 0.05615538376744485, -0.027522434650039222, -0.04643569648788718, -0.05592140846802514, -0.05224779525640499, -0.3203011665482325, -0.04481642326947631, 0.2575738431019124, 0.1275819252404398, -0.058397156977030705, 0.13307514557429875, 0.017207430917360638, 0.03547631260016793, 0.013691114876338268, -0.035348786335345675, 0.05001342176799405, 0.036175485316962255, 0.05301795045816792, 0.045722757599119264, 0.029449383123615083, -0.005407427106004138, 0.00029061257520544755, 8.673343539432741e-05, -0.013182092127322277, -0.016446128990288952, 0.021424448907463884, 0.0665150194858167, 0.09120528477349034, 0.08787097562337483, 0.0753508365631571, -0.10032278402367452, -0.15163845225524336, -0.22465603280479746, -0.30510093816104156, 0.011036098289858473, 0.3435026653794639, 0.07459392959447289, 0.05267848383852006, 0.2328669429475651, 0.022057184227024865, 0.1103523286868948, 0.09213422153044855, 0.06923787603204021, 0.02648408723788453, 0.07881790282232826, -0.01645978719292476, -0.024511688357474845, 0.03149359341876823, 0.00037115667419694554, -0.0008330583761749987, -0.0013527891380998994, -0.01925214822289225, -0.03566787399927757, 0.014023437241451475, -0.015100241833011674, -0.07968303180590913, 0.09318743285863909, 0.009562172053089046, -0.1465603579395112, -0.26343885927743155, -0.1475604224015206, 0.024283581124625878, 0.40230730672623466, 0.3200785555018035, 0.0783193261665417, 0.030925924035239923, 0.1749848811422439, -0.03590947922186654, 0.15737206034204995, 0.0349729513834912, 0.03372376434980569, 0.0803467696796717, 0.027041711865546224, 0.005407117341274023, 0.06022415947264884, 0.04382612350182282, 0.0014635218561298135, 0.002355235955144435, 0.0028127130339579563, -0.002360995306978337, -0.0033918271102013333, 0.04254582788536008, -0.008052800440584575, -0.06624045029093667, 0.06694249712080623, 0.047580403747670016, -0.08337195349837212, -0.14590183827596648, -0.12170670573679634, 0.16252514039562924, 0.33137473256928884, 0.18248664270867646, -0.23961156942309708, -0.11589075623044579, 0.21662241467789245, -0.15930505077135237, 0.14401391165842645, -0.03263940016045612, -0.013897389976750753, -0.11274970395333478, -0.14313483450559963, -0.006594080298971585, 0.01523703214292505, 0.02618503163167738, -0.0013201687241133995, 0.0006509004061187468, 0.0011336971275395756, 0.001643379136143672, -0.00902916373553009, -0.011342060449513101, 0.05047739673643273, -0.04390115472406449, -0.024427758659739854, -0.029440221192169633, 0.01847114079966059, -0.13261349914853682, 0.07579246019891867, 0.31647110417676877, 0.27993969462559504, 0.02839955151211521, -0.039706397950663705, 0.020327396242481355, -0.005374498676802599, -0.06566328956700405, 0.11743621635901232, 0.12604351548413886, -0.12247440069617968, -0.15148183046815317, -0.14951310378029695, -0.07762986937101478, -0.013258432349012538, 0.041316916513936895, 0.020747765808490668, 0.0008267890333085246, -0.0022260841336556062, -0.00520058295100624, -0.008520269732509637, -0.037441869819785985, -0.07778889336332534, 0.030413285140850118, 0.057799819072985426, -0.009081689147578518, -0.04611339317779593, 0.00698583652706785, 0.22660969492865, 0.3078536106709432, 0.21879511487944098, 0.3248536223491649, 0.1265541429987767, 0.11867761794886979, 0.13600127176728546, 0.07537122762556525, 0.07594742440674064, 0.04666080712877844, -0.15092711573321888, -0.19585778112657073, -0.13566283481549876, -0.10033610360916989, 0.02484958503518336, 0.048433196805044154, 0.0017656852488641, -0.00023778409361028505, -0.0018520948003009513, -0.001763175293546263, -0.0012929261678612312, -0.052836932046096886, -0.06182046096000556, -0.06619639786142405, -0.21114828775317873, 0.04753728921255462, 0.23477640080426823, 0.28491176896711756, 0.25624382918291716, 0.38355285212403645, 0.5647363554158574, 0.44140603803244777, 0.14871235609724495, 0.34102953232114375, 0.23619201729764547, 0.08764983859445852, 0.08040550461564427, -0.27086744939917673, -0.32051734575693597, -0.25294113911186766, -0.17320399058424035, -0.08464684337534925, 0.07821906240237099, 0.04444916560060307, 0.0053792877627036155, -0.0011268349573643809, -0.0008227476258064606, 0.00430458144647558, 0.010115218521907315, -0.0033917783685466977, -0.12074658092889226, -0.17024003521156497, -0.32682490646033924, -0.38053163793315187, -0.10270781434880166, 0.07275992979866402, 0.0757639302925621, 0.1579639139508857, 0.13286417508048762, 0.37131590071871984, 0.14228354869986679, 0.35574006060585545, 0.19182474042301823, -0.07959891275563077, -0.23814230724766877, -0.33429956502034885, -0.15262028385529, -0.03125943635175288, -0.005640553188044682, -0.019391966072657352, 0.15389873701362286, 0.06681957949217275, 0.00630931866548856, -0.0027101172833889813, -0.0018933850587667031, 0.006732837671612921, 0.040365923803346714, -0.002365662037403643, -0.11130179278854847, -0.1746913048800698, -0.5013714449678157, -0.4819059636868563, -0.32992434740832655, -0.28497563429485234, -0.11471271923460022, -0.03900389026441963, 0.03411518334599878, 0.019971638906228127, 0.22742261436909358, 0.13206533493929576, -0.13262810460041896, -0.2172421715976119, -0.2395722208572197, -0.012263261232283374, -0.005540623239058838, -0.0017133622731606397, -0.007969215184714282, 0.12151092427389296, 0.1587546011086962, 0.06110667206541024, 0.003387943423457968, -0.000962952174454069, 0.00032845026929311747, -0.005675362735267373, 0.05209631439686032, 0.04603596185126227, -0.020937055554433114, -0.016348158232856316, -0.21768344560983935, -0.28794866892038534, -0.29188002726263623, -0.2408197836787436, -0.2410813597682656, -0.004193443202636821, 0.012624405939535524, -0.13914617903961682, 0.08152008079215112, 0.07883413891394891, -0.16138129700140239, -0.14138024297398272, -0.17060281954787365, -0.12595188794765452, -0.062354974946074754, -0.015050855978781813, 0.07863912836863012, 0.22272057018121752, 0.09633494384803148, 0.015023332005058856, 0.006235630015849017, -0.001960179112197939, -0.0017924231985422493, 0.0025531246556545874, 0.0002628642636131114, 0.08714392500567865, -0.007545431502221409, 0.04035563188323852, 0.02890053565977367, -0.15594618807052343, -0.21483644808096325, -0.1860439456456657, -0.2277052663492747, -0.038049476005880926, -0.10616576493704208, -0.3314233866275449, -0.08915884960431271, -0.17969975416637168, -0.23648631789000576, -0.21184149889985665, -0.12536731985565688, -0.07157410638028211, -0.06617522479242723, -0.01217957357157363, 0.1540025036061249, 0.008099844175561146, 0.09235292375026344, 0.032228119733404816, 0.00019895565143086065, 0.0008488060223596481, -0.0019418071630740291, 0.010415004789606892, 0.055559274251309486, 0.06524472706761708, 0.14506099830124838, 0.2859821225877735, 0.21205402604403442, 0.0886768121242123, -0.07705174683204304, 0.12256863957861196, 0.1804536642514334, 0.01719384762680373, -0.017080190141707967, -0.16807136089293936, -0.042487207251809836, -0.17312342892357188, -0.10652926546286241, -0.02425353110082792, -0.006088718655196573, 0.017503633428521397, 0.009400241887172074, -0.032321512094844046, 0.04678423082513103, 0.03297697605954947, 0.036592877655041385, 0.011583058362488565, -0.0016055991596011603, 0.0013214240992401346, -0.0008375710447341058, 0.017404865989079008, 0.07013926117860764, 0.12905327313168508, 0.261413988756557, 0.3191791054335969, 0.2538347665704419, 0.14318315986377822, 0.176137384187979, 0.19142813744256001, -0.007748231131397656, 0.02601872653383743, 0.08069132742801532, -0.12959103325863916, -0.27952128975762286, -0.22764510230398716, 0.02481793196146784, 0.1125223105765957, 0.011958530905140763, -0.10266754616881403, -0.04914765952600451, -0.012658235961239347, 0.09551306890065549, 0.060731973554257836, 0.022731933991664656, -0.008783422691322307, -0.001002515854429179, -0.0010500582023806532, -5.600350822513513e-05, 0.008342967745442761, 0.016631882937067455, 0.15145476710732986, 0.16929277435095177, 0.22613225633587203, 0.21222115098173913, 0.2863272247201406, 0.3604798940572792, 0.3530206787464523, 0.21499877361721853, -0.009349547679747727, -0.237948456806214, -0.15069709959195382, -0.2172359097683909, -0.1676632627907059, -0.0809339342296777, -0.07580357047669384, -0.11495232794895509, 0.04176365470508441, 0.012252918184256613, 0.09636077397641188, 0.06969328659568484, 0.049399328181104304, 0.02688780477082265, -0.0009163263995751147, 0.0008554030145857612, 0.000666706132339985, 0.003953123063699274, 0.002267147335776083, 0.00012117852300843572, 0.0568394675188723, 0.08493770475091836, 0.05992554127277334, 0.16371849689983417, 0.3064960856859653, 0.30734431540689433, 0.21692020159783024, 0.07290484867815288, 0.020314192569993096, -0.22575607324488656, -0.26278980342460195, -0.24958802240310396, -0.09976578984872367, -0.10322881055386675, -0.16071124666198813, -0.040114304053959576, 0.06295272191467405, 0.09346006598710206, 0.09815616825460523, 0.08881041542349032, 0.015299563947098029, 0.024367305377913775, 0.0013022827573791053, 0.00036456200258806797, 0.0009691802391947725, -0.0025180088312208577, -0.001584404582331599, 0.0027385245960179798, 0.004305127632273757, -0.03585103277566911, -0.039164438537536886, -0.007917979354207946, 0.13169882397046917, 0.07744796829812808, -0.11221095360494028, -0.24097730853451946, -0.22334258118743466, -0.356015618588415, -0.17192752059855848, -0.1699468156016221, -0.23417307698199993, -0.296903957024841, -0.050344379042315465, 0.12189094227083933, 0.06433754323801681, 0.08394064831135956, 0.04801075283609567, 0.049937419814906285, 0.02903788142841937, 0.019826002821620285, 0.0016404328477093316, 0.00038308933465817745, -0.001479190101042995, 0.0010127036238069826, -0.0008737497672355566, 0.0018967263490017325, -0.003193596680192941, 0.008842011950779563, 0.033295485538976426, 0.021408409408673907, -0.014222648251628275, -0.04924479640826943, -0.12558005709678888, -0.1643750143976112, -0.141852815644517, -0.1777065670659512, -0.0026295789049223467, -0.02610148370073475, -0.050027380642648556, 0.042363772753382004, -0.03741694043093929, -0.005486779760527412, 0.08840034879825567, 0.0537560676689588, 0.0064730586073476854, -0.005115133273238352, -0.007161934082076139, 0.002113342692041165, 0.003967778735986197, 0.0008538438191240766, 0.00043876731721109816, -0.000625613596848522, -0.00034396994265102393, 0.0012196168500506635, 0.0007536603571020675, 0.007996134631168543, 0.011106645891538107, 0.0034305686733334213, 0.0036140666821138953, 0.022822647742308112, 0.021796338178630137, 0.03000418894746378, 0.06060650457518222, 0.03915973843150109, 0.06356124143247222, -0.010219915819301248, -0.03921169496655996, 0.010567806479874573, -0.017887192682763946, -0.03958989002033313, 0.013782126743455645, 0.0024110660153616142, -0.0030794673513387244, 0.002349516381172543, -0.0026743918664223934, 0.0015998423312402641, -0.0007144484636188745, 0.00014810857484024334, 0.0011862410472628145, 3.775370006963996e-05, 0.000371078737189011, 0.00015642992836187251, 0.0016874153290765256, -0.00022474411861926906, 0.0008569816491368946, 0.0023928710276725764, 0.0035373678026234057, 0.0038048369389320816, -0.003734214018842559, 0.0028509086041696627, 0.0067238211009361575, 0.0058762183399955975, 0.018297145087990466, 0.025899406216808193, 0.0023034777675044675, -0.002910199809082479, 0.0034097797762426183, 0.0005549058073641256, -0.0016473862341768596, -0.001026915816617862, -0.0013651781640239334, -0.003063824425021716, 0.0011775905017194636, 0.0016487830175414915, -0.0010936341816278885, -0.0008825477856133602], [0.0015590191661485767, 0.0007154491686618367, -0.0014146491111268055, 0.002974268492556198, -0.001019498288376486, 0.0008423400699502969, -8.985201761657148e-05, 0.0005952826900852193, -0.0009229586424081696, -0.0004611720703479693, 0.0013355719547521751, 0.0006801426921583745, -0.0013299597771950383, -0.0036387901031858442, -0.0008390177920734706, -0.0010392709856380472, 0.0012163155383825008, 5.3676145810253044e-05, -0.0005715910922008924, 0.0009283482687937861, -0.0032601427926748647, 0.00034267365250563247, 0.0021502064501100495, -0.0008478060610802831, -0.0005065179250407578, 0.00024410275040839946, 0.0007682798474283741, -0.0007079821987098355, 0.0006487916051557917, 0.0006030615543342528, -0.001005531820356279, -0.0015018346237730693, -0.0015631744732163165, 0.0016095532649728953, -0.0012894743016278179, -0.002123960012781615, -0.003818393945496949, 0.0007436315264219381, 8.71541325972464e-05, -0.0010951889504929432, -0.0022901106140845507, -0.001586952205216579, 0.005999942357881001, 0.008646323284214509, -0.02612772582803103, -0.013038210353092348, -0.0003758949740918041, -0.0008188870683271631, -0.0038601874905986704, 0.0014562737747625413, -0.0011197921029629948, -0.0013809815225324209, -0.0007165460814695718, 0.0002736295730408986, 0.0026148902056540206, 0.0013096394322686191, 0.0011209255037457103, -0.001824435678018087, 0.00014216071820408402, -0.0010087073667812215, 0.001080012688583126, 0.0019040418538519453, -0.001337248105801603, -0.0050469666420766, -0.006905478279943322, -0.02592119286092288, -0.049091798280687896, -0.06760969312547296, -0.07352915506718836, -0.017174112010667035, -0.07187032100691099, 0.0006059196639664405, -0.01768450523068773, -0.017083746553890427, 0.04299391554923089, 0.03694247623114644, 0.00293141198914516, -0.011617701464487248, 0.0030328848327604904, 0.0033923884895109765, -0.0009065780339954804, 0.0012400681177783949, -0.0011924909007312477, -0.0005058852903994146, -0.0005346485300570655, 0.001700971167321105, -0.0009928160323107809, -0.0009451007413594627, -0.0022401108614435628, 0.018440779739004595, 0.012950104401217629, 0.013588148336523867, -0.007043937786461145, -0.03928820176575948, -0.05746809268254219, -0.13051517565982418, -0.07794816666476115, -0.064409704571402, -0.11295453566800219, -0.09348375543195196, -0.08075401796377031, -0.01694332052034661, 0.11820108813728689, -0.03892082306153004, 0.012679890705948674, -0.0035920069622299524, 0.021695038985336743, 0.05136409149670806, 0.01207222583129314, 0.0037912584580243776, -0.015252898701723326, -0.00010079391574939447, -0.0014915146689633996, 3.8147936376828966e-05, 0.0005991024112404385, 0.00166936757568801, 0.005701477139368479, 0.027688979211380485, 0.032807636415315644, 0.06348074557099548, 0.03798791835383341, -0.03188120724234176, -0.10627625879845523, -0.03304718478468432, -0.014862232981609975, 0.042369859424711366, 0.0341055166986462, 0.021727314756832285, -0.09801165646610685, -0.07981714188208007, 0.07267542610996659, 0.03713077704715903, 0.07071360845642231, 0.09819870526881595, 0.036165051538394936, 0.02037667588218347, 0.062499436384937344, 0.022226202288707076, 0.003471957711500696, -0.006844897993326971, 0.001647592935450291, 0.002025381582034325, -0.0006743853025654639, 0.0046742624146135095, -0.010439789516164871, 0.052958931764773044, 0.035742582342327, 0.06682773997027898, 0.025037875637501743, 0.02771307465810856, -0.03143373055874341, 0.11333040459227581, 0.01638090353390494, -0.016709104550969075, 0.027828182156231437, 0.09804069528072248, 0.0017028566145509294, -0.03367367876530946, -0.04053665449506034, -0.008446055022748294, 0.035579153924669794, 0.008104396932380253, 0.04006291931378667, -0.07214569500017776, -0.008888586909167653, 0.018875018177024257, -0.029346237019764188, -0.0050174638706109945, 0.0016831051289830472, -0.0005467035509512305, 0.001344302217522033, 0.005411854721208784, -0.02267195185664296, 0.06418953092492201, 0.10705039614320683, 0.10287318502807599, 0.0899513582690862, 0.13286321298621484, 0.2518317129206153, 0.07606894884312505, 0.08731322223357857, 0.14831754076527784, 0.07961511017993651, 0.04130810759119433, -0.16273871039184176, -0.011881105115552291, -0.03621648518964664, -0.011879988408839628, 0.0006486042293406321, -0.008178669390891987, 0.044114038159102316, 0.07404092066363016, 0.0599160045623662, 0.05192182869948673, 0.041344087197406926, 0.003229215397302297, 0.0007580692149186176, 0.00032341226641569764, -0.007682920874024911, 0.0046806357378880855, -0.026337919058021915, 0.047803099282929286, 0.035667169348571316, 0.10576105176730079, 0.17073291504477253, 0.14153151300612002, 0.15672306602361377, -0.05177226556378613, 0.10945110958399125, 0.13652920684186687, 0.11649446357745619, 0.07642126691849448, 0.012791614498059108, -0.04458000704411587, -0.08662877999734597, 0.1846221478736798, 0.25114125563380535, 0.06766346711441083, -0.0841053481466635, 0.06089349036973035, 0.11060575243931936, 0.11740436821468148, 0.06701737896193669, -0.004369975632933308, 0.00022959201385621536, 0.0031222436183090457, -0.004593397620794459, 0.020132669080107853, 0.01564755213466, 0.049743190089565244, -0.005981388102276245, 0.1254460526889927, 0.17355823569941997, 0.1394421524761225, 0.018151885168547294, 0.04554635986509254, 0.046587526245416094, 0.08857256195775086, 0.05274067581765362, 0.15455169483276818, -0.07267015044567142, -0.028304919394795805, 0.13725488584107895, 0.018715432978657666, 0.02388352577592625, -0.02047666470563707, 0.11635019139225854, 0.20161735137660386, 0.17757867306476752, 0.17182654783256293, 0.03836257927014079, 0.008183129817646144, 0.0013314211555300773, 0.0012695766966661316, 0.006636814969846038, 0.014116070673953058, -0.0002743219807889647, 0.04228436905773115, -0.06204894910015485, 0.09181363513666135, 0.32123069337492943, 0.10048923077626276, -0.0036885236392994905, 0.196424615736398, 0.13650334885458473, 0.05976468937605691, 0.07706701583269274, 0.030558400782922667, -0.018708439815929855, 0.030792233931026498, 0.014628239402710984, -0.017874507301377258, -0.08718321017270046, 0.0702285786574737, 0.18662109696112256, 0.12080740526527362, 0.15864611774581444, 0.14368779066520454, 0.09727244540815388, 0.009191292458148134, 0.002758251295515102, 0.0007423697756199285, -0.008317318936654522, -0.009885966561309842, 0.01880166809343286, -0.030494403873838904, -0.0304970923630847, 0.15216315625274135, 0.2968552892362751, 0.08986995293621924, 0.2612515855100324, 0.2792881539403753, 0.13376879203765812, 0.1701003342495095, 0.27694322387493125, 0.2895045492669985, 0.17387627962181185, -0.042444461772098464, -0.10110728385802335, 0.07663193800374482, 0.10279483068821658, 0.09259826233421281, 0.027944704264604374, 0.09165807837696197, 0.09000742337711595, 0.16349140842953988, 0.048686900682879855, 0.0009017858074241936, -0.0013916028857850762, -0.00042342823492128446, 0.0028659792440882347, 0.022695501293921266, 0.04696368649943308, -0.036699056938799934, -0.05751859059580839, 0.08985510754778542, 0.08820706552081424, -0.16114527833024367, 0.12422957318016378, 0.2800274636218038, 0.025929783434838975, 0.014931193859963174, 0.3969906343749043, 0.4866346814467572, 0.21796201925243114, 0.11670548049474956, 0.05850761942312185, -0.09423820551747623, -0.04664416453965564, -0.012370222939308728, -0.0710786320701339, -0.01031214363868909, 0.12161868377815531, 0.1301374034745389, 0.07008320777392138, 0.001759068549644248, -0.0010958714594966191, 0.003131799701385027, 0.003769905334310733, 0.026692622594803386, 0.03232785792072742, 0.012634582637895303, -0.09304587438385531, 0.07085682106044765, -0.03214289001506968, -0.13311159577421863, 0.32778096298551374, 0.16365123340158808, -0.04857659136903576, 0.05525815926286248, 0.3049260523624199, 0.457476112445406, 0.4062490070368161, 0.18856823303438056, 0.13992324033672018, 0.05321680456179281, 0.004643132931525025, -0.11330596918987361, -0.12634976955710986, -0.15996994293694514, -0.10418997251511929, 0.02177088037026788, 0.028458236942457377, 0.0036467786776368436, -0.0011610158013605917, 0.0020067846902049485, 0.004999177405996578, 0.041363278759497635, 0.001741898666990976, -0.13342763316981507, -0.20765157446490168, -0.18407074753814648, -0.07648386305713546, 0.15716201895378065, 0.062283484361986295, 0.1613983020048094, 0.019378819337314477, 0.10874633794857684, 0.41048340709685704, 0.4993227388913877, 0.4361486690894128, 0.2720009702104642, 0.05686935302952817, 0.12611112035074742, 0.03563296878717948, -0.11477753972067561, -0.22005422241852982, -0.29381002237016607, -0.12466827376007412, -0.020724357465208013, -0.002358178364048308, -0.005097941159180139, -0.0006934736031490321, 0.00401571531849342, 0.01135042915166268, 0.002443514377404956, -0.00260380419866012, -0.2413937819536728, -0.4233585663772992, -0.4328652180877156, -0.31540022973165877, -0.13313464505011993, -0.02575235549158147, -0.08143486357619541, -0.08378372281747175, 0.22616253899439664, 0.35280420963074993, 0.19378865311518995, 0.14402330190641688, 0.1732073472326445, 0.08695129276825783, 0.02162857175592328, -0.22069871014008505, 0.009145965642870214, -0.2169921339001427, -0.24377828638805268, -0.1370373704311903, -0.0789227139265573, -0.012845443761132272, -0.002253173554110376, 0.002570321969885256, 0.004547363906136271, 0.009349258105986174, -0.007208416218899911, -0.003373479629543117, -0.27407797717294424, -0.36469608765423533, -0.4816743193914532, -0.6539054358057167, -0.42532828102473796, -0.1807195373975033, -0.22418160113897637, -0.09705149039112261, 0.22992265459449157, 0.22920070964917785, 0.08665364465791223, 0.22278739503715184, 0.10641892028862916, 0.08548595510827532, -0.09322977926067878, -0.21913594083144924, -0.13995813670107346, -0.08495904827774155, -0.08188786790424306, -0.06402846369746236, -0.06818481023386441, -0.02157689174498963, -0.004045021539968539, -0.0003620037397329122, 0.00399111149151127, 0.01818999810865687, 0.007094085939220006, 0.03671572743144595, -0.1967947939980923, -0.24242415309721832, -0.37391925420449906, -0.36063278314132885, -0.4252528780719187, -0.39603101265645685, -0.5176025051095556, -0.10877160474057311, 0.10123222424693569, 0.006259455223739392, -0.03469241988892167, -0.09558980718531816, -0.2217645523883417, -0.1840077479245173, -0.23227635677193884, -0.30269020986198375, -0.21188857220442403, -0.11652473896084461, -0.08693747847379403, -0.04271351047266496, -0.09981180420570773, -0.03439192090283014, -0.00434938527078561, 0.0005947009328568217, 0.0019309535459015397, 0.017139821961146776, 0.011706389848933447, 0.07119611929456865, -0.047370957091147255, 0.002827233674561524, -0.18958774822401633, -0.21126977681184925, -0.22567166013628776, -0.48162134677402224, -0.3577287669326756, -0.15453833231067982, -0.004656021229146989, -0.19956741910866554, -0.17035413979561495, -0.16049815749175622, -0.265421704454564, -0.4119115034238353, -0.28786762473301375, -0.257296759045009, -0.13864672428109973, -0.17275297848557825, -0.008200911169653559, 0.07677074632218282, -0.0666964627641255, -0.011210804880604377, -0.005625782715909328, -0.00036237141032087884, -0.0013862247862914355, 0.013842406443739373, 0.031082465932394134, 0.06377124601484555, 0.11465717340648042, 0.06624174185318078, -0.13893321514230292, -0.12781505171431448, -0.30597721851360976, -0.303460663980809, -0.08646971549783312, -0.19703728788823496, -0.14099662996374562, -0.04521711425092891, -0.12355053823325975, -0.17558658870046687, -0.1072219362378744, -0.23842353138016525, -0.20825262470024952, -0.15426279081656402, -0.18141126214743214, -0.0932170473740464, 0.054159757342383597, 0.058526118052676844, -0.03940005849403718, -0.00734269013515507, -0.005941664233546289, 0.0020261528540516847, -0.001297991066577661, 0.008221706980441694, -0.012574734116203055, -0.01812119491612279, 0.03205786460042198, 0.09178394110124256, 0.010109268804185546, -0.04981829034136932, -0.2225224381564345, -0.2120104275938912, -0.360509200279313, -0.21665624513322876, 0.05496868103174864, -0.016828256144981703, -0.052792738833862256, 0.00490974500766554, -0.049358915914584835, -0.07969883503306621, 0.041042766407806, -0.11544824382270388, -0.04630037819572854, 0.02838288762149903, 0.07126113630273255, 0.07338374556552905, -0.02286099495461293, -0.01579468236589105, -0.0021653639358743715, 0.0009932441402266071, 0.001204313534761096, -0.01708157061647346, -0.05551212958757616, -0.06154142878580693, -0.12304160472260525, 0.12282681881967132, 0.022373217598179777, 0.029569110994957827, -0.060726534444114855, -0.10361769533847731, -0.2621095131126087, -0.14394647977288066, 0.15877439313495306, -0.06128667322752323, -0.07278790594325174, -0.12088517292264908, -0.11554880130085375, 0.005765010713313892, 0.029192528068816878, -0.015718467605596344, -0.010048086551725705, 0.0992432966100702, 0.07236550561525983, -0.004050227629820449, -0.025998370087428772, -0.00805464510667376, -0.002042617581502658, -0.0024775883033071153, -0.0006534261790596905, -0.03182452403661989, -0.06645006004527196, -0.0782642301907889, -0.14206046308311654, -0.008102574404394762, -0.06921328596775615, -0.028915524606491043, -0.04214720706441826, -0.03370939597831407, -0.03251617029681645, -0.10774266296474919, 0.06774740709180546, -0.0006585582757477793, -0.06604396697060379, -0.07553336307144375, 0.0450210777538751, 0.12495755563138068, -0.11264734408974443, -0.07588359496785622, -0.007389691373152375, -0.023933596558127965, -0.06875766728632685, -0.0631158482187004, -0.016988907121066897, -0.004563400272301279, 0.0006970690081881872, -0.0016374928159495954, 0.00016823546928720307, -0.016038751925902983, -0.016759168173561635, -0.08382185278831172, -0.12070364938196643, -0.09732227221670141, -0.04131723526707564, -0.09637172508609623, -0.07296567294397709, -0.07615138970881315, -0.09307056699599459, -0.025557184798397883, 0.06485324341412156, 0.12764337196629186, -0.016934615914238227, -0.029814517481423324, 0.03476182357411915, 0.008336653375843406, -0.03245760983118509, -0.1526391979588516, -0.12064176073438118, -0.015170396519853772, -0.038098447921335855, -0.04018262437613735, -0.01716176484311699, -0.00021421031520212918, 0.0005211153532994292, 0.00019806835970119654, 0.0019653770331412327, -0.0025380133706278483, 0.008596202707404393, 0.06380005673162685, -0.02643509368925363, -0.04786397324982176, 0.0686671347432571, 0.07624713534300805, 0.026233177065106618, -0.028274453527020273, -0.07142059789486026, 0.015765839456879687, 0.10500323908919428, 0.0789614424946798, 0.07814692101864962, 0.25145855958235147, 0.23797115598647867, 0.08282871279650084, -0.043021291230166944, -0.07659813954854303, -0.07080751972999326, -0.02801803456811191, -0.02588254378294118, -0.030519331389286586, -0.0058285955050040765, 0.0006011933008990372, 0.0004610899863305322, -0.000543707625261219, -0.0016661938271529744, 0.0014453510861534163, 0.012303511301969461, 0.03226978929285058, 0.059222218759476634, 0.10639153577799554, 0.14862317897072683, 0.1946117051341548, 0.11488431209890208, 0.1036800425992793, 0.029678447655686092, -0.12107603619738926, 0.015055611150043767, 0.09902903066637073, 0.08586474558393661, 0.09082369120256797, 0.11982420756276278, 0.029552729903751938, 0.012120380994113798, 0.012957853595615678, 0.037134705504476236, -0.014739078614447548, -0.020829719921666254, -0.012110016109156184, -0.0070789340794130086, -0.00012296732428872335, -0.001447674566418731, -0.0004817951878780514, -0.0014424094271528497, 0.0009079034512335961, 0.0004799555636501552, 0.011842032902211511, 0.009658114862797459, 0.025526007043664242, 0.07163874336371202, 0.11124595659428169, 0.11615382200551959, 0.1666845191817801, 0.03277854459607061, 0.08170061813246128, 0.15421549978870752, 0.1854954393881073, 0.22374596129895502, 0.16345310090493537, 0.16846129688478975, 0.031030923892229584, 0.021719657181749782, -0.041615647843545045, -0.03445930776692055, 0.004524547283369587, 0.01731448706123502, 0.007125242011205214, -0.002135160411769046, -0.0023296443032679508, -0.0012878596702489739, -0.0013554665561280902, -0.0011629215456487694, -0.0010056566185690746, -0.0007480163487860053, -0.0029119197559282725, -0.011748728961588035, -0.02329977401071395, 0.001193301203940467, -0.0008183989125452695, 0.006178903731852361, 0.006529934482522017, 0.01881171805587133, -0.025183462197556676, 0.0034497096516328415, 0.02199492140414045, 0.04250146010768926, 0.015786876631650917, 0.0369378821813322, 0.014299394788832416, 0.003892196042077655, -0.044068219726824835, -0.04803321876380564, -0.006241299365936931, 0.0013620755540241297, 0.0009379528813412636, -0.0003038829748702267, 0.0005352490077915079, 0.0008999540622601327, 0.001470268634935075, 0.0013007017707723774, 0.0016959480095121175, 0.0004258306918438041, -0.0009412851546584042, 0.002990190457523382, -0.0006306932846307372, -0.0010251016512792858, -0.004104278304180221, -0.0022381471296819707, -0.0008898063769651796, -0.004189095173144546, -0.011684429449719178, -0.002637047504070093, -0.007076788520253786, 0.0034042813992542437, 0.008409356034944079, -0.002888345945783422, -0.027805468278475062, -0.011219930914662253, -0.008688706828378657, -0.008214980495180036, -0.0011176738595736555, 0.002409631727503124, -0.0007669330834450866, 0.00046333426437946795, -0.001013416864633336, 0.0013332332942251966], [-0.00010853009911141598, -0.002486941515210863, -0.0009828355424848479, 0.0014061747298724206, -0.0004739136518751513, 0.0005105009009380349, -0.0011710683171798034, -0.0010381033494111854, 0.0009361927307069527, -0.0017758909526322127, -0.0020006791239945616, -0.00029133979354432617, 8.337759605636919e-05, 0.0015842734519522787, 0.0020322153335344093, 0.00041659278902634786, 0.0012963537081686566, -0.001319451433499921, 0.0016974530476563537, 0.0006251624408563492, -0.0006608055206924403, 0.0011580978175829912, -0.001157330195340523, -8.60593331854319e-05, 0.0005162144236333359, 0.0007028428151701249, 0.000533928868923497, 0.0007905865945024898, -0.001619883656515532, -0.0003253521935141426, 0.001696993634844846, -0.0002314112635609911, 5.523480922892614e-05, 0.0009903309125406077, -0.001612052952266036, -0.001325230893966553, 0.001805811376361812, -0.00035552323527848463, -0.0007215365408019431, 0.0017252172003398936, 0.0015123590476256317, 0.0009768395899836131, 0.00625002735271133, 0.011456295917613908, -0.003113191585023298, -0.00013691131702823657, 0.0016276446450206319, 0.00115719524728646, 0.0008596512579172481, 0.0024537793164467877, 0.0027319897899509902, 0.0009615201996098103, -0.0013639829174984018, 0.0002423946928622479, 0.0013013399511300574, 0.001553207074962968, -5.587702513882795e-05, -0.0003516810128656369, 0.0007043483173160178, 0.0007329676994073919, 0.00012226582982490552, -0.0012182618042875838, -0.002068790711780406, -0.0008650769375913802, -0.0028973584698200605, -0.010190625990728331, -0.017507015384662154, -0.01748703955685265, 0.007101478748732913, 0.044880834641122434, 0.02569338808712856, 0.05771898794311227, 0.0385738606000552, -0.012717637005196777, -0.00343614693471044, 0.04498517914009687, 0.017318200263094934, 0.0035072102627507038, 0.003188639362464207, 0.0006798631267747679, -0.0008002327119450178, 0.0009598845085394271, -0.0022716250917357256, 0.0007136102213293092, -0.0004349950383139173, -0.002071353612885233, -0.0009238014268573226, -0.000555048324645238, -0.0007581880576550582, 0.0056829740029440854, 0.004229572141202901, 0.004619894094475749, 0.023278780166439157, -0.022006363727465006, 0.020123886673162655, 0.0357001550217698, 0.0914774748714497, 0.11787339770506264, 0.06794823294580159, 0.01966766448726766, -0.017729755253221336, -0.001109894602224512, -0.0433438160406766, -0.04505186055712248, -0.00030725237623822974, -0.07044578046132727, -0.030308786887865962, -0.005683716420164391, 0.0011022618625308122, 0.0007681033889970216, -0.00037103064744293385, -0.0011071922031424541, -0.0009172721394149567, -1.0102467574063304e-06, 0.002199832092323197, 0.002559029456968636, 0.010504002239829665, 0.00939846244557294, 0.0034420747981059713, 0.01255730844557775, 0.09362044642944946, 0.09419238137834605, 0.15148575202621853, 0.13107247877879574, 0.08774260853316691, 0.12519578048249527, 0.06201440430133254, 0.14995690441495974, 0.07977664207307121, -0.08578209921860602, -0.0778387054245769, -0.029900799306951904, -0.07915164392631632, -0.08053690540726746, -0.028197628459024553, -0.042900404718939356, -0.026516645869268687, -0.005072192827323207, -0.0018086634442013834, -0.0020220082067540827, 0.00021917427542489414, -0.001384984072101144, 0.0036478558785462004, 0.007890238166896386, 0.02642514870319459, 0.07739809002295116, 0.10836836064459435, 0.19458792162236274, 0.20101424971664905, 0.13220605685928238, 0.08554040752348921, -0.031398869214794664, 0.051099744227692694, 0.05523293732147225, 0.06179163746047327, 0.08605924815753886, 0.0022183795105853504, -0.05522010457187814, 0.022548959854014356, 0.05210285447754859, -0.05053732437046936, -0.05508930835418727, -0.04129569430508927, -0.06998054587119627, -0.011629577392157907, -0.0029868626681246783, 0.0004953997287820689, -0.003389225275940831, -0.0004392784623060682, 6.831368952903788e-05, 0.0011315851651966327, 0.024359837598340303, 0.08410679096296844, 0.20367209515693935, 0.23099215747229052, 0.1824486778616553, 0.15545433713192328, 0.13087894248624893, 0.18584434816987583, -0.00781602184049197, 0.003024735851314706, 0.014739640633285927, 0.06275865355458614, 0.10048111888904937, 0.012030317161383666, 0.046595736247056985, 0.12332576274833869, 0.10494137902570258, 0.04541235769317736, 0.09316887419605845, -0.06360700080708862, -0.12274533667074385, -0.04110066411994829, -0.011948977314407559, -0.007321983814874877, -0.005102596251884745, -0.0009444729781918841, 0.013515937622083049, -0.005436913103129121, 0.04920913148089189, 0.13302650301963728, 0.19610022334004773, 0.20183630310239048, 0.1592887454267584, 0.023166278143190392, 0.11366193679655621, 0.10010867425997143, -0.02812908851745209, 0.11253794655989016, -0.0016922310699409638, 0.13993850901807597, 0.10229335039925243, 0.01953569724825113, 0.07268866819096383, 0.09718886939607269, 0.14598118641304816, 0.1527372822362307, 0.1351404979781581, 0.0015242022441508429, -0.04840071555479031, -0.06276334494184765, -0.05520116653670402, -0.01091675226043487, -0.004075850395454736, 0.0014691449532664403, 0.003241554152738969, 0.00991818901944148, 0.06087307048616739, 0.17689802587798784, 0.16208625851710062, 0.05175702841666947, 0.04059083117500952, 0.13278514690748386, 0.031483807821562126, 0.12127018155748379, -0.004392328331721844, 0.11748813345447626, 0.09516471759971681, 0.21962248901079626, 0.18073814390268197, 0.062222808788775556, 0.09464066574896361, 0.16685485341900194, 0.11222727579845344, 0.12344435497010058, 0.05340917662487246, 0.0037864353816907488, -0.10386064074002653, -0.10941095025689765, -0.04763563788365968, 8.939784207478121e-05, -0.001031210128020401, 0.0016966718613414691, 0.004884867322881002, 0.020683545657560868, 0.05145952549658178, 0.09831783819747344, 0.0009340800588444874, 0.05806206956455216, 0.09471143535532665, 0.13800321643171348, -0.03406910490133249, 0.006323955638150052, -0.12096546031722355, -0.03910799010678018, -0.02018631728108534, 0.14794986661194523, -0.023272193496941804, 0.17068775703561115, 0.2005443755894708, 0.13752964331971454, 0.14199529077285086, 0.0576268084252948, -0.024700615089316924, -0.001617755729510367, -0.03711023868695105, -0.039426906609799035, 0.01718883050155784, 0.002275703892313375, 0.004114939756144332, 0.0003322133336564334, -3.484515614350063e-05, 0.010469848960540975, 0.04034037505814496, 0.001821396230470058, -0.1321302332382823, -0.10872545815343358, -0.09723403438715712, -0.13010420513127738, -0.15073024729116846, -0.1297850550004711, -0.24390963962395718, -0.2626880149131331, 0.1782504176918784, 0.14696939192515623, 0.09514113253559482, 0.29240773876311926, 0.13202422818622472, 0.20993534411249554, 0.13612449150725076, 0.0492464334304415, -0.021672080071592204, -0.03901150603930326, -0.07711136448869538, -0.024975328861664634, 0.030750418905327495, 0.0052468530540266825, 0.0033416406039777223, -0.0016215472814337726, 0.0012012745397406387, 0.007671781060154633, 0.001880406801659653, -0.05234267136722761, -0.21301505852546468, -0.17930641770244993, -0.19650099403221452, -0.27606589300389145, -0.23979362344466068, -0.26641485363792916, -0.3407023621363759, -0.2918835940858944, 0.07411546783281737, 0.23597663745978054, 0.2814528311342378, 0.006166183244594759, 0.1507567491601429, 0.29187762344413565, 0.010417763051710929, 0.011615564597491683, -0.04434341689334328, -0.11797361419170643, -0.06686691227699222, -0.04834824389490257, -0.0007993688728452675, 0.002787874199104396, 0.0005024091442542029, 0.0024674560356642487, 0.0014975203093774388, 0.01405460495762886, -0.03565379351851384, -0.12160769600825547, -0.18621611030184212, -0.24647618271382965, -0.2547317465901363, -0.31832235166206757, -0.34011862577355306, -0.3673167610830513, -0.3620061135362122, -0.23703930624609196, -0.02306286173085851, 0.33696084919179325, 0.26861669212089395, 0.06741289280182756, 0.048804416155387685, 0.19457782562520537, -0.13542334970698724, -0.10737331376283021, -0.1811942713327461, -0.19481386377234386, -0.12760682169049212, -0.05581181797325181, -0.006271339441480897, 0.0004331550875705608, 0.001516536226274928, 0.0005047147486894745, -0.0011069904877309337, 0.02018132077899056, -0.024623413152988077, -0.11544018625170696, -0.16868797252203077, -0.2016313514303652, -0.2525976541309291, -0.27506845526042684, -0.26052457206209456, -0.265925841113214, -0.2694873425170548, -0.43208449288833073, -0.17008102024996558, 0.2225143284139804, 0.01758219776012859, 0.03968811671911469, 0.14238807005477, 0.06529566210842856, -0.054907118852921634, -0.05363313641809226, -0.13631517848029817, -0.20052223220202417, -0.15448904967210275, -0.05325471752352817, -0.010496177433433998, -0.0057727013932643186, -0.0017808939059727892, 0.00015037565342956893, 0.006007431231918253, 0.014596062793065509, -0.01707113480533756, -0.04184680262929621, -0.0749695651484286, -0.11223533781892855, -0.2115937332865746, -0.1657689825540269, -0.09476329137643673, -0.1132951069922682, -0.27402235372888784, -0.2948644817822238, -0.14564459583867428, 0.17318919155290854, 0.10630103168871048, -0.0342151253824961, 0.032119734034614184, 0.03991247257275012, 0.047776536818943706, 0.049362697971228685, -0.012456144133068175, -0.137914447021672, -0.08296814211929283, -0.004441215506518309, 0.010598037351242012, -0.005676307565836941, 0.00033214814440325855, 0.0010343191050567716, 0.010542310928688226, 0.010133850349242366, -0.008413844477133732, 0.0006807279535131991, -0.0743639002378782, -0.12768626553867934, -0.11259040887628652, -0.20020023381115395, -0.2601555792081201, -0.27567820218144257, -0.3225805204757568, -0.2572789227351012, 0.009791645832937004, 0.2875730286614686, 0.17073417160631402, -0.1232349862312142, -0.19655136683266805, 0.030292921806294826, 0.031075460924852548, 0.037977711080209524, 0.051420876820020646, 0.032498305904297, -0.020962785390909483, 0.02319834492299176, -0.031112803290302107, -0.0032019699059661405, -8.346700600971004e-05, 0.0008769410260761484, 0.0040917537377673265, 0.021276205933347992, 0.026834114731039707, 0.027511259973894784, -0.03338668351285172, -0.12812937129889748, -0.11191047691349156, -0.1930652621475894, -0.2477793803910041, -0.3699444648033898, -0.292187230605983, 0.04409209799253273, 0.21744521382709903, 0.2819464176895521, 0.11049472778065936, 0.05192670024040234, -0.046429214047784065, 0.07001071221030743, 0.2316946598537398, 0.026478633539579088, 0.029059150407273793, -0.04374344598879645, -0.06577429176623178, -0.006011686647179887, -0.05369140331992477, -0.009343211703580226, -0.0017488478755877616, 0.00235021907244968, -0.0001253135353480721, 0.024263276725334546, 0.0605390758729441, 0.09340779764174191, 0.020902875202785994, -0.09673154614923765, -0.1848086076027398, -0.23782833885340476, -0.27854664519811373, -0.25421410272255085, 0.003494940037060451, 0.13890499330608302, 0.2365820849845835, 0.13072379942359352, 0.05385726933353263, -0.017207699331079886, -0.04704751106483106, 0.09049035511239087, 0.15910694313583992, -0.1041119065116408, 0.05423682002550006, 0.008089645982772765, 0.05523603474415942, 0.0803327232081579, -0.02119126576066459, 0.008216541011506312, -0.004762853775158527, 0.0018058552241113901, -0.00012816788352466093, 0.02538807505284793, 0.07328897735020265, 0.06113300158185007, 0.004965587348366259, -0.04376570863772844, -0.23824334294536179, -0.2517019748858215, -0.2190374092995082, -0.05556759052783384, 0.13634755424243114, 0.05448674931945577, 0.026498361480330333, 0.024846080476779452, 0.08847680157740498, -0.05232864456703383, -0.03965956507420567, -0.03310294857590765, 0.01732873354982446, -0.07719222382330895, -0.0480993875497509, -0.0019883171156330403, 0.060028249498723624, 0.028661102364534008, 0.005384988153146875, 0.01468645673162509, 0.00044323817408350156, 0.0005031267421294533, -0.00023760634021473335, 0.0034853217807482603, 0.05443971682096002, 0.008892238502617302, 0.036891258514771236, 0.014629389198346344, -0.0837580155420208, -0.16120443714633795, -0.1099301713213617, 0.022719766168664363, -0.10068899018872174, -0.06615188349795065, -0.05056744359149242, 0.04261360334738658, -0.09117197496159915, 0.06629116089642001, 0.02407553077147441, -0.1342121201799274, -0.07159982581952586, -0.03569844119198209, -0.01879426229535957, 0.018481227260886086, 0.04879293541315401, 0.03576200994504827, -0.0006694888675064233, -0.0012059736907109888, -0.00035858377568975656, -0.00033371990763619966, -0.00030984220918354164, -0.008338467801470597, 0.05707311700999862, -0.0024604734411911105, -0.05653431933041511, -0.012784303811330335, 0.014558502417005384, -0.0757880318374236, 0.11816767500541063, 0.03223235815531136, -0.08581174856357203, -0.14946170460137076, -0.15569861152971784, 0.08009490920191409, -0.07716056125624425, -0.08519095715561971, -0.022712110868752397, 0.023798968528236784, 0.028742366604870943, 0.09486650354697555, 0.1152614492443923, 0.061646809692177465, -0.002692600558973375, 0.024480265313537742, -0.015544872079187299, -0.0006240359257816423, 0.0005495827033624005, 0.0011380330491212083, 0.0012310680625504825, 0.00024350913757342288, 0.044846172691286296, -0.024850614119408084, -0.08069284682485159, 0.03665803469908003, 0.10486029178850613, 0.15416900198306974, 0.02386388757034132, 0.04731171290747324, 0.07018422401585624, -0.009660570007185792, -0.08781131365339857, 0.0028298932384849085, -0.05183857428616734, 0.016525643801823194, 0.07162760314891854, 0.1254634135062968, 0.02514571327369664, -0.008291018679814547, 0.027754388163772865, -0.044331300242456496, -0.11581658726383061, -0.02470453781410549, -0.0020032358708261568, -0.0005413933380960902, 0.0002987485434494106, -0.001249035082349517, 0.0012611947329034276, 0.005124569807895427, 0.013700647959007682, -0.006905947244476201, 0.05411241183775703, 0.08430384568048746, 0.16050726909947208, 0.21727685638029368, 0.07302420591469176, -0.05485964571152152, 0.04560212883963912, -0.06064427520922266, -0.09178223348966752, 0.05304861187766337, 0.14297030005680558, 0.10527551794464873, 0.038702920323258456, -0.0958007337470119, -0.020050593197612532, -0.029037339239094254, -0.07418896545009353, -0.10265106645862253, -0.10080676812896694, -0.026374688194742035, -0.010662759169828827, 0.0034555501062410545, 0.000919422177124164, 0.000754382984919451, -0.000943688403004491, 0.004333372239174912, 0.014636048319974823, 0.028845308308946733, 0.046817354356144016, 0.13108984989946645, 0.2527252769718675, 0.10104807024637129, 0.08985470702343294, 0.03736814415606617, 0.18544837626608557, 0.030166720989502717, 0.07286328306223552, 0.0813502349588648, 0.17050870909587768, 0.13730803158073585, 0.024677359315951962, -0.09032346800906797, -0.13353582445361503, -0.08401633143395296, -0.1462432123562993, -0.10026469644101176, -0.07469854065328889, -0.016000850740043943, -0.012234447920197853, 0.002206650099082021, 0.000104697533368799, -0.0013570708637481545, -0.0006027147347592427, 0.004194011237911242, 0.021902914173994394, 0.03318907274563785, 0.12503718923659204, 0.1993254944979749, 0.20195727314219672, 0.10808467407217728, 0.09967204715432831, 0.05172950819569872, -0.039454509096263024, -0.04120883627344341, 0.05780781207925056, 0.0980753467864923, 0.07817042333631168, -0.04773285008693936, 0.013410696972491669, -0.16542696185979194, -0.1113791714149967, -0.0217858186843862, -0.03861210214346534, -0.04690134788901792, -0.040793022416324175, -0.024578316644402357, -0.0037254041475524424, -0.0030915739206116765, -0.00024239407928871738, -0.0009844407319282527, 0.000807070582107712, 0.0017386228900193538, 0.002380966435112034, 0.02988822309558957, 0.04541446421223319, 0.058740048466826254, 0.10714129320578311, 0.20702274149636463, 0.22335027172191074, 0.18311394194736577, 0.1582080769085471, 0.20497250779766454, 0.1040695355376289, 0.04995984202809364, -0.009485200612840906, 0.004058869063119366, 0.03489790499434561, 0.05395121374605577, 0.04814101364132999, -0.023139199872762056, -0.0461061796205741, -0.01857207073001506, -0.012278816636688937, -0.00402404385845723, -0.0011201069276887375, 0.0020371926187833685, 9.030787470387772e-05, 0.00217089211834846, -0.00010610344088308335, -0.003041051873648324, -0.0015779540706148273, -0.009896848027748976, -0.013092748099467456, 0.010253351891590642, 0.014964713109511998, 0.03674978634096128, 0.06709545341163826, 0.0811197863436915, 0.03428631541832481, 0.02733668020869523, 0.07124612042724109, 0.04130328046791392, 0.06483951201086076, 0.06661136379055158, 0.08964276948092777, 0.052972364728693586, 0.046889187710566764, 0.0032679065389464136, -0.02343135315520721, -0.010709936119482767, 0.0006657784560624527, -0.0019542771640657986, 0.0017113288291885106, -0.00034595920207308647, 0.002006648812886583, -0.0008155064530509437, -0.001561062293718023, -0.002594281447171204, 0.0008513395843229872, 0.000687478702307675, 0.0003642794090038943, 0.00046249652002148514, -0.000994775627585365, 0.0013287675800923288, 7.898857220540136e-05, 0.0165024773644653, 0.005997245994172232, 0.00019356673518277148, 0.005635759392956175, 0.006445850312041536, 0.0013830585611007088, 0.0008450452456321436, 0.004322164408819066, -0.009622871044301866, -0.00041386175855431616, -0.003772866473705507, -0.006541299497123325, -0.008063157226485873, 0.003479717327787147, 0.0008593081774263854, -0.0006027429336851285, -0.0008094305916498856, 0.0010352843318836209], [3.327879338677026e-05, -0.0019573010364380256, 0.0018556537241358575, 0.0003040923486599401, -0.0014446127610942055, -0.00012016801057761561, 0.002205302302367545, -0.002664001499419136, -0.0008810484343962036, 0.0027556952283247296, 0.0002839742330930889, -0.0004768000538342153, -0.0010598265195941768, 0.0005099419480960727, 0.0017286545474262049, 0.0012203674820689386, -0.0010552122981837533, 0.0002904345115804303, 3.150210801744576e-05, 0.0013021898185255907, -0.0010578797148303337, 0.00016395779779276458, -0.0003362074933675416, -0.001550185825023477, 0.0006718397420583158, -0.0012592723946816531, -0.0020298522528658216, 0.0009891052250156568, -6.84815865481749e-05, -0.0016325620936812528, -0.00019112519232589175, -0.0007155203260271278, 0.0009790032213858922, 0.000989618501203297, -0.0010129701016885703, 0.0014773444040507959, -0.001198392097675819, -0.0009112647687787214, -0.0007248564518883381, -0.00034782426725296726, -0.001064310260860216, -0.0014193685239131495, 0.007092411258825636, 0.016773369921208734, 0.011938039389869435, 0.0016876249871515597, -0.0002657550385660755, 0.0001767881027294954, -0.0027782063974541027, 2.705614299107771e-06, -0.0007449644090196278, -0.0015688779786727663, 0.0007440655716965064, 6.839736976449114e-05, -1.0739850510323309e-05, -0.00038801135280404375, -0.000647007406285403, 0.0008160727329473371, 0.0005446838902889204, -0.0011689756298449486, 0.000650561752429081, -0.0008328182587622574, -0.0015095386059567823, -0.001699892743868928, -0.0004338544146033263, -0.0006012557671334984, 0.005858578838410543, 0.019986250528827222, 0.02091130897842584, 0.03403865366033648, -0.0077728282861747825, 0.00942981586004241, 0.008557469745049867, 0.002975419310633867, -0.014182328245151284, -0.03770378213444259, -0.04067687208728822, -0.02692361066195936, -0.016676563981020208, -0.009398198480347692, -0.0016572427071594213, -0.001759453788917776, -0.0020833259790809682, 0.0005749593137974801, -0.001158543214397038, -0.0005058173217503633, -0.00034546106048582656, -0.002781771066381722, -0.00016714009384195109, -0.0008499551331315999, -0.0012162021079796597, -0.0013280897733905688, 0.008575195334703987, 0.005923421777241529, 0.0037404014677594184, 0.05644876260208273, 0.10778771006256553, 0.1184780407318095, 0.03182725588342423, -0.003556115391521452, 0.029061913068012167, 0.04991532511021294, 0.014084301979173422, -0.04318842679624811, -0.03363728685524739, -0.027751444901425854, -0.03565244936346568, -0.03242500842095042, -0.011768038971782488, 0.00035151532330340363, -0.0011997649487732092, -0.00023887376158769272, -0.0027555441324870074, -6.239949300585022e-05, 0.00024281393202997214, -0.0010665401696330103, -0.0020104304162746754, 0.004685822695106986, 0.016174335667699002, 0.05346625675817974, 0.12267149264741267, 0.13530207113465353, 0.20777899176459386, 0.2206988885767243, 0.2173288457340324, 0.1886479780489273, 0.09205483033653183, 0.14242344008323082, 0.1051368103256957, 0.04861975856072497, 0.04398585255119108, 0.08415404877742336, 0.05690926563555366, -0.029322807684028375, -0.04686238321005241, -0.035107053399505185, -0.058233347728459, -0.027511908397839988, -0.003296449898075327, -0.0020147670241092374, -0.0008524594795484188, -0.0006086402716202814, 0.0017805492134151822, 0.0020160201015734995, -0.023935263328153322, -0.009954210540874446, -0.015003861782076444, 0.03143679534878313, 0.011931346731055885, 0.011471742956313924, 0.16500766873202885, 0.09859958581119249, 0.11093181656097727, 0.1598342979892868, 0.15268473520170361, 0.3438813549196078, 0.1890432151290335, 0.16710749695622576, 0.25602060009772193, 0.34611690505070103, 0.30705961067966825, 0.11292394293178006, 0.06624239489337687, 0.020870327063691293, -0.02175017635797038, -0.0037698929309162017, 0.004531676980992353, -0.0022507179942668856, 0.0021142375486184386, -0.0022185745566056176, -0.0015293170184342002, 0.0036346401674766955, -0.02486683960486095, -0.06526522186707617, -0.06494894381783307, -0.029112219511178553, -0.023015165015882112, -0.004335596332967003, 0.10087213350267406, 7.645411698130889e-05, 0.0336364928398915, 0.10518355348551997, 0.20868304382278488, 0.15085666498053643, 0.1168594009796288, -0.05745437940215412, 0.031945464562705445, -0.0036371026193359837, 0.20508113328427888, 0.11207221556176615, 0.06540046069238555, 0.048328749456553514, 0.04018669301555028, -0.0010019704867799961, 0.012463766603678867, 0.005473195561702273, -0.0011895755336341059, -0.0005231902927369058, -0.016078456198284602, -0.01263762269496988, 0.03875566343287409, 0.16169737432773204, 0.04529997049932483, 0.09421684144877517, 0.13742560622916322, 0.03676862934327016, 0.04267433901447415, 0.012736143345150684, 0.12432079916814112, -0.03834244943961418, 0.028537178385864014, -0.07647224308815252, 0.07113109130567573, -0.17550257305475342, -0.09936500568524986, -0.1141581265918845, 0.03130370363674945, 0.1598341245762212, 0.19728714530820438, 0.13914018901855849, 0.07837650625830164, 0.051124323382657294, 0.0207497923742937, 0.0014353007912449999, -0.0017211230119726464, -0.008619854224513567, -0.01313298795062208, -0.03161661622788027, 0.07091996775569913, 0.15905419406527768, 0.08357549998593714, -0.048719650175252795, 0.0010999632465804009, 0.059569489712662634, 0.05763335855936507, 0.036861651197635535, -0.029630673918837464, -0.04226702547311127, -0.10076123048226744, -0.3111511648718948, -0.12354474372344583, 0.0808417820858763, 0.03207404320725499, 0.09975406912700792, 0.06328094094136764, 0.25149497543687216, 0.15851484243247144, 0.060230787317568805, 0.0513851934313981, 0.07562578843133275, 0.032069567735159815, 0.0043462736034173815, 0.00047455506924632887, -0.006608478898712711, -0.008782027669958, -0.059005582538647204, 0.059801159024398455, 0.15210845295304315, -0.02524998455560259, -0.0316353470565548, -0.017844029367164376, -0.1333288935656751, 0.003490362544285843, 0.03156231055398327, -0.0640267746955992, 0.10030299253392552, -0.06627528712090819, -0.11489955557508721, -0.12951962888404836, -0.13619966277047862, 0.03709783800719198, 0.03924687681257364, 0.07520179192196415, -0.00711908993820969, -0.02286024579710242, 0.001760314540376903, 0.09516217957284703, 0.06623058302144232, 0.017822765632372173, -0.03280215078630835, 0.0018050665050184044, -0.0057256421669542945, -0.010733647802327873, -0.04515553370512695, 0.014815836110355501, 0.056881090839084276, -0.08902703788497472, -0.06605032640837218, 0.0007957642096314936, -0.1984538864140103, -0.013857976606324138, -0.005962224073519633, 0.19878974958250337, 0.1657357887546504, 0.17479247062239017, 0.09359062627679209, 0.14486052801627178, 0.030553164366588313, -0.0030534430804982733, -0.003619578711799091, -0.030649500366715182, -0.052801129231290024, -0.14172718484497254, -0.009403947153060813, 0.0829605128357262, 0.09296438981325958, 0.02633440317704536, -0.008576880333371232, 0.0005038912564207445, -0.0027462435743874085, -0.045631075460930315, -0.08758315196803727, -0.007553896233728314, -0.088523496587228, -0.2561251245979922, -0.24966287878871127, -0.21664591273301936, -0.27702353059478213, -0.15793383646088185, 0.019320760971913424, 0.1730036144600869, 0.18908178550307034, 0.23806636352536947, 0.3393182802254029, 0.32780416994824146, 0.15134392743271458, 0.008998464099623618, -0.06605140312921316, -0.11689783460771253, -0.04812571849120596, -0.14393329652042272, -0.14259251208562873, -0.03815442704286462, 0.045204235608039156, 0.007213256779965132, -0.0017641987296763484, -0.00031618877392303624, 0.00026843029696130906, -0.035851034417410325, -0.062299823862675484, -0.005190474202804349, -0.20476879825090286, -0.26002599048750147, -0.2362410845912546, -0.2819335548577816, -0.10367865059205292, -0.1157066105021876, -0.11407060732920737, -0.00687396209270534, 0.2853430109506043, 0.5434999759172575, 0.31057965597182785, 0.026044463204386685, 0.022321712457940655, -0.2253686200937463, -0.30390934883723986, -0.1598511820736269, -0.06751265531329688, -0.1820262653056808, -0.2646600886987383, -0.07650072358643126, -0.0023807272628374853, -0.0034570071052106716, -0.005770489090061674, 0.0015268084480275464, 0.00014085468874003627, -0.029649860911505354, -0.036542809783191514, -0.02230372097819637, -0.1988091577709238, -0.1632483689190086, -0.1704329836504282, -0.22031265665719504, -0.13602526972515225, -0.31250284225630054, -0.27445312112762116, 0.06113795062325492, 0.3109627455278946, 0.29138629011560657, -0.02057774846642789, -0.16194296286025, -0.15437312690372337, -0.2812939913859235, -0.2157004252434781, -0.1552276726394761, -0.1219001345578221, -0.15418705551259101, -0.08452172779821779, -0.03508622410200235, 0.0021100025992501436, 0.011124152521439482, 0.003580209707491213, -0.0006082000662610294, 0.00033050312915268513, -0.012065437690651926, -0.019994352910225548, -0.016700626592732665, -0.11402432515574953, -0.10595606632912322, -0.12645778648376713, -0.19504299187341537, -0.04884195779328968, -0.15437205855797662, -0.32095168274795577, -0.1712017474748219, 0.08980841612748698, -0.10316528850531191, -0.009660045292818506, -0.017971921425676395, -0.15528832808688153, -0.09305816217236543, -0.20967593236944246, -0.0771951214323941, -0.1507223661388386, -0.14517247552399248, -0.08982250313957173, -0.011168651669345869, -0.010243621080027496, 0.012513572742356508, 0.000745027528335328, 0.0007088364922302019, 0.0005322330910602249, 0.003727685615957494, -0.02145384049756829, -0.007514175498665625, -0.038635572676388334, -0.1436180233034858, -0.07670284736808353, 0.012753706284950608, -0.04226899740817959, -0.0987103384103045, -0.11581070039390091, 0.014810312130118193, 0.02834078618103493, -0.29034269154425124, -0.3035029489716194, 0.04460502020152413, -0.03390028596371221, -0.09619188321729256, -0.07080527477315035, -0.0776980858276396, -0.19448294722853787, -0.2605064516349188, -0.05507978407663288, 0.07097386240241625, 0.0029403861442822126, -0.007418892142392462, 0.000521971276460408, 0.000649514629638345, -0.0005481826559205069, 0.008220933541252518, 0.03442880794395847, 0.0021072082338538974, -0.013542867328932916, -0.10866660934177153, -0.06767969254300338, -0.09395620014241715, -0.04718651151281924, -0.046771536903950924, 0.030802438338858276, -0.15637685832477552, -0.23840819546438954, -0.18053837100502576, -0.2290194742737198, -0.2288144083421475, -0.19178155657095722, -0.07781427640274358, -0.01717706732933596, -0.05215472343506145, -0.01068644689600735, 0.043591378966960574, 0.06786777888876244, 0.11105460394080553, 0.03833903334651414, 0.011567695142689224, 0.003254287866988204, 0.00222615955735874, -0.0008428141061024873, 0.008357915710436719, 0.07944629135486612, 0.05253688608451263, 0.06543264435775055, 0.027279822868945824, -0.04787876699214536, -0.06861192494933857, -0.05680858993834024, 0.09664423908246933, -0.09206364714016689, -0.19506693281790904, -0.3965592757737463, -0.20460041793657116, -0.28040806482819985, -0.19806459655399772, -0.19584047675501146, -0.07836202405875764, 0.16351237000878563, 0.03434620257119419, 0.0074739566733936615, 0.04913292390833777, 0.016495055849482618, -0.01356039116981462, 0.005100900276488808, -0.02746285915794046, 0.00979205150049252, 0.002024826769370033, 0.0007267220389704559, -0.0009673122398358594, 0.10819041534437653, 0.09670787580537467, 0.09803631394818105, 0.09486242038310329, 0.05809136148511233, -0.09881871932255205, 0.06335507239399311, 0.02538643788594542, -0.22493713093433335, -0.331283218331369, -0.3020717135082973, -0.2279058304850061, -0.23228462697094004, -0.13571687033004276, -0.06976971662865131, 0.02898883506638807, 0.22065453204283966, 0.101415322494228, -0.01977140832357961, 0.07191119484625408, 0.19374637975552156, 0.09100262618367075, 0.02195326396995243, -0.021087088685908643, 0.006415307138449649, -0.0019504382060650546, 0.0016548957132332892, -0.0026285158028811276, 0.08236824331938769, 0.10457570638225348, 0.15634310764928663, 0.1513928388130506, 0.1624419826036653, 0.05491449160591982, 0.10432553427883799, -0.10900468263893068, -0.1507798565104028, -0.2828925006077512, -0.09584967536616608, -0.15492837032923326, 0.0232433679916216, 0.10589226363906397, 0.025465747256620968, 0.22718080764509777, 0.19512142065605034, 0.10714032138453952, 0.11386954790725659, 0.19121235917826074, 0.23535643136445109, 0.11217469460368405, 0.048180041749081914, 0.016056219114915338, 0.0015070326130768583, -0.000698550123615325, 0.0027789678004158775, 0.0006329409238344524, 0.08355886379157475, 0.2057790928575512, 0.2106615433610802, 0.2371479404142721, 0.1672405205915075, 0.26217898467081513, 0.2555947352592448, 0.1422009759866469, 0.10477874629568423, 0.13158218800257215, 0.11097561863467241, 0.05470679028635417, -0.05075345268521474, 0.10878641705110895, 0.13077762648156566, 0.25645504693633486, 0.1497562369750204, 0.16442675625583522, 0.15561294028610476, 0.18496021721797598, 0.16179945340030533, 0.06653663398278065, 0.034615618695191606, 0.00509362225519912, -0.000440593803371204, -0.0010162731746240028, 0.0019210603130011697, -8.477174309157154e-05, 0.06629327738491289, 0.08263096897421117, 0.08693894833915757, 0.2304001853333451, 0.2515265138220174, 0.3108957439241767, 0.480429264853273, 0.4121903158391706, 0.38866545495650756, 0.3769138616192537, 0.4012265204341106, 0.18059705248224656, 0.04289026124823551, 0.10315872103205712, 0.0834234103476977, 0.23089541414208795, 0.1904539987690016, 0.14556193328309894, 0.04134546067330101, 0.13029211640808472, 0.14728768303314987, 