{"layer": [784, 100, 10], "weights": [[[0.0010530236154855871, 0.00024070626814402875, -4.7428890143388016e-05, 0.00029230748216330674, 0.00017276202478644454, 0.00016303667869011613, 0.0002983695066610155, 4.949895876260774e-06, 0.00019949683604187664, -0.000281391441788211, 0.0006860895329671235, 0.000295050770932061, 0.0006462064634946579, 0.0017187262339326756, 0.0001402036595908605, 0.0002006501715574302, -0.00017112924576584028, 0.0003181128341134255, 4.1235694102574103e-05, -0.0001226467276267069, 0.001001521645335343, -0.00023781854699882126, 0.0007202389341036894, 0.0006314969698970541, -5.623377665214733e-05, -8.023499977666633e-05, -0.000373347126787348, 0.0007646776597385622, 0.0002660452781933362, -0.0004365894680010689, -0.0006105648826510648, 0.00010296362187659462, 6.222290515942162e-05, -1.8569302676028217e-05, 0.0002623052857107056, 0.0017913153990187993, 0.00388044033621905, 0.0014563351758429884, 0.00264631136867307, 0.0054380327358697364, 0.02563252289423536, 0.023337398493140975, 0.008892693446569113, 0.0026515061826615305, 0.004060471166369674, 0.0024719046580112232, 0.0034435576603173445, 0.008208537430277182, 0.008984115093812462, 0.0033186380861937835, 0.00023265597986798443, 0.00039200639807633305, -7.032245887333453e-05, -0.00011148200075240638, -0.00048628821521976977, -0.00021100639677860223, -0.00039133349384958064, 0.0007129629690962752, 0.0002586418490535232, -0.00043945436672488075, 0.00013321095717134528, 8.207298665349644e-05, 0.00405110798031404, 0.0069902975388064755, 0.010295837998255054, 0.010925589068679489, 0.00031924772935076944, 0.017279987126728253, 0.01704544903575766, -0.013196646390877644, 0.04801748667466814, 0.023216393836918998, 0.054196624957774976, 0.10774006379645522, 0.08666025503827311, 0.03504676633353243, 0.029760948920032965, 0.03091555700693654, 0.014355013034585222, 0.004455865351049647, -0.002075693304547532, -0.0023100951313094974, -0.0004960325146917421, 0.00017594309781646033, 0.00013115283723582407, -0.00020883333476529771, -7.511576641530954e-05, -0.00024280247336441445, 0.0008077243620936491, -0.01262024873723593, -0.0005264255801064354, -0.015307256962501369, -0.016851268780773192, 0.009358421173051891, -0.03894941407989642, -0.051598087280585146, -0.12799404338296297, -0.09726773043023598, 0.03377388142934692, 0.07420370810951311, 0.09341961175754293, 0.20575862631634032, 0.21492823043576018, 0.2220918087512043, 0.13300121387479003, 0.1036305340219291, 0.04869404037917807, 0.024096663875056157, 0.008856986878800713, -0.0005769583000817556, 0.003464310616563703, 0.00017584191874958567, 0.0002118342225218204, -0.00020986606283363105, -0.0004051971461091503, -0.0016996707247942614, -0.011213598182592207, -0.10998576706211988, -0.12146361180998164, -0.0521300728385804, -0.11514354719094108, -0.10644976474192053, -0.23475646996764124, -0.15439276072099892, -0.15883592510346467, -0.16516894667403928, 0.04128006217840044, 0.0308881886274247, 0.16103177421577528, 0.14752168599863416, 0.18023229146074032, 0.3044398974079194, 0.3356356367904277, 0.25558225501512916, 0.16697318186264842, 0.10926415253915726, 0.03571492126738142, 0.01667275307950553, 0.002506453755677574, 0.00011297785943365666, 0.0006089123198463164, 0.0002984978663279376, -0.002336451734045949, -0.02426876423985055, -0.07042072773095892, -0.17308414758574567, -0.20798490630059385, -0.27187769587339466, -0.1216336902253971, -0.026315490958907256, -0.08997200417084777, -0.061726418395133174, -0.25249423286142786, -0.11956850796818824, -0.0729700679000016, -0.2776405111027667, 0.023827821446032897, 0.25692524202750583, 0.16992341739859065, 0.3075351868197705, 0.5008911803537415, 0.3790825722787712, 0.25397520482874697, 0.17288603422360158, 0.042787038824876944, 0.01897330114058813, 0.0038397905729218966, -0.0001884164337687428, 0.0005687101388299785, 0.00017543292477052865, 0.00033453366752627284, -0.04034848093960548, -0.11572528988889492, -0.1358901066045442, -0.3017037839478172, -0.08885072905183505, 0.08266008178050092, -0.006899138500087844, -0.05232687576481842, -0.01000182869890924, 0.0468921724086117, -0.10415647661250972, -0.09521477150580715, -0.09857754365076289, -0.10638567320876376, 0.1746613117716744, 0.031741105966113396, 0.26603800630506874, 0.3697274221578952, 0.3611226795349511, 0.3303719410599979, 0.1809660571541133, 0.06570881366097368, 0.025743856229058434, 0.006303476103632853, 0.0018534691571737826, -0.0001119015205179199, -0.00158051213724958, 0.001667536225324726, -0.09020799158064906, -0.1453961513234716, -0.023878953196996542, -0.14165157305232498, 0.0873743104822969, 0.2548871886623825, 0.10316145515807575, -0.046413287616694464, -0.05483544543922503, -0.07052196269369033, -0.14982244054052218, -0.03756153944919824, -0.11131067738743512, -0.05831738949135044, 0.13318905488378288, 0.10144302905609924, 0.19356052516328823, 0.45373731340158435, 0.44249411353369417, 0.26663151047863115, 0.15471883970727346, 0.10575963931840927, 0.030782660552293103, 0.010342640901573637, 0.0015888206581980819, 0.0004171663278224567, 0.0007350953107767575, 0.010013293614093543, -0.014746085933947592, -0.06240872347071075, 0.01983766149940123, 0.09177945980147283, 0.1858314525783733, 0.310640134158821, 0.17120681003905602, -0.2147760242859782, 0.14262594580771634, 0.08283797178568773, -0.040746472123902124, -0.13329484085275975, -0.16977587523544366, -0.21211410642218442, -0.08287622868249508, -0.023649883041965913, 0.24210320464171423, 0.6182901112036407, 0.5367658588533398, 0.31040508146710205, 0.2144432951629951, 0.14120553209536013, 0.0919957269516243, 0.017793586481673052, 0.0013626173672585807, -0.0002933571461020978, -0.0010061571224418823, 0.0048517875486263, 0.012919147819535577, -0.05657209242832636, -0.08252451050507889, 0.01388670007012595, 0.09741056021306022, 0.4563915896556437, 0.2754749340425688, 0.16467924569276118, 0.07648087936369805, -0.09133377072435905, -0.1803035922880655, -0.3529211931004152, -0.5133276320186161, -0.41500691138677853, -0.22945097636884673, 0.04189054439966443, 0.33089500089215, 0.6628743613105477, 0.47701933443328415, 0.2464358574395481, 0.12066638358800696, 0.03119285030351935, 0.05961961239676476, 0.014393775805378619, 0.0030611738022422712, 0.0004527146829984055, -0.0003847962498148494, 0.0015895854269219268, -0.05284069147044972, 0.023369858528460907, -0.03627511359437157, 0.03933226605537947, 0.1246960055538296, 0.2679429614233798, 0.22837104453251478, 0.08354645548778912, -0.08345201167225613, -0.029393550371263327, -0.12997682273466216, -0.4170307749364215, -0.5502535898534636, -0.7953663778641162, -0.3427906452219728, 0.32640159440243643, 0.5956871615763857, 0.5976382487791807, 0.37185162787071663, 0.1346670476313903, 0.013291402680262599, 0.0415117142464294, 0.06098688888849512, 0.014684436117950063, -0.0008857693710861948, 0.00034947477761244883, 0.0007648878921618767, -0.0034670650393539572, -0.0644432330043719, -0.008279942522338728, 0.03832519714344773, 0.060055119525160384, 0.11062082351784713, 0.07694519468046776, -0.022982337479623815, -0.037109305922067855, -0.20744671404157755, -0.16547230271311836, -0.11261600353830803, -0.44530984926284084, -0.4439610176921815, -0.24263292309860918, 0.0959510518463225, 0.517599416527266, 0.7050294224214, 0.43967381694350377, 0.24270689009110255, 0.061454043765804454, -0.021954224196672336, 0.011546357509374739, 0.04790317350341541, 0.02138836556769027, 0.0003339453856128193, -0.0003448520395924243, 0.0009934174189654172, -0.003150282196933248, -0.011288129461126443, 0.03535094731194331, -0.009099554469965123, 0.09187450885517918, 0.14931443540504827, 0.1080652330575329, 0.028291416680490157, -0.18582190290713954, -0.16204048147807779, -0.13479557857213928, -0.07455468436843693, -0.4167002056638684, -0.15053644152982038, -0.19683997857121666, 0.29970214067487333, 0.3866151156813992, 0.3672393877665436, 0.2686656620630176, 0.0336759469368181, -0.08655176071246548, -0.11259738959538217, -0.14400689343259238, -0.07691888794611713, 0.005573782095929179, -0.002624296811274411, -0.00046284435286281505, 0.0016721276021684807, -3.832070093644385e-05, -0.0003776414074629781, 0.01804049224216957, 0.1549944616808992, 0.1389321725744184, 0.11270408304088303, 0.07190342809750164, -0.03216816147164858, -0.029019612028682862, -0.0822730366976071, 0.02715488260866682, -0.012635301831095683, -0.14712276391010995, -0.06632861778588231, -0.10902655166065958, 0.08761890143073656, 0.22542348068201296, 0.21115344273747064, 0.09489850690469065, 0.021273761916731127, -0.04117153079729999, -0.11413889372759485, -0.20470375439493188, -0.0723014657488403, -0.018125151637207765, -0.0126918598010269, 0.0004885654089898813, 0.0015402511026420772, 0.002477616172449135, -0.006823012597142756, 0.04342952007207385, 0.08988613676543535, 0.16335892362272786, 0.11134222641855916, 0.03811378334243743, -0.0068406629744011205, 0.1358250689442412, 0.3102262730885615, 0.24458487218596256, 0.051383824322784384, -0.17758115939308522, -0.15003231245969775, 0.02988240551322104, 0.3058062075680578, 0.2229400348866286, -0.07049918838623395, -0.03987784486096272, -0.1236227838248654, -0.07477720371665789, -0.13311997212944912, -0.09171276812804048, -0.04339681775534105, -0.03217254770126513, -0.00020169151566303104, -5.183111649249785e-05, -0.0007032943715606006, 0.0004953156196735363, -0.010557564458371934, 0.07606888233726845, 0.005495087626555828, 0.037949596356266005, 0.0018235991992654982, 0.07857296859750273, 0.0810002536814102, 0.11851483020027634, 0.0790144532893291, 0.11060996149200589, -0.18178492231918877, -0.1981217998047083, -0.06085295469965282, -0.0673558824150866, 0.050291874081650575, 0.03774723437823719, -0.013350158442662751, -0.14597056968477123, -0.1787764347042756, -0.1529141730624933, -0.11334512280810013, -0.1852490298569433, -0.02604853772917496, -0.058815283670163615, -0.0076788759026685085, -0.00034934589860289363, 1.9618630858892528e-05, 0.0005897511797702353, -0.005455216827350436, 0.09722230224034169, 0.06934861346072138, -0.07847642493936727, -0.1932771768575422, -0.10535297377904265, -0.15799633514179093, 0.051038443019287595, 0.061382948901282944, 0.058333023522706424, 0.08593991377485133, -0.22618504358112304, 0.12373356221625584, 0.21355957882812898, 0.20586769175302788, -0.07023708388648622, 0.06157144172133145, 0.04540159106444715, -0.12211522684020633, -0.09005478921863214, -0.18412014915919578, -0.2415421670956182, -0.004431009124102638, -0.05750057040918536, -0.0032579365342636874, -0.001002294619163807, -5.560816288798332e-05, 0.0008406897156730374, 0.00852522264146764, 0.05426342219455786, 0.1077857115851001, -0.05126922406367828, -0.13612485871496605, -0.05717116493770975, 0.00143362229724771, 0.09739979113551082, 0.17543590776396334, 0.20134843027196891, 0.12625918955265397, -0.18783492761540801, 0.1934995440829489, 0.06219670495967996, 0.00080474101132387, -0.04125122634992583, -0.055976477250247, 0.08937543143285342, -0.11348977835676448, -0.08468406168359062, -0.12663738069812167, -0.02466578904493439, -0.0045130828580488645, -0.03617537951808201, -0.009647389856381252, -9.432726760655724e-05, -0.0004968655332620773, 0.001594942256736501, 0.025677510009259108, 0.02298462325105463, 0.03756664324241747, 0.02186573421363372, 0.08394728648053468, 0.03571319425070309, 0.0857141466225307, 0.03291177134588382, 0.10783125701441762, 0.23221217278229586, 0.14906940493129406, 0.10665817293726192, 0.13597164432221812, 0.007230295003801971, -0.09539913578295296, -0.08703093596464405, -0.08496413455926337, -0.1430647539253102, -0.05337057305269398, -0.10084491696891645, -0.11714667393450759, -0.05428505354587161, -0.023974188452038594, -0.0061175344343502875, -0.005295283230343043, -0.00031107555842845394, 0.001498673488467569, 0.03207589538612742, 0.037986116581026144, 0.08914504389321724, 0.05415486995871124, 0.12088006742184727, 0.08337551607395878, 0.10830054711074016, 0.02169100806916794, 0.10424584407621634, 0.1649122676733278, 0.19836616194150966, 0.07325960706699233, -0.07098037703896264, 0.11134178213822098, -0.055367166119348214, -0.04893515547618769, -0.04975905409896178, -0.17176823605986835, -0.25039103188990813, -0.039147236113233376, -0.1289936026408893, -0.02549788491824027, -0.021909503714035623, -0.026036055217026934, -0.010565757057451549, -0.0017959606958178114, 0.0006202707009775021, 0.003053065460925345, 0.02695163537348594, 0.02630379588863987, 0.12462482834798375, 0.16200520765949186, 0.10477926476396603, -0.03529845361645848, 0.018777334819286493, -0.13220586724081945, 0.17161744001075063, 0.1222506102020253, 0.19058368205106777, 0.17222774848701433, 0.12680514483574687, 0.2604746227590399, 0.035426038166904227, 0.15996280175044916, 0.06227316642605791, -0.09833889480681109, -0.21501606067224943, -0.054121027342545265, -0.06153567181727912, -0.0024585570392625473, 0.0031803693920653218, 0.007768387202264317, -0.0016483736021314984, 0.0010764415720227567, -0.0001075965020600766, -0.0003480861689734574, -0.005024140801618283, -0.0022168795951317253, 0.0684021497537948, 0.11791590588447413, 0.04035503225352215, 0.10884214973356102, 0.10188709590459477, 0.15093940248916127, 0.05885068274332307, 0.11226880268512505, 0.2281554861116514, 0.36017785953734116, 0.12530900715556612, 0.0515865074281306, 0.12716657639876486, 0.36400210679651046, 0.01204112148642888, -0.1552838350552791, 0.027458668949366223, 0.08569906618707336, 0.010485965013811042, 0.06015084216544755, 0.03976913796271552, -0.002669796609981137, 0.000514473135356624, 0.0011257274088233642, 0.0005311487107710766, -0.00032547304839988724, -0.0037241613500417266, -0.03200678245133357, -0.0127442611316157, 0.004623818135174994, -0.10577830042344627, -0.08288051114070405, 0.055516160030459664, 0.04148354864202109, 0.004053685469261871, 0.13251345862270011, 0.26448241298490366, 0.19207188933249236, 0.1675492483225876, 0.17217716367419758, 0.298044308807195, 0.12113186099435924, -0.06874954929743142, -0.043842480240085885, -0.08658654828084573, -0.0603994803521562, 0.0648400808593647, 0.1224377108896114, 0.02848285110474682, -0.0037134978340030273, -0.002450028105571874, -0.0008438581236577638, 6.382663626274225e-05, -0.00038779675465129885, -0.004640894052902862, -0.024623472653091148, -0.021433997407616742, 0.019596824706994448, 0.05147260782437165, -0.09517600469194434, -0.003606736226162921, -0.10964259785894814, -0.07451824832846218, -0.206127556326037, -0.001823257435332121, -0.10435112711762382, 0.23672231501490165, 0.2375816671173209, 0.33946301029414927, 0.07247859006936884, 0.012097111865867167, 0.09841771779334484, -0.05364041351292819, -0.005101502319407856, 0.030824864020582852, 0.11894110571528502, 0.01247827363752806, -0.0037731381669128383, -0.003228241382706637, -6.999562383649898e-05, 0.00013021848185018226, -0.0005379520315459918, -0.0014983503243110041, -0.010912047121891859, -0.053799094107775995, -0.07633443696146984, -0.11919687323514698, -0.07557178180180235, 0.005563701835837594, -0.05529229035402643, -0.07348545496510439, -0.18534193595251366, 0.03364074929326471, 0.04018420548889245, -0.01315884917664377, 0.180660398099238, 0.20001700215405344, 0.043982383601861116, 0.16098266862588906, 0.05690127044728487, 0.0045244368670223755, -0.10640560099471293, 0.0025516664871838663, 0.08182860415961399, 0.03664423700071611, -0.01075687996037683, -0.003236679835874739, 1.8165636206107513e-05, 0.0004205297356280658, 0.0001429325498708784, -6.829653724630828e-06, 0.0001999910161697612, -0.046271035286924306, -0.09629469300564748, -0.13567754834985576, -0.18943610923055162, -0.13922360421795726, -0.15323579002737592, -0.15275701867181452, -0.09358975391723803, -0.07285592576091461, -0.1408353327743295, -0.001206812748642163, 0.11611593351121924, 0.01680738261655676, 0.047998604128643985, 0.0893366323440055, 0.06996641730601265, 0.038847110756548245, 0.04914801511745371, 0.03750061289893242, 0.06364287598871934, 0.02903126718287123, -0.003140175192962521, -0.0022517183380763484, 0.0004542953681775732, 0.00037633011881905775, 0.0009806286910172227, 0.0004076600612645509, -7.561440244236494e-05, 0.0003340316186065137, 0.0013980721301974156, 0.0016000215375634081, 0.014796156657803731, 0.03125148135278734, 0.034305122212915574, 0.03412448767073388, 0.0474391034437892, 0.08902955023568727, 0.07113159721390228, 0.07095376842833613, 0.08212376227947092, 0.04780163443123621, 0.023552857066340197, 0.029541434731030967, 0.04278188672000506, 0.05309200821941358, 0.016780574336426515, -0.007145703638925595, -0.0019494175636633722, 0.00028828586075236424, -0.0006599914371333798, -0.0004899325680737256, -4.253544798571895e-05, 0.00028663932369159246, 0.0013684189306853785, 9.169427206311624e-05, 9.290336821009657e-05, 0.00025843468923635103, 0.0005032603527408052, 0.0006683053106705243, 0.005530346394816766, 0.005935988486357201, 0.001233218164821852, 0.003496026630056246, 0.0037147510828003448, 0.005698178260143011, 0.0029781331973661195, 0.001145259772108056, -0.0010838348074349656, 0.0011029522719425335, -0.0005577633986163495, 8.526683089387411e-05, 0.0044636151767274805, 0.0036099271692498743, -0.01285819109706238, -0.009911322132480067, 0.00023017618083288666, 0.00060050792037191, 0.0002800163140269779, -0.0007520422125920523, -0.0002328775374114372], [-0.00023294979594538494, -6.293981982162179e-05, -0.0006472398628964738, -0.0003128444729944657, 0.00020197424935436114, 0.0006381142146714425, 2.6564429154246287e-05, -0.0006556283562993422, 0.000942847137483092, 5.782958045887413e-05, 0.0007394949848602612, -0.0003761578530063952, 0.0008678270454036695, 0.00128795102929327, 0.0002740342859843191, 0.0008575934198100388, 0.00084022803377416, 0.00046300013832248593, 0.00025642874363849085, 0.00012910974032688552, 0.0005980114842964946, -0.0003985374728151871, 0.00024249715496442597, -4.813267262031903e-06, -0.00023413290408356275, 0.00010319482183437496, 0.00012816845481751846, -0.00017900526344681147, 0.0004626761298378909, 0.0006541373223115271, -0.000749703798213001, 0.0005135766850861319, -0.000401640021026012, -0.0004913234898225454, 0.0010931332071109278, 0.0003669988295555389, 0.00013293583766921187, -0.0005144046086034259, -0.0013784162642042966, 0.009923131563083491, 0.020077099859132683, 0.011139521910547949, 0.00038703233429944613, 0.011301870714347425, 0.03703087156738824, 0.0182800047933739, 0.0034027332719417445, 0.004703605928870233, 0.0022214846571378404, -0.000254964186884365, 0.0008881373451188735, 0.001333237499551606, 0.00024340720205905022, 0.0004598218062199052, -0.0007519931499302015, -0.00016670105518466625, 0.00017229039010363846, 0.0005004373866360158, 0.0006160110715301144, 0.0016656228875971475, 1.7785842424372465e-05, 0.000740930962477503, -0.0009628748658702597, -0.001743961857785393, 0.0028882355445909043, 0.021837667084461852, 0.029508205059251794, 0.04014516226676656, 0.06530157134542937, 0.06333822495307226, 0.05586308537278089, 0.033246362090772606, 0.03020135195055854, -0.01283628237804658, -0.04024742170301985, -0.018662900237293892, 0.0025751627534129143, 0.00633405349012307, 0.0032799744159391327, 0.005325162382037214, 0.0025064102893288843, 0.0010351157766868417, 9.17486156298403e-05, 4.521375728822816e-05, -0.0004380585737565551, 0.0006769782613845512, 0.0008240974928189039, 0.003128370946512467, 0.0035198480866833236, -0.028281346695631596, -0.026867061386944828, -0.0632765369411926, -0.03656674331887219, 0.046487334068299024, 0.022637591331218846, 0.13112542286770604, 0.10938337370203559, 0.14269629705025616, 0.08110282461926549, 0.0057142177904122, 0.12765877848475252, 0.08977627951379787, 0.004543306275561708, -0.04590748770878802, -0.009469951045537904, 0.08188544785996578, 0.06844517070937933, 0.02413451550824058, -0.00632355755696418, -0.024472587265613053, -0.0022275208908090487, 0.00046757422860412685, 0.00021494702992827478, -0.00048762237894032736, 0.00013996204185136974, -0.0008657847782027049, -0.00016241267464257758, -0.052597676124409305, -0.030181545498912492, -0.009717794941550005, -0.02423110149588707, 0.07170197920482746, -0.0014412356638350953, -0.004968044243749258, -0.008806177224527811, 0.045795941082684234, 0.17968897627167427, 0.08050081892531091, 0.02386384313820697, 0.13475996585521116, -0.04590559924512933, -0.003509104421376008, -0.03245186828722775, -0.007251790367523568, -0.05073081446609913, -0.144315219226497, -0.16628820269329786, -0.046173562396499696, 0.0016979087642612464, 0.0061224517728503194, 0.00021410415263272344, 5.2100839812367705e-05, 0.0002957012804668407, 0.002821497217630038, -0.01228396252430993, -0.10460731697578153, -0.01598396132334179, -0.038518286768808765, -0.11952973056582496, -0.10153655154283936, 0.027113201577832778, 0.030227120964789564, 0.021597572539736133, 0.13985436347874244, 0.15425610584254248, 0.08328119722987538, 0.018233552298093845, 0.08828560767829163, 0.14619169602894996, 0.08213382432493606, 0.07924135069585658, -0.04605680531699154, -0.09786931396976241, -0.23165103132651066, -0.13747736471475316, 0.004970463522089289, 0.016622656988490813, 0.007135019528676841, 0.0001832282206349022, 0.0002942885028619377, -0.000424624843283094, 0.005819428730742147, -0.00885373087417758, -0.08943684464404061, -0.12111162272582181, -0.10769838213470047, -0.20278720223292615, -0.23065350176321286, 0.0017727952702447426, 0.0543321794955363, 0.025217422391660194, -0.05369461585246987, -0.11840904672874594, 0.2325937992243159, 0.07392614166852542, -0.10631908458739138, -0.12691463300712827, -0.14978370890088732, -0.2029355314997283, -0.10593456894309995, 0.005528108332086293, -0.2178958089747638, -0.17428891273990357, 0.028120154829589038, -0.032665630034313935, -0.0007327119566141359, -3.483889241499028e-05, -0.0012042330588784612, 6.538617945257587e-05, -0.009228668127268124, 0.002280669228808795, -0.11256911837007949, -0.06899735642797074, -0.12537080786034305, -0.14308922380290667, 0.007436206038677207, 0.08418248681105088, 0.1211566258761613, -0.015341145934514314, 0.1131779361168701, 0.04964555149948943, -0.005265088081831483, 0.07307799444702916, 0.03222455369855585, -0.09728419602473404, -0.26713034094977156, -0.20571205868286893, 0.002312346598905135, 0.049968792428311565, -0.13932248154238502, 0.031047466796521032, 0.06860263581804335, -0.041284105587307295, 0.00024783321820727076, 0.0008186635312804747, -0.0002553888814934069, -0.004171351965223803, -0.022252590010490046, -0.04825988407687096, -0.1705238682956302, -0.08624959284356762, -0.12440200083093268, -0.09815710827293081, 0.09413275627301335, 0.2318863278715589, 0.0988823021160331, 0.05765502840658309, 0.08586625321347775, 0.17781780756315532, 0.0775072804926275, 0.07442893471537644, 0.17646742667609921, -0.2066487046064174, -0.11633510338178601, -0.13581537654417639, -0.20132778246151944, -0.07876220653595016, 0.0015530804093100044, -0.030482470722788695, -0.0917581968656789, -0.020873004799242326, 0.00203548687757208, -0.0001033906175210881, -0.0003223701705397259, -0.007932507148981355, -0.013839077527691715, -0.08428128289325738, -0.17637707820232723, -0.0899350050951474, -0.19507854147014975, -0.22681921427111537, -0.044626030732944466, 0.11971849016664193, -0.11855987136927686, -0.15167329151530481, 0.1723031126417237, -0.05521888960420135, -0.11217556435136322, -0.010009291517035931, -0.16298115611367942, -0.25505975646555396, 0.1735168188518717, 0.08785314749829778, -0.22918564697937271, -0.061948744441449204, 0.11147863412709298, -0.001863792740520632, -0.1588607404663996, -0.019574155594237634, -0.025596597894668963, 0.000839763337934711, -0.0006164680626457354, 0.0027935453264173998, -0.00500001169356892, -0.04710342984393963, -0.030904991754469077, -0.0463461613175316, -0.060753064574363615, 0.005931678484931926, 0.0656456835234498, -0.0438833855895938, -0.037838654164660306, -0.13164693068209032, -0.13664250662381133, 0.016758053111494125, -0.21983352022829067, -0.20047484206342403, -0.14530537518948308, -0.008303969788888345, -0.01019973867170058, -0.07321011899938956, 0.009114130892062504, 0.190032533703035, 0.156178556095964, -0.05652160575062465, -0.22879498807058146, -0.04100627282101755, -0.006092467213489781, 5.600088986778232e-05, -0.00028654204276691857, -0.004009514511481949, 0.03923862413252416, -0.07865708460871633, -0.026216865536490407, 0.0483374587118393, 0.2716259186422589, 0.04216484715397335, 0.14257551106100366, 0.027084663896516706, -0.2291695054812381, -0.18020158642584547, -0.02924693903906691, 0.06491179293497541, -0.1601140345347683, -0.015141464689366751, -0.25187914287276697, 0.010471738923123067, 0.05047859951939834, 0.06636855867013365, 0.1356267398085815, 0.3170656014546942, 0.34581429207975917, 0.21684732021858907, -0.03861577596495779, -0.007983383672559434, 0.0003835495193363408, -0.0008963007775309365, 0.0006949922541095724, -0.0009595366093801519, 0.025894804294477308, -0.09990588812616397, -0.1349571994456895, 0.11852114282864301, 0.174649262102973, 0.03115679535258509, 0.12023120594058546, -0.04503233372452738, -0.06516273357336798, 0.02066262213082269, 0.06007395038986802, -0.22157740530763081, -0.3642271772241638, -0.020454286096584073, 0.17891153218865882, -0.10721945308577092, 0.022546966825399313, 0.07667986085212379, 0.14211335160964678, 0.2975198746246426, 0.35020040034434813, 0.2882859290879875, 0.0132821520329193, -0.002011512629218657, 0.000904634669494632, -0.0005078763326524595, 0.001079233667239484, 7.485257528813548e-05, 0.009032072695118897, -0.0835515827471084, -0.10477971615694885, 0.15495917121065736, -0.017123541130983737, -0.043644357787875926, 0.13492770401208176, 0.04455309517690753, 0.12285332791986979, 0.23533106359541256, 0.16919273114468214, -0.2870399555032704, -0.13109460541101534, -0.06282924795006745, -0.17443362708087073, -0.15705304892309999, -0.13490926020477037, -0.03325962806969408, 0.08104241072842731, 0.17734623576611613, 0.26376372844610135, 0.28660547542253934, 0.06553319189362372, 0.025899930736756165, 0.019050228938673537, -6.347185892161748e-05, -0.0026194396289041977, -0.002389634268761784, -0.022282460184970036, -0.09890150107688296, 0.09074927966753733, 0.09460815024860879, 0.09235133450173104, 0.10757408137127629, 0.1718268032097739, 0.11247006842324575, 0.174143716645454, 0.10771665225191168, 0.03480675960056858, -0.17992259821621273, -0.054956497070130776, -0.14693558586789254, -0.14434671620064823, -0.14643371370637878, -0.20238393509014585, -0.06966526805199538, -0.004506316322384697, 0.03732306236331049, 0.18251726214994218, 0.23067913059046857, 0.16141861141794747, 0.027755749610877272, 0.0005989840186459684, 0.00024157015043180095, -0.00668419454775819, -0.005639071356441194, -0.015014776157131869, -0.1259895615107871, 0.014264863796847169, -0.026403512422808348, 0.10243054921930078, 0.25483601553099416, 0.2994077835619018, 0.2756884647834024, 0.20310065628033494, 0.13172941916716907, -0.040425466018075056, -0.06760378943441472, -0.13393729701634516, -0.020634666542678037, -0.14105077110324601, -0.11772764950598753, -0.13063682489499717, -0.21659874907171484, -0.013536332055541028, -0.03769050932027081, 0.0026863929826786985, 0.12985893492057848, 0.1759952269829327, 0.027955590679432103, 0.009178184222580458, 0.00032170034576564714, -0.003260291074873975, -0.021004833607829496, -0.03280351814685443, -0.0023757129641526807, 0.09988226416450524, 0.03763290503022601, 0.17346413698453222, 0.3526385824863824, 0.5062045841723322, 0.4291807363184679, 0.39779657508108257, -0.03413609950842351, -0.18272558383230186, -0.027626921909841895, 0.053816659221818726, -0.10492604131131825, -0.09662877854950386, -0.10792498125159303, -0.19709270590223424, -0.23060560033180874, 0.2614919474618546, 0.10016556036457804, 0.004266295638726034, 0.027963857760689586, 0.15564145989251482, 0.048791684813095065, 0.0026307116604195957, -8.241913226360893e-05, -0.001955397621012957, -0.02358076781073681, -0.05094803602784617, 0.07380557142072564, 0.16483221044676533, 0.07621559988659224, 0.05387735142773582, 0.31714350342179365, 0.5088060039244937, 0.621820881999044, 0.38889568356221094, -0.19251527100844928, -0.23585101976721604, 0.017888911050227375, 0.05879192556204515, -0.04186962351609169, -0.21173537723268943, -0.11482888156933656, -0.22140494148388262, 0.022157623421536852, 0.22835861602852442, 0.17275500901646326, 0.04822144069096519, 0.03649496089628429, 0.1223211581371904, 0.02537020893306433, 0.02044558054102331, -0.000882449480290789, -0.000542248361708391, -0.009362305524308412, -0.0493311768084033, 0.044789199470918396, 0.007332252944724586, -0.0632597088739031, 0.17319250525083696, 0.3421788151147163, 0.5880905890342778, 0.7022301947463526, 0.018708208442560065, -0.5822299944304049, -0.36738256806567327, 0.06976198762478006, -0.05882332631072488, -0.0973464309464934, -0.15564974853862126, -0.09508118972933265, -0.11168808883746822, -0.03415514429261117, 0.03654540472789909, 0.08058311504633978, 0.07798056859697608, 0.11728704981538701, 0.1015260914385008, 0.009786613941744942, 0.004565522981001879, 0.00014575393838816233, 0.002226218503584313, -0.007229869572666718, 0.008788009686369615, 0.031108297668194323, -0.09357270607173328, -0.018429676422328383, 0.1319932286794471, 0.4160780260690089, 0.8426140293596931, 0.6505317289338691, -0.225717866142525, -0.6020153108040144, -0.27030478985532985, -0.1736215592088248, 0.02315338527758165, -0.014417674076798533, -0.0845878698037385, -0.2084531905053968, -0.07576595555933247, -0.12034374315184171, 0.03855835383203544, 0.14290537761897365, 0.06692464442487153, -0.0028643466991088696, 0.057513200825364715, 0.019824993788579562, 0.0010463013031611623, 0.0004302879321964348, 0.005742915491079798, 0.017550678527376927, 0.02789828399345598, 0.026299022725823, 0.021329119929261342, 0.12151395009374436, 0.42941191378581894, 0.45324534052439724, 0.5098258496220147, 0.45583882883081195, -0.1865969841680192, -0.3785911626005109, -0.33973116903211664, -0.2531581144836332, -0.024708659573350025, -0.16952241053671488, -0.18319788940776294, -0.03510543393146282, -0.03611678870820334, 0.05170818382135126, 0.14639879565911518, 0.1018086132585856, -0.023524198046212356, -0.08045606605562325, -0.023843603827780037, 0.0100349519734445, 1.95527953446992e-05, -0.0002795290375317591, 0.00048278225258196285, 0.039034160545241024, 0.08646163771282199, 0.02486826396308246, 0.04415722911454092, 0.24262874195029593, 0.39924779745337313, 0.13541809515031555, 0.27155618896375344, 0.27159348303610115, -0.04837590968546048, -0.18975211660535446, -0.19169223785631437, -0.21957929829456374, -0.21175984025002806, -0.2218395253613125, -0.1467991167410486, -0.07499169270753778, -0.07037304930617744, 0.06848499797120432, 0.07562060743509028, 0.16975961984050256, 0.00346463737006292, -0.06487846099831429, 0.00022643351056229218, 0.02957088824824823, -0.00010382510175982462, 0.0001492124371351189, 0.0008560888896004926, 0.03182231653105189, 0.05552727650976953, 0.05139802029386599, 0.1338754695556037, 0.3434174382322038, 0.29092239329310415, 0.16569138071985615, 0.20510631762403558, 0.37587988856920745, 0.20388396683598026, 0.026273674160377944, -0.1878197038781048, -0.40963929804398075, -0.20806732408073203, -0.25316326877498, -0.02417274572388, -0.013398756844392503, 0.09608561838331862, 0.1221435634425389, 0.1455464564259831, 0.030855055629574756, -0.11937023638813157, -0.07614398669382962, 0.010873460987946485, 0.004012468233860517, 0.0007766926947251935, 0.00017423779293926546, 0.00022319549393725257, -0.00163277945735543, -0.02101613006867566, -0.07730108327500247, -0.055246013772693274, 0.055832128516886466, 0.03864923257108951, 0.08143502669448731, 0.16107434224170122, 0.10209236504601177, 0.04171173942167249, 0.1186301250996954, -0.052077826101241766, -0.09893759596815145, -0.10725104284396622, -0.18099691389836248, -0.20813032551943336, -0.14569986893494646, 0.021023222795802828, -0.012222473369601389, 0.01022611550481512, -0.05997243153360908, -0.10676898528658872, -0.11328420720916293, 0.002709797397761676, 0.0017468844017448418, -8.426020814931112e-06, 0.00010176265509476937, -7.318009295008546e-06, -9.682387449142456e-05, -0.013222873205031146, -0.07404463783880903, -0.10347725363910833, -0.11933791192107693, -0.03428311600396221, 0.046623848568828445, 0.032942665922994656, 0.12676289936575894, 0.12641373761295482, 0.08206692990223396, -0.06883516162633338, -0.1730941213616302, -0.18087816426835607, -0.22890795653190546, -0.37245427823085736, -0.2760332961997282, -0.16742622928289838, -0.15930330249928698, -0.10589426144365745, -0.09191959537139091, -0.09506850481385672, -0.033848437957679764, 0.004148094676999368, 0.002083763286384619, -1.2770874191536468e-05, -4.694158567329202e-06, 6.657712360212891e-05, -0.0003399704154394602, -0.0012578063181162482, -0.052266679415757585, -0.08167326268800902, -0.056868371074641155, -0.04681011604676162, -0.03362357884760359, -0.025238684766397238, -0.014005485387894867, -0.07000761688877558, -0.11298126908760064, -0.15334101515864237, -0.17436355412064908, -0.1827153459778738, -0.18365017593776858, -0.20981336321365993, -0.2262644545061303, -0.1950040874895189, -0.13568552861425168, -0.07376773778601714, -0.0552372213330954, -0.04383907556866851, -0.01623193834485411, 0.0019656001193070326, 0.000926999029723939, -0.00034931773695065, -0.0006307167542522151, 0.00012036488486172877, -5.8001971078199436e-05, 0.0001799544681488363, -0.001558875026482223, -0.0379636951211265, -0.07131294555310402, -0.07549063941584912, -0.06210403406560517, -0.013457753052367686, -0.013497483829832997, -0.051232616882465526, -0.07851991475197365, -0.0739922445388109, -0.06533873108483017, -0.08466974598409768, -0.10043939006305376, -0.07625412393720019, -0.025684458407189758, 0.007834535956759543, -0.029022372729097985, -0.024393589012801805, -0.013688832175048692, -0.0014188075128756105, 8.733294521285565e-05, -0.0005186098247234585, -0.00015794765596232287, -0.000449362893628332, -0.0001092477887589207, 0.0004784384692341897, -0.0008316742936307438, -1.5235648923529777e-05, -0.0002374494415307504, 0.000213550936058257, -0.0024052507373069788, -0.01627607080424629, -0.014377731289798594, -0.002796512654517737, -0.004383259816921301, -0.002534679200747979, -0.01038858607857406, -0.007927818515490384, -0.004304671202611962, -0.0003454419340230794, 0.000666345091744957, -0.0016825335099178438, -0.007026494108070826, -0.0017314114827391151, -0.0022923627797392316, 0.004364399923970214, -0.0038730863855348987, -0.002454419118759459, -0.000701106655438279, -0.00043005531014880664, 9.653369239788826e-05, -0.0009246279412646463], [0.0003369346103805374, 0.0002564229323131265, -8.180157488765475e-05, 0.00026502449091131544, -0.00042205691516814827, -0.0006218516062608968, 2.3817512749732216e-05, -0.00083537202780197, 2.2540139969327643e-05, 0.00043310214233679213, 0.0002912842386727234, -0.00027676855649131705, -0.0002627683235728967, 0.0005109938614021229, -0.0006426717137548113, -0.00038251195019051615, 0.0004328138779789887, 0.000240846201457703, -0.00025523734270062337, -0.0008170961345396518, -0.0002281053588381733, -0.00039684066255341483, -9.443738968111144e-05, -0.00010013897552780648, -0.00031101726619884456, -0.0005119515869857651, -9.790094789672549e-05, 1.0863126887360954e-05, -0.00046658379544976445, 0.0002116429268723822, -0.00036643690854773085, -0.00011143806585409328, -0.00023261380575105838, -0.0004193103475359763, -9.527046868207202e-05, -0.0004434023523520349, 0.0001489606208443686, 0.001444435237422548, 0.005326777892441743, 0.0019034687258146412, 0.005853471382151457, 0.004096601871240122, 0.01066011734711824, 0.022270054436540117, 0.00026299754333485075, 4.273984641971635e-05, 0.0005792067318139657, 0.0034236695256510572, 0.0038543820754305437, 0.0016233387866231308, 0.00034101858747025686, -8.510503728733413e-06, -0.0005718995123865603, -8.475086480380653e-05, 0.00018965348303553065, 0.0005439469289920231, -0.00013709475091212736, -0.00035255660171419005, -0.000332239665205877, -0.00017039369374353988, -2.0133533445257742e-05, 1.4903701391329056e-05, -0.0005499193618008752, 0.0023594705894008656, -0.00014564434052237614, -0.005537657333358527, -0.0016059905849448335, 0.008752114951250452, 0.0036615906257740616, 0.08479197168635974, 0.05151718460645089, 0.09427908231358974, 0.08353844856034325, 0.05294703807987835, 0.05710918108938803, 0.055890943183065096, 0.036787945846403984, 0.035463961560640016, 0.030349003366614585, 0.013485420650073406, 0.0026404066852168057, -0.00022569798677908855, -0.0006861394810943613, -5.390332819315809e-06, -0.00014422750480706683, -0.000443451600040321, 0.00042746282799066093, 0.00012487646147305674, 0.0032445875301604326, 0.00922347833521267, 0.015981895046925026, 0.018579392017030086, 0.012141558101622863, -0.029094021533909286, 0.008512528176138078, 0.021234913589574866, 0.06994246810301465, 0.1754873647509658, 0.15866049066800128, 0.13475041330091464, 0.1567223175159311, 0.13726457072517453, 0.16253089634875367, 0.12628790309738375, 0.11019025832628648, 0.06393288610180531, 0.04167276575672509, 0.02546122372055985, 0.009341581267315135, -0.005459201416426418, 0.002585404664102269, 0.00033809649294429066, 0.00025206644904943496, 0.0009527378517298093, -7.793131231313362e-05, 0.0010316039102447232, 0.008890819986954549, 0.02112995130462019, -0.026680654769747764, -0.0368278061852867, 0.017822337056734614, 0.041855054363125574, 0.1575548708266413, 0.14430451838318556, 0.1940389453897444, 0.1948872027499265, 0.1511261605776563, 0.20125862542288925, 0.22232577206250834, 0.08608114299741008, 0.1260899061519811, 0.19296203216247246, 0.1228446543413841, 0.003995448798301055, -0.04809854211698056, -0.0087687409859936, -0.014727369577846958, -0.0039284878073106025, -0.0006086487388648247, 0.001982731947975398, 0.001037290340882715, -0.0007841371046413109, -6.245681018944548e-07, 0.0061169042240526664, 0.008304622873038335, 0.060804045845725234, 0.002410490375843947, 0.04192212574998821, -0.06765865554282936, -0.036997447363287694, 0.015251715643570895, 0.05348173421629225, 0.1041648470048786, -0.10576250092276726, -0.08893791973135907, -0.06573184917430645, 0.022899519898128856, 0.13055034425137887, 0.15673101007256474, 0.3680290976791658, 0.2723726038152328, 0.08700245944549531, 0.03292980739924744, 0.04568374141003175, 0.023975130437650847, 0.0091272942357667, 0.02114545811370812, 0.0027991831087312877, 7.008542557826567e-05, 0.0010779718254869896, -0.008047286782499304, 0.01138601234568949, -0.002355916550702487, 0.0010157137901480931, 0.00890828697517923, -0.0531010501248376, -0.048560515292102806, -0.06307577912513677, -0.03372133112297077, 0.03893926215554656, -0.0046688766490144765, -0.0045540882894156785, -0.060670589327493765, -0.013879774193817569, -0.02913684562310608, 0.09262103107617281, 0.08917994476408717, 0.1399574211181484, 0.27499804214361756, -0.025125005959143354, 0.03330970701917742, 0.12708488648734578, 0.08055936463817684, 0.04556995072394751, 0.00812271767311551, 0.00487557940868371, -0.0003278879508808669, -0.0005433774893234299, -0.03604820548511917, -0.024713322694386905, -0.023975341866678372, -0.05263174061290027, -0.11594193487797462, -0.01943712481177865, 0.08785769168182797, 0.08532211451312045, 0.08282439809870219, 0.033633739813036224, 0.07614804102102572, -0.03696877191034847, -0.021451641101480023, 0.07690206773450424, -0.04299080740256948, -0.08647896458689257, -0.009076160246043545, 0.05253862434628598, 0.024287436888647096, -0.020727982029729065, 0.13185344856398248, 0.16697312491821598, 0.08214463624571976, 0.04422947153583399, -7.102259910243968e-06, 0.0022929813692886183, 0.00017463910609515182, -0.002577292900312137, -0.023848437072850497, -0.004061764909855716, -0.003958695204310988, -0.04633426775154004, -0.12954392797843056, -0.021299796075740077, 0.06162728048766602, 0.07094302987607753, -0.029593066267155924, 0.10109795283497618, 0.2833798637889602, 0.11964594320215365, -0.020301115273067823, 0.047829119779568934, -0.0425983445799803, -0.017694722078944698, -0.031073044617759452, 0.07047395279890062, 0.017554108405344028, 0.06389404423252518, 0.21450096725600978, 0.08507827669557004, 0.11310677008352533, 0.07622300446340859, 0.027706548877046034, 0.004294666698839715, -0.00034067167661291074, -0.0027874441148967107, -0.012452803348649398, 0.02100510034354207, -0.0019592334349353307, -0.13423950920240102, -0.02785306125000618, 0.08659618261403819, 0.07907636561324853, -0.005705434037650547, -0.10626604170938145, 0.06931367443305485, 0.04592267019689781, 0.04389320375305409, 0.009561065621651935, 0.09380570024590139, 0.004501062724148549, -0.050041053075435736, -0.013448010815625768, -0.014421213460382934, 0.03378667144973314, 0.009352643628611993, 0.1586089674619035, 0.15455962081510116, 0.16655247764367406, 0.11025284484930337, 0.02323973217137668, -0.014037508195147229, 0.0003918211884514493, -0.0011638053914796397, -0.020544881528783344, 0.053778972430781814, 0.0220897984129701, -0.10721437061314634, -0.048327614523054035, -0.029117070203016286, 0.038568788066662175, -0.08187499147897725, 0.03327652700896957, 0.21259343399449707, 0.09293010072070833, 0.08564224189608657, 0.19628397336093711, 0.14284731636411843, 0.16357400556501037, 0.013786991819058429, 0.08526147451943558, 0.027259555777132096, 0.1538442402367519, 0.056935784754011336, 0.18568835695307878, 0.19480781455930343, 0.14513884029404578, 0.07799643816834845, 0.006792767028398669, -0.005531744623750993, 0.00040571834845111183, 0.0009058596767804858, -0.019744171278957726, 0.03293205065957154, 0.04439525191876995, -0.018637665165816362, -0.15370552435436502, -0.08635355362365627, -0.10451189272264064, -0.19568196604926175, -0.16096197934879722, -0.06542110165650905, -0.09097292754138496, 0.15316959677888214, 0.1802060714079413, 0.013595577153271253, -0.011852347550789549, 0.02006136232566881, 0.08605037716486395, -0.047204707545759686, 0.029048688287352936, -0.053251352154001924, -0.0176497015409477, -0.0031496376305185257, 0.05427886820886008, -0.005049804442007291, 0.0004988613955271099, -0.00038415585720528674, 0.0004136600585994775, 0.0007640468600525006, -0.011345365388594224, -0.012013211498985864, -0.03483142756497527, -0.03576140922819302, -0.09624856093311487, -0.07219209752318448, -0.18320513768664112, -0.053964021722298305, -0.0538689053712837, -0.03591795115843788, -0.04090422321001865, 0.20645124211944857, 0.3094458130269681, -0.06960275238868394, -0.16104320722397847, 0.033234923598997095, -0.06668806651240688, -0.29391966639116446, -0.22151736652949813, -0.2637290718437709, -0.18603177740107127, -0.10825141361462581, -0.10020228502704234, -0.07195417608609889, -0.017328482186021975, -0.006803369804957112, 0.000596681993587628, 0.0028543195691421, -0.003145157928241012, -0.01475886540154175, -0.07065679730209931, -0.11710895093084285, 0.019069498252197985, 0.03957459622937402, 0.052209664520830874, -0.010989278595870384, -0.17377571639544404, -0.08297690513812986, 0.15535317298728257, 0.3147845294711535, 0.3168551671968097, -0.10330140139134467, -0.13683893559113686, -0.10596151023632089, -0.21601476709876172, -0.33652785216260594, -0.4193229681376252, -0.36637354046542264, -0.23324576352008528, -0.08695748523897855, -0.10743669624164769, -0.021538670817447668, -0.010277153181576165, -0.000962564844943259, -3.290609973341566e-05, 0.00710203498849643, 0.0019253365393310403, -0.005441598305472949, -0.05628059254591652, -0.12691471465886062, 0.003210465708236602, 0.005730527090632871, 0.019831532692363343, -0.040223640145658934, -0.13506606279754996, -0.08758022648917226, 0.13763557915460892, 0.4113932725310879, 0.22553372674301664, -0.05428945190042256, -0.12002759969282867, -0.29428641635038866, -0.44371301770730426, -0.4838161221487404, -0.3657207926008501, -0.30770739898221183, -0.22010236769136735, -0.09665321798094477, -0.008668672884486856, 0.015257178996025253, -0.02023512541178632, -0.0003871734648195071, 8.892512344314554e-05, 0.012421422300994168, 0.016375335177983924, -0.028028175810373604, -0.053492312882820726, -0.09260174055362816, -0.024386656511061144, -0.0020974870639740724, -0.08380091751535611, -0.10624474357712907, -0.06920987336771173, 0.03899454804240332, 0.29349666082223774, 0.523542489729067, 0.1931955059787014, -0.2741946606237864, -0.07910994517031841, -0.4041036541149763, -0.30361487403903326, -0.28002856544623084, -0.27481140611278815, -0.23730606790069692, -0.0525479055817703, 0.08221993218052927, 0.04748659866129003, -0.010064473649185264, -0.050789262844958966, -0.0018744038540376992, -0.0004331882026044294, 0.006268682772889638, 0.03491101825235829, 0.0001745843166101599, -0.07761020838069158, -0.07921479605850008, -0.05231679495441189, -0.06602863970381109, -0.08492944656240436, 0.011573557389435057, -0.04193322185807928, 0.0627030715429487, 0.21423345092282503, 0.2835925926705024, -0.08231995153793854, -0.32441880410224233, -0.33663095360228545, -0.45805203236794406, -0.1822161132367526, -0.17834809724718456, -0.2912217569515594, -0.2054627728998136, 0.04778861350443261, 0.10484327356922665, 0.05655735865876417, -0.010850985525182048, -0.028664687324438727, -0.0013969523633601687, 0.0005443551007215014, 0.001691736191166594, 0.0364929351008928, 0.03656122734100848, -0.04901704339509201, -0.0987168853613581, -0.029174224156041192, 0.03649092671951837, -0.08057404118569085, -0.06264299276478548, -0.04568288190994091, 0.09487245474774045, 0.24773585014582214, 0.04610698304616671, -0.14069293316590478, -0.4062059597453979, -0.35912516384761595, -0.3792163577119765, -0.265983669098325, -0.12530996349588325, -0.2343908073940489, -0.02180095548666862, 0.08171962640159715, 0.022041552533728286, -0.03698589312649955, -0.04930083145176391, -0.04767173811569328, -0.0026711880796178116, -0.0003164682034674939, 3.642921317467986e-05, 0.023072653526477836, 0.02798545313360049, -0.110587448900441, -0.15887195864635253, -0.0955069116763099, -0.04018927266403046, -0.049984785095813764, 0.08068498363266847, 0.051500738157355536, 0.16413389211150725, 0.06381812067608199, -0.22362246555889215, -0.37443488520412516, -0.3023796109867892, -0.3215671744624183, -0.2647227424418229, -0.22422677306243632, -0.053561201586521286, 0.04181741908073073, 0.07308471725349601, 0.11078596038827425, 0.04740177785658715, -0.04844130739364402, -0.021874771524499702, -0.03586360217072986, -0.005015240368699103, -0.00035337869797545917, 0.0015407164388022982, 0.015782488894211914, 0.0057528880110315605, -0.08154448581139012, -0.06200967299884238, -0.0338493024595563, 0.02762930628157931, 0.07595842689990402, 0.1312866956902507, 0.05980247300312545, -0.03109995388831168, -0.18111762345522467, -0.29248650816071575, -0.259579987402855, -0.12509560265962247, -0.048508592071789224, -0.03281503715248111, 0.25155976346519004, 0.1997046046584196, 0.17644520567509714, 0.19899815309418895, 0.1644690184999345, 0.07699893057903086, 0.06814532798566812, 0.007572714406192224, -0.002029156077878175, 0.0006655043983502695, -0.0005980751078709614, 0.0008811233874445128, 0.012938470195846955, -0.00933998026569095, 0.04013178371693603, 0.04189965611987069, -0.03900938771916868, -0.0518823564373909, 0.017217643513520953, 0.1518266336254585, 0.1819235391831178, -0.010836322103316188, -0.08277120053609978, 0.0503822667741366, 0.1272449670061123, 0.005864827119789902, 0.11692419958004328, 0.3128226241611472, 0.36553655160553505, 0.37110573848430173, 0.3684293346099306, 0.31975386244237014, 0.23560175526425314, 0.07591714700941704, 0.005539138889949841, -0.011762004143723352, 0.001327891535945357, -0.0014650235424233792, -0.0003157770456721005, 0.0006457243869928429, 0.0016680747685915564, 0.014326320276736285, 0.029435951046113067, 0.020892943758042445, 0.05915164922049035, 0.0014281581464514258, -0.04849795200007676, 0.04828222803445312, 0.1673880024260909, 0.01793254627505544, -0.10898879838824276, 0.23088350989282544, 0.23846633175765547, 0.2210415882978776, 0.13565056810901138, 0.09196752274974065, 0.21585092428379477, 0.21679374571351412, 0.3002455366520813, 0.22517101619043534, 0.09424695131153929, -0.012796844306618382, -0.0017521417055238716, 0.0022226789323928197, -0.0009539453820029795, -6.69925669168832e-05, -0.00014518324239809222, -0.00015472304442763865, -0.004279811901666861, 0.01288958932125181, 0.013399912763784433, 0.04687272619084859, 0.018166037016877377, -0.034683855340041723, -0.041723306276011535, 0.03298503683211816, -0.015507216626023635, 0.08697608709706496, 0.039550641319021036, 0.2254693840391377, 0.15678835248342282, 0.25587015966891913, 0.0646215337152751, 0.07160800822963695, 0.16687989938094155, 0.13904196207517303, 0.1717038506353965, 0.11497951480292769, 0.07014392687419474, 0.015863430810210816, 0.0013618108939770326, -0.015940231831729657, 0.0005727539553053073, 0.00025109545496033737, -0.00023333223904985106, -0.00027277361093379674, 0.0077755944558283, 0.028000652116471167, 0.05742255560760432, 0.04873429229147399, -0.03176764925033634, -0.042384332175297565, 0.09465878762046484, 0.08698677433399923, 0.259928199628313, 0.17685777936164643, 0.01440142258056595, 0.2003114137067502, 0.12754734530896372, 0.24161095945218777, 0.08003123049638776, 0.12156996467648351, 0.2331843199246441, 0.07188816145286447, 0.018182000114676203, -0.058330747457644126, -0.050450006723460054, -0.008345544166632895, -0.01359554202185921, -0.013490403447064175, 0.00034791442840227644, 0.0006630101806345119, -9.749201159095454e-05, 0.0006641957996093227, 0.008247119376343318, 0.01962350190911607, 0.024209562406178817, -0.009534690092741653, 0.01084188097688673, 0.10909071590312255, 0.2133942179506062, 0.22239483017711845, 0.3409384492247932, 0.25779116229280685, 0.2065515854802292, 0.15022982060078832, 0.06822859423574913, 0.02532262501367506, -0.024273095959008117, 0.0035033375987248276, 0.013178079130321138, -0.0923641084059544, -0.0074814336739596875, -0.036639770278577635, -0.0628876642142451, -0.004986655097452702, -0.011391827660961503, -0.01554952813888193, -0.004603039920022415, -0.0008875567505022974, 0.0003470594347700841, -0.0004871781575464129, 0.000616834773505545, -0.007704444326776105, -0.045890436013337914, -0.03349641124188294, 0.007026307766758505, 0.10260215046295172, 0.24037401176309178, 0.23798840082661418, 0.21264824083798983, 0.15060811529004609, 0.17493213210979783, 0.18466658571772238, -0.02350880964984764, -0.07596519756322992, 0.03276604313531018, 0.01196311755912199, 0.01957939346854193, 0.13091288978727897, 0.0017051436106418395, -0.02085522264371753, -0.009884612299788374, 0.026146201242521535, 0.017300679172226278, -0.003842020498338466, -0.005523031447653309, -0.0009492895030660898, -0.0005757729590816793, 0.0003460541978871415, 0.0002552831149288883, 0.0007504691892018754, 0.006073582402949352, -0.0032501692159699327, -0.004769902956115432, -0.023589185520250997, -0.06341356425900199, -0.05368428433320643, 0.07365175384741766, 0.15124358032840649, 0.0619109998933792, 0.03294209092019999, 0.032543127128751966, 0.08131392055392721, 0.08418863927543598, 0.06401787728764603, 0.002049324917458107, 0.006174119931574043, 0.01896563542311984, -0.0021471196660113024, -0.012913350807814765, 0.00023040530279002004, -9.431912624140873e-05, -0.001057400879118176, -0.0006724176681986002, 0.0008864156935704693, 0.000530611548171444, 0.00045121940181336957, 0.0004886355699180788, 0.0004275679051706519, 0.0005798778940119165, -0.00027774580873237076, -0.00017392422036771545, -8.5370584412144e-05, -0.0003571700322098479, -0.0016759299318894522, -0.00010548632883047236, 0.0022956672113141592, 0.0011982250752133354, -0.0022022204668292935, 6.985184213070976e-05, 0.00969580584636013, 0.00496981485076699, -0.002274492163578247, -0.01480724304464092, -0.01743572583278737, -0.00841283797378325, -0.010714964959639925, -0.017622574967801008, -0.00292919331399377, -0.0003179474106481969, -0.0003775422353204485, 0.0006921494072598091, -0.0005207799954080836], [0.0004888465910892651, -0.0006676679807845147, 0.00039367026903847795, 0.0006624702508325173, -0.0006949295504958922, 0.0005928975654440678, -3.0275016218268282e-05, -0.0004478646451343843, 0.0002489989241953535, -0.0006585791774447659, 0.00036058364507224295, 0.00014553563927271508, -0.0006617846074323163, 0.0002242328250656541, -0.0002639244966160339, 2.5311892479209394e-05, -0.00017687464193816404, 0.0006440319355492661, 0.00010203421748555682, -0.0007073008924052954, 0.00036524370350721284, 8.969416556299311e-05, 0.0005035549201945597, 0.00010845341101567255, -2.0519877427102737e-05, 0.000496140188224438, 0.00035972334686097175, -0.00022055912524080484, -0.0006390716481519542, -0.00034094136830136536, 0.00036032855945934423, 0.0006561575432135609, 0.0008945336455346481, 0.00018144876886316998, -2.931707944423513e-06, -0.00032898157216820854, -0.0011763863200533779, -0.0011092134036313828, -0.0021847366404551486, -0.0037886362629694506, -0.004492503617262194, -0.0028660635329870675, -0.001305953122603077, 7.365133017099631e-05, -0.001975958806040824, -0.002726710706652597, -0.002950172168218067, -0.002819208606272759, -0.002744183358839687, -0.005541181908045259, -0.0039178755594498835, -0.002246381292297302, 0.00023954196560557213, -3.751425286925484e-05, 0.0006252380627027294, 0.00010411622212765833, 4.729509932842644e-05, -0.00013498406808980468, -0.0003105815854569299, -0.001110950501576274, 5.609461458071307e-05, 0.0008338546561945587, 0.003534981789336199, 0.005361315258256669, 0.008992569771784325, 0.01754260426341384, 0.01641353290321178, 0.01327954783936436, 0.04323336253780771, 0.06429395257416577, 0.06487907832161569, 0.06296442250029124, 0.021386066966912743, -0.007994828317788399, -0.013533816486504601, -0.0011839240043235212, 0.008444379319271913, -0.0008586450933877333, -0.009866604625083089, -0.004069021307898997, -0.0007844358443570103, 0.0013906269240790009, -5.553113593833126e-05, 0.0004847932072647305, -7.818628666231391e-05, 0.00046924835542711327, -0.0001569638959211237, -0.00012388535513129876, 0.00045779428073178474, -0.019387429699055474, -0.012366346728135596, -0.029871826584759106, -0.02864332983786941, 0.061125561002723, 0.05547425702202269, 0.07407560324913895, 0.08378025639619913, 0.051757349893599494, -0.020302814052494036, -0.014306117634927245, 0.03553224490898271, 0.04471942545319807, 0.025362679435387666, 0.08034740589469973, -0.002406314474253796, -0.014556073539370454, -0.028247584401121236, -0.01838416926116622, 0.003921056469470879, 0.0078018047971720504, 0.0011968558821960087, 2.3168283402903547e-05, 0.00033118427770511904, 0.0007414696117002851, -0.001534230287209644, -0.0019418973893960342, -0.0013009887937823832, -0.031209736421805894, -0.0027783356680147887, -0.03198256477925639, -0.034919033236757074, 0.02265503374543734, 0.0845728185858824, 0.10037232029142969, 0.1461711558322356, 0.08605960026309273, 0.049251703903529204, -0.04372472624500245, 0.010219575264531542, 0.18024412996190237, 0.0862455857641406, 0.08809090730883168, 0.06066941017283734, 0.016642039806285515, -0.05692132982358528, -0.02503820304995587, -0.011206762291276732, -0.0015056493564499249, -0.005458536763789164, -0.00050038040230421, -0.0007098100034705971, -0.0003575681288751412, -0.0001458686221374955, -0.000966329510328352, 0.016556821563547923, 0.017517069403110187, 0.04222448302578963, -0.02586855616704898, -0.008538232312937443, 0.048804843826677914, 0.0659134404093127, 0.07955419861693239, 0.10343973369906391, 0.02471101585708008, -0.035983805516991825, -0.05279532880575646, 0.0017467932262268883, 0.13772135575599662, 0.01806186606529492, -0.12206407492029034, -0.042888597584173974, -0.0022604972291056327, -0.0010971822799800118, 0.014426158046074989, 0.006149350551889937, 0.0024938195272847566, -0.009063787288245946, 0.00021432822500277502, -0.00047187918349521016, 0.00027769164136765516, -0.0011654637439840587, -0.005337115520548621, -0.00219370507787869, -0.036131050770414376, -0.04376480173305473, 0.05349162800438577, 0.0495751306428864, 0.11218604689635092, 0.06351330509191977, 0.0376132933725828, -0.036786940759426796, -0.13507342354360263, -0.015346772140969517, 0.0777214459197232, 0.12436371348544409, 0.16026402044094054, 0.12612924368834896, -0.02948685665604661, -0.014968188460454293, 0.0786671733492154, 0.01784336923168429, -0.11916058956181898, -0.03179633177491495, 0.00019797570352373905, 0.006402364712997877, -0.00016050119576781915, -0.0001562062878123934, 0.0015175563639940508, 0.014083664815227397, -0.006084667894885201, -0.052544455785409956, -0.005906836150345326, -0.030852243819625653, -0.012907490746817789, 0.04289338402468691, 0.09048411877765379, 0.03883115057838526, -0.03502578185494864, -0.22809020155262266, -0.07373783596424748, 0.014705854134105587, 0.05899934086057139, 0.12523941816495854, 0.017781618608245273, 0.046002829467489785, 0.07327390426733935, 0.07271874713885675, 0.112084363756488, 0.16333262609157218, -0.05610434608426305, 0.016975294308824804, 0.03959076387713293, 0.008474347119125576, -0.001997200844902635, -6.385000207487833e-05, 0.0003807627176693394, 0.0023183514208325318, -0.012645826646530776, -0.06740914315402315, -0.0244185540738024, -0.04148233970352728, 0.046689716602893505, 0.09493780273461237, 0.15506224341526573, 0.10277421340650675, -0.020557939422799074, -0.15819324958311037, -0.0760189503837806, 0.14345061247453836, 0.19809317854653988, 0.07646066769223811, 0.03607014896960788, -0.0037603789830469906, 0.12864658117743058, 0.011147533373391683, -0.02110423595550781, 0.005639676612002473, 0.0179019366984321, -0.007121416818178754, 0.020498596798843558, -0.022368579357850978, -0.004261230710699336, 0.0005903925668451645, 0.0017176020350506975, -0.006018914855454297, -0.031090021461472564, -0.07183718373798892, -0.07937855869868499, -0.04327580386410583, -0.11555550241042804, -0.03950660744628469, 0.028555497151272636, -0.1038825297941175, -0.12001004016416714, -0.14820873796449344, 0.017806872458167814, 0.19784790088430945, 0.0676973684931771, -0.05421484270746228, -0.028390866032534004, -0.04640319019492472, -0.03330878307206764, -0.08645838748794833, -0.04911128063564015, -0.05856562174962258, -0.10505566193267142, -0.01593549697000618, -0.015440896865047652, 0.006466372907651817, 0.04220622167608235, -6.987871619199357e-05, 0.0005339635955508937, 0.0010111850187618993, -0.0497389017558358, -0.08352923221140889, -0.049693837138750266, -0.08835386997663087, -0.14617618103162439, -0.10311737142590566, -0.03938181342074971, -0.10531091635893819, -0.1427894157454446, -0.12057282006591581, -0.08060902136108175, -0.07349475194029459, -0.03292268460439646, -0.041951661446439435, 0.029878491795174763, -0.07897060878182811, 0.08811135776328073, 0.10724093084204651, 0.12876898819826965, -0.06138290726593934, -0.14076933656046225, 0.0017253442331545536, 0.022297367431723378, 0.015111225162845666, 0.010139444401936417, -0.000430415704103769, -3.9841240668624915e-05, -0.00028914228665139494, -0.03383695622344592, -0.05871097453355634, -0.06398996106153418, -0.08915005011756849, -0.08714884803018369, -0.11681960736371343, -0.045925064383746945, -0.06188757627846756, -0.0896940495941038, -0.026997640768867955, -0.045100234756940374, -0.06053060708728722, -0.03530757814611509, 0.07146346500835557, -0.19882122602573438, -0.14994980506043099, -0.09102184539487494, 0.04979596655556237, 0.1204160287479383, -0.029262927556354432, -0.061467248578613014, -0.07017731342408057, -0.03777871834959193, -0.02861792559928632, 0.0010847669210290087, 0.0008158953449237466, 5.8946968953498305e-06, 0.0038302620644860234, -0.013925497245897273, -0.06868745739479622, -0.12871743209256922, -0.1405749605307987, -0.09749818457047679, -0.006459462744236862, -0.0627312820347895, -0.2278632810213175, -0.16536038454553678, -0.11554234387667116, -0.05751683241672994, -0.07827296716626404, -0.08449121007122486, -0.07106776025500675, -0.12348118667383914, -0.09004763558321728, -0.06611604985522625, -0.08696953097109549, -0.03799952513793198, -0.02305126487273328, 0.001924118839119106, -0.047977086445313344, 0.02095118167184812, 0.004272268922515569, 0.012523429104172496, 0.00039892025679672265, -7.285492711736876e-05, 0.002563402502833982, -0.006815174577642106, -0.05154728844666724, -0.10260737803468208, -0.19429472688965616, -0.10563168358810525, -0.07754873457604004, -0.1093301995314928, -0.09434930330896489, -0.06393741872576532, -0.075336162450698, -0.06345774133548501, -0.04112808630806393, -0.03609848162398664, 0.004924725162308554, -0.10119925516775621, 0.014118974625581817, -0.06228065306334305, -0.17354576597054552, -0.12390691932271418, 0.01829638977931846, 0.0629282582004871, 0.08763671263888045, 0.05158583696942587, 0.008116657304145465, -0.0004645342768648367, -0.00017611261423769895, -0.0016427544218156852, -0.0003436402207720569, -0.001027320214497497, -0.017572770779005088, -0.12857795147841292, -0.13971441650297842, 0.03396749147587916, -0.01514709404407039, -0.03716054708671388, -0.13842651233373618, 0.021513789365964646, 0.11056926250212122, 0.04743262214359747, 0.11064983335002564, 0.08639555502434157, 0.11822065284843258, -0.15523245678094236, -0.017562059316871756, -0.050060879706636884, -0.30861917399630107, -0.15002394000141858, 0.0480792644341859, 0.07709826114196432, 0.03598265312696608, 0.019664971274303774, 0.034815702892367774, -0.0008307024911689812, 0.000433630096271177, -0.0016054030598261395, -0.0008638559191303664, 0.009661483404750065, -0.030701445006775754, -0.17026582224677314, -0.10812561305306573, -0.008666499968979197, 0.01409774803430205, 0.04927506933149319, -0.0008580665870862503, 0.05580458736301416, 0.11834717073422907, 0.212283527379338, 0.2884894294514503, 0.3563468195867552, -0.05108273938870079, -0.21650724005944244, -0.2857946465187512, -0.29967758609555256, -0.23893431185149433, -0.0025568012242295794, -0.030390862900728403, -0.02740173527519036, 0.0035330162023622593, 0.03086187421094241, 0.039141437485747214, 0.0015189531596326166, -0.00024066858963051738, 0.00017845228628742506, -0.009111674422076022, -0.005799218705182363, -0.03379186692358562, -0.0434655581351315, -0.04387877722315502, -0.04974931362365901, 0.15526128500395153, 0.11541984763539889, 0.050155568985412964, -0.01697294253830785, 0.016140691115974617, 0.3092690928098763, 0.38022190384760596, 0.12301958377971184, -0.10916406059551652, -0.3301821621586148, -0.293319759031828, -0.2622747473984123, -0.06053433999897347, 0.12078520585306421, 0.053126490640960394, -0.05010374680570998, 0.008625146642282356, 0.03609296682427357, 0.01812948790659987, 0.0013917483383934044, 0.00010732136878547934, -0.00038656289277568093, -0.012519549341480607, -0.0027941098660046438, -0.03095583436810219, 0.0509773290398491, 0.07022685783383498, 0.07064717289265643, 0.13140226774671115, 0.08982404553876264, 0.11865591471997185, 0.14241397194673416, 0.18188981975465557, 0.35094946869149324, 0.22906177906985004, -0.040893304357107294, -0.32929559603967556, -0.42876677487085996, -0.17768448969454428, -0.06757772091494268, 0.16013759684323223, 0.18545851138780817, 0.12459815180420662, 0.05500539413865038, 0.08698201632631497, 0.10538713073132928, 0.032588463261820994, 0.0004955089962061645, -0.00013067487054742736, 0.00025058372577309556, -0.01321934957189645, 0.009616746053990198, 0.04283637578303241, 0.0052886577051125625, 0.006681784437330198, 0.1492597477847198, 0.1581356380911907, 0.12081909760072788, 0.17153562338005032, 0.1283869480143085, 0.3281112856267756, 0.5442514387185327, 0.07656392108257448, -0.4668545941980904, -0.4359109374559601, -0.13881244444656632, 0.007712489280658902, 0.049932316531769945, 0.1856920970726781, 0.2614511165256503, 0.14351895802791595, 0.08503695100382186, 0.09552437153952988, 0.06450840546177392, 0.01675214861472845, 0.0023575058679602074, 0.00035742659343558587, -0.0008724149014061993, -0.004022323535850328, 0.05166040642802619, 0.044119650037085116, -0.09780966705145878, -0.05867032905256804, -0.04953648700071512, 0.04605558043688317, 0.2494923477478032, 0.30476316295459704, 0.2970776670230368, 0.49934925142988634, 0.4651530358235697, -0.09604061593865737, -0.49621063578974794, -0.1290278129363802, -0.021297569713829713, 0.06650394810926431, 0.03597481835312881, 0.16863470855889534, 0.18204276375215384, 0.10697804532565941, 0.09670242768366842, 0.07192480153982762, 0.03606988687113421, 0.00309049353422796, 0.0006867917590299265, -1.2802915295764373e-05, -0.0028592681323261915, -0.002012800519204034, 0.050102232241491594, 0.04329761649790411, -0.1042691894448898, -0.05983516804539421, -0.08369825078217351, 0.06885637646385723, 0.20639769880037134, 0.2788370097094278, 0.1979569305302238, 0.4961066461435905, 0.3580493568693823, -0.30669998452699654, -0.47270960261870587, -0.13824616837699014, -0.07406141885569947, 0.009859843077233442, 0.07457082792233617, 0.08823324645726707, 0.09475647085514748, 0.11020205917801983, 0.11069267812551166, 0.1196102267719245, 0.03077937150508885, 0.0015635100710987518, -0.000883856101973228, -0.00040067828773021077, -0.0001897576332841003, 0.007542769118452258, 0.07296951791410848, 0.04105521542601013, -0.050463708165925256, -0.14572181773384402, -0.1176901410551732, -0.02144465911702584, 0.11029973377699295, 0.034014025523125116, 0.0644386268231809, 0.22547250899002935, 0.139710656847798, -0.3249627918235488, -0.5040826281603178, -0.28404362772328845, -0.15823935674651043, -0.04858800715667938, 0.1319946737602307, 0.07377181775722903, 0.07161095649025533, 0.09964969019116057, 0.16186155427344492, 0.13234925222194124, 0.0073357047712034286, 0.00019280649190086204, 0.00016582257054410313, -0.0005376989997186085, -0.00014350658649395524, 0.00567804002876978, 0.032315735666971865, 0.04621742372847039, 0.03646783049068825, 0.011639999272170989, 0.03176667989290087, 0.12099794714390734, 0.040808631469282326, 0.03910885949209583, 0.08151392037206698, 0.17367295804717015, 0.0007326221396871187, -0.32970286935635595, -0.35184738579861635, -0.26763238878186335, -0.257477391483812, -0.08074594019046248, 0.05347453895782593, 0.11218923430327306, 0.16210823516721012, 0.1431679277070915, 0.12111995463888867, 0.058485013014403064, -0.007022087276446453, -1.935359512216783e-05, -7.702093445336441e-05, -0.000322217426858944, 0.000521615741984303, -0.0033044886883885714, -0.06177908314711707, -0.09412656222333338, -0.024138730362520705, 0.10490884162384123, 0.1638407643078171, 0.020383075006866494, 0.08638146611937471, 0.09185863490173905, 0.0891687664864963, 0.15245117293339236, 0.11028459911050077, -0.0967504139074971, -0.222585369436268, -0.2894015223154194, -0.31198932413469643, -0.13129468195972868, -0.019524797388485872, 0.042892208674157946, 0.07343221020376449, 0.051869485265240614, 0.032979790250100775, 0.029700917079472238, -0.009706287299125175, -0.00038769819546400627, -0.0006871298738408187, 0.0004826719863429727, -0.0007979200428864984, -0.000364898369089521, -0.04983402729422911, -0.026523030253776253, 0.05954464423327091, 0.08865736232546362, 0.03418231212931933, 0.010297977422341701, 0.034201209477879184, 0.08064055753111748, 0.09791039393347428, 0.10211676973236661, 0.06578494917209764, -0.027922894259727733, -0.07850908460372581, -0.32780859806191526, -0.3198071807615689, -0.14430321547848077, -0.11211401697924668, -0.10467499255140887, -0.03269460191284495, 0.02561244478631803, 0.028756885051849593, 0.009079283096328033, 0.003138760740428475, 0.001686560848613368, 0.0005743810373114375, 0.0005587999596790844, 0.0002812115479908131, 2.1923770625057883e-05, 0.01091023652253486, 0.05350121772244864, 0.0825433034722772, 0.05850980267552032, 0.0809281889858333, 0.07744271246267265, 0.09041420632709904, 0.05284056283213148, 0.19173795623999154, 0.08239279292260449, -0.008429550665137741, -0.023051429716399584, -0.08789129319413516, -0.16076542579825034, -0.21956479818887337, -0.19054354589469125, -0.17720775185013596, -0.04888080091919037, 0.01585995779243225, 0.013447703539083642, -0.00065993371473478, -0.002832036909574107, 0.0017888029164511265, 0.0015769039447677358, -4.324714178281546e-05, -0.0001503484464700685, -0.00026479192704789055, 0.0006414715378576906, -0.00017705238397990253, -0.0018908719280287141, 0.016953137410140574, 0.03262214359386883, 0.04992333987243772, 0.05930102040090664, 0.04688169116111391, -0.023771403455982266, -0.035888710394940807, 0.007111868856783028, 0.0025591863761447323, 0.007573613321489851, -0.01740780862531831, -0.046577259659005575, -0.07110949861598756, -0.03027789869917723, -0.0032052189092377278, 0.010480577419307966, 0.01710195918904579, 0.012327966783074955, 0.0001603523204393967, -0.0007091012306667738, -5.0335238762619795e-05, -0.00038915392155598196, 9.407101285665216e-05, -0.001264569727934446, 0.00041401105262341, 7.097262260315142e-05, 0.0002660178138775094, 0.0003272200451988156, -5.303716831843713e-05, 0.00028193904237454104, 0.0017184413984563489, 0.0018108598837290643, 0.001535450957143019, 0.007728359855873114, 0.0029306977431566156, 0.0025974104536865368, 0.003681097194692569, 0.0010917937031676038, 0.0001369315801992625, 0.0002890795893708309, -0.0005826450206538564, -6.556724261133562e-05, 0.00050778378328345, 0.001697634051236294, 0.002764586015396211, 0.0032256127961233986, 0.0008360938932257738, 0.00025366031654073786, -0.00048623247853765196, 2.1098659578737548e-05, 0.0006506287486159436], [0.0004036689984465464, -0.0001247929044171894, 0.0008828589037493937, 0.00037532304569903147, -0.0004084662209517058, 0.00011260139019402688, 0.0004304191573838117, 1.4903955404820856e-05, -0.00011830611786320432, -0.00028712909373130414, 0.00025172043733269234, 0.0006027670314409862, -0.0021495557375902042, -0.0033320559242075304, -2.7158789022857294e-05, 0.0006736630004444109, 0.00029115616577645185, 0.0009227521933074849, 0.00035048513918132325, 0.0003120452211705834, -0.0006250525542292155, 0.0001603232286149766, 6.402253186396047e-05, -0.00025882003005532855, -4.6784248451395096e-05, -0.00022599952302534732, -4.8934681134194114e-05, 0.0008427246134877404, 2.5961799736772276e-05, -0.0002609833045460139, -0.0002463342421919194, 0.0007789727232784995, -0.0009214141003511984, 0.00046579143896057537, -0.0021426501783632637, -0.0038025004909297646, -0.0115672729889851, -0.005566594321744728, -0.00623799511229633, -0.0042663178805956055, -0.012998950402851952, -0.013783274265014507, -0.009335056026962402, -0.002325004437760045, 0.014349890210729308, -0.003798870066985975, -0.01983985496126999, -0.020546904233124785, -0.020348404340821025, -0.023756931763038076, -0.009856822998464672, -0.00029530858170836007, -0.00031372186869225706, 0.0005478857667367977, -0.00020236071373675148, 0.0002700042956639019, -0.00014060043443752765, 2.4517558195222753e-05, -0.00026893448756368823, -0.00038950274494662393, -0.00014443316354408435, 0.000631089619926536, -0.0015415002568350857, -0.007049658892406705, -0.009864217466289273, 0.024104356387020236, 0.017992039388292497, 0.0018629931746312466, 0.013364120961067453, 0.015212530869800208, -0.07349392664035227, -0.04815098205684545, 0.0021184986651732454, -0.032062391177172446, -0.04575075416932948, -0.08337586773464928, -0.059956673220357797, -0.06608419354898257, -0.06755201576593492, -0.025314699140098967, -0.008112863454094734, -0.002701256812124378, 0.00096441429882684, -0.0001860606424680245, -0.00039111791846082244, 0.0006080815260434046, 0.00045520989370247556, -0.0005234163585869612, -0.0009495012598566691, -0.003437952238065542, -0.011019268024372883, -0.0005320203214378655, 0.02649050013698217, 0.05477528762655368, 0.09589675548297896, 0.08865563796635906, 0.11976869582329605, 0.07098822699261977, -0.03585468198192732, -0.025224610370139632, 0.08024385347546328, 0.07874486523889843, 0.0773496267904882, -0.0010465407119561055, -0.09351151068052548, -0.06409518655551362, -0.09712978315099412, -0.06048731072690961, -0.017283788656015247, -0.011403623588163147, -0.01037245199171844, -5.897228758347662e-05, -0.00010545980483616239, -0.0009640078243362902, -0.0008234924603613505, -0.004813386759274416, -0.016466453215634762, -0.00457071106790545, 0.02099886395702103, 0.017004795972587573, 0.06965561159852045, 0.14015807665473165, 0.1706532825682408, 0.20714313278241064, 0.17241892419387875, 0.027201665839325796, -0.01690424217491795, -0.012725038171746191, -0.029055837575427748, -0.1123971081960931, 0.007645141546739732, 0.06662852767272748, -0.08532763117404588, -0.17304351043148958, -0.15889064152302787, -0.09747092529725397, -0.048271077214013386, -0.028427464500151683, -0.0034694952413237097, -0.003265326223672576, -0.00039720807638732346, -0.00030362618811864657, -0.0001794699642244148, -0.0018769062175974353, -0.0024761401423769773, 0.057837481629282456, 0.05130725782328913, 0.04831463165546638, 0.10401912441227523, 0.09470729617061846, 0.09652269199242157, 0.0020210203255594163, -0.011413799281910948, -0.00530343572651063, -0.11247380656049333, -0.09019929007391932, -0.010527977185356197, 0.0083156389890783, 0.0011681382976458173, 0.02041371353229614, 0.03575853126288101, -0.03316160700728449, -0.05653478182981911, -0.059638821634140055, -0.055159713563063414, -0.04319630260694059, -0.009335438291164067, -0.004191248042118038, 0.000891574909641176, 0.0006175944449974281, -0.00261006328101019, -0.005947906356729812, -0.012000129746195994, 0.024147259238843047, -0.0007813082840122063, 0.026232438219168087, -0.07389578860484247, -0.11917658666976848, -0.06274452738850018, -0.06992448215979054, -0.0023653689196867704, -0.12834882821976662, -0.20296742077231633, 0.011143358770207067, 0.08643077145329967, 0.10638803989004672, 0.1160546192439457, -0.00532613392988407, -0.04565574317597541, -0.02634435739515637, -0.03521032508723429, -0.02014450105732418, 0.0013245792662860251, 0.005842276602507414, 0.009058536552299762, -0.0015287470112584445, -0.0007448108359247937, 7.997439635700873e-05, -0.0016944908184901028, -0.005436385501681281, -0.007841591924136177, -0.0072584719404699925, 0.044805087413365516, 0.07917764361632147, -0.04904786106693793, -0.1272181011995982, -0.01573062102864783, 0.041598229568097875, 0.12690319780642126, -0.056891442645074466, -0.1604086550790416, -0.25846730938057594, -0.14224617339315865, -0.06181102690670041, -0.06600512828527096, -0.018541739024272825, 0.08882875889772439, 0.08637600068787377, -0.01428880738791287, -0.06716283818110298, -0.02033480715857213, 0.011231545488842337, 0.0026607104917578516, -0.0005145191223412536, -0.0004465130074798462, 0.0004799353978043712, -0.0026859960019854755, -0.015033273165034434, -0.02139455206617138, -0.04799466880160182, -0.03543456012985728, -0.03242700135400748, -0.17748291011276363, -0.11717457902273896, 0.017876752756706273, 0.1192761551404779, 0.10805072606084509, -0.06622101002247649, -0.19946876207251837, -0.19573874727729562, -0.2044134375275416, -0.06394576276207783, 0.04303039327512606, 0.16742626816492265, 0.13884478591760152, -0.03634787065052894, -0.03952428755946101, -0.002206239521647645, -0.042592439150926954, -0.0050369523423881585, 0.006436906921220873, 0.0007727764699902881, -2.99473434293227e-05, -0.00015628905504678212, -0.011234581121506606, 0.00945261134655899, -0.011083832644665087, -0.08586028712678584, -0.1137320941739302, -0.11082758259116109, -0.17540976192494595, -0.1848732362159707, -0.04669683761828606, 0.014859371387184295, 0.0030270520699951994, -0.12950734584346618, -0.20057186052402118, -0.34448771144862805, -0.3335288039591562, -0.04014778066721351, 0.09651386936330919, 0.12246028561640813, 0.002338794285335642, -0.0400635444131519, 0.07574181530019511, -0.1057962907569857, 0.018625544125415193, -0.0069699234820762845, 0.018775264801935705, 0.00307509751730386, -0.0012534539382972935, -0.00017135799053574492, -0.008174641642474818, -0.06073579176069155, -0.11505509334323409, -0.11960952050411376, -0.10218359949618974, -0.23219901308830448, -0.17774200184177516, -0.21830345776394236, -0.1279221254856165, -0.01073831898372709, -0.02741823984761406, -0.18856171926665838, -0.28212108510557765, -0.3012770243482637, -0.3450912773751377, -0.2590842517231804, 0.06526203706559408, 0.11870705341165735, -0.1100930996017089, -0.09943824412684311, -0.013268935896132799, -0.04069293983123795, 0.05416772869483212, 0.043555578883780095, 0.03399210805168259, 0.0006629395839497327, -0.00038864114580823, -0.00011250049300051328, -0.01166313525535952, -0.06725122487666042, -0.13600594047654693, -0.14677068003951496, -0.21628944371487818, -0.2527659803999504, -0.14803964841190545, -0.1431493006116625, -0.15055191063521647, -0.09333965301635266, -0.08961750251110015, -0.10969628719120844, -0.13014641544847075, -0.40626944302032764, -0.44138471986903793, -0.35229085641917834, 0.01824838961080229, 0.17058978393923369, -0.05586568643646509, -0.14659337411685167, 0.04955264642707403, 0.01939033314065338, -0.025136687050648344, 0.04517528782468672, 0.0072240748181261055, -0.00265807828223482, 8.349226353439936e-05, -0.000371469392676279, -0.008182051167804804, -0.04021167252518082, -0.11415234538725288, -0.20099125907701756, -0.2038936587417885, -0.19489770319434263, -0.04205497734646059, -0.08737157952617619, -0.03743171408865153, 0.04435485826278817, -0.08268785978243856, -0.010596780263231778, 0.1805983817762431, -0.11506426865126922, -0.3353685793121967, -0.38042027783439997, -0.2081766457773522, 0.07352886802019863, -0.003469505518141752, -0.12469355244228575, 0.09905391793280334, -0.14178743718516923, -0.07309481447982083, 0.08565754215402024, 0.007444546084293837, 0.00045817340941589954, 0.0001452639350792646, -0.0014625521419452505, -0.0004869280826165565, -0.029974998222056796, -0.05063500059579891, -0.1272643834660929, -0.15384221645362375, -0.11391585756041644, -0.06969059830849339, -0.1181203409505366, 0.005132716495872433, 0.2107658685368258, 0.2952082607978287, 0.3270881285532134, 0.24247794399325578, 0.003550864817603687, -0.23618306807250128, -0.2926765889021689, -0.19972606994121525, -0.09572600799079715, -0.011032045998305795, -0.048320597209044754, -0.02596237501004022, -0.06787972359388025, 0.041871662260502956, 0.06867951538250937, 0.023790856149219653, 0.016258151992103804, 0.0005766459477300701, -0.004057153845441455, -0.0032329932131546168, -0.0035072929991296106, 0.007504245708255135, -0.039052937650821434, 0.035554535194824044, 0.04324582743114388, -0.02819746945085513, 0.12707134873285886, 0.08290202454373181, 0.24223357123257838, 0.28513469903113625, 0.25804233559614925, 0.1984605791969092, 0.11756545932225271, -0.01954986409283443, -0.035183435901130426, -0.12928374869826198, -0.03349711368335025, 0.06050019423992055, -0.06553765854753993, -0.02994040880718739, 0.033898624844987034, 0.08846127697727985, 0.06951551619751611, 0.055694126419602266, 0.0008211338184637981, 0.0004340601380898172, -0.009610298678823848, -0.00826569791663506, 0.04711034920566634, 0.03340332108043031, 0.09840922192097551, 0.1381596288811436, -0.025433266193897866, 0.019537155842391615, 0.28635858215565485, 0.14001578360723577, -0.025272485596221347, 0.09205448266195433, 0.16357878515831137, 0.0864523039766091, 0.12749847356416763, 0.05242616114647986, 0.06127299802472707, -0.017620755034330433, 0.06464117627052426, 0.035242689150535564, -0.0573796614530463, -0.03219103113181261, 0.04184159768922587, 0.116453343343421, 0.06428318879398558, 0.06609703053793312, 0.0041923463593393825, 0.00032676240100132294, -0.0041229491967279975, -0.016836110697913156, 0.05690653542340673, 0.06755957792591842, 0.06745944605850862, 0.05588319026319436, 0.14348326442750467, 0.18461473254673813, 0.34433693539215615, 0.1252779264222432, 0.07248745352669499, 0.06231167790793176, 0.020333708479178765, 0.1347800505627579, 0.17989538750117534, 0.17363630557870308, 0.19415850657488584, 0.09828158539234694, 0.13452799911683516, 0.01241075905478525, 0.06771868742698836, 0.0005102818576799929, -0.005464208545713165, -0.004215653235016786, 0.03972107250686982, 0.06105321086836869, 0.0022788184511650608, 0.0004740388157386269, -0.001997798736410733, -0.007937358118106266, 0.036430332869174756, 0.10058222696635787, 0.17238470278901832, 0.22443926884249865, 0.038496354957628216, 0.2392137067967478, 0.19894124951990766, 0.1333151245206386, 0.05720441333476626, -0.06053915054124169, -0.07073362729709733, 0.2087762720941665, 0.2764126480458717, 0.21253585157431237, 0.15975168461179798, 0.21313536111169018, 0.0655759231221067, 0.004338117997953114, 0.06106065853873495, 0.07653626097076018, 0.022073737780399817, 0.028857481575923362, 0.09877734475759832, 0.03757264575857759, 0.005197603954911078, -0.00011074779075910413, 0.0002735267187520446, -0.003929870277979585, 0.012135778239200362, 0.09311269890232131, 0.22322368288351732, 0.10010252034848909, 0.057014936250616835, 0.19503051430254806, 0.0992272311845121, -0.050115608571792196, -0.20201794074614254, -0.25076710408841074, -0.09470652279556123, 0.12640505384346498, 0.09360952090173193, 0.21458992982657574, 0.19945853952710302, 0.16430831748389432, 0.17156806104220243, 0.0880260827395661, 0.030732057683152143, 0.13680754359079622, 0.12919330449194227, 0.1525289700851451, 0.11964093124969781, 0.014638272657253792, 0.008059047225503036, 0.0002613202218407393, -0.00423612740577261, -0.007526061666127577, -0.06427464409965036, 0.07230354850410799, 0.13748334339367663, 0.059061878368968666, 0.14617668250303031, 0.06765463055121049, -0.1291217730391863, -0.23824698331558866, -0.26738042739590273, -0.4039241807543582, -0.34753100415900884, -0.1134023735922353, 0.08069535714770093, 0.20393471035204566, 0.21915259094076442, 0.11232788848884806, 0.09461432438786543, 0.1041782114303087, 0.03373174310204437, 0.21831222589848884, 0.19171040407719847, 0.12968937508390388, 0.09931040623798307, 0.02144693265046732, 0.0011071071155306592, -0.000431234174680905, -0.01077758486676272, -0.013230190964399023, -0.03555414552547459, 0.004449028136552598, 0.01818791485869736, 0.11895369106849978, 0.23841745303521084, 0.062026841805477746, -0.14595066976976204, -0.2413841750542409, -0.2509675265578939, -0.46224792479847715, -0.459269216395959, -0.23914745064349305, -0.1608951633039516, 0.08844609451596269, 0.105720725312025, 0.07197109227018532, 0.062358242850828846, -0.0005731164690663647, 0.015889262345987854, 0.066354904014458, 0.09448860613803883, 0.07417502397221912, 0.038646881187028775, 0.005876048885889442, -0.0008189886908134955, -0.0003465893096774305, 0.0015684010179831235, -0.002981627992856427, -0.04121143221525512, -0.027807748569629177, -0.04198296088789454, 0.10155965551515142, 0.20805593075794748, 0.08061900561608482, -0.2073030859184758, -0.22317967419533113, -0.308528806692089, -0.3305775284921085, -0.23191457475192873, -0.24143730903225594, -0.19163994046477356, -0.07065322464314042, -0.0074494688291501495, -0.04043094678386118, -0.00817964483159589, -0.053601967926626505, 0.006849529406485479, -0.07095993906268926, 0.0007885575406825574, 0.04655644310097629, 0.019765182946861852, 0.00481997678732168, -0.0005263754815378542, -0.0005670989195957121, -6.177761309513112e-05, 0.0001661826117074464, -0.028457726606728, -0.01297157222042762, -0.0040679676532581095, -0.038091755667811575, 0.08988225497813636, -0.021611201656107484, -0.10115829236945237, -0.025774084100502335, -0.01168793884723828, -0.004004125687084303, -0.22722429416911163, -0.28816763380311816, -0.2610895404472105, -0.11646804771037651, -0.18513677978055196, -0.17666941523959856, -0.0798832480014473, -0.031855702969004515, -0.01645566959899246, -0.06547593772006724, -0.023510904374583412, 0.0211888833239548, -0.003438301946471762, 0.0008680206768710461, -0.0004640965366414619, -0.0006705088482811501, 0.0007269234951552199, -0.0008398582587324347, 0.0009370402915706905, 0.03327847933267646, 0.027805317203663842, 0.012896358176038496, -0.002184219667933547, -0.20177618928182986, -0.2317430576274351, -0.12124078921230315, -0.08084300288241597, -0.08423515234348918, -0.1916693745614343, -0.15810988754746882, -0.2540633919620187, -0.22135294527335891, -0.24812741890837745, -0.14873673808365426, -0.1059503943657175, -0.08923938577932482, -0.026749648319698466, -0.014663035504542725, 0.01165940129322847, 0.022726086745479605, 0.004880067577507767, -8.339138203800681e-05, 0.00031133457694002665, 4.229945121865052e-05, 0.0005845735092958409, -0.0007332440165830886, -0.003909101363843269, -0.003692525164641486, -0.020318349749305995, -0.06592558914697841, 0.006348980940568619, 0.05264010450454573, 0.0005454371347772114, -0.060875481928960466, -0.06411678204436791, -0.06633387438369895, -0.06235957403362621, -0.06766701057123235, -0.13269041910455756, -0.18674403676007606, -0.12667084830275843, -0.052729591342110846, 0.0072263420528504724, 0.0028874431272256024, 0.016591982968642907, 0.0020261957613715285, -0.008129901798370791, 0.019767605641207532, 0.017633088035258076, 0.008316700851532272, 0.0012204237092569585, 0.00023166335578929804, -0.0001453493880098798, -0.00036592811816835906, -0.0014168363805221909, -0.009085039861100201, -0.014963107020116448, -0.017542503405830884, -0.020107952066222578, -0.021054477083988887, -0.01000431648046271, -0.012478687073954638, -0.009541606432642714, -0.008982150635313362, -0.037236827145797444, -0.03256655394819071, -0.04454481744363455, -0.07513798852615126, -0.048491850929465466, -0.06403036864818082, -0.061300525097421815, -0.016944396562758313, 0.00606552658120746, 0.009192680663431702, 0.003532864080599358, 0.004306966513373233, 0.007534656548699355, 0.008771611053498126, -0.00013186990808894723, 5.410862955952444e-05, -0.0003411457518575346, 0.0002593936837917322, -0.0005473054226974095, -0.00027452220618618696, -0.011831865802811065, -0.010715564517217478, -0.004156932093718784, -0.012870374820968708, -0.009752081934132016, -0.0030210519337252354, -0.002341639253269354, -0.00178609038395045, -0.011155769222517152, -0.009799709748261824, 0.0009336245655891676, -0.009085065782448557, -0.03666470134691499, -0.025080556991140573, 0.0018283479221524567, -0.00402628451597935, -0.006590347280597657, 0.0009830212526967044, 2.105090817311976e-05, 0.00027542764878594453, -4.403793021158587e-05, -0.0006691587978008732, -0.0001021614094543494, -0.00038386437314223926, -7.096541167952436e-05, -0.0008439837722419755, -0.000840519866823992, 0.00028914664830232247, -0.0009875641399515556, -0.0016176924431437383, -0.00760039924027907, -0.0068523123893940545, -0.0012912301626497266, -0.004499806801667445, -0.0027357180503634663, -0.000849197647279962, -0.001259780853041897, -0.0022865301893848344, -0.0018957369149942417, 0.0003380014635125127, -0.0004776136692875236, -0.005054822854296842, -0.0033190095585506475, -0.0013461496482986106, -0.002519211474623491, -0.003108024134085537, 0.00038281229997216766, 0.0001328999474631502, 0.00027415045841640783, -0.00032210748854280807, -0.00014143614867085852], [0.00032035072202213854, -0.0002880310010600486, 3.781968030225873e-06, 0.0007586645287746362, -0.00011773581883324704, 0.0006159581132809428, 5.5095272337098063e-05, -0.0006487251323817029, -0.000609451776441946, 1.8337038479573593e-05, 9.340813874739792e-06, -0.0002579638064622148, 0.0006312019714393378, 0.0030639387080674645, 0.0012525408721172446, 0.0006575982511685926, 0.00041349409074813707, -0.00020902048133095602, 0.000318906562638575, 0.00029919030579759483, 0.00023051528029380454, 0.0005898159482315609, -0.00015520449086366036, 0.0006885085686626781, -2.959066989386624e-05, 0.0002539204351757828, -0.0007191240184574, -0.0005190309421756825, -0.0005721030917456882, 0.0009235231509205518, -0.0004025641334515156, -0.00026815703655527344, 0.0011911591448352543, 0.0001741655656506827, 0.0033917730959168637, 0.007783314767666833, 0.007637312646592108, 0.0024456438553711805, 0.004006332650711043, 0.0023875791901756195, 0.004348412741715577, 0.009101255731677744, 0.009972145544285823, 0.012959519162503557, 0.023471792770675265, 0.0069711174165147305, 0.0049694778035435155, 0.012477801541099384, 0.009172472701834352, 0.0067373823600235935, 0.004958565077364874, 0.004295400109696525, -0.0009712070575151845, -0.0002940999444130498, -0.0003434767443865318, 0.0004961339686850834, -0.00021785184819285783, -0.0003207422223991429, -0.0011090474499381086, 0.00025135867309448355, 0.000520607618767222, 3.500531919945952e-05, 0.010460544583583543, 0.02670100439637296, 0.040152390282372497, 0.0703934682531618, 0.09964075801018701, 0.09544934116911799, 0.07337111197470782, 0.07511513413138704, 0.10536977212968927, 0.07725612035199074, 0.1039056130578829, 0.11382922202106067, 0.06505739177648015, 0.030940789417723474, 0.017977273268641805, 0.03393976897719604, 0.026582913482927215, 0.030335526652785973, 0.01341509212088973, 0.001834792022608781, 0.0005130746454044586, -0.0007321848271063957, -0.00023334738239782238, 0.0005757421228368785, 0.00010158551026299318, 0.0002523849088117642, 0.0019833389400190538, -0.00012221093370672303, 0.052735427991784774, 0.016276312331759028, 0.027557472882973815, 0.1334325171386063, 0.13275831854491113, 0.19925041820779546, 0.17424965388642713, 0.11812696840248676, 0.007922571120742811, 0.0002486256596169581, 0.04527842339016064, 0.07163333952620725, 0.11990454893587983, 0.12725190340967082, 0.09551062368056022, 0.1757765485060918, 0.11731277726434519, 0.0735103686911672, 0.0486671682582114, 0.004097960567103919, 0.013896503944608682, 0.00016535127791112548, 0.00023699915330495114, 0.00017432398440378108, 0.00013702091333822692, -0.003937939928148445, -0.000547334185318948, -0.013755646402526675, 0.02724671571979796, 0.03922456603857895, 0.07532507783034491, 0.15322575594918675, 0.2377002560296561, 0.1816376012390419, 0.1544163095820136, -0.019458121580958755, -0.020767028781457544, -0.03926091365016292, 0.07348682605804581, 0.17078512190909528, 0.06535741730446507, 0.15344648511249562, 0.03274949473347758, -0.024075892526191363, -0.047431514654404365, 0.017357930626645018, -0.009915063140176025, 0.012718687483786795, 0.008157400761058876, 0.012668610320736243, 0.000429991666914458, 0.000271308117353999, 0.00035887202181427786, -0.0029499167168486906, 0.03880570942671126, -0.025617323887446843, 0.01844395710945287, 0.005748692183206923, 0.05634150469099171, 0.017285513489548338, 0.21781907683982604, 0.027089603043909234, 0.11340176427662435, -0.02300439342925724, -0.003604054292951714, 0.004964970469917127, 0.07983663711086265, 0.06655117002563267, -0.0026169836564949676, -0.039861934613877784, 0.05432865366709662, -0.06992779024366534, -0.12658621404356757, -0.03207324402882209, 0.010605639387474068, 0.020882374827954877, 0.04017091623345451, 0.01937879879758846, -0.0002666204450053038, -0.00038308976608087975, -0.0062054897257777545, -0.016423757459739334, 0.020077661614345862, -0.039765622068517185, 0.004637371021828496, -0.09624961603581522, -0.14626596547850962, -0.025128327204583478, 0.09205081914772938, 0.1428565863275104, -0.011639571988375005, -0.21069220938848907, -0.07606236258632526, -0.06800412714704933, -0.2502946167774818, -0.23250226910448138, -0.16789847097417315, -0.2703288728367139, -0.3404254660078232, -0.18675044437295904, -0.1993851947919096, -0.17687890664901837, -0.0395185123739309, 0.043517768349011735, 0.004679455916248249, 0.009133639263239629, 2.87233219428123e-05, -0.0010281944155849394, -0.0013482826721065893, -0.062297325782756305, -0.015329554006218863, -0.16796859609466053, -0.13867768269091782, -0.12499796495422198, -0.060861727725554295, 0.04320927870058477, 0.05832402032980978, 0.07783554079468963, -0.1754840677314423, -0.19602611783653298, -0.11882023360313723, -0.1814470999252289, -0.3108310628430949, -0.2721760443605656, -0.2521558110892893, -0.3779937645496511, -0.38589842556676507, -0.28764974722421993, -0.28756604857133067, -0.3672672157215182, -0.07594371677728065, 0.024599666156631575, -0.03279311608003216, 0.005594162109388114, -0.00039456662551830914, 4.080803444298857e-05, -0.0009016740754203534, -0.03319339537520139, -0.07609436047915498, -0.14517008908180154, -0.07987778053071144, -0.07577169136539269, 0.0970959450287863, 0.23447148655650835, 0.19956937135425865, 0.05946451880467731, -0.1404217759015511, -0.06936874637311499, -0.08518407754166267, -0.2341941122710505, -0.0760255149580384, -0.16528005736737045, -0.4438736541095331, -0.26969475505155494, -0.23352371287066723, -0.27670040922075323, -0.3075834802372445, -0.32219467948210156, -0.20454605810010712, -0.07756998090449588, -0.019457138433281732, 1.0561901119106851e-05, -0.0007855417112990359, -0.00010762974352525658, -0.00431754738030248, 0.001171273659957678, -0.015309229640722302, -0.08648242945333594, -0.07309580009641678, -0.04312768511527116, 0.03202523112006913, 0.08910805747807592, -0.08807165200235857, -0.18099908535837914, -0.03985825204163009, -0.18170613365414984, -6.81702627182082e-05, -0.09650481860409517, -0.11414348130742055, -0.07475592600550647, -0.2503093095178578, -0.25325423455739376, -0.17372667321975793, -0.3029013410542682, -0.20680672054155383, -0.2759877810993557, -0.11304756824951903, -0.10459178310199603, -0.025694697871026836, -0.012565892198439966, -0.00042343403125552745, 0.0002468294178154036, -0.026224906235249746, -0.07079884321841304, -0.01927107270304942, 0.03608182448603882, 0.00995411633156189, -0.12124092657953249, -0.0679574577741958, -0.18173310470390444, -0.32464484114537273, -0.17299380843040132, -0.13953903465086898, -0.38618080317409637, -0.2269890345069029, -0.2605671933884593, -0.13794174593528322, -0.19423373249913062, -0.15522877594923795, -0.19267442748210778, -0.08361826747189871, -0.1576972418729754, -0.29104743314425296, -0.17892304318591132, -0.04376102408790821, -0.12287987792660031, -0.021464695475027624, -0.008020355205594182, -0.0002663908305958549, -0.00015067433844792014, -0.04741157603800832, -0.06498084381735658, -0.06503626157592496, -0.04627297949376991, -0.14257409143754854, -0.1980975315585163, -0.22851946818740862, -0.1906579255168542, -0.35456832898218765, -0.18732142584493225, -0.21655596800569488, -0.20114715785000345, -0.29813228175846784, -0.25873042712648736, -0.12098680487122117, -0.3201687120250084, -0.07228315024061893, -0.03894797846256361, 0.03766870350848892, 0.024695256682368716, -0.09133317496116096, -0.096854181390402, 0.028044637578169586, 0.035015012122993794, -0.040267645860897, -0.00473093272325575, 0.00014829588903488808, -0.0016142915840316888, -0.03468948257883531, -0.03677608258101992, -0.09848784722204143, -0.17505307653014093, -0.2916533392949299, -0.19644002734660898, -0.12535933113774242, -0.13423228844279034, -0.33737340025396056, -0.0665657382853928, -0.06205367277984475, -0.16634454241885752, 0.09532223041312674, -0.10542093192119205, -0.01987599274658276, -0.15382059289987018, -0.07233797482248158, -0.1456503023182014, -0.19093641893033828, 0.017665903518994445, 0.12020473620477991, -0.03966755850714975, 0.10041101681025011, 0.10273793318068633, -0.0204506584618982, -0.0017554343148503521, 4.9416121242522995e-05, -0.0018537244018265236, -0.0011523597593181484, -0.026909823092930753, -0.09724089610300266, -0.15550134772648355, -0.16395058023351636, -0.02522339810774929, -0.13030781450505088, -0.13326831135765085, -0.010644885863624288, 0.11904409531529074, 0.175308731833428, 0.29510286033843586, 0.07884497634854878, -0.09068536612183115, -0.0013616040081948933, -0.24476631928136555, 0.008020005575404271, -0.17245709596152192, -0.22815657259468108, 0.07781613398396853, 0.12225010709927968, 0.20626199578764365, 0.1560025633532221, 0.05155717167422786, 0.033923114423391305, 0.0237721410950454, -0.0005532732748588433, -0.00261797098855798, -0.0029309494727921908, 0.007799747331026172, -0.09879870522950653, -0.12684220179824213, 0.060326091139588985, 0.08937933400820472, 0.04382360720909623, 0.11489874042007986, 0.18616047885345896, 0.20735903995830643, 0.2719110023498709, 0.25041609608640275, 0.2499855756648336, 0.08051121469527851, -0.0497390312101322, -0.2617225182605169, 0.17533844560299802, -0.11169205675861459, -0.10168797046913096, 0.1239524443321896, 0.19269106401408456, 0.2170197514511685, 0.04756236845367029, 0.061226565056819685, 0.057004788746689745, 0.0006001699624009893, -0.0005967531642990466, -0.002429834697098875, -0.001766313468830353, 0.022839931875742167, -0.10918425349592614, -0.1059371536172497, 0.08215035867119952, 0.029425510738355736, 0.16516617494245578, 0.11228015763368755, 0.13245976749228672, 0.21966377745976007, 0.1573470443626706, 0.3107593260499474, 0.29697817594243237, 0.024885943325467542, -0.08903664849032428, -0.06817242942050007, -0.003114674590994506, 0.04182456739012627, 0.07182144934739362, 0.1497567172611496, 0.1200833350330643, 0.0110711214344766, 0.04346053506057094, 0.11794915101501906, 0.058704155465376134, 0.005967631831590479, 0.0002817938755042043, -0.0011041931196139737, -0.0027632315373492863, 0.041933026002953795, 0.01690149815369151, -0.016920226146906737, 0.13227020287041452, 0.2075435086436222, 0.003006701028894182, 0.031959901026942864, 0.03766753046700271, 0.2167901071182943, 0.18267417501167196, 0.2572210215036705, 0.3359799161448705, 0.044276628397580654, 0.003097321062607217, 0.21266930129192116, 0.1550791716683367, 0.09182408288146952, -0.02593267727051875, 0.14253792488952804, 0.1318959167114475, 0.06460468529071949, 0.08847588112603166, 0.1862197350545389, 0.08759460512035348, -0.0012385000542466903, -0.00022145000547442716, -0.001126957120598867, 0.003205835531155664, 0.03608172449243955, 0.03461707767010225, 0.0060446128022064805, 0.15462596023086386, 0.13786183843005154, 0.1677699247926598, 0.02064707364537319, 0.0866411477172846, 0.14252631863999857, 0.05254647386476532, 0.028158316614405876, -0.01574967141080001, -0.10157383272092432, 0.028188912103653468, 0.18033426637947722, 0.23591540821511095, -0.03676888518585865, 0.09015074461565055, 0.10548444842902537, 0.029463328685806613, -0.02349484036386547, 0.07638945318293001, 0.15183714086348102, 0.031734352139195086, -0.018471300443624255, 0.00033261882344483236, 1.5388417017561266e-05, -0.0049583823610623795, 0.005595247807091883, 0.023046319081426875, 0.026561456266775724, 0.018429875001081935, 0.2414074153303166, 0.15010969170947258, -0.03984138285670315, 0.09309236390322237, -0.08269192970420051, 0.04339032503305116, -0.04980740216500584, 0.14612746549692948, -0.012982533307229266, 0.11357613289447256, 0.3375539083149198, 0.28305881369912356, 0.1545081324644179, -0.050315715758007314, -0.02995964526935491, -0.02137792599195005, 0.15163138438370619, 0.14754902519528237, 0.14541328679569587, 0.008501719715589958, 0.007547881095947334, -0.00018269366497098279, -0.003657388209516289, -0.0058509608112581055, -0.04469656694603345, -0.01611486635650931, -0.03170215326323489, -0.01667392201815606, 0.1733529755105227, 0.1133904850053583, 0.058594367230358727, 0.05056684314754596, 0.25352957021757666, 0.10937350477221121, 0.008454383483589255, 0.06113041371545906, 0.2541802836061632, 0.24644170508684954, 0.30791447173856173, 0.16672469647180357, 0.1020921177517412, 0.2061532336720262, 0.15584246125723628, 0.18665534235410963, 0.33714290925066626, 0.10283345248426053, 0.07977311602900371, 0.020935774459500296, 0.0004524460294895278, 0.000534588251480953, -0.010479774734234245, -0.0060345519868913065, -0.024631070075848593, -0.09359487350894616, -0.052254727425194845, -0.08757697535587379, 0.07321640494272995, 0.15849995783964957, 0.06748464769731062, 0.2278654804452627, 0.27523762915484107, 0.1510029171333561, 0.10335960302930398, 0.11566616516249881, 0.13595318130334008, 0.0078069273620646785, 0.2075660367894102, 0.21829285024516948, 0.06403562061555443, 0.08262230173877305, 0.15771680388793327, 0.1259121317159055, 0.11750958225323356, 0.09759245527757977, 0.04726531833502294, 0.008527283198050928, 0.0003392910360368616, 0.0004040199311547468, 0.0006255981092053891, 0.003699888419543276, -0.013179904192164447, -0.06624693974401434, -0.1835919997179384, -0.08399837994541329, 0.11072459404076697, 0.23270167438192907, 0.22050971978118886, 0.31647533578148856, 0.10943637983472308, 0.09739667072158101, 0.11575423105595634, -0.021005756305204376, -0.15392956955152196, -0.16084040948982417, -0.13619754715627644, 