{"layer": [784, 100, 10], "weights": [[[0.025920678387169403, -0.08407739977215552, 0.02674545616562235, -0.00257590386538861, 0.050820751536810885, 0.02485238467716259, 0.0276330764533385, 0.0464119610457024, 0.03456935237988313, 0.03155362826218799, -0.058966113429151645, 0.03233295612045555, -0.06843609556008515, 0.016495430010321218, 0.03166575365165801, 0.0060714317639504875, 0.05533564012620424, -0.07521229180984686, -0.01780158714717735, -0.007996767390630901, 0.01815414609491296, -0.035384665906588356, 0.01111427776960489, 0.02599440562147934, -0.03524691734092222, -0.008600962264545814, -0.0035400911985322245, -0.025055414696652376, -0.019117675546715587, 0.04594117926934872, 0.021380935730581332, 0.010556353195121066, 0.030954250293289354, -0.006766547083099001, 0.00040445881757178963, 0.017568476245000176, 0.025750733521093146, 0.03904580877022738, 0.08259236151664144, 0.014686916231834138, 0.025595248831625065, 0.035265874605551334, 0.04591923875572524, 0.0655422120436645, 0.01024440797931477, 0.036906455944610284, 0.006707645606187635, 0.014705379122511839, -0.03712970290418226, 0.0230699420529775, 0.012276890470334399, -0.007398862016811654, -0.03259719111331976, 0.035194919452654315, -0.08723299823533923, 0.012091251001112246, 0.018536489973994243, -0.040915658806282874, 0.0273649224800631, -0.013230103227042924, -0.03833991444866967, 0.013668340857371378, 0.011201869535081014, 0.0020978922168624673, 0.024830577861699524, 0.02785489649421379, 0.025298217436693977, 0.00565857819156229, 0.07942224171429815, 0.06385618599114246, 0.04356097849078074, 0.0661229308009248, 0.045888294915247936, 0.023584957343462044, -0.018582211764650886, -0.014228270331559335, 0.006535748943290538, 0.037256844412420186, -0.04719768310493708, 0.042913843626079036, 0.010597399744482601, 0.04743129538267028, -0.0005059429981735145, 0.02415245799011375, -0.05872874751653067, 0.04066084165554384, 0.008137060344925805, -0.026448043472907443, 0.010157668364583363, 0.05355987671131259, 0.011186807411170086, 0.07745651826872633, 0.04750609818853522, 0.115134356368296, -0.05261812113470069, 0.00849492950946138, 0.044568181922350604, 0.11424179008170254, 0.035625940366771955, 0.09540070141231188, 0.11375352163131068, 0.0380936201995851, 0.11040305899576539, -0.0033664333141845185, -0.01779594294076925, -0.03166595759837256, -0.01547131053915922, 0.04461954183910371, 0.0637111074678471, -0.038757059248771576, -0.036973010097866306, 0.03518417223720646, 0.011325242399591004, 0.006247033912870303, -0.014891960267071888, 0.02467705601450155, -0.0022532393926676646, 0.0015228995628872363, 0.06818418194548222, 0.02633722656719539, 0.06822661296210286, 0.15754116601143717, 0.13523708651939134, 0.09849532396064652, 0.10657926530419796, 0.12801381595407232, 0.18650994079083752, 0.17564828762883802, 0.22112136452374498, 0.15576145593984247, 0.12854882351240532, 0.08803124047896199, 0.09258862439531138, -0.10126272621105685, -0.038126809841604756, 0.016802795194040588, -0.012866393313536548, 0.01617785215412251, 0.00029434875694542425, -0.01405821472382057, -0.07698860830150031, -0.015924097799125143, -0.047656137258130865, 0.030228702039653024, -0.02904350106796594, 0.00012148390369480793, -0.026753554757630763, 0.12012255744852508, -0.02643342323262591, 0.06552501505552162, 0.024777567194958473, 0.05665553858992224, 0.04015230119809485, 0.0761343678071872, 0.11799763758148316, 0.0035182271677345984, 0.12574687713047916, 0.20019223732606573, 0.09723007182128642, 0.28402753506033973, 0.17932039667688793, 0.12672202328748838, 0.03535807964723624, -0.04574151440934329, -0.04698509140115795, 0.0397520768615876, 0.038629865170420725, -0.07888828415818318, 0.0030742750783659335, -0.07452856409287974, -0.02378646968146447, -0.021339227729779427, -0.02530078243301677, -0.051881647674963775, -0.0276031474014967, -0.0905560511575689, -0.0715308802198105, -0.005435723611077498, 0.051462422924552276, 0.00787046402706893, -0.06861380482536455, -0.004568214794238624, -0.05174948331010441, 0.02545322279057605, -0.029615170572363538, -0.022370902476266063, 0.08634128463898119, 0.19771042569162267, 0.10247231274932656, 0.009309437268930755, -0.05609990031960491, 0.0024052472350742445, 0.1499526538485821, 0.09384324856840229, 0.02605770513396501, 0.03810283168834987, 0.023540575128049128, 0.018564062885748765, 0.0188821332607749, -0.012201262554076518, -0.03397898488194128, -0.04860532168385721, -0.02886344234422549, 0.0074000236955562276, 0.027824334288288764, -0.07453798957272886, 0.06681848067958289, 0.016964084725834754, -0.04226993448733231, -0.13925661606313192, 0.009837820243878935, -0.010687270077653797, -0.13113602815025122, -0.06021327667689184, 0.1251281820900168, 0.14116642518864875, -0.0003325612457577541, 0.08209015968855038, -0.06018396875426528, -0.0800788718832128, 0.06289251212375502, 0.05548810540880231, 0.04756076027904009, 0.0274275665372812, -0.06093224933623307, 0.017500857585246127, 0.019689789163093472, -0.0016931583077986884, 0.04279169665885316, -0.030735432645077426, -0.031382304715930946, 0.06713540895068391, -0.05800251387117075, 0.05352674147600034, 0.005030152121674543, 0.16641080581364937, 0.1809867729322666, 0.07976433804231024, -0.007541394078520536, -0.10505943091280964, -0.0006267035364866561, 0.10245072080374211, 0.1426555821125129, 0.12767153708956425, 0.11911632781488138, 0.17180433695761071, 0.0014728462309643714, -0.055199440897559376, 0.05207758553112947, 0.12323677700415761, 0.02632855124808084, -0.018084477570675557, -0.05038379995600738, -0.05389986546620765, -0.006950783241756798, 0.05902401360861232, 0.04308974833047955, -0.026884673068761966, 0.0735233289169125, 0.08714549312896083, 0.0032403953077981816, 0.09937182668919231, 0.15580199394525807, 0.09343205703911461, -0.0435456735531821, -0.11541620313918463, -0.0753859648897631, -0.16769792997309046, -0.02230617323300622, 0.08073530914653089, 0.046714433909152135, -0.029632475998136034, 0.06629767424493828, 0.12910543270528413, -0.006196113079768312, -0.04728468621013107, 0.054115394411314494, 0.2147276613171522, 0.0549740782722429, -0.03308646832250515, -0.004935063085844035, 0.005507558000630744, -0.005303776329097124, 0.06415450596705563, -0.00426198473948122, 0.015273014482468634, 0.04475525129752145, 0.11316021721108632, 0.03451132832075302, 0.11542352436127445, 0.06472119756238517, -0.03891623706269461, -0.19518626714850335, -0.22363593755088243, -0.09303279383073056, -0.2349481741980795, -0.1583202540621513, -0.15161649013802503, -0.07596257261027858, 0.0004220602542669466, 0.0009121967391871725, 0.05651692125907899, 0.08667487276696118, 0.11003809781453006, 0.1372670325983683, 0.07370678835420169, -0.0012254047142781835, -0.05846855524510017, -0.017991493491279226, 0.050006097414584956, 0.009653904587902265, -0.0772914647939813, 0.025472032961405138, 0.14003849229323392, 0.05028527887896859, 0.06276927795146038, 0.0113275376885159, 0.04768256098449212, -0.13609465561331313, -0.15305051673984157, -0.41779296795132304, -0.13087815789634993, -0.038844132401638025, -0.37673554679028015, -0.30122477933839403, -0.2832025218682284, -0.20983540034286158, -0.1600263017770698, -0.07070300295364702, 0.11114976884512943, 0.1580567907569852, 0.2033940625585612, 0.14701536255151376, 0.11030026423289888, 0.0267070288273338, -0.002771391308019394, 0.00943636122194613, 0.05334082344107939, -0.004630501866488995, -0.017956076270071848, 0.06575547692960511, 0.18976817313940145, 0.12043510355736577, -0.0439085786875296, -0.17827940305738701, -0.125196136863639, -0.22795594947111109, -0.27028880270603467, -0.28975309244872044, -0.13763814177608627, 0.12602305564598912, -0.24583158312455944, -0.4308407751871421, -0.23272883915897294, -0.4129103476324189, -0.3124702163738589, -0.11097789675901831, 0.025839966846138804, 0.06692509956762836, 0.09991323899759291, 0.1692542902046232, 0.07695419891045466, 0.08746764794764708, 0.02182537263883135, 0.02709112512131213, 0.03234303490895509, 0.004311926969292264, 0.011050721235963817, 0.01592144407734999, 0.20408940542652296, 0.0945115882140837, -0.056454406115347314, -0.15037655163391875, -0.1204609355219, -0.29436885690905634, -0.19975381973798514, -0.03448981074329224, 0.1636925844608011, 0.04728327067447, -0.14915688651309433, -0.15763605122591937, -0.31166421247370546, -0.2772054145535183, -0.2282437162037096, -0.08931817697356449, 0.04689024546079056, 0.10453657989578415, 0.1680169513108665, 0.02263185608521981, 0.09737810164133633, 0.029809150984310067, -0.02166673658036368, -0.0389200751806718, 0.022588792966714767, 0.012835726695832158, 0.013203538784839835, -0.0244901592183176, 0.011777632485619704, 0.11184504428450932, 0.046340380809214564, -0.054101556329749126, -0.0911252954508212, -0.21083433300204113, -0.20171932575361598, -0.043504162842397914, 0.16291196154894452, 0.09799471665410556, -0.04951036585285067, -0.13182792174897373, -0.26291868912364585, -0.44491906508025664, -0.4727952705987456, -0.17388510652433445, 0.04641107857771398, 0.07315453256627145, 0.07080291569994028, 0.027044927810234265, 0.09711126735797648, 0.005814771656899548, -0.03809526527846289, 0.007191833935608921, -0.013701338017779098, -0.044902883376462685, 0.0224748509155766, -0.0143398062226701, 0.03148303246549127, 0.10633771628719352, 0.09483506080960594, 0.17138332622299224, -0.06389628459544981, -0.25535308786488253, -0.11534759036152514, 0.08473215867060943, 0.25923834777233273, 0.2897776967751442, -0.09264065384587283, -0.05050588986014182, -0.3989602465786494, -0.4297391498904263, -0.34857443268618254, -0.11939415118930014, 0.025742490768671807, 0.005887337891615786, 0.05073402397707067, 0.14259983428684378, 0.12869839247151305, -0.002469629194679315, 0.02486722121002124, 0.01873147650729925, 0.016253171930153392, -0.007246629655811265, 0.04221320530246954, 0.0684476645364685, 0.01119278470486877, 0.16501303320158137, 0.13038293166870032, -0.02222461043085757, 0.23758933571375385, 0.017322061758238236, 0.07154015340145146, 0.13008581226835064, 0.3897522269632376, 0.2031964550447085, -0.08849217792182433, -0.10205021009876927, -0.3672312549807765, -0.38065241777774983, -0.17585595155661315, -0.01352544584784566, 0.14106086011099647, 0.13324775854053472, 0.17948252256845518, 0.08195483506214597, 0.12513204257206273, 0.06380432540552146, -0.041488819314520406, 0.018085780534686322, -0.010293421888365963, -0.006122488320982442, 0.05841629100972011, 0.09097764269408225, 0.05849944405550549, 0.15926615584039575, 0.07622373396485085, 0.23103774802836902, 0.2359754382056402, 0.16749939939989145, 0.1614297860702727, 0.22852458469349965, 0.16503103507861872, 0.1643330253938611, -0.24246591512692023, -0.26691462570827273, -0.3484836602659615, -0.32516179145598934, 0.10799566979853698, 0.2454210410040777, 0.17423647607893028, 0.20119627767349837, 0.1460589821974357, 0.14752162918379247, 0.0480688613718964, 0.06400183453147759, -0.03203375099209033, -0.060988029141830234, 0.036094465221643716, -0.005053313492985692, 0.05465905108316471, 0.07157244901084825, -0.037979241173789584, 0.025364235176924127, 0.12264473930911064, 0.2794247384758981, 0.3609601197187966, 0.17669985552537115, 0.023254925818158106, 0.18719120293621588, 0.15328961666337856, -0.11379891953297502, -0.2438945400431242, -0.22826253951355685, -0.04990655692436427, 0.10890362719360237, 0.21067072659356254, 0.2560007674891181, 0.1775706398403091, 0.27849835085426944, 0.2838136943552507, 0.18996847132794226, 0.05721905285418442, 0.012270135498640337, -0.023091165761092974, 0.007100882874404565, 0.020283735113463184, -0.005874487892807886, 0.05245709671629515, 0.04049293517115445, 0.056355823402526276, 0.049481666679585576, 0.13951580515125125, 0.29795527490678947, 0.3461636481195836, 0.22060009656865953, 0.20238859323810543, 0.1258683336702629, 0.1341391046584492, -0.06822220027637423, 0.054752867659119825, 0.19375525139267105, 0.4024998168401902, 0.34765110534727534, 0.2148244405419028, 0.2724487253560447, 0.18305492007244317, 0.2784043328202942, 0.25495137876437957, 0.07256234126928783, -0.007884595006889773, -0.007754714825509922, 0.020004711123853124, -0.03884613976459823, 0.014488132236148343, -0.050405610841145934, 0.06634612435971772, 0.015637111475470433, 0.005367847935645166, 0.051988687529338454, 0.25869318916913314, 0.256701413027104, 0.33919572265234227, 0.2365552620480552, 0.2219381798196229, 0.16321714410869548, 0.14630483716756032, 0.12162746296550149, 0.10787784473765913, 0.23891737136525362, 0.2596063256703247, 0.3736981727615428, 0.337675563727427, 0.3442942490430719, 0.22975808775032266, 0.2062495019980131, 0.13532361440725393, 0.06372336556476343, 0.03134583280230671, 0.02649105743346192, 0.05028139941682796, -0.030753535055184612, 0.03201121667715177, 0.022136483474578014, -0.005646673964039752, -0.00169126989502955, 0.04924195102425186, 0.18704004560541745, 0.13055875500595968, 0.17357564143318396, 0.13925611253968656, 0.15523259588419996, 0.09687110474045622, 0.062480245947219216, 0.17040692537218613, 0.3941381445820809, 0.24638628354571948, 0.1468763297146256, 0.29894934891635716, 0.2036912747251273, 0.22285229504992787, 0.23999509873784136, 0.19267078045276856, 0.20680403588713153, 0.1224999191813594, 0.07092295879556845, -0.06152176275332757, 0.005981208624379759, 0.04217662887229726, 0.025549864318546073, 0.023676387126143915, 0.022218675664410603, 0.06377737375365831, 0.08709487378445498, 0.028374848543481452, 0.01832550664638692, -0.05834136747085371, -0.17943187826113907, 0.02059538281077447, -5.154972040529998e-05, -4.908858388950374e-05, 0.036605057996071104, 0.1384535282825951, 0.1109132864362402, 0.04318203174138021, 0.12262650418712887, 0.11637682748269644, 0.14094734891644048, 0.201219550778337, 0.21808602033051588, 0.1512825880718882, 0.1716423835963077, 0.05767544804677764, 0.011655669458755381, 0.019713009197693893, 0.08108166806499972, -0.013863694190977785, -0.034830297021976805, -0.03648397072701886, 0.033897924187141555, 0.038723879704532255, 0.10324423439140898, -0.018987265263024095, -0.20896095295443526, -0.2791219371675666, -0.10789141628391613, -0.07561135800507875, -0.15754044756006805, 0.01543030084093105, 0.1738527330943303, 0.1359953440837983, -0.0025355056335613986, 0.1242057612620733, 0.19695073601910076, 0.10977737528361059, 0.16885643170892503, 0.21875904863757312, 0.14032194755680996, -0.008421071316719908, 0.08872777127758681, -0.03252641010216765, 0.009749322642275265, -0.006717602173542338, -0.041692641847760725, -0.01781946005328513, -0.08313482009993256, -0.01633900614164686, 0.06292949272044801, -0.053420735886178516, -0.005661668144639487, -0.07939641420780766, -0.07777604232720238, -0.05710702255313583, -0.037055379995772526, 0.00927027022493353, -0.03948744220802041, -0.03241234364267717, 0.22115733504206705, 0.17918290862746966, 0.17814516475547323, 0.052390065802768546, 0.0498506944096238, 0.10191246323080855, 0.13670703776787638, 0.0959849469975815, 0.04704423676874767, 0.056838773129405024, 0.03775357038307154, 0.08151012555733757, 0.019790255306011306, 0.012886604983009723, -0.05718462117965491, -0.022315028991842505, -0.005354892993130085, -0.00462186372214259, -0.0024630479646709203, -0.004513891078143425, -0.035468012167729636, -0.08826458524955018, 0.06441083592728579, 0.050297309352637334, 0.052624436465635624, 0.07151136111150615, 0.13239315182651595, 0.04242803519436341, 0.04371926503192362, 0.031759826512852724, 0.027699106530494646, -0.014356088649653062, 0.10131917524066625, 0.0656422613476228, 0.09072672071177929, 0.09648234949278857, 0.02450548360091229, 0.003661539013901822, 0.03379524209243632, 0.04008591561488015, 0.06315583913896679, -0.010982833833249245, 0.03139529101243131, -0.014877284576682777, 0.0015524036139972996, 0.045074392850708744, 0.013232827836045569, 0.020878679319323093, 0.04160163680224282, -0.041048249418412494, -0.02871065347447103, -0.028747743387974492, -0.02442347698349084, -0.009145229206543263, 0.0243555598033277, -0.0466797383220891, -0.00636314946056852, 0.09443555617711917, -0.0251148693984467, 0.004419113043841877, 0.04325407849081989, 0.07766939163367342, -0.030188535676309754, 0.03362559036093804, -0.02588189145780298, 0.06722587461557289, -0.008873044934063212, -0.017794960571631813, 0.019551007424469365, -0.08155824031517983, 0.03927780450463059, 0.03474176041548816, -0.015122805068238288, 0.033161937224847594, -0.11189839158223648, -0.008814472853267799, 0.016680646542632172, -0.07782107187699087, 0.03341161977002458, -0.022790587196126578, -0.010235527831193959, -0.00628114461508787, 0.01843328760065971, 0.022967783597027894, -0.013398938341751319, 0.01056428808347818, -0.004633325487665993, -0.04647934138972208, 0.009542267001169351, -0.011815965700985342, -0.04330912482914418, -0.03563421922495685, 0.06626817464120954, -0.005488436299436081, 0.026882760065913062, -0.030465123192910237, -0.016556131453834975, 0.04319582024091278, 0.0071306791723660095, -0.0066162697812867126], [-0.023951915964708408, -0.002535708045025232, 0.009147222603094191, 0.009699647247608825, 0.013699202089465063, -0.020028738678891777, -0.012023629625554711, -0.06353400955398782, -0.021913103590744196, -0.008149894009367619, -0.015024496338657259, -0.04831087470152488, -0.0321921425672391, -0.008199931057149647, 0.005042819006975567, 0.01745969267299017, 0.0785472113597756, 0.005348858001291206, 0.04324903191907763, 0.017328014284579942, 0.02037000789117805, 0.00041866579212777486, -0.035706631210858354, -0.010065722528750137, -0.031200188370803954, -0.02193342239202569, -0.011450701947057511, 0.026007433986878967, -0.05070724406132619, -0.03457530560581334, 0.05892543690065446, -0.03585354633238937, 0.06334747805849336, 0.006719435884636532, -0.017960159718438506, 0.0635566501055277, -0.0007333749981988411, 0.019379083136704084, 0.01904013087283253, 0.011206217072535296, -0.004993470276954826, 0.04756102073060351, -0.040074757562211114, -0.017705726362987506, 0.04209459325840202, 0.0002379172701781814, 0.015783045802859625, -0.008926923802472468, 0.029405482435439327, -0.046072141045110065, -0.007217799948813011, -0.004776515813200139, 0.022171496359409983, 0.010225254129879709, 0.016393292229091402, 0.06200680790444003, 0.07355594472766017, 0.02926514496202669, 0.0194162130112376, 0.002701308714258041, -0.017663445991467883, 0.04550660900685094, -0.0031849701178552204, 0.04009148117838871, -0.020812516900732138, 0.025593882982248156, 0.025214291172833813, 0.060400139684628644, 0.07221400616399927, 0.05129962480324881, 0.058772733959138235, 0.03685154071681706, 0.017444966706059873, 0.03309842902687022, -0.0863729926551517, -0.020200901392626532, -0.015439066111939242, -0.02864033899740028, 0.02017742070531607, 0.014505154232664555, -0.026744472585333367, 0.043008521068179435, -0.008922236553945638, -0.04633546660636855, 0.01520254063460415, 0.020088706793757138, 0.007415340050939811, -0.008613706788771356, -0.015962899071923276, 0.020827586591787555, 0.02377691255705606, 0.0349660442667693, 0.02631477498908623, 0.17130755025634273, 0.16994063254254438, 0.19155473758192948, 0.2134712721633769, 0.26495735946317556, 0.25701748317703743, 0.21487833934290684, 0.14022299791811396, 0.1138010959258633, -0.03415204447429233, 0.010102325142293868, 0.06689860814150951, -0.009376736540210769, -0.01729951687666116, -0.0014048756195127103, 0.06468535518682103, -0.054927357494932424, -0.07181721882602232, 0.011615719891874215, 0.036305520726191365, -0.022413065588609376, 0.010090682171784613, -0.03191996229272531, -0.009773269971839312, 0.03998035152645434, 0.10615923176658677, 0.13837772901538892, 0.26219488849955985, 0.251201465718779, 0.4052988295132311, 0.27408865484870276, 0.23763567976944672, 0.18186883410115187, 0.12611805332779083, 0.09974455123592431, 0.003419467985272981, -0.05437785166727922, 0.019392972976153083, 0.04931606130161759, -0.005819033041867516, -0.14589841954168603, -0.12062793109045658, -0.1197493912384484, 0.012915880257420364, 0.02000135812713075, 0.03752006195991189, 0.023375937002962626, -0.07583081121695545, -0.007919415601595267, 0.026714990302396765, -0.0017342292377267074, 0.02172603845732919, 0.152805311546564, 0.18547691750881848, 0.303853903039936, 0.3772402336745036, 0.2458711871525179, 0.1884759414581714, 0.12790876699791423, 0.08867794597181362, 0.08972761607568205, -0.05170195617732565, 0.007122020006304182, -0.056972584850614294, -0.223727859716286, -0.12950216065973164, 0.017468351341472812, -0.12693945172682966, -0.14327766669855166, -0.23420135080554733, -0.1561630628057638, 0.008149813898767245, 0.028254411930840998, 0.03910589266075882, -0.048132953271882654, 0.019160833142871567, 0.05393367966334662, -0.1096600652681305, -0.009151755463817586, 0.14266482296090036, 0.09564589296022658, 0.2413834392986907, 0.27493069181668633, 0.4442507032377532, 0.2839525469025962, 0.040199677841254285, 0.017198359635158936, -0.05501619340304295, 0.07999572543073304, -0.0718786837670155, 0.11293163530631295, 0.13060358839653116, -0.04557585873663813, 0.005913762816538314, -0.16590965292554669, -0.23453683965953523, -0.08451268377846685, -0.1619149488267362, -0.22134297996921612, -0.0997830419345572, 0.04574845441023429, 0.05373688011865826, -0.058836354971296384, 0.014258690232403788, -0.010839072961631646, 0.014562469786800938, 0.05456533426000219, 0.11045047974567196, 0.11422206134254909, 0.3101438983930422, 0.2834295202315593, 0.2642529584995292, 0.17702538814502464, -0.016512118367482755, -0.05182117094436856, -0.14128949422582388, -0.08663290352244701, -0.13093397887590946, 0.017127883684693524, -0.06840817998939336, -0.23512374766972433, -0.23629565131163058, -0.1538719189361031, -0.372147682628623, -0.26238780869045797, -0.18474566717214627, -0.14431150674111917, -0.1753739345706637, -0.06643760144212452, -0.03755244274765893, -0.011429481999679483, 0.017636338075898657, 0.0036973777139762925, 0.043676627701537185, 0.08684772763058694, 0.16740958612134263, 0.19481619463235564, 0.1693979599834723, 0.22986756919890633, 0.26689777773059764, 0.09673155017453079, 0.08252855883556938, -0.07573166396844375, -0.12871724534316725, -0.23452429124473245, -0.16583092193971108, -0.21288856988666813, -0.1604893388247191, -0.1974153643384602, -0.18304556866697233, -0.09213773703268195, -0.09968881299414126, -0.09489901886022539, -0.11039784384039339, -0.04832771360257434, -0.21890066395458826, -0.10382135693308628, 0.0303414613700586, 0.06853530248655992, 0.031850842810827375, -0.002851734445657616, -0.027551673218394402, 0.037924861047859776, 0.14463013614773074, 0.18992822415558264, 0.3031297770112671, 0.30031592740993873, 0.18227988259336564, 0.15394164215203224, 0.3094385872834351, -0.048142200438802026, -0.010206007093057537, -0.12033781634740635, -0.09616015357632024, -0.08768471034598536, -0.023593798410942404, 0.17222418360980296, 0.21267636235044762, 0.3898234016939426, 0.3249262163625626, 0.18942374695741543, 0.20163038573694517, 0.16618385489918983, -0.10196221732910028, -0.10519660342626277, 0.04602532357009969, 0.08441526824336378, 0.016201296353254662, 0.0420817565941071, -0.00014425359434104277, 0.026298097548930765, 0.11361847947869767, 0.12023202294829434, 0.19796360516977018, 0.16170466981804968, 0.17008672264732994, 0.18632005631323287, 0.09096339252661492, 0.02352237544156552, 0.019090620202741417, 0.04136345071556324, 0.06714013948780755, 0.05904068083323761, 0.45054694444505494, 0.5087787837372792, 0.48810647617013164, 0.6170113208615007, 0.6558780633791665, 0.5749775814954613, 0.46966973891222646, 0.2889554874425128, 0.04707324898723294, -0.10569208089632859, -0.029207100187755772, -0.02485550191607523, -0.010835928477166117, -0.028591502325593595, 0.009430799519787682, 0.08850981473612891, 0.05575600232935424, 0.05730164601816298, 0.1030356211527988, 0.1640575010360104, 0.17356744356950027, 0.15241134598992082, 0.13526456979442908, 0.20590874793270234, 0.02834948221407879, 0.013088588037216155, 0.20130339198072963, 0.12204802258708745, 0.17703765078649986, 0.27892087234544644, 0.4542522670739063, 0.5493540828657465, 0.8116070937159129, 0.7195398803039113, 0.6591451208774667, 0.48228452286836804, 0.27462039835537394, 0.026923943337401786, -0.029891314588641783, -0.06968685898304812, -0.03961650790947436, 0.03919746385011645, -0.007939158096324641, 0.05519457080552545, 0.08114350938510712, 0.06938282442790902, 0.018214369198419133, 0.09614183388358216, 0.09627964624437584, 0.13554814136726687, 0.0697964249067863, -0.010556857850364766, -0.21440990794503423, -0.04414676196559024, 0.22884603987137508, 0.06262652399590489, 0.09439420669595269, 0.10035036747355744, 0.025162178825259094, 0.23770027076563965, 0.5208769194411008, 0.5906789505340247, 0.575016513136271, 0.46698548811904195, 0.3131995682033311, 0.15708979721235095, 0.018380308761824157, -0.00046155043730766265, -0.010678793511510182, 0.011534676786720037, 0.05437733089234635, -0.020304238109411125, 0.0635312038814536, -0.002013765221305748, -0.14533312235886034, 0.08926046401098278, 0.16111234478531308, 0.17616964307401417, 0.27656278013192825, 0.13614524929166927, -0.06328173502019065, 0.17056797794178277, 0.04902306982352801, 0.008470922354116596, 0.005805986925037259, -0.034440642627739035, 0.0025460368450404176, -0.07426911128825993, -0.03221001052339927, 0.23961152373327568, 0.37844731646014257, 0.3670199305979203, 0.28145922830522047, 0.18162719320936668, 0.050065423879431234, -0.02013622298581834, 0.05490267897327335, -0.011313900755218712, 0.0111063561543476, -0.03148107828670907, 0.01399877927783967, -0.06790412164974387, -0.03579034036874574, 0.09019816092920394, 0.05888525288267254, 0.11161127215180212, 0.10765776313966155, 0.19151870794302617, 0.05083329282952261, 0.1968968758250704, 0.22165414659095917, 0.09708624782751608, -0.04933835524056982, 0.0056361167961348786, 0.02893445779474773, -0.30724467160343716, -0.1538285516302102, 0.07978094511604467, 0.20988326813121536, 0.28546425681810406, 0.17312217856661735, 0.15944389332625206, -0.003147174010585319, 0.0755629147140455, -0.02068876910186808, -0.02918538683509895, -0.048130041981865115, -0.01215224419744331, 0.032299931376402774, -0.023572385750746588, 0.08022261568480309, -0.04691159735356693, -0.018785143594714657, -0.0397007230743435, 0.04972541250189134, 0.1571601316998795, -0.02086416186881449, 0.19642369539221397, 0.177401175103658, 0.10767147420833133, -0.08458012087255404, -0.13637316555569995, -0.10185414945598782, -0.17448866238499441, -0.15533984111677682, 0.011174485297624567, 0.09416258071822975, 0.19709144627277825, 0.1365821380813882, 0.17610661558001567, 0.03742621281326823, 0.03686670803046552, 0.0055517502797367115, 0.005614370204949664, 0.04518152710874285, -0.018327051880470607, 0.0653409696397323, 0.04789804440935838, 0.21461015045603699, 0.09724553578423532, -0.09375590152875814, -0.07650800823094786, -0.07478686604698984, -0.21425966071139155, -0.009361046597208128, 0.09601666448866497, 0.1192332001613678, -0.07181230214104684, 0.045582201497044186, -0.14095167167434536, -0.07103146952294163, -0.24932494574744388, -0.23466626750361394, 0.005495750029910074, 0.13362642217956452, 0.15929460923779842, 0.11741363498467713, 0.15968654107496985, 0.14013894365162544, 0.02942849234120421, -0.08848304504334856, -0.03821439591945006, 0.04768835566173658, 0.021970513311365396, -0.014524548562873992, -0.04643001815716248, 0.010196348952665224, 0.04993544991446455, -0.16416198896498688, -0.04498705122330401, -0.148612398006792, -0.15388515821720178, 0.03642752605267049, -0.009218665702170356, 0.0013668401725963947, -0.06994867767517143, 0.00041128848532726676, -0.03004554791741833, -0.0806807995569368, -0.08789176283830517, -0.049376768070851326, 0.06560849766613534, 0.3139670540694451, 0.14753178879978943, 0.10350647075297845, 0.15760239380339008, -0.0014508025736654408, 0.023090835908158976, 0.0321258446053055, -0.002374118104679821, -0.030328284006787172, 0.05033094870197109, 0.00585960061580161, -0.13276706665292087, -0.04684071944833643, -0.07698075398252012, 0.013663531691011935, 0.07066875312774441, 0.05863700048573631, 0.1986854836418838, -0.03218630007127325, 0.014831586161809785, -0.0830020008229366, -0.007282120436344514, 0.014278998321826879, 0.121961710699164, 0.013857823167145093, -0.08892636684363023, -0.11147622215395316, -0.04792566880657992, 0.23833173822397202, 0.12583599290541994, 0.13693138903776692, 0.0777286821520939, 0.04940372346290394, -0.03748238909937056, 0.019747136403166755, 0.0055923875775561365, -0.012661277918587538, 0.05265139047693224, -0.06240109765555512, -0.10217872778714612, -0.13763304325247985, 0.07714982658730986, 0.11006755216992734, -0.055324626800120645, 0.20235547529872933, 0.03140969904372418, 0.046560487658213384, -0.04884349807080662, -0.1130345878588431, -0.07274745655790614, 0.11295846169845887, 0.2141120342233459, -0.019665297160408705, -0.14230931804261948, -0.05646249509312532, 0.05427904640331869, 0.15501772588894272, 0.1152088406443612, 0.01979032648738084, 0.05276937565010921, 0.07430116703110547, -0.0070963236759059335, -0.062449147664371936, -0.023035109245089, 0.0015590227838665385, 0.0558262068582326, -0.05118080183497114, -0.026105616996371254, 0.02946081909259282, 0.05935077015086683, 0.14153448535187058, 0.02693666582713866, 0.08147494614344404, 0.03392914723854666, 0.11422877791055137, 0.14831810547863614, -0.028470761100544282, 0.14142814603958145, 0.13208898557243992, 0.014129388184164007, -0.10778001134032351, -0.07245115498386319, 0.019769251983119, -0.0031111048496087787, 0.0891447634127411, 0.14946552977714206, 0.05834872368530074, 0.01620442370670151, 0.02026567391316891, 0.043243044324056595, 0.018504709005198586, -0.007588669359690846, -0.012592007951783918, -0.046883656029187364, -0.016433660929538574, 0.022587611073046392, 0.09779328065350457, 0.018396706016351017, 0.07886926385478774, 0.018501606853651837, 0.06095307922439698, -0.10053670297745775, -0.09176806985771536, 0.08646243579193512, -0.04184053045357866, 0.0241233157848728, 0.07405606545951168, -0.060219949584754885, -0.14520952195625633, -0.04684558791334936, -0.044560140066993104, 0.004721856711495717, -0.020772662470756462, -0.008979051815578313, -0.04411512635063053, 0.02983657805712376, -0.03977876062072706, -0.01773322323561703, -0.05191557646684569, -0.013032035786053381, 0.015356938847579313, 0.07213011570617292, 0.06891930884240947, -0.018041552020979366, 0.12187043846949433, 0.10584477612363027, 0.0163355352655879, 0.036950870495305814, 0.06639995031198094, 0.014383855546414555, -0.10808704434543762, 0.03527086546079793, -0.09689687448120174, -0.10921544073406869, -0.12144696548114417, -0.10171606448216722, -0.21974815408689097, -0.09445494551543196, -0.08532280540806372, 0.022565747805350513, -0.03190382397459717, 0.03050336262464264, -0.004682955466237201, 0.010092396275676471, 0.023321317441120794, -0.0719396183550655, 0.0026611210057329152, 0.011140389289624289, -0.014970059031136983, -0.004008706373519289, 0.028691341518740504, -0.09573649948790443, -0.029634443432225117, 0.08769856157346363, 0.07598137664763942, 0.08982714562056446, 0.12076852158196823, 0.07175565150516867, 0.02645405861895201, 0.056504681608697954, -0.13943345460383774, -0.05512910128472449, -0.05032365299982393, -0.04889186568606414, -0.025927066825519682, -0.04104237008200421, -0.023433784421685228, 0.021229797629374283, 0.05491832707321962, -0.06491612784530143, 0.05218201802500837, 0.008608222736244309, -0.0019049475107089406, 0.012250792561951647, -0.04885395874084151, 0.014019539502583623, -0.026489977565126884, -0.009106557297687744, 0.07434744750268366, -0.05866175934081609, 0.017045019062071, 0.11517241908394198, 0.03561977950732561, 0.007875392527406403, 0.12258966040085192, 0.09638782795835904, 0.07704024343988979, 0.06915149664490856, 0.10608460016065137, 0.1319943979492848, 0.030020211866444026, 0.10146875098326927, 0.1257222143341005, 0.06842371580778757, 0.11625614723037392, 0.07497366739903653, 0.011759451465549867, -0.09461434831231577, -0.0075330079466638744, -0.02961533886833568, -0.011887110682702982, -0.015244220006013345, 0.00792253802350996, -0.034712246678373006, 0.06979383919778538, 0.0545287656389376, 0.01595005723864861, 0.01486542793430859, 0.07212832598028371, 0.15745505728964354, 0.15162240093943868, 0.0890836867403201, 0.0920237472532669, 0.08417027978552927, 0.12277496951196946, 0.12613881874950597, 0.11613456764011529, 0.1692837163326932, 0.20913686688444466, 0.19037746842091582, 0.05764512090416557, 0.08074222334199992, 0.06175758328510672, 0.02611572590510791, -0.04539853826913123, 0.034876642130040124, -0.022606083099242825, 0.06386260569540056, -0.004797466048111723, -0.006465164541730953, -0.045427852504306275, -0.029643262375733774, 0.009502079372533377, 0.051196109664655536, 0.01735381833048676, 0.06107145337449789, -0.04102263752123527, 0.030135773008425425, 0.044333784047729606, 0.12216357844659725, 0.10555777805948255, 0.09042269756115207, 0.1276050949216889, 0.1408393821869009, 0.17806237994935573, 0.10087421152867489, 0.05474438751160226, 0.12907961574003562, 0.10615077116172643, 0.007367420193125607, 0.04870371685583284, 0.12416469146898498, -0.004573645292133169, 0.005866017993710024, -0.0001981442305528559, 0.014382252708007708, -0.04381511793270078, -0.046226422961243865, 0.006469860957482718, 0.04898862100640706, 0.021103673312628635, 0.037772496579334104, -0.06836476053234647, 0.0032337511190268253, 0.02731969579343186, -0.09109280255745159, 0.052296604969980266, -0.029434564868979912, -0.051314125764687385, -0.018053274417065102, -0.001822253663175097, -0.023395222693504757, 0.06760268162958795, -0.019578137106663656, -0.02736367385255861, -0.016184852015556507, 0.04667999284505497, 0.04273860598015227, 0.04980381941283448, -0.012208958809838908, 0.022799604907978572, -0.053862493166988816, 0.04197044002786971, 0.03756522690193558, 0.01548611915864737, -0.04518346591609816], [-0.01370730412991854, 0.00866801242220751, 0.004707364900407219, -0.005992622554756432, -0.053190079111956015, 0.017210308124400466, 0.05187911441876647, -0.0256155674604501, 0.007757849733640931, 0.04978191410963457, -0.0027696758237648294, 0.04483293707700021, 0.051235246382204856, 0.03369826943545282, -0.010401591395167461, 0.009360240618879526, 0.0024468647017328662, -0.03260620307424058, -0.045515399396526726, 0.0918083446713381, -0.03630989280438892, -0.02580338417990526, 0.006172297615743426, -0.023110162962619234, 0.003431338842554401, -0.01942500538328102, -0.038805261822302706, -0.011345307182330995, -0.004302955086711502, 0.0037953730944653603, 0.05034954933331981, -0.05977095809330063, -0.04142553477263058, 0.01334693893109089, 0.00997204559500344, 0.015984994448646372, -0.017346106827445577, -0.029149711028618467, 0.03199488347691197, 0.015598920213448091, 0.05519686101941812, -0.03315479125005119, -0.0519068695243613, 0.07575319016816266, 0.061650489342977954, -0.02902353629032632, 0.03784137470581809, 0.059335495898428854, -0.010211821684159003, 0.0422817079637126, 0.07201293535383202, 0.03091332094799098, 0.017158200744410997, 0.03210753122816599, -0.029703326744255652, -0.03173547280534257, 0.03726706418934437, -0.012545753019590707, 0.007758318043913535, 0.0318451887137399, 0.004698900561606739, 0.060073298330662384, 0.07809516595961559, 0.07451236358661377, 0.0052113240385203525, 0.08625854098949841, 0.09521423633699054, 0.13711469438859042, 0.12108494831820626, 0.1190886284308345, 0.14660766089196184, 0.03363396392862034, 0.14325809690000027, 0.10927689488400483, 0.07625776128717013, 0.06878684417268473, 0.05453292589810356, 0.06226430963966563, 0.03123928781309224, -0.0028722602332355734, 0.026905805975942738, 0.07430661744603873, -0.03288719672024143, -0.03310456998960336, 0.01521126980957281, 0.0012538050865518087, 0.03028898751170427, -0.00954203953546837, 0.06335267371835718, -0.011888964700163308, 0.08371530613779289, 0.04689049365508584, 0.12295156701689565, 0.17406769924364177, 0.20703220655092816, 0.13381827711471755, 0.1695393149028863, 0.358959490633883, 0.23052665223852215, 0.231926733137029, 0.10817978380323764, 0.10812823345215068, 0.1379517726596361, 0.11767364064311837, 0.14532161805837457, 0.11213077814943631, 0.06234529842955453, 0.12891297788811712, -0.05338385856447551, -0.03006160793278938, 0.027115303442436334, -0.033060969683774324, 0.020943396130255875, 0.009945259931726425, -0.07870061537977763, -0.015049278481947648, 0.04087641365327239, 0.007523616855545362, 0.05980921382269961, 0.07677225134615709, 0.050540582758488696, 0.11867861698555292, 0.13625715608475905, 0.08843359266858601, 0.13373703828788902, 0.19057936115794952, 0.32362178537515246, 0.34267265551946485, 0.26281598892958835, 0.11983032814549589, 0.12077349070189285, 0.18308727081023826, 0.16069587636878796, 0.07811174273876224, 0.0060157692174288594, 0.06544576068728888, -0.04280805511570751, -0.01086905653291825, -0.011005236905956763, -0.02821747753961178, -0.07585424259884674, 0.0177898673513553, -0.008996370475515745, -0.02325233941841589, 0.062327719394262106, -0.011102323759882786, 0.0021187933247555106, -0.018801792253254755, 0.047397934240278584, 0.01928837753158286, 0.049677386114202145, -0.040845238354830136, 0.003271082976592004, 0.17447357801278612, 0.22519547390821223, 0.2586944869646653, 0.28995329260816644, 0.4119966559544955, 0.29456772513010954, 0.2359903809402497, 0.22162202335050643, 0.1764478125613468, 0.027078741578699952, 0.008749526130525632, 0.018382572869206658, -0.06602875197745375, -0.04701875456876369, 0.009342827649919285, 0.042460342210582105, -0.029978767250008358, 0.0031358817272111035, -0.04334190121412644, -0.04842577981802218, -0.06787216144085174, -0.003287794127918981, -0.019402573890528203, -0.12240164051614681, -0.02371332419457158, -0.1503707332160187, -0.09298815583150426, -0.0975864153334963, -0.15399471784729551, -0.14030933939157034, 0.06016654221231521, 0.14456290845761127, 0.012106920899463646, 0.1186495878311705, 0.0727621647418687, 0.03893507280000896, -0.11412300758445507, -0.09805732656333595, -0.06343955005008403, 0.13626156576991444, 0.0376210012850758, -0.08550338612434731, 0.04524871951325144, 0.023240782844878214, -0.03583952541306385, 0.034844142948087756, -0.03799363619714347, -0.04972046155228694, 0.014706356507056982, -0.08611326727911336, -0.017102106202985384, -0.06232413584598631, -0.15936676251169174, -0.19048799623242954, -0.19136880497013892, -0.306353387370059, -0.39851729449878914, -0.21538859193285756, -0.20648973848137875, -0.2114149447542944, -0.24859447530546508, -0.21558389409681455, -0.14949910558995522, -0.15257277909206832, -0.17419224411410647, -0.09109799920316727, -0.16920223337657442, 0.011312960873829431, -0.027590484734025346, 0.00624913603034376, -0.006791341727414731, 0.005670644575345858, -0.03645890466898044, -0.011415564681700161, -0.07639665102335778, 0.04023099721899795, -0.04369265095698875, -0.028570186494528377, 0.0114765448309886, 0.0719645174431009, -0.029449445425022643, -0.16171316739841238, -0.1852506977438391, -0.23797718768334392, -0.3215745822408243, -0.5237814778878337, -0.48040626226645106, -0.4031347005222744, -0.35096599865194067, -0.3893398605266866, -0.22686194120538494, -0.24705699966373137, -0.2042272680139507, -0.2617504305359964, -0.22551774661924126, -0.051678981204618564, 0.07008213474776302, 0.05580320496637959, -0.025880711141343424, -0.06174465023930924, -0.05538471129389282, 0.03830648197764193, -0.02067571815747159, 0.03876269940354279, -0.002190863260415701, 0.036765579164211665, 0.018087432569700027, 0.014128371772452688, -0.10802756371475292, -0.17183288512432993, -0.09005715154846947, -0.18168286798229272, -0.3551350496561982, -0.3500176383340116, -0.3855456130109333, -0.3089587657275957, -0.24901718063701542, -0.341435929673895, -0.18629354992715047, -0.05653215085865331, 0.0026074528989110182, -0.06501540328784386, -0.07158906197099627, 0.0019451028261212703, 0.027711400894244072, 0.025402119069878763, 0.008814667626788933, 0.010978886782288635, -0.02123621413348172, 0.037436216642546406, 0.02991376271200153, 0.09077935999699681, 0.1572212427976484, 0.029969938903750784, 0.008940789112019431, -0.06610145543739442, -0.27986380295698593, -0.0817315846837083, -0.04841143922384288, -0.08134077869045098, -0.23925802199999824, -0.19913703883351452, -0.33527167201286007, -0.12466085067809485, -0.13571108656673594, -0.09719857970627477, 0.024949634962357917, 0.0012927262787841359, -0.013949735522405497, -0.04147015296562183, -0.024269906791256, 0.15448465541501386, 0.0748515914152043, 0.01545618905446013, -0.023336180779153552, -0.020310094663784504, 0.022022385851632794, -0.04783402095886727, -0.015006395603747625, 0.05805597348439996, 0.11931525256412102, -0.03417742522368142, -0.07546023290785642, -0.08297508142549503, -0.22997368121277398, -0.13356676967277387, -0.1009452416643344, -0.06233591942588171, -0.026487166565030376, 0.043552729785525046, -0.2243842941463925, -0.12639414888290795, -0.08267907656642234, -0.061700595272703135, 0.10906596207866585, -0.01993525782201322, 0.017906572752514394, -0.07442867263776015, 0.12069395111176655, 0.07967425163040595, 0.019913631006831446, -0.016928810497974255, -0.04350967154620741, -0.001830219189226846, -0.01755803294484682, 0.010781952205087087, -0.004820261544367968, 0.12898656027881114, 0.03148993731959626, -0.12887230822663434, -0.09013386442459745, -0.12050210767195396, -0.09184099563431954, -0.060551656570293384, -0.027871210579895646, -0.22814174274651366, -0.11907553327323826, 0.24149289366795512, -0.0740466922455836, -0.03422568951465174, -0.03497472824105324, -0.07710993833900179, -0.1566983923686896, 0.016473848934410267, -0.013402835520750072, -0.10676589560000423, 0.07238010849657991, 0.05571928308445578, -0.04384034717507372, 0.05499415674047045, -0.026135819805317404, -0.0359594454517178, 0.03332199913423678, -0.04173138278871375, 0.07737625618750392, 0.00036918618846469846, -0.11221338413093428, -0.12853657059840068, -0.09679291417055419, -0.1070718375496509, -0.10977047528261953, -0.06022077015043291, 0.00011777070643484701, -0.04676519281177756, 0.29619776730073766, 0.1311824027781603, 0.11277443723090363, 0.08601637935000572, -0.190065807506661, -0.10931345568880818, 0.0030053483140493526, -0.11710384258731808, -0.05387989554474309, -0.08920277416407564, 0.09384039857996553, 0.07952260523553326, -0.014269665640140377, 0.004425350086825777, 0.00892309064367641, -0.05108914929149814, 0.019611759656682423, 0.013077385501373587, -0.08293849737224902, -0.13121685986695208, -0.15437134032113892, -0.09521002635346833, -0.07323821818226804, -0.13558560430457856, 0.016385078940595436, 0.058868256554141025, 0.02997168876929345, -0.08662590592225591, 0.21626301881635396, 0.2627201421204671, 0.061973859233014204, 0.11740703257993249, -0.18088955456441122, -0.05796536784091925, -0.10646158045592112, -0.10057800361555944, -0.07638265590403426, 0.010182901733293606, 0.026134799461800903, 0.04294929027705546, 0.03361359863659338, 0.016397543667857832, 0.012122271729677205, 0.038449584204131894, -0.03863822631001282, -0.0416819642836118, -0.020160079282295754, -0.06907100214027585, -0.0665317675332213, -0.05718735165799045, -0.12273882259599123, -0.1112568730510432, -0.11406876261872569, 0.018222246046702705, -0.023941932824435293, 0.014092608390679075, 0.3603658599137317, 0.2569601869199239, 0.06864988457890257, 0.07993465204440439, -0.09535130706709938, -0.03766896852219459, -0.046418745963578784, -0.028448381823566765, -0.03238866149879995, -0.03909455152323114, -0.07100110590374123, 0.0043095991399871286, 0.06816397118420274, 0.048438824602558814, -0.042547790246815764, 0.0026578806319456317, 0.02097953797393473, 0.025716811622587522, -0.003424499478844484, 0.026930867270408082, -0.043552587085830895, 0.09329616444252566, -0.1784336136056675, -0.3985594337506843, -0.012846050923594013, 0.0435478276915371, -0.0871138561015216, -0.0025475021062528217, 0.24507607435115078, 0.3261509943857255, 0.24746925531207095, 0.11730729593078874, -0.22006336404915466, -0.05498487324933693, 0.0309236462301458, -0.052099353811424096, -0.022111439969646214, 0.06830952625339458, 0.051424018605975355, 0.09288309982870878, 0.13707543018690355, -0.06062375244550344, -0.013617293706751257, -0.050072392892635556, -0.0218637516401889, -0.053370234649051884, 0.08765707548176849, 0.08357039802815319, 0.037180397232691, 0.13543244456187528, -0.10687817548853489, -0.24125818138290814, 0.07084243921816233, 0.08461359963338956, -0.07281016477701713, -0.019868888526084115, -0.05042471307202751, 0.15628666833344065, -0.02118314608715274, -0.053984445384063745, -0.1010266814738236, -0.06789856649281342, 0.07991165023750087, 0.04465299387117002, 0.03907055178297414, 0.030457771551300406, 0.11265841824662323, 0.06497795071521599, 0.09758992011498947, -0.04742206718936025, -0.057393777742696876, 0.02298768437466154, 0.031592700234301184, 0.05886564551807263, 0.07918573985238311, 0.0902816727198876, 0.06566952440114246, 0.07351352053096405, 0.13619379987430916, -0.05782705865849417, 0.09967561780653456, 0.15244168065428235, 0.0024201766340516957, 0.02642731493630411, 0.11682743653587851, 0.10964328996728036, 0.09566018412812383, -0.06220502669774679, 0.11565417032052212, 0.16230506102314302, 0.14005369228749137, 0.017533256876233833, -0.034731685147458904, 0.12325697092285252, 0.22265680568991883, 0.16473421396668472, 0.13616759095224243, -0.0026292165537503713, -0.017316568113509668, 0.017943063782515176, -0.004632915413681217, -0.03918064816619512, 0.05230127291765261, 0.06741015572614972, 0.04707362046201078, 0.15987031689482334, 0.16307655708817856, 0.14393863156045586, 0.3456479758427044, 0.16133536228236614, 0.3141684280354336, 0.17150630300039224, 0.14969423499392565, 0.06258226597540868, 0.19385827540436967, 0.15209013056129228, 0.15577166364084444, 0.20319849427539222, 0.23114358545502414, 0.030584387552299985, -0.0014520135046475597, 0.10238180630758496, 0.1765304370262472, 0.1285313593400084, 0.006029114061131871, -0.006115667019480725, -0.00753266774922048, 0.03267917972049896, -0.01067575269591683, 0.009566411176536109, 0.10642689859482066, 0.010889793143806385, 0.0861693833213192, 0.1745674503171732, 0.3597311479565413, 0.3233428158248648, 0.35842810580176865, 0.3080178821892242, 0.4135674083580265, 0.19216903302481075, 0.18707194376816774, 0.23697644916298308, 0.15355421817796205, 0.16470954326722184, 0.08577909794148199, 0.25042911367188636, 0.19516595088607547, 0.10282284121981042, 0.01130225190994157, 0.017605239645587363, 0.054178382938725, 0.0007854690660737266, 0.04045976835435591, 0.016236021329744464, -0.003894895542919747, 0.007127804887573795, -0.05972416486710941, 0.015833525416291776, 0.038994248330942234, 0.11641723269027658, 0.06609337651350944, 0.1598149364133457, 0.24529204095370458, 0.22675754389506705, 0.312638588230981, 0.40832363499178503, 0.4318734971260237, 0.34255584742197887, 0.43066002609366205, 0.3308116807054102, 0.15617160732265561, 0.10266503416310913, 0.2630023323244506, 0.2555105282140287, 0.17651041061510217, 0.016595420155518875, 0.037057158688753686, 0.0262617365956448, 0.033115652362982625, 0.03918842311930853, -0.014553646839018854, -0.03713319923377332, 0.0024485992029257466, -0.02659794298359377, -0.008267901415004235, 0.04504351026994362, 0.008127067622509468, 0.06247547010722986, 0.06158200203841803, -0.03984038430323953, -0.014870578482616218, -0.036142086446466486, -0.029046338652466464, 0.15615129699556146, 0.08000871179155847, 0.20386305065081528, 0.21623574567759368, 0.25160262797567906, 0.11587103324201559, 0.045568483008959444, 0.15173187434168858, 0.13443018536089063, -0.022029040085847336, 0.11896329881459856, -0.06479736978754964, -0.07025578448067192, -0.02815063689108899, -0.01352068690012883, 0.027975999935810143, 0.0478326351401759, 0.0763945334228386, -0.036899028430399126, -0.05964487669119662, -0.03546827271255828, -0.024229515171534013, -0.01816107266457496, 0.018798218641516814, -0.1384477915091589, -0.2597479431656262, -0.18324154869684767, -0.17646403019209456, -0.1595766523196783, -0.2184058476807683, -0.006206898228065836, 0.02887054531220786, -0.07147695451718357, 0.08913119757306281, 0.024935006693471717, -0.011296247341492455, -0.10544368144349853, -0.05141472543534446, -0.03570021776531746, -0.06877079146075393, -0.004593017944511662, -0.0035049551174272343, -0.017088706859535455, 0.03003621440038359, -0.025274629475726694, -0.016478101378575662, 0.05731559711600469, -0.0005467502862547515, 0.00913474581276645, 0.018354362500309845, -0.03359169649487007, -0.10432805768667269, -0.15946481479192426, -0.20246128392614918, -0.09009936500024454, -0.13106255148139237, -0.18828810032356122, -0.30180832825974074, -0.12055051066073842, -0.29039521881645824, -0.1973243282875654, -0.08707922787852738, -0.03844904619408356, -0.02746658335803467, -0.0067415915014783535, -0.0808314739645406, -0.01875382855317019, -0.034959513082754794, -0.05921006259199607, -0.01159707000991584, -0.004047128036890546, -0.01515199562477783, -0.0444463084680996, -0.049109746194920194, 0.016888601837852506, 0.017285455540902932, 0.03921065180192288, 0.010359650856581143, -0.09310235265887754, -0.023856478250880386, -0.09914338030205692, -4.5318842681363446e-05, -0.16027670183316484, -0.08114738529955917, -0.14563710300963273, -0.10135494392020575, -0.015135592450069813, -0.12282232616314344, -0.08691416595807869, -0.11716653309640856, -0.0166644068099787, 0.06785161078969691, -0.02498851546367395, 0.02987782347464591, -0.09616734888919488, 0.004889214257329718, 0.015181813717702611, 0.047636961271429606, 0.003897883490789094, -0.0064961206634991196, 0.018622271711736967, -0.035156822879837804, -0.019600886838344742, -0.03734549501030554, 0.01056344811108693, 0.026678594200120802, -0.01837781957105504, -0.011622255496478493, 0.02622127419953965, -0.019591216796446737, -0.00984320399379909, 0.0049650578227075845, -0.01238669285212036, 0.017305588030774872, 0.03884812440376967, 0.00434348641035638, 0.029599521022917935, -0.048796711878082544, 0.02904143607310218, 0.0016086484298815094, -0.027987706064484412, -0.005481320738525802, 0.023415464520859054, -0.04083167299763777, -0.02337286770827112, 0.061316226407142634, 0.01708118985141794, 0.04508388189747195, -0.04507621963802571, 0.019047882519862412, 0.018086123429391504, -0.026161609234178013, -0.01946159949760434, 0.03764822637886687, -0.02777868940400091, 0.010343316555674895, -0.024947818552304865, -0.039384791162845385, -0.04517593323673045, -0.03017090358790976, 0.04520453237075683, 0.03889253592498561, 0.007422243686152008, 0.02514386185035826, 0.02121621968479705, -0.046281969298345174, -0.026781831848160687, 0.0010248800221205028, 0.08843614032719842, 0.015086663185883278, 0.05413513926585732, -0.0001186722885671068, 0.0021459488311435615, -0.0013906605430112748, -0.014883293718488521, 0.07581108382793564, -0.01984429478213882, -0.04012125987739274], [-0.06388601174098768, -0.07209082364922666, 0.006171977092222426, 0.017766946176254423, -0.010262451921899214, -0.0013528533255082475, 0.02169027847787221, -0.023337707931844007, 0.0060557914442135345, -0.06179716082957006, 0.037911265700846485, -0.01856180813314267, 0.002994970129687441, 0.017023068636257126, 0.0428380589740329, 0.02084475363577516, -0.02677766672923943, 0.007036312154381272, 0.05849885192573983, 0.029628911452262742, 0.0027225027726185775, 0.03403707096043423, -0.006636695445363844, -0.04382354376157279, 0.018976298011984128, -0.01586454645804011, -0.01121095404810092, 0.0063027752409117255, -0.056972609079226154, -0.06375187005723053, -0.015071810370899845, 0.03107117026838686, -0.01967146186146501, 0.004012542257946443, -0.015318764623326778, 0.012333972454312432, -0.017814081719070934, 0.04155166049990119, 0.00915508561085588, 0.01671672956096632, -0.010478251712305655, -0.04101187334165888, 0.0067906395083258955, -0.023625231741367676, -0.08494808372337768, -0.034971020820434684, -0.009610752567169844, 0.0418503939884294, -0.045113453301172377, -0.01198754720869882, 0.015132914921392638, -0.050375510476166424, -0.038359236326190725, 0.04513566026871084, 0.019434372654378272, -0.02320630458292735, -0.08493200902464669, -0.025339914778343884, -0.03342087973451394, -0.015444728796223616, -0.034103240567130974, 0.017921689774529535, -0.048951311175116426, -0.0941563564080287, -0.01780293966897496, 0.01633924696911107, -0.023777319252047506, 0.03757054246115202, 0.015794396424347643, -0.028445640557744765, 0.0033711254489999093, -0.0204750580718718, 0.015737137075384176, -0.030529045233841458, 0.009208900784332251, -0.009218113545013838, -0.03138755949819738, 0.036235434478892, 0.03530636869512715, 0.017687336939140725, -0.06275183003109572, 0.0484085335046159, -0.006785886559850953, 0.011464723909999263, 0.005948531854868829, 0.04862328385711082, 0.038861931621497724, -0.05238716461105895, 0.009109196739466707, -0.005530217098506619, -0.01730840682955541, -0.04784837126255557, -0.0011745037834703749, 0.025037027048033417, 0.014050526720852047, -0.048816846440792254, 0.003950541400844343, 0.010858603661392892, 0.04421925006479127, 0.007284851613428355, -0.001357955328401532, 0.039916131250816465, -0.02187373252188376, 0.05572835640361708, -0.007880055842293543, -0.09138107197315247, -0.004719478927995239, 0.0014527038691656592, -0.04188156702540339, -0.0767816788877117, 0.013261719733664414, 0.035713063838638114, -0.005615117207786875, -0.0432258981953493, -0.01603342927628989, 0.003121136164228879, 0.03857169341527835, 0.035881493078137025, 0.03192382957936518, -0.02042760164030523, 0.03133803378501861, 0.06873587146381244, 0.011949273318357231, 0.016193933020980038, 0.008964263485455797, -0.04279891721473559, -0.045612262935164266, 0.037458991190222744, -0.0014132292544567061, 0.06459474065040828, -0.0026737820823607467, -0.039090196082238314, -0.004457327262625143, -0.015957903057044306, -0.04871655898696582, 0.0354190307560754, 0.034971619407874174, -0.020084568196798512, -0.014750668400612127, 0.02484650264323212, 0.05235351064134974, 0.03234475219930904, 0.016206252981503418, 0.023546417833387276, -0.07620196688188736, 0.031178897334640323, 0.004020368249523929, 0.07132336013714675, -0.0013868340452975994, -0.03994650249951597, -0.007777828511959383, -0.003910834742178886, -0.01246196177250666, -0.027731376862722004, -0.011837292459097506, 0.005388461323918519, 0.052666479900554765, -0.0260922879417244, 0.02881688350359005, 0.08632392911177265, -0.00848965426997266, 0.05372475712070325, 0.010792430071781706, 0.025647552987541067, 0.022475056330822026, 0.05721837865547134, -0.01584913547056454, -0.02465905608486816, -0.043736672276118695, 0.05244230154172432, 0.042262406048075955, -0.06889713652739766, -0.015404515776092484, 0.030841052756006807, 0.028208253437856906, -0.02043635531284459, 0.007879130716832085, -0.02525299468095386, -0.03476012096147811, -0.040675388240395405, -0.04207273120701983, -0.07056609101912809, 0.015542233980628926, 0.019364540017088427, 0.04185293270470798, 0.019888454767085315, 0.08731020803348528, -0.007971276783438914, -0.009458429324118268, -0.0016865659143838346, -0.04236150618208041, 0.025563326432217655, -0.02002403082706136, -0.0020099432857404818, 0.0193693607755559, 0.03192529293638127, -0.010970871187712707, -0.030998652180257942, 0.0159064866635742, -0.016323883212583604, -0.023055046030661896, -0.015590410276525768, 0.0002523350614439947, 0.05913241505116272, 0.03052538647402951, 0.02360536657414658, 0.029695332445614193, 0.03043392981825314, -0.06752236798591049, 0.002433901986218985, 0.0018066677730157127, 0.024923994130066244, 0.007504671585491214, 0.019333922293770935, 0.016868267030190863, -0.0018411556984716624, 0.03732951263699254, 0.03071393146556455, 0.04652602834787269, 0.018593997609933396, 0.022211216232514847, -0.018924836057009647, -0.010457336543223018, 0.030947063852280708, 0.020740935278869572, 0.028925440827800478, 0.012310084880510682, -0.0691809596072396, 0.010718053950336134, 0.04212483098955514, -0.03247524331256304, -0.03247737042181357, -0.015997393164863757, -0.016885991219277745, -0.05790368433515983, -0.012010770823927921, -0.015184389348568602, 0.010228677621301098, 0.010094935235607179, 0.0028486983421457967, 0.03728219375919839, 0.05386168797143983, -0.020093337386639747, 0.001902524816743732, 0.0100976156717954, 0.001972097918776197, 0.056097244381462553, 0.06861485344996261, -0.008002343159572115, -0.0989367699959507, 0.021053369236218714, -0.038261663014311796, -0.03576278006485427, -0.053725448506466184, -0.0031666158127718, -0.01205262809440086, 0.02857049455493811, 0.018497590711090806, -0.011570980934528114, -0.016902853481333094, -0.08177329261828627, -0.01578533554793649, 0.04388130173612241, 0.007580845672076624, -0.013482521735103222, 0.01611680441209576, 0.0222604199958591, -0.005628017088297153, 0.006995458820326379, 0.008375039112516818, -0.06705542339706627, 0.02250435088703549, 0.05998267205823971, 0.04228578749747337, 0.015812748727909113, 0.007342142013206197, -0.011693573625127168, -0.03219980754849317, -0.013892068243695271, -0.09457405970751016, -0.049288753177893316, 0.014926247982104866, -0.0019200679611482258, -0.030419702272323695, -0.041222138954179734, -0.014695787479228032, -0.012914805212141684, 0.0456000411901634, 0.007249956995788423, -0.01352683487823413, -0.061377503373812155, 0.07932058275891662, 0.10554256795791507, -0.0024762537555050386, 0.013702513674423848, -0.03911656019970413, -0.021574164286404324, -0.027435602221568822, -0.013537275721273584, -0.007493709531062395, 0.07465609479573458, 0.013232962226667349, 0.016873316104202053, -0.01931065961299773, -0.01206004890548554, 0.032288093043263466, 0.02865582667891189, 0.050416914478535954, -0.05993172712539571, -0.036322032872926575, 0.025579533954148054, -0.007955920478224986, 0.05636013859128258, 0.0009910674261277485, -0.00890175652361174, -0.024425319380646796, -0.04286702555805211, -0.005527995376758923, -0.029645865654551164, -0.00621185204047263, -0.06594647830854643, -0.012203550087909928, 0.041332293924106464, 0.061441938257577204, 0.07250499248921906, 0.009386730729084736, 0.058798128942355386, 0.028686886337022585, -0.03414582960148747, -0.016286064174957215, 0.04083747673038792, -0.03935509825565418, 0.01374432451350976, -0.012388854672275428, -0.038173571571957096, 0.038546552339599395, 0.026496583321626625, 0.009591028103781507, 0.03033661861397663, 0.052919502633041654, -0.0038910244771392247, -0.02991805700317677, 0.04250818774139715, -0.03709965822153928, -0.006143594259118569, 0.015413057822200982, -0.012737541223834588, -0.007426177900189687, 0.002742101834038453, -0.07298064271958934, 0.023500170707418475, -0.00044524440969406776, 0.03613629058985518, 0.054798264538733654, 0.03657773520067481, -0.02801574577765276, 0.013142667057957231, 0.05934219439864358, 0.0350620883084179, 0.00506354698816555, 0.00014338011757134123, 0.05120970078330579, -0.02069493227705014, -0.008827016701875273, 0.042966649121352715, -0.04974308503869327, -0.06936203909835713, 0.030614610130877903, -0.04198049643131712, 0.04392005921881798, 0.002928872073855913, 0.025562327899006997, 0.02209185610440933, -0.011461575504546066, -0.0079644325585882, -0.044070145393781034, 0.013118968662175034, -0.020989413684980543, 0.034812778814636576, 0.08806540744326924, 0.028808281794658563, -0.05730248359701228, -0.020171731418543486, -0.0053679548975411225, 0.0667805698398713, -0.050412281117073784, 0.04455487819860621, 0.010135498201371296, -0.009853041529413095, 0.014362470755187972, 0.05912501155000021, 0.0659237496661148, 0.026737398379954213, -0.005455600687463085, 0.037821527199691236, 0.04297040452381275, -0.007584256388824622, 0.018605480834051488, 0.04256479797092178, -0.012414722180040316, -0.04548711922830195, 0.02947781848250548, 0.06820854081316671, 0.015407289257095546, 0.012361451571882702, -0.044067040931736676, 0.03181924764401167, 0.08878907177464564, 0.021580881752429476, -0.038550490376947896, 0.03184233306002141, 0.06734387684315196, 0.0270503873943091, -0.023550442445792772, -0.03678235176285811, 0.006049416130445554, 0.017927105175374013, -0.010691818547520495, 0.00029386277722220276, -0.01836175326166728, 0.03876380771393845, 0.029669141727165848, 0.01213222453904155, -0.014132669906079738, 0.015624042197085544, -0.029540072303028044, 0.09967587952892333, 0.10399477325421663, -0.06988682692326226, -0.11815984130474749, 0.05298607657473372, 0.027504308812003463, -0.06591621798886838, 0.024381114141354746, 0.024641399470552685, 0.07241822366992319, -0.07640407458088366, -0.00702402480909822, 0.03680269009423098, 0.01487415226852298, 0.023306464182828644, 0.03739239356277741, 0.020868276533844925, -0.04726966151264544, -0.013312914761359028, -0.039078885875425094, 0.0359126477570597, 0.030134718011244444, 0.00239833084219565, -0.002687547300144923, -0.05929225105814528, 0.026819905088049083, 0.003134485777777861, 0.03724433786946484, -0.03206239944466518, 0.00775008335226898, 0.06654487509896688, 0.02913130919029617, 0.07304923935620122, -0.008127395837778873, -0.06453043364180908, -0.04981427998973234, 0.025040265430958258, 0.0641009481366893, 0.03730827388234836, 0.011425040465400991, 0.007831615335602638, 0.07150246268380209, 0.07434275403979967, 0.001598868683368976, 0.04504208544979793, 0.007392015831348761, -0.05441690556091831, -0.009451665016951988, -0.03742664509036395, 0.029448491782424504, -0.0013968130590410084, -0.002389814979356215, 0.02434353115148902, -0.015236920255491518, 0.06897403084065122, 0.0021923283760536916, -0.006228095687999157, 0.0070910162683315734, -0.010955259196810754, 0.007071982792034166, 0.0003010024224638733, -0.008107672859945503, 0.01682071720491363, -0.034341381155526825, -0.0014570679079667953, 0.010215798375439832, 0.012524535643779054, -0.03224691743292716, 0.005682997485269936, 0.022492928033690907, 0.04714442811379275, 0.007648324430436322, 0.07016758960003779, 0.005165084298265822, 0.029942460144021084, 0.05060757867641515, 0.00983154540065644, -0.013504284622244683, 0.0735371272139133, 0.03250569582560808, 0.014286108530064989, 0.07293268021529499, 0.008942911370645337, -0.029456558436045648, 0.032765720730367695, -0.005696017849435961, 0.0390615436909877, 0.007040289520613861, 0.027181813962278617, 0.06116976102001165, 0.009770982941661193, -0.004979204670158698, -0.03933463007756538, -0.030775051472653643, -0.01859999242168532, 0.007237033199575893, 0.01745789086552148, -0.0424414335420151, 0.00323189208419639, 0.00760141498796278, -0.008835738640938116, -0.022333815748660394, 0.010452797115146956, -0.010480164548197213, -0.015616103113713344, -0.0009504661531006921, -0.0497767651875872, 0.00741104328812113, 0.05613186041690938, 0.000521527545977502, -0.025143700895329392, -0.015131231499606941, -0.07786022634177259, 0.011290691049333926, 0.008856882717957097, 0.03791366539406015, -0.047321105175430304, 0.01494202273397332, -0.055639283989683944, 0.019606701624576825, 0.0509530398711362, 0.020107526262024493, 0.04766856887526003, -0.006942114534581541, -0.026038008934520605, -0.04950081142272709, -0.01460075868827171, 0.04452343976485396, 0.07012242319516916, -0.04023496794888568, -0.03385020798987992, -0.015764983481852124, -0.012571651956854892, 0.045491654079216924, 0.05532598712175973, -0.043500299759473865, 0.08882900138816505, -0.02864832647816118, 0.049368092632776556, -0.015372316305869379, 0.034024807749020766, 0.01397398393157236, 0.03921050033144751, 0.056280512728548546, 0.011811230821331929, 0.001539791156823901, 0.06225012507600299, -0.052473463637928944, 0.012772463458879026, 0.02638918830641241, 0.04618063816771033, 0.019389261711210443, 0.052665268893541506, -0.01974341469668405, 0.004369485764888367, -0.01637286180422292, -0.014298015753196322, 0.012548983485077131, -0.01800936827722328, -0.03760103308691373, 0.013920062701896767, -0.03052057640381401, 0.02316070480773839, 0.06341205060155346, 0.04371863802352389, 0.018304485208403224, 0.037494711532814654, 0.0014255578592025557, 0.01406910989522807, 0.009685371961958478, 0.010837404027344425, -0.0023692114698141108, 0.0030845144966754816, 0.04144486706903028, 0.012526967656885357, 0.04476687394498069, 0.019322786828459525, -0.030414404456221535, 0.05485951900586847, -0.02048212897591535, -0.027890229213452945, -0.04505257847281474, 0.038519851533446677, -0.002541001257139293, 0.0012879846603926013, 0.011866908621433232, -0.001088868138528582, 0.03128210593756779, 0.00047266847011779656, -0.07651714699115125, -0.028764559502288227, -0.011442691944825707, -0.04614489563369111, 0.01557893813210634, 0.045710695483467345, 0.0169452213026298, 0.04351882630225698, -0.027134343107374972, 0.008475614443544813, 0.0525351133946539, -0.03504174874939987, 0.0586711764876734, 0.04161608965716643, 0.023994981085669474, -0.05682466577945269, 0.0011642040197112943, 0.0792817858048207, -0.01571118605571508, -0.026614236645001274, 0.008517336205999497, 0.0118804526522974, -0.013212588811113297, -0.06234946613351388, -0.011046113658562302, 0.00603947110465432, -0.07800366333230002, 0.0032416369785128185, -0.05187416832300493, -0.014193491493181259, -0.053031559029048, 0.016819689824650128, -0.005235675412252278, 0.01117951095456709, -0.04571512825667676, -0.03448675520230977, 0.08722159240782923, 0.025582825143914766, 0.05655414845352522, 0.08142976550685409, 0.0071034459359648585, -0.011766680633195838, -0.03426993714923759, 0.03702554758265412, -0.0026641138718436715, -0.016251319716443984, -0.03317740599111526, -0.020952029681178885, 0.0697114689257044, -0.04325387398430434, 0.0011202254479575262, -0.0004752171984214021, 0.04898143983749625, 0.04372292606557642, -0.02841814761087826, -0.059594925350406246, -0.03513706595364623, -0.06696990274398877, -0.016666172909645168, 0.04082717307739302, -0.004196749980150247, 0.0013271767648495797, -0.023453666548987596, 0.016058297743706304, -0.03040965340191452, -0.0032768602505668606, 0.04423246123190869, -0.04525032843540702, -0.04309205244351938, 0.03574513412962986, -0.007418763983360091, -0.035450328518838906, -0.01735515494011272, 0.02645976244727904, -0.057222107052293573, 0.02845501449095443, -0.026983465027042276, 0.0037914112530279347, -0.06460529275434944, 0.005663692239977869, -0.08916135017782352, -0.052578261826857126, -0.06002780470501685, -0.007461989221669236, 0.030754145059542853, -0.03940958242647252, 0.07142844476903186, -0.019519095677934282, -0.017747151614688397, 0.013423235507328556, -0.016048419874540698, -0.03767567333550562, -0.009198909374571282, -0.06776788560049096, 0.0053875910451467255, 0.027333171117349474, -0.007920008645590696, -0.004478740848075681, -0.008728008100678076, 0.07571990207608906, -0.06087295449048008, -0.03186732938112793, 0.00999597223709901, -0.03658630087691768, -0.08542342216056908, -0.045117925975062236, 0.0265342307879397, 0.015354443728608738, 0.05913399420940675, 0.013622255426212312, -0.0667648613841647, -0.017270717125990737, -0.04270338277117324, 0.007874379319782012, -0.021579034525837742, 0.04512847504469792, 0.026101936105652316, 0.02746510267563215, 0.0012226327211714314, 0.007091245024612078, 0.013890547448170297, 0.07852284540921947, -0.027538604876460853, 0.024333321524148206, -0.013147618775518241, 0.016251331148610475, -0.051053063559744566, 0.10046886140411686, -0.050081552374561106, 0.030016401254962813, 0.03428498708868534, 0.003816321073833641, 0.02738952008628659, -0.024262558611778198, -0.004119730367106605, 0.01026444665415656, -0.04782757759645602, -0.018548464677778598, 0.02166049245118694, -0.0659560787500824, -0.037397108689389724, -0.007032177835910232, -0.024009938952066018, 0.01417095864424309, -0.011500409011937647, -0.004052781744381866, -0.008307067010276297, -0.040010435352642995, -0.028522771579372587, 0.03421062210748783, -0.02705015365397072, 0.033245248744322456, -0.039440106203701676, 0.031105765439564344, 0.008422285064957435, 0.003636598583126247, 0.014831106154108454, -0.0012294244291074813, 0.04009783160327034, 0.00437565018560003, -0.043877423544302616, 0.019956197669834884, 0.014003436058478867, -0.0021929564395698365, -0.06410083381616052, 0.05016470654092613, -0.012763636234354336, 0.015405166152233403, -0.03271985852529623], [-0.07137158533146812, -0.036627271140772674, 0.03820867611601197, 0.019315586025013976, -0.02104369398569659, 0.006281439384930911, 0.030622498841890534, 0.04334312627805986, -0.014181773665676958, -0.026807155341166452, -0.016498484923879776, 0.03962798444851, 0.024746321396543994, 0.0155037059282838, -0.07802601927523956, 0.04128037130893225, 0.03976256789221133, -0.0022521463230995354, 0.03585733799535913, 0.02101367209798353, -0.03878379818059858, -0.04303991762162262, -0.03356846200327888, -0.06016085703355655, -0.044403143246866714, -0.02095388037258634, -0.024474223947462303, -0.05562492787713633, 0.003942391312331288, 0.015263566441189466, 0.06320304121000346, -0.023709234842257378, 0.039903981677708075, 0.028080379909347822, -5.8881853552480026e-05, 0.04188263850773833, -0.020711722692972043, -0.03589525948206718, 0.011789921956205453, 0.009693594074818509, 0.013349369118991452, 0.042885060009189825, 0.0477231832717879, 0.048692531724175564, 0.029036804286409337, -0.0022876094066126215, 0.03701704841288596, 0.0540915617415118, 0.03139191307195199, 0.043067550607765466, 0.08698307998287491, -0.03204598292810854, 0.02739531475661286, -0.014025837266436112, -0.01737245077089847, 0.021439701780606075, 0.04917218333367266, -0.004454112441168048, 0.10317002452933226, -0.006102622287505237, -0.07228703861325134, -0.010924321372619781, 0.03528263156896771, 0.02436522099959835, 0.047853178473136894, 0.003624639792947108, 0.058681691205812125, 0.04091336246061864, 0.024446816190977768, 0.0044349500211179815, 0.054227417867567664, 0.0904600404926857, 0.07099147401735229, 0.08775455927241914, 0.12504010497692425, 0.1841721025749774, 0.08919155767870668, 0.11273825082537768, 0.17479249870778418, 0.032117238346595786, -0.00606744403684449, 0.02139836997634294, 0.008538344799496679, 0.006161937889608863, -0.017989878300102954, 0.022198448262001007, 0.0006825257200699065, 0.006796151123806129, 0.03465534046027037, -0.04498175572688088, -0.006089486039635184, -0.01722300245677123, -0.0480065800553162, -0.046127184970460235, -0.11750582132219596, -0.03946917895399359, -0.14062986342931666, -0.14532616238363247, -0.09439878171440741, 0.08597134678621603, 0.031235021819850054, 0.11774132729264163, 0.18431467652743436, 0.18693817464318785, 0.2246050158414994, 0.21423206128961006, 0.17568288578250502, 0.22778100167126514, 0.07436406079565532, 0.0010201817978557578, -0.014203940493744256, 0.049855304546806305, 0.03464236489930815, -0.04782586501052998, -0.04095567743647208, 0.03964277693207872, 0.002549642284766041, 0.019337738614670533, 0.061337019466839886, 0.04025085361609648, -0.012751578799443658, -0.143650836092303, -0.123115422322557, -0.21862376008621912, -0.24880592371263235, -0.09970516716545368, -0.1905660516799601, 0.06678397135143449, 0.02266486550207491, 0.061192371990010964, 0.1563168357474369, 0.18818995692190202, 0.2954153149504362, 0.24732159072266321, 0.34268552536535196, 0.23196734856976756, 0.1449508715435205, 0.013120598119385688, -0.04698365546595622, 0.014752048342145808, -0.04430713519721481, 0.013811722155493063, -0.029232968379647707, 0.019272645469692793, 0.036056330716702084, 0.030478843180540494, 0.05045274901830477, 0.05651034639255783, -0.024051448589801697, -0.008624819149478564, -0.0021684495092855237, 0.04678073961405224, 0.0027576651954667754, -0.05123870171998319, -0.14853199092240998, 0.055751663789760805, -0.1233996366750004, -0.0788630268304964, -0.018476634044976247, 0.11837690697334233, 0.16111242877520554, 0.23407868791027892, 0.22011962988471018, 0.1338619364959595, 0.0755904687840596, 0.03831393463477255, -0.004925917148669071, 0.053931423740256265, 0.03874037679533534, -0.03839837466684352, 0.03056689523379438, 0.04942836234753755, 0.053553853776654274, 0.05815140684811614, 0.0463304196894252, 0.04012370473656957, 0.14126180595239743, 0.24322706701626848, 0.2301802386308575, 0.20166785611592952, 0.23552841256390847, 0.2094923655537477, -0.023990506006267686, -0.012196596919430465, 0.02673625967203032, 0.17971908334175649, 0.14752946248350193, 0.23104063084462784, 0.23928403821460875, 0.07565047100762773, 0.18228464366001906, 0.06611931462622347, -0.10034556694227836, -0.05845400235730573, -0.047239425999241615, -0.03748471064916923, -0.02932353208732004, 0.021730756466255698, 0.03183522748642943, 0.013843961074063073, 0.1475787486402028, 0.1723307827641063, 0.12206456101439342, 0.17452270507859463, 0.07993178058054086, 0.19468760571101756, 0.2505940875347602, 0.09029605347807786, 0.1963960489659095, 0.07399750173550856, 0.027694932028259574, 0.09305649598269794, -0.11490025195985162, 0.10919739629000927, 0.24914427441579018, 0.18937695927124085, 0.11646881573098425, -0.08599404583292793, -0.10778132160505895, 0.03596439116918865, -0.03414048703756415, -0.06737094836389587, -0.04167611243338617, -0.029931398416177212, 0.007886059477867649, -0.01516445439615269, 0.05740524729719984, 0.04694652850802321, 0.13835488548017236, 0.184151572476388, 0.14804441538613605, 0.23423178128897074, 0.17896372880701714, 0.19775787985626114, 0.13282616756028479, 0.19417282036467048, 0.12787573319478684, 0.03656545633780577, -0.009322180719674337, 0.0007602224841517025, 0.0897907021414928, -0.035153184584159336, -0.13066053748942236, -0.29554205664869804, -0.28754365625025513, -0.20673324232923243, -0.07007772647441213, -0.02762847703756243, -0.0501629763776251, -0.013830926344294343, -0.029250703946656038, -0.011516598426467881, -0.026052562795978694, 0.019176416098313432, 0.0005435431100619707, 0.0680190256612245, 0.07797640183642687, 0.10444875031105556, 0.13300736948035694, 0.21977395680322023, 0.1518856597054435, 0.11631153178703549, 0.14326107114155476, 0.12454905920675666, -0.12842721450692643, -0.12381477401220117, -0.03479492089128506, -0.09766076484819687, -0.14817617110322714, -0.11375618333759824, -0.23422541725732807, -0.30972596162388966, -0.33062801899496347, -0.20711574791766318, -0.059139572661386135, 0.060899354477009136, -0.030999073509319634, -0.09307760981797873, -0.06863523330239099, -0.0008901447511959125, -0.06272102924824303, 0.03871901283630534, -0.004822425370443939, 0.022901960381535108, 0.11276415736844626, 0.13046364830954837, 0.019699589388150737, 0.0602492709049052, -0.09266522641218466, -0.013153365613190877, 0.003185407204947333, -0.08786801244200608, -0.11156738969573878, -0.0709962161196684, -0.19136968287510595, -0.16404182862554967, -0.07710143708962261, 0.05827656604655674, -0.11558621876825576, -0.19796248025699414, -0.33357615920717854, -0.19720728039856986, -0.05304895146466216, -0.11517246567003434, -0.29915097665059537, -0.17130381820847615, -0.13865361382185715, 0.0661672697278968, 0.021202890032539914, 0.017424895015782968, -0.043464101841485275, 0.02139632499257688, -0.0004610927244928196, 0.0492684406332727, 0.09578533508137697, 0.08587258514104383, -0.03211700986373686, 0.0544783068272247, 0.2369596760127659, 0.06285839933716875, 0.14558212714262017, 0.12037388564685438, 0.16184369313193347, 0.06996769787177781, -0.048278770739966816, 0.23792541895939898, 0.20842054383023106, -0.05082043724302246, -0.16627576087817314, -0.08607771288210544, -0.019325656641342594, -0.09580821828610726, -0.1201559807567592, -0.202785920191395, -0.0014150618452888823, 0.014601409962287029, 0.02308343485541403, 0.028887831431201917, -0.025880558688478127, 0.08687818537248325, 0.08425187178460465, 0.14492688895901257, 0.16690720643165494, 0.22498902811439053, -0.034745600901857195, -0.04312603667443675, 0.08400170736330514, 0.03259681272877981, 0.10296341589819064, 0.05163507869494483, 0.14636928547615488, 0.2524675129302307, 0.21007499697857487, 0.3900172269392605, 0.431346616569731, 0.02116544953065805, 0.05385571920459575, 0.12387247478347217, 0.1988239943557896, 0.17826747867754336, 0.03861597508653321, -0.12610793194667835, -0.05464791222319386, 0.022709193225542525, -0.010359217074153344, 0.026949870699332808, 0.02999923845170133, -0.031210869231868287, 0.0681753185283615, 0.11674261354741262, 0.3128904634263178, 0.06954268651981728, -0.02916043225962237, -0.04261788680644034, -0.21244147630856963, -0.25628051648777594, -0.22457239819160463, -0.32830021472004584, -0.1156273956851488, 0.09121681723905466, 0.2336396116720534, 0.4004254975975403, 0.26367251142803616, 0.12393520420355637, 0.10801902233413464, 0.16951591135229438, 0.20965145512551273, 0.1552113229101876, 0.09299799757753217, -0.09555085449831022, -0.0760063256443718, -0.015628285744045147, 0.003131560237247692, -0.003017182219245692, 0.06558090211093331, 0.007851736112281158, 0.0294771804446435, 0.20593437276192994, 0.044085361504799185, -0.16739653824085884, -0.10692721973940383, -0.2528808249679094, -0.31114072098870343, -0.21987142775431975, -0.3513303963379745, -0.3253622654925293, -0.08556617338016505, -0.008255967109910393, -0.09224044614146193, 0.10408564300155923, 0.08256568719766606, 0.12381782022139584, 0.1923594848702304, 0.26983993256746885, 0.06624799863064067, -0.0778826202218175, -0.0900428330811017, -0.11434676883964119, -0.07447997310328366, -0.07037609607768988, -0.038750112874119134, 0.043658626469767946, 0.011726805355268466, -0.046237973983435945, -0.03660772790858306, -0.06356500599310334, -0.1594040422356936, -0.036405010883497, -0.102965616299756, -0.2836611567940885, -0.2548194551913253, -0.15438917880585776, -0.18706196057814148, -0.14603611551173087, 0.029276490147042544, -0.08306659340279667, -0.08863101810857132, -0.02077405355999481, 0.08334005290390352, 0.09682870495281519, 0.17690752579432026, 0.17851272970032853, 0.11171558051519069, 0.0230070071285838, -0.1666272856589164, -0.12507898914026505, -0.08039623672271562, 0.010574072854572871, 0.01881238839535553, -0.005634699811946865, 0.06189733476057609, -0.07533182892389673, -0.060567746792196, 0.02401678216287721, -0.1520589743357359, -0.17333180324471256, -0.2143779835970933, -0.14315310406011655, -0.10677050734210468, -0.03614118763279889, -0.0032028737707693196, -0.035262235724979725, -0.08357204310742172, -0.10403528468168656, -0.13103911232522297, -0.22890313806489015, -0.007336489972556211, 0.10469018222571339, 0.14635505568097232, -0.07401565905148495, -0.047193129399492495, -0.027014806173754267, -0.0744645477485182, -0.10607402700787208, 0.03985818257958767, -0.04019675239190753, -0.01224373571062595, 0.05152478017582801, -0.012033414454522459, 0.020280434451871467, -0.16870967529615863, -0.07430601608714107, -0.17388243893120403, -0.2184428340949454, -0.1083610403084484, -0.10417207780143772, 0.035619891632493336, -0.05775294448170073, 0.04088341895780312, 0.06264042124242872, -0.12075298619005441, -0.22301553499460394, -0.05703271393635533, -0.09907308526233449, -0.12273952475549178, 0.10770427517073862, 0.060552552302753325, -0.0434246944283501, -0.09227529989961938, -0.0358963943329202, -0.04800395121841305, -0.1595938304187886, -0.048621071838466534, 0.017789738001043266, -0.054582018318919914, 0.013247046024156066, 0.008111437821741526, 0.010824134983982258, -0.2380068398250648, -0.3399138792027527, -0.34960427914558917, -0.3018032823850567, -0.03583316110313768, -0.03646702442233464, 0.0231927640246175, 0.15236310700839478, 0.14525259565706955, 0.04654468393898115, -0.1571508850362329, -0.09881624214075989, -0.08371979973046981, -0.09087030755530473, -0.06385961524888403, -0.1797002236016267, -0.02858571939016842, -0.020248269838771867, -0.2012307404143658, -0.27003134635310566, -0.24189999011937496, -0.23589770360447176, -0.06976358565871751, -0.015414820210459316, 0.07448729918243582, -0.006813533874613223, -0.009060757152526496, 0.0370540965089726, -0.2286320786015939, -0.19392007837777228, -0.22531392007338472, -0.14883096109043606, -0.11068878435546901, 0.0356471149890882, 0.048369866588708954, 0.2363647682031286, 0.20759706062445496, -0.04099670252941792, -0.02771833546282502, -0.1503722011814311, -0.19616952640541002, -0.05236138566000915, -0.0922698626149133, -0.08535465210138887, -0.13225705513778074, -0.13560132181292936, -0.19318758326451918, -0.16757564268374164, -0.17479475155815727, -0.07315048609289641, -0.05255815663536159, -0.058807710062012644, 0.032256033111306974, 0.0042894055768450045, -0.03422031374602411, -0.025740328423702975, -0.11699340505778484, -0.13520684831356594, -0.06882004871070144, -0.05569208068430365, -0.015807758224117712, 0.07158021806397072, 0.13606600980914713, -0.011073504374981091, 0.253551179943996, 0.20819448539446825, 0.22956946999976852, 0.16187827309304487, 0.02475615585895556, 0.05827317356560876, -0.021035350639324546, -0.20846785649743316, -0.07919504515294319, -0.07538877057995282, -0.049151178643013334, -0.1182614779171828, -0.03479703496285971, -0.08351845143177626, 0.0005929746704682576, -1.9045437448742907e-05, -0.04158690195836736, 0.025067225606003152, 0.06508696591439922, 0.0012500575774127191, -0.1607982583441475, -0.005668978298290728, 0.018901748563513357, 0.07688022158961423, 0.09007040036654818, 0.04204124082911632, 0.14351299776097456, 0.20036560384069316, 0.3558084586398517, 0.25797415921820643, 0.14663646780604442, 0.2426366466207914, 0.11884820169954172, -0.04772356970109362, 0.019404459427318197, -0.011321439588368636, 0.013147340353902545, -0.0351618109164134, -0.07383818976844041, -0.09954935816278374, -0.07602088906305038, 0.01980302062847233, 0.007712263554269919, 0.02422124814340881, 0.023998065505064933, -0.013330423653069669, -0.04389507379730107, -0.044376118981381295, -0.04946952889716098, 0.04875380359531761, 0.06544095911148179, 0.12357100675318451, 0.1748629568128609, 0.14930816499673533, 0.06535174071637292, -0.019699390699951316, -0.0732460884591376, 0.12115346732658153, 0.15497775346307036, 0.14087166710700672, 0.040824619497567244, 0.11125042493949461, 0.0016734151655219886, 0.07070999105544581, -0.00753662247034774, 0.014737570802931052, 0.04458188574625095, -0.13170586958647446, -0.020270768361451683, -0.0189337025408764, 0.0019983381961680446, 0.07066059606727802, 0.038218411621823496, -0.024440134115546092, -0.0166349619146848, 0.0011311552367860801, -0.059210971800953485, 0.12940613361228914, 0.2601325401889502, 0.31392267818094455, 0.30313403948170903, 0.2296187821103391, 0.2541676254200223, 0.15976478060911756, 0.1533458605171078, 0.238978214499004, 0.14143659823454752, 0.2577638826020151, 0.11399060081569924, 0.19138734126107376, 0.10439983188867925, 0.19956267443806858, 0.011786981311701108, -0.013344334972295775, -0.060825699482332365, 0.01731795229223925, -0.07649916338278727, -0.025694602221564142, -0.018794436830374888, -0.0578753846603051, -0.04282916013818254, -0.017669691840780575, -0.051572685885908014, 0.08211728359672857, 0.00010027692118969888, 0.13768591816805906, 0.2270334771304744, 0.23379431501140022, 0.25248797724417216, 0.1798986746821989, 0.22694771503367264, 0.11796654387487278, 0.20378910797028868, 0.10085815955945142, 0.06426043895575477, 0.1339435520696086, 0.09398822335444022, 0.02671328910754225, 0.054143978096918156, 0.1083100449624622, 0.09933954125507315, 0.020135859924105697, 0.061920354303892006, 0.044577650584367905, -0.04782052478404905, 0.010879220472924632, 0.00549027956742673, 0.04259746888595977, -0.012601491368269975, 0.03269369473623434, -0.01192153984913363, -0.018905368641961892, 0.09621815153700529, 0.02385340760001039, 0.008545984840070594, 0.18463685796203275, 0.16135241256786903, 0.09447122018763782, 0.18550042460118182, 0.16112545534507217, 0.16730600153137226, 0.08188785391280212, 0.07642593036713882, -0.008516341002552615, 0.03910644900460298, -0.026085534814814473, 0.06734512013129362, 0.12222818771426884, 0.10207404823678881, 0.002210815419946344, -0.03234112115364242, -0.02901044300863169, 0.020552161055584165, -0.0365419323757172, 0.038935046401509396, 0.012262676925377997, -0.006034496289872973, 0.07754858154750104, -0.01488154280134065, -0.0022579705873337634, 0.004797506595672077, -0.00518825449103443, 0.04158159076942927, 0.0628441574099534, 0.02399238412532177, 0.058485082276386255, 0.0906198696170206, -0.004572097182370863, 0.02702205958248819, -0.026969703090027938, -0.0004306251065424763, 0.05425066829195315, 0.007355506879110048, 0.0075532739275756666, -0.02254020080440606, 0.03271429741045728, 0.04096387320887757, 0.003969320977037415, 0.0328581316606414, 0.029865347862462813, 0.03573566885751329, 0.06697078678486454, -0.03420020817522585, 0.060908383757644784, -0.01284466575095558, -0.03293030115548489, 0.019435984640119804, -0.015276327354554168, -0.10554674231181295, 0.03995397733797182, -0.031841968944805746, -0.03466159703963961, 0.032456568465992576, -0.04880807676427641, -0.0004915726613772311, 0.014789703050065564, -0.016031876903959554, 0.03562528129124783, -0.02438225460562388, 0.09029858764666215, -0.04187527374579735, -0.08607583853135198, 0.043395762732459466, -0.04347147591962347, -0.02584619245199636, 0.059333744983649864, 0.013605922307678155, -0.01772755583887641, 0.027646708689934164, 0.07292988196436898, -0.024887836774211854, -0.02599697534966311], [0.015996886248884474, 0.04809781883325725, -0.025416399869457592, 0.03358931023458577, -0.0321672407119037, 0.01140038381465934, -0.002348347593133561, 0.02983873267109945, -0.015524867231948136, -0.04490059538854, 0.014328322498983873, 0.004848681622226936, 0.026090806835465493, 0.003987595140533193, -0.029376415532118998, -0.01993428581770396, -0.008818521768336732, 0.05595603639578993, 0.02749556621906982, 0.03559913677341304, -0.029465194756536656, 0.009321183019601222, -0.02949419770870846, -0.0022223999595320657, 0.01717877715214072, 0.041946914721659456, -0.02257955963214881, -0.018185356097313154, -0.054415645607446564, -0.02567938145664899, -0.007492221852427726, 0.03760331378596748, -0.03144284163860223, 0.025860662157283686, -0.050876599109635275, 0.0660434850466422, -0.030067922597550232, 0.029752469306480595, 0.031154011392586906, -0.034065743745399175, -0.019433232772481962, 0.055382986534718626, -0.036533835687105824, -0.0756155516147166, -0.05142516452348734, -0.003494500712935636, -0.018993361576711047, 0.03442063919143457, 0.001008489306401523, -0.051109318406095866, -0.007855373588685014, -0.0038945372386398943, -0.028641621353296277, -0.011112479125652431, -0.013091461173022598, 0.08187744657448646, -0.0385275810990514, 0.025438070611999996, 0.021418325730826086, -0.005618646761373348, 0.015239059182505186, 0.05102179774234573, -0.05648489886272178, 0.002376887492742451, -0.020013596035938126, -0.07027066023779138, -0.025886431999468808, -0.0238910024953116, 0.0441370294223685, 0.0019364792492038735, 0.00652328576058309, -0.08236341948140216, -0.009803140589497468, 0.025624609815886858, -0.027560456135596614, 0.018153089265525883, -0.04182781036866961, -0.07646906122339135, -0.052934056850205705, -0.01780268822760343, 0.00019914487189025146, 0.007054184627226374, 0.04101365566240349, -0.026813836608735427, 0.021908377040174173, 0.001592599241591198, -0.0022002238064851645, -0.06767672122281365, -0.02444772692841114, 0.017282388982433748, 0.006943295581526786, 0.02197803371014344, 0.034201135794548206, 0.02854068840216084, 0.050467155817698964, -0.017290978086856104, 0.05368656227346474, 0.015091583210353506, -0.06307554619113849, -0.02167529899496584, 0.004679342715399688, -0.02381390082268942, -0.07754327896062388, 0.03430248578033646, -0.041680754256671566, -0.05789518934599478, -0.006729680845028978, -0.08895147117708782, -0.00403717226451711, -0.0043161882439849125, 0.08376840309489206, -0.026817319636683733, 0.0586533853032789, -0.00798153250958259, -0.0046528383910372445, -0.06381395390977512, -0.03118214383114343, -0.03941068406738784, -0.1062667677545102, 0.05417955613342216, 0.07416128149197816, 0.0055127981974090615, 0.03080834269873306, 0.13593616008604542, 0.05265264166127216, 0.0547536608593202, -0.03049041156804142, -0.07113342717448745, -0.007972866337043054, -0.07924356477545297, 0.05712891480227087, -0.001100511232125335, -0.057011282907743856, -0.04522743481346746, -0.12013230520274172, 0.029018858607307938, 0.08246886877551894, -0.00019457661089142188, 0.012430885144602343, 0.01729755722038413, -0.05555655277168304, 0.019585108006114682, -0.018117776746950108, -0.008461517167655783, -0.032938201490908245, -0.022010996203660742, -0.0549626853698006, -0.05067260186920778, 0.004473579201817732, 0.16169486830400825, 0.3082807146395172, 0.3733315097634735, 0.1626767402024734, 0.21397320087883803, -0.03296970449162793, -0.0341150777407241, 0.31476943936844853, 0.13094026205307488, 0.2010198889490273, 0.04857443306651716, 0.07325457155158781, 0.08322213636611432, 0.04731461845586597, 0.03370925679190877, 0.0720516672275415, 0.03294260004073007, -0.01908973111923952, 0.05127129857733567, -0.0037749243450387604, 0.04629426335867349, -0.02273650754962581, -0.017222068437044626, -0.05366804419509781, -0.03855834491795036, 0.009233987760071474, -0.01956234399215558, 0.025143543620596006, 0.008629802640720809, 0.1810840986750963, 0.07633835927506878, 0.09278618236309318, 0.12753180873305825, 0.17756288495998737, 0.053488568611495306, 0.10829897899764507, 0.11910087491898765, 0.07172746637798538, 0.08150729410473176, 0.07798450395609577, 0.07444065157790199, 0.09340693958226562, 0.17691432519140213, 0.21433392857710465, 0.08122165948339422, 0.1395155431342942, -0.0038006218383628537, 0.018137968506820583, -0.013731488326045208, 0.006313515883013255, -0.05533741566415078, -0.024540764581117685, 0.05733505129315505, -0.0003102215542013917, 0.07062432251353071, 0.01536738425240219, -0.13206620466861482, -0.09222969147550882, 0.03750759121760294, -0.07227922803183895, -0.040421330092179755, 0.09047706109797987, -0.0005288092693369507, 0.13843864967852262, 0.06473952035492085, 0.03554258643007192, 0.05498908948753371, 0.07363508515360746, 0.1316533781427968, 0.1928964668726918, 0.18292573940609286, 0.1213925469119149, 0.16309009940908134, 0.04395603196314761, -0.00871175041613133, 0.007976408391846252, 0.071275023668184, 0.0033537032092599934, -0.080686689090095, -0.09926162158862235, -0.004958399053592419, -0.062411228908163405, -0.1832215102073605, -0.1649089248223758, -0.22071933993358728, -0.20627992099360493, -0.24303067595989897, -0.17478093960608343, -0.20287478779936557, -0.07459601056263447, 0.07422488309282844, 0.3183461256823769, 0.2583003823451115, 0.24142050035389526, 0.07182860078027971, 0.10013403837074021, 0.1550119626282563, 0.1678799525189359, 0.2636700717016175, 0.19686654968322, 0.15762070810903483, 0.05355837413987956, -0.06463384597509864, 0.018979281810203762, 0.020394722632976623, -0.00768710354456299, -0.0690141550220157, -0.12774940221427677, 0.08638756741165579, -0.05632330597794074, -0.05749143979584064, -0.07334453739610376, 0.03286602733712244, -0.17207634917546147, -0.029482980849670097, 0.10007133852310508, -0.1382426469644379, -0.2233072990869795, -0.17520828808383768, 0.09763395873899317, 0.23809068534609854, 0.19573221616923214, -0.04684322299014673, -0.07146031064043498, 0.07054450881257796, 0.13546429846311944, 0.18525721662615813, 0.2982811252956425, 0.2454299714672396, 0.09157031722576975, -0.04532038879944798, -0.06077557235146857, -0.0808287385686867, 0.029840513715442923, -0.014246497242928986, -0.02441095086574517, 0.02439906721034581, 0.06377877601941556, 0.011795305555104177, 0.013920944929550866, 0.01266863731004271, -0.036876417827061116, -0.14388958614668404, -0.05427064673240575, -0.06032400649177349, -0.2982183781898375, -0.3351809327584438, -0.2042027430368689, 0.065365881435296, 0.057421893539174165, -0.20897281344368357, -0.1787516841750988, -0.1055605562955701, -0.03354369890543415, 0.10033503691600401, 0.259995106125938, 0.2427654546748066, 0.08352140916395065, 0.028622808520975148, -0.06486980270981821, -0.03274966460823117, -0.03375014997604052, 0.02495650311797738, -0.05050995319198074, -0.0648866786054687, 0.008343295389518732, 0.03754192853578531, 0.016746662483274565, 0.003970832893173713, -0.07154835494944628, -0.1521586533470382, -0.01656203034196281, -0.150812228056013, -0.34449937050210766, -0.5217771787054902, -0.27824384943989083, 0.004093324965098177, -0.0026738464964301306, -0.11711504033922528, -0.21694525291960837, -0.16138811834050834, -0.14524900847585762, -0.06439895298757227, -0.027907213727638443, 0.02871188787309941, 0.01068149824230006, 0.013372689702074758, -0.03523132532420113, 0.0023315862262517817, 0.01383161631024079, -0.03662719660991075, -0.008270947694675632, -0.05492462587508014, 0.03653713358641127, 0.007456067559597669, 0.16281928881893884, 0.011867991337148878, 0.07411981449380324, -0.11551656623366655, -0.2013112734406744, -0.20682851280444522, -0.34085483180650505, -0.40359483021987524, -0.38012934461145603, -0.1940347748353018, -0.06393483615289183, -0.056521376315910185, 0.041260765741621595, -0.15784430975889951, -0.1253506143512925, -0.1495360166199292, -0.12123496525002701, -0.07600848688330117, 0.1004863326427482, -0.03275057746689457, -0.09342292864769607, 0.023657375037070397, -0.030818065728144124, -0.035004928537290855, 0.015040025161501198, 0.025096209615395642, 0.01559245536741214, 0.13427838632937714, -0.006241056382375839, -0.0709615428540512, -0.04455957730331999, -0.09801205012555786, -0.08283900953497157, -0.028722717990668268, -0.13044137091097238, -0.3228754048451834, -0.28650897905422384, -0.11155933710151805, -0.029665525302701105, -0.041287321139581924, -0.0987216561669269, -0.022537094085769847, -0.03921215090950549, -0.04916738018726485, -0.0994840001824251, 0.049024809822875055, 0.003983142087544625, 0.03339834857271331, 0.06510288842739981, 0.01200126949871825, -0.0034542342061811638, -0.0025594239516067165, -0.03765421471730633, 0.07652418444930523, 0.15173485291471187, 0.16240832735065092, 0.04804972206440928, -0.2365198035018636, -0.18651305507908378, -0.39715241658931216, -0.20648802023257534, -0.18168804936851143, -0.20780471744630874, -0.31379926461985197, -0.3245074653157766, -0.33805892697539414, -0.10387889622021815, -0.30088365884351315, -0.06503125824582852, -0.11753154527209309, 0.06452004786269948, 0.09246156818593675, 0.013655584967708096, -0.057052375125576225, 0.0001835143422541967, -0.010907917132592345, -0.056965398365823164, 0.061122838990698744, 0.049402403102381344, -0.03516055778930239, -0.00984469115138539, 0.11510844688688318, 0.16589116232231269, 0.12062196824576832, -0.17595222935361424, -0.22092525308575314, -0.14046369545944937, -0.2751267194691938, -0.1982481793953583, -0.14522022228209433, -0.2139730943056122, -0.2623253597027001, -0.313785979310162, -0.323417511980722, -0.2137818449746729, -0.1692548653445977, -0.037074327678028186, 0.006049790002963683, 0.05554283400859993, 0.08097861760160265, 0.1740197893895809, -0.02809451154216033, 0.025601894178810043, -0.013490802715383034, -0.02648141772946353, 0.024035803438606694, -0.03761107263723169, 0.03761489866355489, -0.004690019033745467, 0.08946186676780335, 0.0722420353221602, -0.07611772297400667, -0.339826972473286, -0.41489384312209965, -0.300137448916676, -0.3391193819044288, -0.1830061761354163, -0.10821939852014248, -0.2511275815832735, -0.4200689910295596, -0.31531304849804326, -0.1725413221816536, -0.13527292055185117, -0.09765674632701578, -0.026103999708310423, -0.0459732115652083, 0.05857170710170074, 0.15964942188285192, 0.1633697678547846, -0.007276197889761837, 0.06770660982382619, -0.02289481616082415, 0.08814442970044248, 0.03369143226368834, 0.019042206595035506, -0.031377327841437035, 0.01581182142309427, 0.18060871339264514, 0.23523397684792094, -0.08409838039163038, -0.32385332037669967, -0.3927596476796082, -0.2403724890171054, -0.22683035346388175, -0.3039109143254577, -0.47078207315547144, -0.4852885466544424, -0.28063818929697604, -0.21293809735161282, -0.06488687370486014, 0.11506488447159878, -0.036118505550480184, -0.18876924749781596, -0.19670672385155247, -0.02337539488836461, 0.0871734879055945, 0.2162249915932785, 0.0795802488560297, 0.001682604687210221, 0.08179621363880456, 0.000880571812502672, 0.0033375177172554654, 0.04602641380770792, 0.03458665799326371, 0.09582401962576657, 0.17469872436471984, 0.18529984876787436, 0.1404283570962507, -0.11470758833305178, -0.16824543766752287, -0.18998973131143648, -0.18257521946899927, -0.08493697647838488, -0.3116321468285339, -0.22756612547655386, -0.13972757214688591, 0.0014229110018585463, 0.23215613604474536, 0.13364685817536573, -0.007972823451595156, -0.18418434989868301, -0.06342147528821997, 0.049794458980432846, 0.10104591475108926, 0.20515316188118957, 0.04249663201413105, 0.0026986154064059706, -0.013168144796546478, -0.002659514401716497, -0.0062751041253871695, -0.028260658069340316, 0.07180661844932211, 0.0622577583872308, 0.2547282681450253, 0.2730060300400457, 0.31859926373575415, 0.27136641586983345, -0.011744769234361525, -0.03303385711730785, 0.11343528376506667, 0.1844277636445882, 0.2473278176370636, 0.1653954281738394, 0.22335859226657587, 0.2739039789017618, 0.13914153288019013, 0.06434218722473038, -0.03541235198977169, -0.05829299370660223, 0.0897869536698675, 0.13648440520654123, 0.1233477783961684, 0.0536150315925079, -0.004619330865602613, -0.017830454759477803, -0.013010612376834985, 0.019945695226909404, 0.033224485792015715, -0.02872943041088692, 0.046789574268202974, 0.16543401705684915, 0.2983186846918252, 0.42948236120487737, 0.4530894419219913, 0.36386406948837247, 0.2847653525841925, 0.2352515491006584, 0.4296247732981157, 0.29768587856565465, 0.2566461776913879, 0.0932884275839076, 0.19642015490683185, 0.3797811658507412, 0.21950575645299472, 0.06223794257362388, -0.05487169230741683, 0.11764052527588209, 0.16868183911717785, 0.2086642198490642, 0.15814919172214686, 0.07219152922180368, 0.03643106260006163, 0.05237242171007933, 0.020482815217512215, -0.012982893691213995, -0.036768930429489095, 0.0025280337937685924, 0.004886965944813366, 0.1375045282388917, 0.1423551911060783, 0.21582372328344995, 0.16867055496878683, 0.42102001917707815, 0.252713586695857, 0.2078600169056212, 0.34288371088687625, 0.23492943797474125, 0.2953784412202222, 0.3515764106010348, 0.2964465193599051, 0.30344744612891483, 0.25010510487918325, 0.11679888351549844, 0.14356401812717898, 0.18064058993551654, 0.22449481874565191, 0.29164619480586873, 0.2875555038396754, 0.05143051227385606, 0.05463804457102999, -0.05822509432738302, -0.027166312111554743, 0.03726223974234224, -0.022987751033443873, -0.0008354084422991523, 0.012820370738951753, 0.06008406808564952, 0.06439448039557706, 0.009141356930183324, -0.0038126376005166037, 0.13697698203051709, 0.2973542205359295, 0.18313624421074487, 0.22748618174720334, 0.3056517708071876, 0.26841822966880435, 0.24783362153507926, 0.09429280751927818, 0.05055205284742333, 0.16016700287583524, 0.23918381814800674, 0.1974817642063061, 0.17766258813234592, 0.18105467216891155, 0.13920357953130064, 0.18818825284617086, 0.06751141213377111, -0.07458087326117672, -0.050822388217038265, -0.005586866886914112, -0.03991568953245995, 0.005544560265839239, 0.019079035486829817, 0.03392998553182929, 0.007006415580115134, -0.011962787301184979, -0.04523750823339561, -0.2443446169674101, -0.09860755146168326, 0.09891764949809417, 0.1660700151229166, 0.2891519568103358, 0.17258871911227572, -0.018829704051636035, 0.07410220704920013, 0.013493017742994466, 0.06180449206665569, 0.0755569435644909, 0.06281728426472376, 0.031062712070823367, 0.1392133068129842, 0.09544545499699021, 0.10723903396915357, 0.09987815715512885, 0.04122853932247252, 0.018565773879793475, -0.00867811997719277, -0.021902014232215283, 0.004259044522034689, -0.002847997823829198, -0.056891130755582844, 0.05870842112661095, -0.0855216809417644, -0.008358664176669799, -0.11632413029272251, -0.043412420898508164, -0.13250626506948882, 0.03842305877289204, -0.01597403917854849, 0.007679872216170726, 0.02852111580608319, 0.015140082426678919, 0.056592173945614464, 0.04866621852245585,