{"layer": [784, 50, 784], "weights": [[[0.0005461580734286466, 0.0003416221772752478, -9.314751500815625e-06, 0.00036454202965551983, -0.00016060288680985952, 0.0003257742859995922, -3.002886431796e-05, 0.0005787673266029584, -0.0005154535589293802, -0.0008061752563280475, -0.00021426398396870634, -0.00015154573385100503, 0.007747941191903001, 0.018631125738668278, -0.0005392136968543678, 0.0003042217663408852, 0.00015426593622763315, -0.0006652808723148163, 8.609204601264037e-05, 0.0006748284590031243, 0.000362882918963517, -0.00031618802142149215, -0.000821982456733031, 0.00037903849678905726, -0.00017778326151178165, 0.00010486315519635925, -5.778845411595895e-05, -0.0010119297246904686, -0.0006492032862228441, -0.0012329353386606866, -0.0005593871428883621, -0.0005630888739517772, 0.003908083904603279, 0.011954571842007239, -0.03236068247235256, -0.14804612821866542, -0.2981781604657639, -0.17741136154155632, -0.001784306078161163, -0.15337347772261342, -0.08944607564441233, -0.02021218135357684, -0.172688639754788, -0.09154017394019928, 0.22276294771052807, 0.1961462019849683, 0.17207734447314144, -0.2026827693163923, -0.314183694759309, -0.1864895976450035, -0.16030141398375083, -0.0022520897865079253, 0.0003735285615921822, 0.0005514735023040318, -0.0009487335304730128, -1.6133060681353364e-05, 0.0001380526615595475, -3.9650846557541944e-05, -0.0005651109390524778, -0.0004915472327639613, 0.01510148194399284, 0.01560631200112409, -0.004828605287945606, 0.04699905935331001, -0.1586936521014124, -0.3692615114116997, -0.060386428534878384, -0.003071737471900738, 0.23605092184373505, 0.07037723384255086, 0.27835045148717186, 0.1660428797247027, -0.019774701657244168, 0.6505979016834673, 0.22424965863523205, -0.1339254116247064, -0.17217352985462192, 0.29153256735439903, -0.13838360984910741, -0.2675973133728932, -0.11497595125281448, 0.0010043729661456465, -0.0004669155561214606, 0.00039831889290642235, -3.822879970494584e-05, 0.0011849800582553228, -0.0007413806022561372, -0.0009284689658376983, 0.03231189644237131, -0.22069486078235528, 0.01688897534027346, -0.5952036791651972, -0.8699513943537147, -0.39361198762788363, -0.18704623068183865, -0.20915702954135576, -0.06037754162787751, -0.06838249097764579, 0.12077662462607497, -0.2969312851538093, -0.14525719303619974, 0.08687217197390551, -0.0323786592848946, -0.373212463027098, 0.0023613056672854285, -0.4079103477071505, -0.4641929938888762, -0.05693488029713322, -0.019447289320130755, -0.09862839392059862, -0.02605369581519148, -0.000356353433095985, -0.00024344259224050424, -0.0020817097153307154, -0.0001041586132180019, 0.016578225538228086, -0.1413898086141393, -0.5563774700072842, -0.9023364950174853, -0.9512441685111518, -0.5614951340133767, -0.3602188636676256, -0.4038402803079568, -0.22879903058352052, 0.08920689796320716, 0.1278040604697908, 0.4399476449862959, 0.3172482391913686, -0.11774260335803062, 0.06844852858916188, 0.20089898422487176, -0.3468775322417444, 0.3001223508742863, 0.23825712684009281, -0.17947861995552167, -0.4726465785997402, -0.25504380571228313, 0.06421462068760722, 0.10552975665064294, 0.027058216276430215, 0.0004472296399367712, -0.00044250201193811494, 0.007225236956315213, -0.03268235502953338, -0.2962824893681984, -1.0601106145822043, -1.1561122149794862, -0.9850871857775763, 0.060650911170507096, -0.21893992849867588, 0.00885846332247224, -0.24747216946890246, -0.6909201022706335, -0.09912775458853589, 0.4380928119795053, 0.07897136127580805, -0.31230830568476065, -0.17792034952614996, -0.36113820876139113, -0.2300414568996248, -0.010198350735426237, -0.20044288733413154, -0.40252711359729026, -0.6116732808329469, -0.7580398227269736, -0.05884176945164372, -0.06402058144369456, 0.046273426652365696, -0.0005843275871432096, -0.002837198198808885, 0.035488438551874744, 0.11890020792319564, -0.023921411546276212, -0.26976060265724267, -0.05987732313244373, -0.353288340156443, 0.19248738989101385, 0.1793188402749449, -0.011506332431468033, -0.3512321745143345, -0.27749904221840077, -0.08129142577359307, 0.34925481488923865, 0.5417504854831902, 0.17215540290697967, -0.27282160508721254, -0.1254898735052689, 0.1719505668906716, 0.11334415839791477, 0.10185553858602556, -0.3371524716576222, -0.394768795030606, -0.7506772303897189, -0.0017958920900197617, 0.10610447687873051, 0.17420108760623101, 0.0016421787239384185, -0.05047387183612459, 0.08191662247609496, 0.1409731720609641, -0.056697610323656424, -0.08629622534609459, 0.08021897747088823, -0.07647080865043407, 0.15781182645468972, 0.3784754907741288, 0.5073194027378837, 0.1517528358627881, -0.26437842617810375, 0.10636146278278964, 0.09348377780413206, 0.41271303298275086, -0.09391283358937245, 0.0025545231140734824, 0.08655680926134497, 0.23177297686701875, 0.009970381818270509, 0.07709139135116089, 0.4297932355945347, -0.3909054813351457, -0.6665103622344083, 0.007336791739073902, -0.08602867092279384, 0.15940358305162217, 0.007898123647248767, 0.0025041261599729274, 0.3211434113824424, 0.190861532351695, 0.011247082992649635, -0.11134925781554658, 0.20085656868231913, 0.15614988086826082, 0.19504472328730846, 0.3213755081387266, -0.2321879079296439, -0.3154873931776853, -0.38806538375123684, -0.40985012800273013, 0.06453606319626026, -0.10299689129266686, -0.009491558055650613, -0.16967749580109648, 0.031310634513680685, -0.08573787555598845, -0.17220500573716832, 0.40035557954485707, -0.09033855510477307, -0.18397761504931284, -0.10508273787514966, -0.05883215908762186, 0.1862123404881787, 0.061432277392292504, 0.00507847590696799, 0.05302306680999514, 0.21928646728642506, 0.31677967933928186, 0.18711812651087664, 0.19208101051130427, -0.2440549155657649, -0.2961500580354344, 0.17047892246371327, 0.25810012721397324, 0.03792095392627496, -0.14917586845289468, -0.35288666572281224, 0.09813467423188582, 0.19550745295465277, -0.0767845695154953, -0.06400712980101654, 0.1992993113196733, -0.036751067144639084, -0.026666788976477777, 0.3414541539912498, 0.024784132099351257, -0.5615638486488813, -0.0978839390852596, -0.19702396672226596, -0.3609520753910471, -0.6309896837558817, -0.005382037381587536, 0.009821208561523954, 0.14190031777495027, 0.16847118266262043, 0.4743107130976234, 0.47705097749109526, -0.18132165967725988, -0.3864542542556876, -0.3980026142215634, -0.07096383302913513, 0.3168306712239544, 0.2798602988735289, 0.0476569404994704, -0.29515045257840056, -0.11845825716435497, -0.08078437035938497, 0.0848151458617784, -0.07376514141836808, -0.1242748023855921, -0.2779615510416173, -0.22123005926004882, -0.12323349100762758, 0.21619052937225836, -0.06817547061449004, -0.29891677800410943, -0.07211139260331442, 0.0184368312382536, -0.2034665632495874, 0.19299238378162967, 0.01010567251372193, 0.06888488821888578, 0.21781860715833423, 0.3697415275422394, 0.23591868300365515, -0.22431075238872888, 0.4910062949568503, -0.18297106080847772, -0.44632573334746767, -0.1473427963067103, -0.06009378894783287, 0.3283381245504229, 0.11029510804636572, 0.07240523722662588, -0.4962921921541105, -0.27401347704408324, -0.0018161854074986562, -0.09323263047187612, -0.03924527203991446, 0.33068253698360545, 0.15815248753488198, 0.42560152812669294, -0.45790142573850307, -0.023009389134039934, 0.19128548164301165, -0.5092782421277594, -0.43134149546307643, 0.00754620577209473, -0.002238084049417495, -0.06840318580220466, -0.09078651429108682, -0.5365593495749645, -0.1972781942883755, -0.6172187525974977, 0.09912350688545149, -0.45034781303563726, -0.07094597462371754, -0.5649974174402146, 0.1284173287371632, -0.15821746863158756, -0.07989389391152098, -0.06957849892784466, -0.1860427654951383, -0.2541584100159488, -0.34359909572098135, 0.25719940544395065, -0.0005527273972478308, -0.2084691912448441, -0.15293659010343882, -0.04798311624298344, 0.17033063797284687, 0.6925595620836397, 0.4139603624884816, -0.5540916000522174, -0.7308911224146049, -0.010919319772998887, -0.0006649363675451207, -0.12264702552060998, -0.16070513439889253, -0.39598927040222653, -0.30878131371370615, -0.013724094991571293, -0.2707493930655204, 0.04849252731468379, -0.09867927358985318, 0.06542769151628261, -0.13062163215573724, 0.26876383757207023, 0.06835946918922083, -0.10111591880954394, -0.11743982909219372, -0.22432085723447728, -0.16205758915521995, 0.11192248670140072, 0.06751758753883602, -0.22516092140327823, -0.069810533243389, 0.06361285807943104, -0.0778799329559896, -0.06834690213437239, 0.12694135803391993, -0.03837934894097964, -0.22407423830944326, -0.14435738660402644, -0.05050474162523386, -0.05736092191093301, -0.13820500900152988, -0.42375137615023084, 0.09635570374963905, 0.03542143657625435, 0.0015045324633358955, 0.5947464107681683, 0.3276279595480036, 0.34426041886891073, -0.4403421660439964, -0.11508247738521568, 0.01855022324786277, 0.7134868554097604, -0.08358460084529237, -0.3958696470626732, 0.05683383654399727, 0.061567509490124704, -0.3523638516430649, -0.08722102086137874, 0.08058455783377283, 0.11936903291110504, -0.08041873214386454, 0.0016502158308610829, 0.3071917796224096, -0.02483796208817215, 0.019662553640815077, 0.005693433392632446, -0.017323896087832864, -0.0022814382430895357, -0.1896688292720656, -0.523065564646726, -0.3538875662455303, -0.4091960651005454, 0.4231223807004454, 0.598610034618087, 0.7892063235162317, 0.2628825110742628, -0.20135771319422066, -0.3450165899836384, 0.1028618257919392, 0.0033485274834357346, 0.05810259314225656, -0.36390322510454226, 0.05429500962698993, 0.1773722135707563, -0.14347198961063884, 0.06327222221875291, -0.030994001758412975, -0.06302326219079223, 0.026862169081869752, -0.2470063494265183, -0.11333174911347701, -0.12595187981211486, 0.10028160151246832, 0.07206033706414777, -0.001118559350064628, -0.00010750536500848621, -0.04840054636419763, -0.36356461849824306, -0.26114381899399414, -1.09310364217924, -1.1170111880860984, 0.17557586765957411, 0.6057273870460462, 0.5436957116841368, 0.3768795356073359, -0.1260014663858202, 0.06617537176043574, -0.02758965549601764, -0.3182597561884912, -0.060501176187535165, 0.1721293689562122, 0.11788758448158966, -0.13836363813825134, -0.453771497511248, -0.09384355163001547, 0.12429540204679237, 0.06489725519838835, 0.05692140187485248, -0.16620920520491556, -0.14981273750095742, 0.2385635044770923, 0.03899555381883986, -0.0003447105206982881, -0.009419924031213408, -0.13968636653597638, -0.34348395159890127, -0.6803452189382058, -1.2157583055587111, -1.746439321287437, -1.0448210670845597, 0.4322104262317421, -0.09141984044541052, -0.11187231389722131, 0.13263473477692236, 0.12169065967639973, -0.2512509405207417, -0.011901660416105533, -0.25918499395508765, -0.2080990300517504, 0.07605091811123522, 0.06755447716449309, -0.1267937858731537, -0.04118587230703591, -0.02972348754944422, 0.022951497199184108, -0.09313945676377028, 0.10292566113080891, -0.21191516322131387, 0.49124358833908116, -0.01384770432701922, 0.00014516417624945785, -0.0006639527930094179, 0.023236731112554164, -0.36759973244198857, -0.21671828329911277, -0.9488755705552131, -2.0191253297528227, -1.3620367488781624, 0.01822731194470584, 0.18616842754244553, 0.23537863506738624, 0.028173810737363206, 0.21826311677964222, -0.26021537273905243, -0.2535960496298437, -0.19802372011843578, 0.15470062940648607, -0.00582635846583717, 0.11052759218857881, 0.1012205260225493, 0.2193045938339961, 0.11000020458236492, -0.22013020435579583, -0.3922134968055912, -0.21732310173193528, -0.3996627209162621, 0.12979372476411277, -0.038602964635463435, 0.0003218713830656493, 0.0026988155152285623, 0.025489061434022228, -0.011124814474467656, 0.09177223289186236, -0.6127576010885407, -1.888350504804244, -1.5324357432926434, -0.31083504087531827, 0.4043609984423085, 0.2831080273032197, 0.7973294364950421, -0.040780780457006706, -0.2657153118101382, 0.1988934829705537, 0.3527741570005907, -0.17125110174611063, -0.10533703921192789, -0.05933211491534413, -0.035851653364114625, 0.12957227673761929, -0.07630994500345076, -0.38280002054097884, -0.5554400289597059, -0.2490762138321347, -0.4774960291984957, -0.15145835880421035, -0.028492346675284885, -0.0006364780830853367, -0.0012512573067034185, 0.13224813674067137, 0.09988523922195668, 0.1314433975128921, -0.37264313249334263, -1.974500511049796, -1.9972581948924533, -1.0330675779043315, 0.2611373043441507, 0.13764680399382578, 0.7372327063533194, -0.0454237405392161, 0.10222420595644208, 0.17235129767740937, -0.03539115561986934, 0.1062199097383791, -0.16518626337517098, 0.46287857996493437, 0.139515286229632, -0.072118039702055, 0.04687555229095001, -0.13278542037730084, -1.0830517176623224, -0.4522310066239141, -0.5193375766910304, -0.07184578545110218, 0.01709830076563784, -0.0005740000676100504, 0.010742588098911059, 0.08075790855307012, -0.02123296488250971, -0.07219998744946494, -0.20339855205367813, -1.0581057603898347, -1.661701427062152, -1.8448108952204105, 0.4965500974313548, 0.6497261759130769, 0.4653421596555093, -0.25911823789847127, 0.15708154261253782, 0.07440010855907768, 0.24389261831579578, -0.16223777861440522, 0.11503453645987706, -0.09213790893579872, -0.20749629026056132, 0.3755107779305684, -0.8039909373953764, -0.21773516359232828, -0.4230141503395616, -0.47440373840362876, -0.6129065437971535, -0.2170220237362535, 0.0008443426050370798, -0.0005652411566401701, -0.0008955082796955039, 0.05193887287457065, -0.3415111022194184, -0.35813057872173876, -0.5350019243284454, -1.5270209420647185, -1.9143427817260017, -1.1125545259896463, -0.23778277849283314, 0.566246836197523, 0.3615071846705766, -0.19375827377905946, -0.4578380223655203, 0.5737321594263943, -0.23079659760878288, -0.24311043221684983, 0.04884085722282918, -0.07199349761337458, 0.15059218376485126, -0.04733596886952362, -0.17721165252764914, -0.2487695900959234, -0.23402969858102238, -0.21897232771048863, -0.8632320096773254, -0.1877238622444587, -0.0007134811066059076, 0.0002706162209442041, -0.0005556799080315868, -0.011498324735438117, -0.2315897021633971, -0.326794313260804, -0.9176397654736329, -1.236699121742785, -1.60193481677574, -1.6165581371703608, 0.1152319682020076, 0.22773458119095813, 0.5921423859979186, -0.1141997558830862, 0.4232909341351077, 0.20340025938750628, 0.20108238512798002, 0.21686775263817595, 0.08638841914793349, -0.2761261795266242, 0.05603390708611812, -0.07507191156132703, 0.1263556096845395, 0.6220632290724585, 0.22541682797620569, -0.18466845725542677, -0.4822961282453855, -0.04456767080981435, 0.0004596518023757984, -0.00046779480547512855, 0.0005156466822314476, 0.027662535719389106, -0.22394506045819326, -0.4029757893101544, -0.5530157253423112, -0.47473742702753186, -0.8083730655243133, -0.2788842209738955, -0.30556119587642033, 0.10693835190858411, 0.6499570742273982, 0.11209037691434381, 0.012080727187404416, -0.05609634841604416, -0.5993804839073683, -0.2595587089336551, -0.009080088726955723, -0.03676804986737389, 0.6030284795136175, 0.672551586126311, 0.5302842844970069, 0.486000850717149, 0.4466729480414988, -0.09456751759354431, -0.38381424095963373, -0.05340878695464301, 0.00013946759152203936, 0.0007838817311347263, 0.0006283626559206938, -0.00017713689925336447, 0.0954982934867046, -0.024606741473599314, 0.22651797811796387, 0.35806047701107413, 0.4951128238989031, 1.1803405942644283, 0.6215167706916956, 0.665712098991384, 0.6751359437593099, 1.1352023140661514, 1.1455845945754688, 1.2494087038813275, 1.0931335814878693, 1.3285450655931996, 0.4935214047508014, 0.13764870613649344, 0.39402469869101314, 0.7208849587477234, 0.5310361539695508, 0.08428889850386671, 0.06743487372277482, 0.01023502308557747, -0.16991844307995257, -0.052564568237186714, 0.0004343450500385249, 0.000978381981318926, 0.0003814767560227289, -0.0005227111069714405, 0.023114599875764825, 0.396984643548341, 0.16796157534651546, -0.020469529278934213, 0.2745642547383443, 0.3628281219358474, 0.3932855927600309, 0.48167984494559685, 0.5834433586983232, 0.7315914764206015, 0.5109223238646234, 0.5824513002835477, 0.6954600625541502, 0.47184390379482827, 0.04404311402490139, -0.21523911165010068, 0.2524327200686816, 0.33813027513458255, 0.276237169174785, 0.17013850823471974, 0.0914864279207303, -0.00048694832105218995, 0.0018697804563014364, 0.00021552976439240563, 2.4263815507020967e-05, -0.00015283080646424734, -0.00011628768874383157, -0.0003472227987625416, -0.0003393867638245669, 0.03541584555911401, 0.11791958629212355, 0.07305952161236333, 0.07675641597341595, 0.11213542664749032, -0.030785187694632003, -0.050207888366606966, -0.02651554767996284, -0.03296093552177724, -0.006861874010004011, 0.13566891049209692, 0.20676752302946574, 0.11732158756097004, -0.028900486456837824, -0.2514055625848546, -0.033981218750472386, 0.08743205094560037, 0.006273578553158576, -0.017609159129629674, 0.004018442490790936, -0.000542059238646448, -0.0003360498007710618, 0.0001268091065531077, -0.0004155329969674711], [-0.00012666959307254622, 0.0007267920110083045, -7.647990520055862e-05, -0.001244880844172356, 0.00020519706359683907, -0.00010825672942857296, -0.00018888319729264073, -0.0005039028680298232, -0.0005142594390970495, -0.0005887485892071747, 0.0004408127960023732, -0.0003998029372708644, 0.01406607892575639, 0.028216199322025345, -0.004485324442856882, 0.000670896065587984, -0.00033108326278591545, 0.00022719405396103094, -0.0005640725448949597, -0.0008511692556124728, -2.3805960015439303e-05, 0.0007848137363171729, 0.00040300515319061043, -6.555611073162218e-05, -0.00040788419799011607, 0.0005404665619647442, -0.0003833975343680472, -0.00024453983643303487, -7.595825776792443e-05, -7.381105098053647e-06, -1.2382798781596095e-05, -0.0010400590640699723, 0.000874607425079646, 0.003361536845319955, 0.03754655109287328, 0.08068364197734554, 0.04750204016264097, 0.0013339317718234949, -0.042798028399494197, 0.08470911301119513, 0.0641453335717333, 0.02941155830216616, 0.10331933531206855, 0.040362518868256245, -0.03350211640284534, 0.04839180333498255, 0.06165013659987694, 0.06054254871026414, -0.012268072061658215, 3.774504865563363e-05, 0.009869668667882813, 0.013117484615729645, -0.00019373840480387187, 9.494655632985722e-06, 0.00013770163095245028, 0.00016746029388992718, 7.87640427150641e-05, 0.00043132690676695454, 0.0002689860331471571, -0.00037158708520415216, -0.003099896694915562, -0.0015747728529894962, -0.03415754252302797, -0.049706088506826084, -0.18734235265534813, -0.1601368955710442, -0.034924483007059734, -0.20921400241061364, 0.14055952094956006, -0.007423358609631761, -0.2505773146230532, 0.15385061645541115, -0.1014977979845219, -0.09571786132206514, -0.19159208802307515, 0.39494665246598987, 0.2160026159144228, -0.21821617889011571, -0.014113354631464504, 0.10280695408402842, -0.050713541891017816, 5.2289891811437e-05, 0.00012516476850950092, 3.3093878483130003e-06, 0.0005112259451145175, 0.00024147395708490243, 0.0048548082598508235, -0.0023147615455567116, -0.016562914942437956, -0.12802790403313596, -0.12209456281342489, -0.2509575324932682, -0.37866094752211327, -0.13481619053528654, 0.08837417113488637, 0.07122788194846903, 0.11619797556556954, -0.36332825985219847, 0.1464028287098811, -0.23928336167188086, -0.15151196707757056, 0.30256218960783976, -0.05120036928267864, -0.040563665904462656, -0.04689802329529801, 0.017851871700456892, -0.26021340018310424, 0.05420933363225589, -0.19871571899294357, 0.022756511695265276, -0.0010487829747606535, 0.0005051014450668175, -0.00018623908270614634, -0.00020988400182582803, 0.023329052833541017, -0.03664519513610527, -0.1505953324024536, -0.09710529211558362, -0.3936065311383072, -0.26959740974621116, -0.36631299813248974, -0.13004370283314393, 0.06025920652499593, -0.08043871712816747, 0.21425003595743025, -0.03771086391413021, -0.18689314081099626, 0.13369776397657715, -0.07976271048333346, 0.18349054831643277, 0.11333914721787587, -0.02974804526299285, 0.15948022979933918, 0.0992336024757784, -0.2128061639292346, -0.49173996671714637, -0.027628548183704176, -0.019230093388702442, -0.032767083215962486, 0.0003188883705690074, -0.0006023375905968618, -0.0004973211844331246, 0.0062288499026880275, -0.06512813790294632, -0.29867209385316434, -0.09680450052748378, 0.0018638060978952483, 0.0110443254071394, -0.10074862156201167, -0.14602623464231765, 0.07256288585078187, 0.13045004370563043, -0.057750662973782896, 0.29436216119970793, -0.09881117026616892, -0.2658261557833705, -0.25506947996631696, -0.10580181599611399, -0.280414645808911, -0.16085324917084753, 0.09369818822942143, -0.2969779012789187, -0.06517420596556102, -0.027855447553540084, -0.47215449463809817, -0.3692695316407277, -0.13627239767488306, 0.0006041722959709383, -0.00041540146879112476, 0.001310121221154099, 0.0022416765277655354, 0.21457821378944048, -0.09973103936355104, -0.17401338675751368, 0.05435664552850804, 0.16232923225013665, 0.5570048089603258, 0.053164614701106665, 0.039990768716075896, -0.3472562874149469, 0.19997194777777738, -0.08691300183298611, 0.2782253327372541, 0.06649694105968734, -0.1611243166383646, -0.1827977275205403, -0.07622637046733977, 0.03136725312350361, 0.060230240737612364, -0.15189073160718872, 0.11776159568686932, 0.06986088640052851, -0.12567257697686376, -0.06715876234910906, -0.37596126246846784, -0.07357986755419534, -0.000601746612768842, 0.014918087872545569, -0.05828092729409807, 0.09569252856965989, 0.15868911759569185, 0.0025481425662728084, 0.09635900663860097, 0.010913937483597445, -0.10510970485683199, -0.008423945146257413, 0.09363182425249254, 0.043756554155211576, -0.07327141955205814, 0.0027738389022790018, -0.042679067509629624, -0.1232331889362847, -0.10918877787547429, 0.2753502034812892, 0.03772837121381648, -0.08607579506338463, 0.14647819619130154, 0.19089429266133492, 0.034562957984062004, 0.22998748641208638, -0.02265798398088157, -0.12627956595580161, -0.32336294862918796, -0.05432240366920477, 0.0007181599553694101, 0.016801747301246003, -0.015057060014885038, 0.20170297760176603, 0.5415979097797687, 0.21447590465583355, 0.07854703294237993, -0.05909052501912198, -0.10874036756997274, 0.10602430187368718, 0.016429294461366446, -0.17008522201009105, -0.1761623391500254, -0.32572948269034857, -0.24682255447450868, 0.10417561557571152, -0.13768238145367062, -0.04136079799728423, -0.039774362620764454, 0.038209315523647716, -0.18770364619079777, 0.1258849332191174, -0.00027177361499027653, -0.12773026776711688, 0.02259767123344811, -0.35946249207772146, -0.22895651820777094, -0.09521707610731941, -0.0022669780879479955, 0.030357099446564565, 0.024948935541870873, 0.22761256125593382, 0.2663361367955369, -0.12453327159346134, 0.05673652489830026, 0.1449035402495789, -0.17996236067709043, -0.10577602999003716, -0.0944008939195589, -0.044531302073796214, -0.011503837420207018, -0.018435395809499468, -0.01779235428578424, -0.017238521895052154, -0.09050312868823084, -0.09534444917359748, -0.3987116385051305, 0.26009105571389246, -0.0329371034649036, 0.205732207376954, -0.47548990657847684, -0.23222217478996202, -0.09100086844208986, 0.07907139484895742, 0.05331034133896973, -0.10268260351223296, -0.004335643105864037, -0.0076231510129070494, -0.0030027879044146454, 0.32010191091962903, -0.14489672762061517, 0.0061324944240062655, -0.06763842653182126, -0.07563590601114825, -0.04274757554823384, 0.017653170597089093, 0.18762463903896917, -0.05882741803341056, 0.11162389046112779, -0.16200100162853012, 0.328025303104046, -0.0031304806921364867, 0.021919441767795297, -0.026477082406387697, 0.07287983733856312, -0.01851791909292333, 0.002635406356299991, 0.10847854041035225, -0.3099148393251438, -0.2702285559078523, 0.025647567313265632, -0.22908815243106653, -0.06715100139899124, -0.029174008151659384, -0.0012900087062718093, -0.02428116045358101, 0.06845599057385915, 0.22857753814472298, 0.13998947586271906, -0.07522100836744891, -0.2279684535662684, 0.015443257834198351, 0.12709898553945218, 0.14243772471929808, 0.09709839040812797, -0.03356346733589412, 0.09375393025754038, -0.12088672102931179, 0.03290847472368343, 0.3917251020071226, 0.30140985075377547, 0.2658301936685217, 0.166433746726164, 0.3645801522922969, -0.006096078099573808, -0.2845717663213458, 0.22692556845546835, -0.17953792003322766, -0.08732935270344956, -0.4020403812189468, 0.07253632004587869, -0.011528867198720805, 0.0007576944919506438, -0.00259185090127299, 0.07517951768917208, 0.42944875629897267, 0.04038444244435947, 0.3209360320202632, -0.24470691028258637, -0.2233179156142775, -0.11225054839130691, -0.0324988730415881, -0.10696692031755609, 0.19906619393306027, -0.15559137060208164, 0.04727995512170483, -0.23554702800376004, 0.14532080173511175, -0.007156584077578445, 0.09033948714406163, 0.17534348351342136, 0.015199726970354741, -0.1484314476111412, 0.04468248924528614, -0.17707533631799194, 0.2117905933444218, -0.09862334991936683, -0.31799242509839065, -0.25062482722178037, -0.012042560561896737, -0.0005493690194042842, -0.00110801787387165, 0.12335891689600201, 0.2928881677476179, 0.07689582672127551, 0.3087064865181129, -0.3960443082692308, 0.1786394600549654, -0.15201940739843314, -0.09149263556491989, -0.20978195214386477, -0.30890096840577563, -0.07258669451161291, -0.06275421983979329, 0.07819979484671848, -0.008153340560523917, -0.04921739626951518, -0.007192864870140543, 0.037681971019382705, -0.048969363156151524, 0.04076919453781914, -0.24143614491629345, -0.141313718781035, 0.24702745750053132, 0.0829520682230843, -0.5700392733568217, -0.173029631687826, -0.0035225792467588725, 0.0031096489249670344, -0.005040756314587071, 0.019490742137890628, 0.18816220648090645, 0.5146362010314769, 0.10098858982943971, -0.13059969717008696, 0.18910692582751915, -0.2231039111838088, 0.015060319368972317, 0.059341392928631484, 0.03668642642362144, 0.3385153729158619, -0.12291169717468951, 0.10801765169857558, -0.21620288489335268, -0.12740292117096294, -0.023514616594589133, -0.10933754868157211, 0.11277414431610341, -0.08131052337376476, 0.22770498950160076, -0.19647665185646268, -0.2686691115931841, 0.27103556803241463, -0.24004229617419964, -0.241974481974006, 0.0014607472613612608, 0.0014750320342642484, 0.0016992688805296762, 0.048449946408014324, 0.18851621378246344, 0.3616023029808011, -0.08944354068320276, -0.12439144487227516, 0.185017771588284, -0.11847618609539151, 0.1712811041560479, 0.11417469595236711, 0.0030232779966405288, 0.5665454063306097, 0.3078437728681686, 0.36154985430287073, -0.10397439122214995, -0.002195729673577691, -0.09600230965714576, 0.013636600313171897, -0.3007942738910159, -0.09646804954165844, -0.1439070520647687, 0.048483096003637795, 0.41392930840993936, -0.14199371878415437, -0.399331698849084, -0.15454686059346373, -0.0021174523724043107, 0.0005110697376570654, 0.004249590340721602, 0.03645098492336656, -0.1648238619912981, 0.19557321615381515, -0.3398356571078019, -0.20594203820430834, -0.11973537725344292, 0.03726962453091453, -0.39150863779475575, -0.007983151030481903, 0.6577196730815177, 0.43773578058364826, 0.5875466450176184, 0.2877856373611752, 0.18522150568517826, 0.30371578700419544, 0.05707998555708834, 0.0463308751710895, -0.04176736168683995, 0.2272420867524394, -0.07248738904858767, 0.43278499088105904, -0.15161738517950787, 0.1285262875940882, -0.021079710806575818, -0.20863089932180853, -0.002061906160366324, 0.0009199715727003269, 0.0207862621161099, 0.05781845596409669, -0.042253022455387076, 0.1747291619234735, 0.015351910118676116, 0.17919527778599145, -0.22629506472721667, -0.19808429570665873, -1.3446759176206324, -1.952135173920472, -1.2580805671447481, 0.10862187756846937, -0.1581040774240244, 0.1785339986412184, -0.15911563774974338, -0.044928285793187236, 0.14452788048151088, 0.23694907678862082, -0.2047268021898364, -0.016288848304740335, 0.06338179014146121, -0.0497217283719346, -0.2436425862239188, 0.216050948316187, -0.10698768066073043, -0.28885347766242414, -0.01809198199845454, 0.0005653086038034479, 0.005772692572382204, 0.14038801494462055, 0.27741557050119353, -0.08547165434854943, 0.24317180843702135, 0.3718121080912795, -0.14397854837877247, -0.9045235910691822, -2.307513622424886, -2.257040135428027, -2.1021085551209637, -0.5147932306615969, 0.14892339759400894, -0.19214574966245151, 0.17332929685704823, -0.3297198427514697, 0.25754743967466914, 0.013502330528623532, 0.2568979317198427, 0.2924054912193165, 0.3435869701153091, -0.026050888631474842, 0.09491702756856936, -0.2656259741940307, -0.3749351147832512, -0.10864346633977909, -0.006569786560374901, -6.818947892442847e-05, -0.004243201461067759, 0.10735976652124501, 0.03217021758848287, 0.2121891592758768, 0.3477920687026332, 0.44303158858352937, 0.3525852150074916, -0.7939767925421162, -2.0042790251595184, -2.3274694419182267, -1.3308208923541271, 0.774995641068515, 0.30695085927740307, 0.33755262164094174, 0.2701787849916745, 0.05882305770157714, 0.02512199001339647, 0.10689354006613469, -0.23391205466436174, -0.034343289980270385, -0.21675509307151533, -0.37231083625059724, 0.2064015275180849, -0.10262250734025728, 0.040323360548978705, 0.07918865113572826, 0.0010884716590162395, -7.739302627867929e-05, -0.008293365596796887, -0.05058066830044248, -0.21284031547215432, 0.3208238765911624, 0.43471120435423577, 0.36512202012132705, 0.27321436202021476, -0.016003953844536675, -0.9716717937057024, -0.9629611395053383, 0.13585470971020794, 0.7528501098965097, 0.4342028231543994, 0.4091010368855654, 0.11189913414958215, 0.06848794180930455, -0.037593907673761744, 0.30622060659753764, 0.15248717752920174, 0.02366389256368777, -0.28625544618592214, -0.26890241112751206, -0.07715880249077775, -0.5311729102600501, -0.09073428503670992, 0.11897819264169679, 0.0009162504173368326, 0.0009508116040219631, -0.014499881806256906, -0.1705352196997018, 0.009564006364574388, 0.12432847136042607, 0.24880327129714586, 0.2710478817312968, 0.494421511376318, 0.054015737364802356, 0.050635412586028154, 0.08761728955043499, 0.515011993883615, 0.2552569645525441, -0.24719345747495272, -0.16694553555785063, -0.36659645234120003, -0.1808660166180871, 0.32302998045854975, 0.07634604395449539, -0.07024768362469974, -0.1476557191509104, -0.029009814317435746, 0.06314407768960696, -0.20525804100280945, -0.5307327826117865, -0.42214855427078907, -0.0445923659697214, 0.0002436040466965047, 0.0009210847327276757, 0.0004124776829189003, -0.34029221802675386, -0.24995113605343916, -0.06711202533092607, 0.3767420124888193, -0.03139922318833047, 0.12198722332273793, 0.32211610451162936, 0.030309230798079154, 0.49737903200160083, 0.11139669707616714, -0.20020716094673519, -0.007030058088262756, -0.08167270249239487, 0.15903825722391327, 0.030223338834330506, -0.08224823228730012, -0.06989473496548677, 0.38200521494226164, 0.07947451317504318, 0.05619348847903202, -0.02160020857797327, -0.26325231589553144, 0.01782109469972555, -0.22139726004085883, -0.021748700006313133, 0.001045315030554971, -0.0004018940406500592, -0.001156257085730777, -0.05304918339831625, -0.24117313009853547, -0.49665794578862055, -0.33167603381115107, -0.047099448236122186, 0.186077941896209, 0.19127655954219838, 0.2156716680825823, -0.30088354088134334, -0.1681954801266744, -0.21577750294595033, -0.014545798213640675, 0.04556147338464499, 0.24939258678143533, 0.42618588307541444, -0.13394319200683166, 0.03802296398152963, 0.08022936059210692, 0.06046572283123623, 0.015884585339327125, -0.1797648843621924, -0.2017242964865929, -0.2910585933481861, -0.07944646646357152, 0.0022324929002842, 0.0007594035740255988, -0.00032526242113170377, 0.000492928193335216, -0.009244881641441414, -0.12852458029790134, -0.4033604323039015, -0.47093943648699754, -0.362655256894345, -0.00012053625129745442, 0.072950430025301, -0.2985965124946458, -0.2797811328628428, 0.032932364979367065, -0.07038313058406916, 0.1301306443990533, 0.12499388297223843, 0.06308301616690606, 0.11340433070939361, -0.20495757002037984, -0.005501907003005262, 0.04775495604355915, -0.0006616276448857811, -0.2123286926815462, -0.1357676605598552, 0.22422981152579483, -0.1672090389012011, -0.049164156195497175, -0.0007364968367463138, 0.0010748727791390128, 0.0004293053262232499, -0.0010568362262143893, 0.0005427877084487992, 0.04862961316279746, 0.06168284502115873, 0.1267777784580778, 0.2954308845828766, 0.3733853795265743, 0.13555647372640844, -0.03373530589711341, 0.3712902746773489, 0.5064716723144144, 0.06407951666226483, 0.1701116357985139, 0.3312821846362593, 0.16519066411403632, -0.0661260037814945, -0.19177031582652426, 0.05373165422455418, 0.16720987744882385, 0.23116963624522865, 0.21912778962033633, -0.11672997110635672, -0.11782459443664992, -0.09917751461541269, -0.017870005730732143, -0.0018892819642713327, 0.000803851801070521, 0.0011092628696441392, -0.0004477144949882072, -0.000488564353816812, 0.011358540591237688, 0.1100575828616489, 0.11381287750849889, -0.07448254463173062, 0.11802382610349665, 0.04193451467406453, 0.06543930719771274, 0.5984186140347642, 0.5141799476500748, 0.32062228837663087, -0.26549754408126586, 0.16082672772930023, 0.1456965358308762, 0.4251272851378205, 0.4184942225064564, 0.18316575634770318, 0.3814840101929191, 0.2149930496774861, -0.2820956750309155, -0.17078921390386792, -0.01359711280559708, 0.0006482637461211733, 0.0006623852571079672, 0.00036308171982143126, 0.0009399729823462787, 0.00028502762246331503, -0.0006945933813595584, 3.0099155910193174e-05, -0.0009342795765793301, 0.03739717072468436, 0.0984177048242408, 0.07192819578387101, -0.009293024627993656, 0.05192744809918454, 0.04401943871797208, -0.06759771910167656, -0.047484091203655064, -0.142057197670303, -0.03715373074507407, 0.04832500059585428, 0.04533683435294173, -0.010406207861628975, -0.085003421096781, -0.11807923353889671, -0.013646045936123757, -0.1666324782212377, -0.2917434399777767, -0.25858290429896447, -0.049639927741285526, -0.0004988633648533809, 0.00026597170752636957, 0.00025083867668817644, 0.000536623100182143], [-0.0006092068556691122, 1.926480281690919e-05, -0.000380284804772879, -7.046811388645347e-05, 0.00018663442781501798, 0.00034577464304937945, -0.00044727282738264376, -0.0006927440791460684, -0.0004127928557671716, 0.0004164803624626062, 0.0004651991040489284, -0.0002389107610156417, -0.002588461106289927, -0.023603034685223255, -0.020619486756953413, -0.0007527500470771736, 0.0009964475536192495, 0.0007457338253062689, -0.000376218097328153, -0.000463203859302074, -0.00023364396239095004, -0.000381306759324953, -0.0011194384838489892, -7.179998568423964e-05, 0.000513116075188791, -0.0005571437840948365, 0.0013273234705331143, 0.0003952834041613871, -0.00034500313531833854, 0.00014465410230751617, -0.00041254522140644326, -0.00027237272906090323, 0.0009526607190920737, 0.006677491929045417, -0.0014182110933608984, -0.006119733039476949, -0.18391518053668482, -0.12651650796543157, 0.0019228503017360676, 0.03528085317900051, 0.007191533500381414, -0.08136654839476924, -0.2289865063467085, -0.28431666652568904, -0.22204118206175655, 0.012902517840694775, 0.02944435727726363, -0.12385907570499463, -0.08773744838806555, -0.011825715165107617, -0.005261629232317235, -0.007916191095252054, -0.00014073952388925717, 0.00033054458246721064, 0.00030958499917427604, 0.0014395485161404198, -0.0012600746293247717, -0.0003995102145763019, -0.002652736823563462, 0.00033825018006250143, 0.061891851757038784, 0.011029183693567427, 0.03571453858814646, -0.011142726690581582, -0.26436068144446695, -0.15604025053564025, -0.292846993684622, -0.17005469449581276, -0.14021820919087624, -0.08423001250982091, -0.2572867274777752, 0.1500261904438209, -0.36537983019305453, -0.34718468572164296, -0.14908246184446478, -0.17064085162384807, -0.3830191961430312, -0.11510249753012287, -0.2170174747133781, -0.06075575594292015, -0.031172541886814616, -0.020689183724105015, -0.000540402104772626, -6.998623753978648e-05, 0.0012237567585658992, 0.00040374147643742906, -0.006412858537941414, -0.005131997782407112, 0.0007900607129905895, -0.12235971111549865, -0.06023365419257713, -0.29156343298554216, -0.268569942446837, -0.15574638571846525, 0.0027212432792385775, -0.22654396619590392, -0.1767872236019182, -0.1591559086571889, -0.2284726710790356, -0.20806682171779425, -0.23362636639740392, -0.025616808882431247, 0.102289428274862, 0.08103975126797525, -0.06416536371845, 0.4594912755756531, -0.12368753524723107, 0.06511956717020384, 0.1735035608584631, 0.013818776558687015, 0.006849471934963384, 0.00035576940742977696, -0.0005497190728907631, 0.0004322911124477501, 0.009082948323817602, 0.028434206744459845, 0.14270401889387563, 0.030159338913923316, -0.04406461146160927, -0.33669243844631824, -0.1561227671166063, -0.10020870208918156, 0.24199749696868791, -0.15832939087280884, 0.19059544626158226, -0.06677410734476946, 0.2269822430263831, 0.05100022579311981, 0.25679148392827666, 0.04875596801419758, -0.09138239865459115, 0.10283419318647917, -0.198621296351721, 0.04301680862403584, 0.003936076951636492, -0.1366009465746911, -0.1857132986936637, -0.2561851360421317, 0.0442184600880037, 0.011657305221050155, -0.00036228888335572824, -3.095065707863354e-05, 0.013307403786077972, 0.07688783019790321, 0.08116884186759099, 0.09607822737066211, -0.003799702958664172, 0.056448454487548344, -0.13852802488275268, 0.06810107402629484, -0.050729514233303845, 0.026103646215769494, -0.1307273843348755, -0.17041625306774205, 0.030029543479660883, 0.09132988491220978, -0.3801690567454606, -0.13895951378791188, -0.24269497382852503, -0.028315859197126415, 0.15679994999935573, 0.03987130206693779, 0.07727017173877009, 0.11699157978451911, -0.2508366267876678, -0.29655410752208855, -0.0914866291492612, -0.030528286982658814, 0.0005232698078526569, 0.0004550727409825919, 0.08951806832997539, -0.02573319123832448, -0.390277677353562, -0.3302266290175262, 0.11406686954349525, 0.22291655571229044, 0.15453417536398756, 0.11882011375122013, 0.16861267529818813, -0.26570585692719173, -0.01917394955484995, 0.04104921733366876, 0.02345860844842615, -0.26867640889690375, 0.08019612313251213, -0.14829147529610284, -0.21535086712656934, 0.0434289722722155, 0.051669697514839553, 0.044136363546560906, -0.22320514980021763, 0.014119515363776777, -0.36203046980006937, -0.29161830560586605, -0.31856564155746353, -0.05149046186132626, -0.00035435990970478963, 0.042961480236007626, 0.111017005640043, -0.09606542956117778, -0.22757857268881942, 0.0022153514714939523, 0.3550784119147346, -0.2452114491220651, -0.041822841262748565, -0.11731341418578747, 0.22043176342959256, -0.05001523861756309, 0.20376834326921575, -0.10747462903904008, 0.15566005242550401, -0.10942061823665414, 0.09389925321197001, -0.14008413828254115, 0.02864046598079701, 0.10053586830839524, -0.009415566100343655, 0.04175934574327369, -0.24519235475220616, 0.1260735202966709, 0.008698231417698153, 0.20968489949318442, 0.06603068933775351, -0.029594423069216055, 0.0010866518318139952, -0.031171901841863737, -0.05221875586740238, -0.09978564295260703, 0.034699808820765655, -0.23035806319978017, -0.08381187139752883, 0.0455048547755455, 0.1682484687884893, 0.11922968171126555, -0.10710940481931444, -0.23277993705095154, 0.007954390640238354, 0.18502008981672943, 0.24391983779162452, -0.06390215694012075, -0.2828469381819086, 0.17413853874334984, -0.027233246810213746, -0.17935895348712486, -0.002484666229126424, -0.1178515400175408, -0.06806606595885557, 0.03276697912740417, 0.32583926290224396, 0.0820708027200078, -0.08015538317902411, -0.002055408665888812, -0.0012443638890333305, -0.07220643854870054, -0.03202250286705027, 0.07659052813743812, -0.0650933182344545, -0.03366367012972054, -0.04490615526433646, -0.002345750169194996, -0.0779668940821315, -0.06029923800391098, 0.08263781856277587, -0.02396441811186269, 0.10283052822792216, 0.05709291370191513, 0.22423328439208942, 0.11409572760363473, -0.03098439483817448, -0.19844668295270632, 0.09709091404343803, -0.14485903747456338, -0.1778271465748815, -0.08134168855508343, -0.0727967991607945, 0.08851970897426376, 0.2323067302741183, 0.008274622413718496, -0.04794571523976135, -0.03278003440022046, 0.00033916464181238143, -0.06425590019882094, 0.07338544834622002, -0.09426044115772311, -0.1137816063244731, 0.11549117025178672, 0.3120991045759345, 0.06454020186406173, 0.04138531754234345, 0.09516140217523571, 0.302043990825616, 0.10279484379537415, 0.038341641286050616, 0.06160647027470598, 0.07136055233665031, 0.010403563987082956, 0.17862192883312342, -0.21658157671910178, 0.061929355847704246, -0.11069301188425303, -0.17750899687758973, -0.11766324976618091, -0.09652772717538924, 0.24018918582947651, 0.39517324717424257, 0.05065712742913532, -0.0011283829050257104, -0.036432186560401446, -0.008283259512007295, 0.06252192545965761, 0.0051008036429476935, -0.1067188762874492, -0.17646788648729086, -0.1819228811277337, 0.2097946222145916, -0.07948702268842714, 0.02779948433309145, -0.013843405515811171, -0.0771983230778594, 0.1314972765900401, 0.050427255778461744, -0.14682845971636546, 0.063230705348319, -0.004117454144234318, 0.0906258539229077, 0.12496128522144681, 0.013493448528743948, 0.026605125932474934, 0.1885278390790002, 0.1843285787621505, -0.13346410955907442, 0.3170558115459246, 0.10110915009660444, 0.12618385055657588, 0.0021034116900516026, -0.028596149628053194, 0.002542776219072324, 0.04309654823450388, 0.08661004264579641, -0.19546990573518702, -0.21738766878201335, 0.11951228793428822, -0.11979807776691531, 0.030964447640717555, -0.23124005520325916, 0.08019250159966704, 0.03785866829267674, 0.0333199288471338, -0.09701699309154103, -0.16222640368863567, 0.05261677439621027, 0.1173599176806389, 0.14096599461598214, 0.036804529152142225, 0.14500429573338972, 0.14918952419985268, -0.00615604492709809, -0.18168585308231264, 0.006846047164334593, -0.28697652871525214, -0.2503326997261599, 0.0634191065205714, -0.04492069973336243, 0.020751463579816783, -0.00012244491865773987, 0.00442972007362826, 0.11910858007280845, -0.26580830415683565, -0.16873454133311647, -0.055488196600677775, 0.10830294785584531, 0.0332285889688134, 0.06967949735306189, -0.017298091685624507, -0.1868264808249995, -0.10200295705319803, 0.24491436247039688, 0.1324987347262171, 0.1479428315917523, 0.04774243867339763, -0.11083158437797343, 0.008830486876321689, 0.05125432763466944, -0.13241514579104813, 0.051162950301980176, -0.08644916722230894, -0.2142394399414706, 0.28912761100896134, 0.07266983332990835, 0.17361395152162173, -0.18717966554355558, 0.010655051412497599, 0.03565717234736576, -0.021289051334750893, -0.01999067272589097, -0.17050545414117324, 0.07393084642642495, 0.037500491701599144, -0.1605821255458887, -0.08215508986967651, -0.08345279318016136, -0.12017954553722128, -0.008665954092096428, 0.017222962028640224, 0.1875876804673693, 0.14669205079804093, -0.056588117590668494, 0.04863630914159541, -0.1703211937113139, 0.06750751956373957, -0.17818164740167503, -0.033528489584574855, -0.0626126941789137, 0.06091879561269524, 0.1799808472902225, 0.02915804231742986, -0.11929399237397269, 0.38492711423935333, -0.018296689714097068, 0.001318279526141288, 0.012263953935453964, -0.04839565401764272, -0.047108812408110004, -0.14538302949733514, 0.06807251712026798, 0.027024730179628996, -0.1360667183362448, 0.04253917358883794, -0.03351011890045729, 0.2690376208139793, 0.082549180764926, 0.03127354942174047, 0.29712058180780687, -0.015766355869683227, 0.032318446380444545, 0.029093229564533123, 0.08817012929358486, 0.1311763275707845, 0.2699051316033126, 0.12629514935009056, -0.14002698440906292, 0.2794369244715156, 0.33521523294860806, 0.4356545565313947, -0.0853186389211416, 0.3236713346986693, 0.1517002482195544, -0.009390712827595574, -0.001575026481666183, -0.010627247285794578, -0.14814527289680846, -0.09944238105419308, 0.033764217027487754, 0.13265067495679456, -0.21566581621267836, 0.11160883367035447, -0.03538531666614742, -0.06826011598880355, -0.03909171601713531, 0.215191602976809, -0.27537847031528045, -0.24481303342879338, 0.3141316573820233, 0.17405025435780203, 0.2818077808869723, 0.3420723136348588, 0.4728030494246587, -0.02316477777393506, 0.28089009737233933, 0.18163706479134686, 0.2736437353259523, 0.30689291771137767, 0.3568741883538583, 0.3695724459473561, -0.00843815063050088, 0.009056692387223135, 0.0001207721086169272, -0.009636939149624052, -0.17643948974793958, -0.24884159832258052, 0.25377643123424914, -0.13865100348342474, 0.18966519601987386, -0.181818877623968, 0.1217718676439444, 0.011697872452575279, 0.2269089622442048, 0.0807869788988282, -0.37796038536858095, 0.10007853267586167, 0.3872245166886461, -0.020850892707220754, -0.10650869883640417, 0.5589274421919062, 0.3195610164328588, -0.22934806361838, 0.14770757203045531, 0.010297584102577754, 0.04223625209922855, -0.13879111497572094, 0.289431477152083, 0.01601951137337383, -0.06492017216913878, -0.04464827540558982, -0.001218604595616677, 8.166656778752986e-05, 0.1749546370773338, -0.21571926935510613, -0.237609212163362, -0.14005619587436657, -0.08423045564061625, 0.07238168539099119, 0.18944298985414165, 0.20020213635293366, 0.26876907187787685, -0.003659726150091474, 0.129034991693178, 0.5809048035839269, 0.07228595264348053, -1.1272145355052057, -1.4950967616255018, -1.1650994706684303, -0.08558661199922822, 0.01982266150496757, -0.08942131424444284, -0.36113303965989235, -0.29198038364619305, -0.22010953307881231, -0.1024111521210917, 0.048461745808820296, -0.026006768066777375, -0.029027003268452894, -2.0374360640882543e-05, -0.010750640982271008, 0.0801302725664784, -0.05526295466764159, 0.08750740966871352, -0.16850124972279332, -0.14754213459894952, 0.1511071566344343, -0.06639618905618601, 0.04423524434000598, 0.12618297413136723, 0.21275378774692838, 0.13635029356186248, 0.45121602686253803, -0.12699860652187106, -2.2017910097539364, -2.135530136565455, -1.4283272585486215, 0.11271702365087743, 0.06027090578087835, -0.39813741567632244, -0.5860607417698753, -0.7490629831613319, -0.25905345280261044, -0.251513621661175, 0.02190408645282076, -0.003291953851638483, -0.008247450582941277, 6.489641736002407e-05, -0.05874897892005272, -0.09782404676132542, -0.15420365977929973, -0.14434396431075677, 0.07075360167719719, 0.10535963495514925, 0.12291207702018683, 0.0558227215802692, 0.11865153284796491, 0.005243336559776037, 0.07772216888249099, 0.18222322328758048, 0.4973382159827625, -0.956394639864188, -2.6392033485071287, -2.6272280994633954, -0.8162686493720649, 0.14861447135743724, 0.40960598360507483, -0.36893650139156936, -0.5982371661416375, -0.5305710608767314, -0.26977479593417564, -0.608567369956332, -0.1176278780738239, 0.17108690085089784, -0.00020833064610152203, 0.0015203877262561576, -0.01978499097174345, -0.13460909224358347, -0.32583441111491224, -0.4969154691847212, -0.3179427741046737, -0.029180731333630704, -0.16068111767982002, -0.14336480901182913, 0.08184023162856315, -0.12251219147396337, -0.20547060041240342, 0.1311935361538251, 0.6432387662293263, 0.15728241011398308, -1.0257970520600352, -0.5741663810257724, -0.18383748203926373, 0.6028765455752291, 0.441810694195475, -0.1504013750335859, 0.0718257165186385, -0.1575149775822404, -0.5911036003656276, -0.38408772172657707, -0.37119285483805414, -0.06575138967971583, -0.004636842344277115, 0.0013589359927436851, 0.000902454173746106, 0.13919273577749278, -0.14707713803726935, -0.47875521574119734, -0.3367849856493062, -0.1650052853455862, -0.06261472061471454, 0.13271035116593866, 0.1018044762873561, 0.13639478471081135, 0.08038067397218471, -0.04098309865935894, 0.19413755308265243, 0.6621656274857175, -0.08509577578890058, -0.21096414336951713, 0.6709735901817494, 0.5400787846331786, 0.5634030949544138, 0.5388265680248807, -0.24600044754478562, -0.4655973417679533, -0.40408373574744666, -0.05192196745720746, -0.3336076170995719, -0.05925074113353424, -0.010624731269423749, -0.00031490855486657573, 0.0002490778496958508, 0.0641510771769713, -0.15889090246706805, -0.34221338318014105, 0.05842073592747148, 0.018535131744481154, 0.4282356845098245, 0.37045231353567976, 0.1839745165348336, 0.3330721576197562, -0.2107588149406585, -0.7865783002739094, 0.19926716585745416, 0.5484942374301103, 1.0554545795284682, 0.7389402408901906, 0.0222917976042292, 0.7079219679158396, 0.6778287207467251, 0.24916937686482118, -0.07910619538895719, -0.3854557296375487, -0.06965942047652106, -0.06717451332532226, -0.10471319124722908, 0.0137741065830734, -5.7015024885435525e-05, -0.0004740395321652245, 0.00035260354942596365, 0.08317304863278342, 0.17403354214418876, 0.07990307415527857, 0.036003633136322245, 0.3842967942521675, -0.2030908210223784, 0.07530059473344419, -0.052298363143135705, 0.06478979003476878, -0.1233920054078152, -0.3549292310473621, -0.030006467117630258, 0.3094697161383749, 0.21448379042669316, -0.31267438921742446, -0.1856031145259257, 0.3432584259371313, 0.261338212602851, -0.06749758544709099, 0.15697974294500333, -0.47123056615342634, -0.008681311775977524, -0.23188027362271596, 0.0027162431630054, -0.007501585012261722, -0.0003178660265201416, 0.00023382277819425, 0.0007972017043086252, 0.0152693805417005, 0.016779542190073393, 0.22565441801975997, 0.24176442521817512, 0.552194512812981, 0.5715365992285271, 0.2881231593584849, 0.03722195709952899, -0.3960474789670617, -0.055585151861873905, 0.04575330681713657, 0.07198636351464818, 0.7852518414651867, 0.5172549142699301, -0.5965526538492953, -0.33685513419351176, 0.17155218595319185, -0.05715170334370386, 0.14195019886701085, 0.014807134149596363, -0.27477777185138624, -0.23228916803622077, -0.23864750413746194, -0.008362819656408246, -0.009741533807972682, 0.0010835192117078136, 0.00016529163302184761, 8.81866618346072e-05, 0.00016634545973517946, -0.0004329814759467138, 0.02012836180460725, -0.002424512507244149, 0.18403314255093053, 0.4125747056616637, -0.09855812485608444, -0.2081294454830779, -0.20616551788395843, 0.029583383255327275, -0.02841215193942996, -0.3044070238494994, 0.2780869975147703, 0.028123416747374827, -0.4262695022837952, 0.16288259883740713, 0.2975093531446063, 0.2265180692213652, 0.057556140259361774, 0.16324221984630294, 0.04600714573836505, -0.00670605801456328, -0.00045220515312181586, 0.00027544021674214545, -0.000612558341111091, -5.224644418497762e-05, -0.0007165815679805952, -0.0006890908417581275, -0.0006925167408727213, -0.000982969015816365, 0.000569179277780796, 0.01748466441677737, 0.08485914173875697, 0.08013044877162659, -0.03263054318264759, -0.11322918276546479, -0.1633162763824129, -0.056428929007354744, -0.06492588650392117, -0.17614543238477906, -0.17946311801141746, -0.10655197967830586, -0.09664217018819242, 0.15321364191002723, 0.06430145468717864, -0.021463451332967773, 0.026245495825304808, 0.032403117964588085, 0.036909771558937675, 0.005376565107646487, 0.00018830785830640135, -0.00010177315581372969, -0.00031809668984495923, 0.0011483543974243947], [0.0007526442514866953, -0.00018468793452187764, 7.484875532351697e-06, 0.0005143327439939789, -0.0014475858438883892, 0.0006829772830200163, 0.0003327983435325674, -7.170871043306874e-05, 4.70924414642845e-05, -7.5209989189567756e-06, -0.0006631115676814663, -0.0004087499908792342, -0.051455427849639704, -0.09511729853784794, 0.020391040499705373, 0.00034204069996191655, 0.00038094339726397726, 0.00014063511457074095, -0.000152449715971069, 0.001237811152272808, 0.0005270724601519383, -6.411451012152831e-05, -0.0007351083791976467, 0.0004116708160079738, -0.00011734913893066651, -0.00013376958787887422, -0.00043378032933785374, -0.0004885456669927067, -0.00040105100070681924, 0.0002271659497062655, 0.00026332860132598945, -0.0003462356520161926, -0.0003148890024373911, -0.0004195747954511756, 0.007942770245106237, 0.015776079509505044, -0.0638226469475378, -0.053279233189946394, 0.025747402488347206, 0.14389284646811315, 0.017919517312123018, -0.12168420154653102, -0.031623580210072055, -0.1282382577181632, -0.14417324946785978, -0.15236072544881765, -0.12203180470139809, -0.12335150438154671, -0.2076637482936817, -0.0746486798350271, -0.0915547306379958, -0.028819809905035014, -0.0006368022105002189, -0.0006996260014752319, 5.7645158155390566e-05, -0.000730360338628873, 2.3945653006215658e-05, -0.00021268297959410305, -0.009891922434330151, -3.953992462763867e-05, -0.048133734943863846, -0.015076405837658494, -0.008045757635555722, 0.06462932402342794, -0.06255578085096167, -0.06562085457364944, 0.024860505474599375, 0.07873279832166073, -0.09693752547786548, -0.013333828451148336, 0.07666774185704141, -0.0978209465484599, 0.027729785126368603, 0.270227218800654, 0.1778137267149176, -0.12336257527825285, -0.0696133995756831, 0.02059902453266025, -0.11886594682942898, -0.22120425923563145, -0.10594505571455223, 0.006323560746533932, -0.0003030825238416408, 8.9577381849758e-05, -0.00021008882072987633, -0.00016897467192964085, -0.028582443533003363, -0.01611892843761386, 0.014607323470447383, -0.034682211203715826, -0.0886880676130471, 0.014946184228642818, -0.11995879231258769, -0.12986647412298927, 0.37640915837237593, 0.16272393795268095, 0.08860268203385407, 0.1330822649598011, 0.09134912595269126, 0.19017272242464262, -0.15826104915245376, 0.11757850880683424, -0.22999527840790462, -0.2701698040874458, -0.425247486801792, -0.22465922082763765, -0.13275553730440773, -0.0622437615176404, -0.11619014689855535, 0.004952390597912023, 0.0010455738458802163, -1.631545408166876e-05, 0.0007552691342232634, -0.005759046676103594, -0.02025878652801289, -0.06896194335320514, -0.19549096530697344, -0.45460534150995496, -0.3663753782075697, -0.4356516777425746, -0.015561847720917212, -0.001348379190017286, -0.11177863789693891, -0.15023791622708269, 0.07815462307838132, -0.0465310493348888, 0.2901936146591064, 0.2288790365500088, -0.11238409954851607, 0.18662112423899824, -0.06696501171174211, -0.07300701515455733, 0.01065464608633059, 0.08545127905474033, -0.2176463772023404, -0.34685931820353055, -0.2319678369187648, 0.03265109631233481, -0.10700363999937203, -0.0028559476308718003, 0.00043549635870357276, 0.00022510591465695523, -0.01932662200444629, -0.17093119363354048, -0.46509474063496226, -0.6164326512831199, -0.017830823923847883, -0.1498639020146757, -0.058253594147111384, 0.03398843303934527, 0.19578091437938774, 0.04759949325473801, 0.010091717778614704, -0.04748440105418356, 0.10825697248255038, 0.3252312614784745, -0.22636390792488087, -0.039141853459011625, 0.09233162359810454, 0.16187258984949396, 0.15037975836318887, -0.19111234360021437, -0.2753455205536195, -0.19324903241301206, -0.590776993860849, -0.06943997140403493, 0.05705917282760128, 0.002596956564224415, 0.0004122110376357177, 0.0006391103382250896, -0.07467183146166713, -0.35528404873958824, -0.7976650472785092, -0.4933756152211886, -0.17411426227254279, 0.10210092062330904, -0.008970381183608881, -0.15059571931000804, -0.337276722616468, -0.01388643130006616, -0.14617261245742014, -0.10565582643173223, 0.061260357013450166, 0.018316906491670382, -0.09401219270152983, 0.01796412756136282, 0.17321263500895379, 0.018861622132065204, 0.2132212633180213, 0.045239560575922474, -0.2604796430753039, -0.19265349554271555, -0.3617715706829911, -0.41078477569954974, -0.06674408210837125, 0.05162734327963313, -0.0070746062335997435, -0.030798327818065345, -0.2971197845768887, -0.4571324072484548, -0.46267110908070086, 0.1968408061832115, 0.04127927733852995, 0.041319917826086384, -0.16575209115710351, -0.11396752317461765, 0.1174336156966993, -0.0710821699464313, -0.02993656109092315, 0.10971224018490529, 0.2725343717465295, 0.3134264109626396, -0.17698270015561468, -0.15349911142027745, 0.04616096824040655, 0.3383820077885193, 0.21269855062642049, -0.10309507185387182, -0.048131118874043484, -0.18042176318089645, -0.1672668883698584, -0.06580203053208517, 0.11322893900735423, 0.023020183131022085, -0.02685576096875049, -0.09074983837794597, -0.27341271121045707, -0.15165897552578142, 0.05119918657064757, 0.24873934802565656, 0.6924650029124533, 0.18885661334199272, 0.32367183315493314, -0.17702798730742225, 0.02848519892639576, -0.0493510000651109, -0.22912991960834106, 0.16583867109630965, 0.05993095017555753, 0.332919854398017, 0.31367018981759165, -0.006683708304230357, 0.014539984877825407, 0.18460667528584934, 0.037280367036475553, -0.07224838808157831, 0.1290217328119744, 0.1848139249735311, -0.3700375474830946, -0.27288654528064454, -0.0371033074548787, -0.051873567547564045, -0.0035150477547826386, -0.05832410987253963, 0.1799278957475645, 0.14354790003611795, -0.02856053540116096, 0.18005815147827062, 0.44634286254859745, 0.11029011949289833, 0.25089334188052853, 0.37527198064361467, -0.11155267024288626, 0.04290738320630016, -0.2614770509172869, -0.28229516518575987, -0.3057147913757527, 0.23019893627548751, -0.06233713698811832, 0.04182103344937437, -0.1759099307582133, 0.13393688683899035, -0.050080426998215126, 0.0386383209309769, 0.2438996801637229, 0.29161480069170803, -0.4340634244370432, -0.1585426438432293, -0.16742271887312804, 0.03050656794976428, 0.002877387139330936, 0.04743993257038452, 0.3240148702577376, 0.3785256440356041, 0.13241371165048837, 0.6757669097475331, 0.007941387120624296, -0.015412667338058733, 0.7059876841340588, 0.15722360413073144, 0.7183493870536211, 0.520290182205147, -0.415868912169468, -0.49415249361768765, -0.3390488108206419, 0.004470035026148479, 0.15024232653226993, -0.029678270234090916, 0.26361435504614106, -0.10276656526862558, 0.15673938292312778, 0.17105596811043014, 0.08666822011073265, 0.12412742286259092, -0.04658439129078579, -0.3095712822079806, -0.24076825336842905, 0.031890785876357686, 0.004251139779192731, 0.0820688281446749, 0.2444424293614499, 0.35216371728180834, 0.29335120598182546, 0.4590630581409092, -0.2654028306195755, 0.10744315056115321, -0.07454160271758334, 0.38792823797561027, 1.0173557907106079, 0.4553249053138841, -0.038510430628190956, -0.5357884498706629, -0.7243483017636762, 0.1441460647989204, 0.15363609776259998, 0.11333094152242466, -0.08167565745374718, -0.12826986991302552, -0.12057604668134696, 0.07113236259897834, 0.010622398759005454, 0.11790890000480214, -0.13383472947395378, -0.7857941100417407, -0.2075202434960727, 0.058268104672595855, 0.009538841401668666, 0.21587151816215383, 0.27067482869135817, 0.6699041474451259, 0.009214890657735017, -0.6814616442819388, -0.7598865211423, -1.173173304529421, -1.2718731249666473, 0.46419173824606075, 0.46736674138541, 0.6951542022414282, 0.6692386676941776, -0.24320565782209463, -0.545656792607061, 0.1634097528832889, 0.08459203585023392, 0.027788352528258082, -0.10657259000227666, -0.066695748268554, -0.09681044372682157, -0.21686995754866448, -0.20613226035150073, 0.6163704419924336, 0.10043521754840389, -0.5229741384879216, -0.02568278848727389, 0.020333073187842648, 0.0015244383088153612, 0.03262771045854315, 0.07004752061365145, 0.5454173100832298, 0.4232322838718908, 0.24332006737135306, -0.6148893226334817, -1.501803135887713, -2.25000795803318, -1.629495458338235, 0.34971884988401863, 0.8928823722484033, 1.3646854966127426, -0.23610667356621196, -0.7716474229605307, -0.10857843924500027, -0.052437518493505905, -0.07929787815947384, 0.14259993835371437, -0.14774269324690106, -0.06176173435291206, -0.17929997396112313, -0.2955765661906765, 0.3015370755413054, -0.41277149553399817, -0.5108642258721766, -0.027202929229165125, -0.01916720445453311, 0.00045854836664657045, -0.003647235860451839, -0.0691628245998215, 0.25706095052840505, 0.8666492019995478, 0.7163918083760806, -0.05953461661783399, -2.0560920676296788, -1.817309934731939, -1.2973367382113254, -0.23585584221873482, 0.48999563564576365, 1.173446471362216, -0.8533772079630453, -0.5915324098233922, -0.08669873890783401, 0.0059700326108143645, -0.2013490992190466, 0.08690677716140911, 0.23667028180891417, 0.09826758660784789, 0.3625949419317209, -0.36837566653793663, -0.14639203791782612, -0.029506612754255302, -0.36899719922796215, -0.13021397750446687, 0.0026610166742689284, -0.004358316189847365, 0.0427975504648961, 0.13433459902660555, 0.40265198801076546, 0.6223436676644841, 0.034091726210957296, -0.532534899092145, -1.5378743679449038, -1.3714160255922454, -1.1877403804305209, -0.08934545257766448, 0.5690232470066381, 0.8816364273303633, -0.10865162214383531, -0.5095153546390943, 0.14820412990987908, -0.08681323063419245, 0.19519562042268832, 0.04190285341721502, 0.14346067150832828, 0.22717105084358258, -0.04786427567265064, 0.2570504032710907, 0.0678197982537655, 0.36799257430747645, -0.3799375498898396, 0.1005267103665775, 0.010255648285764652, -0.02613444692306452, 0.025976865838692166, 0.09370195559644053, -0.17054476514670308, 0.32768665640872335, -0.010030377629872226, -1.6054071154431733, -1.3498452579545315, -0.5445143991333072, -0.06083403558512864, 0.6126820619641081, 0.24318150487710208, 0.18459277838059765, -0.2759071252437579, -0.25449356877365353, 0.20021096724154727, 0.20146228801196997, -0.07060670425535756, 0.13190696520764017, 0.1768804064476848, 0.3921269249796725, -0.026804414915258708, 0.13194920971086857, -0.025341076430917823, 0.04287203782061915, -0.3784082786891025, 0.27305703107362694, 0.0021776034348567506, 0.00038977205091570615, 0.03974907022860673, 0.0841905421705385, -0.07881377779751446, 0.5131400974781702, -0.17388183581589692, -1.1886323692125789, -0.05880135894816757, 0.6324825146014725, 0.4683374611579074, 0.7820278089452892, 0.17136334438293782, -0.17952474036824373, -0.04118035008932556, -0.17871532900236708, -0.24820624261294197, -0.20242780511647632, -0.14732523134993794, 0.11770462415310787, -0.07298174721175252, -0.01903035803917624, -0.08190889351812335, 0.016493856210586195, 0.08229669326675271, -0.16667551034901054, -0.2323074209908668, -0.07815771963276424, -0.06738350538299842, 0.0026062681761812615, 0.012207043920075569, 0.30743518495844635, 0.14091588155057386, 0.46103266257364545, -0.1291629925584931, 0.09491015300899407, 0.01903939289495806, 0.45122263656270784, 0.5457850986550157, 0.14996927629169193, -0.49679206621534805, -0.1707291480730663, -0.19221292992839614, -0.052817203446294134, 0.030466678454352556, -0.016161063037710477, -0.02681441728331352, -0.12860799071751605, 0.22762705419988283, -0.029291220178698927, 0.15720511127260314, -0.07552476690957824, -0.35816923678184437, 0.23340995508624018, -0.15806110705430834, -0.0672100174832525, -0.02425587960157748, -0.0012902673169540295, 0.01614460714613454, 0.22008597290206164, -0.11121014991903376, -0.25130376539610955, 0.23378180106666288, 0.20763344162658556, 0.40129006016405233, 0.34898953116531256, -0.018616854883968515, -0.2750733080553922, -0.37516912658270535, 0.1416623639481449, 0.13602674886771218, 0.015870350828898788, 0.07074004837338795, 0.00742561566828312, 0.07800398003415905, -0.17287081755922468, -0.23064485365627357, -0.03698970157792562, -0.18584182143968025, 0.12911991491659175, -0.2694394647677021, -0.10855484005939386, -0.4110902315335138, 0.1227897833623321, -0.014988466100125344, 8.309682795296626e-05, -0.053105000524956994, -0.22123333521272767, -0.31577541773043727, -0.2862577845190475, 0.051919344602912816, 0.003437953298198319, -0.028801660085251445, 0.12814856040412773, 0.11824029224013333, 0.07666207770590801, -0.25992963479478365, 0.23148068004676672, 0.38249953795949543, 0.09692611643113386, -0.03362534035670924, -0.19055012388905035, 0.02653575899564445, 0.11082338515855585, -0.003143063156074677, 0.13708174103860993, -0.19988189209077487, -0.24878785228822042, -0.1873933087139386, -0.11744080181435117, 0.0808373113767781, 0.04432521911825969, -0.002394713886975268, -0.0009183995322163819, -0.04708576466124827, -0.4397230716970423, -0.3120067568388184, -0.06254198021527896, -0.08374296041655736, -0.2196188339516684, -0.11111965692111847, 0.05875824988160824, 0.20586982969448078, -0.058925842602869066, 0.22851473765334646, 0.362518459605287, -0.1141141881342576, 0.10281242316814625, -0.0044422228107796604, -0.21781098148074682, 0.09876026447162321, -0.30070484508890954, 0.0606549144031744, -0.03287515463991113, -0.432624189252948, 0.2482906464554763, 0.2546811050395836, 0.21213859920394157, 0.1740963651739607, -0.056314603122055266, 0.003413200108521075, -0.0009761607348140257, -0.005193014660815446, -0.37203881343166967, -0.22748880670775756, -0.009915987453356421, -0.19173384846325933, 0.015093996335589924, -0.06920155390427435, 0.0723282081346559, 0.042648102339008336, 0.06251002634746934, -0.07184519858287043, -0.0696950808723895, 0.011503661743540604, -0.11857065819556185, 0.1661354757846629, 0.1055282152642447, 0.006531688673456644, 0.2547603575078293, -0.009641483329884154, 0.16357478630334193, 0.5569862337827479, 0.4942875659589435, 0.30361265639689144, 0.3497001199885413, -0.023234297971451507, 0.02007523827330145, 0.0042914296024167894, -0.000634389133065453, -0.0005126514566321992, -0.20547738154606857, -0.3133821864405742, -0.3811875422453716, -0.017190332048439026, -0.007578240725402335, -0.016743069196942927, -0.024684617984306653, 0.2528754175149241, -0.06845365066921859, -0.275094572961064, -0.28746274316107445, 0.11578743924644694, -0.020226033731714964, -0.12853408293389826, 0.06287352183697317, 0.03651119814626476, -0.10019791284452205, 0.18182653210523583, -0.11005555252144855, -0.099029512364752, 0.2752627155649328, -0.038516653529057504, -0.01028224318325934, 0.018007120524921476, 0.026487843076585776, 0.00030997248792114223, 0.0006194040565626396, 0.00022188210193109035, -0.04572438359944126, -0.09949635326788617, -0.16718975457447535, -0.008970635174968202, -0.06815044895924982, -0.11922210798501781, 0.08047140433885698, -0.0028298819607945665, -0.07325921243594259, 0.0750019461768722, -0.10516928633910436, 0.08756288562163113, 0.008738281395424138, 0.03812102623258152, -0.14145698221864883, -0.030913294344178124, 0.04867444413080813, 0.31275845306774963, -0.06795739129825183, -0.09464768307827466, -0.17560327742753737, -0.04030282943861338, -0.1454530391378494, 0.02367298259573599, 0.0017794408058797043, -0.0004015445873785863, 1.1419648859756322e-05, 2.050934382885883e-05, -0.002123128363216006, -0.013360031617503343, -0.12116118482868266, -0.10995147918225008, -0.16488294449110533, -0.013545314008786462, -0.13678211261845097, 0.11450891770927128, 0.22182071391191138, 0.09184758356862538, 0.31375149660225204, -0.018862715015257648, -0.06839984247580967, -0.09576498840217355, -0.13380325227550377, 0.209836770886962, -0.16887965994638038, -0.2429891250041475, -0.4468313256881893, -0.25173916883645064, -0.04358638310796787, 0.27599263398127877, 0.038497250878265686, -2.0007775719112968e-05, 0.00017200537490085288, 4.8531983447461366e-05, -0.0009283586335826294, -0.0004727824644490827, 9.687337559749609e-05, 0.008970750492395967, 0.004527629494304728, -0.08751400558876539, 0.0775366332775006, -0.05305042197525043, -0.3486363145105318, -0.2135069217346565, -0.1014046782237135, 0.12872492661117726, -0.14985713525719374, 0.09835302752035839, 0.04019455479633195, 0.24974113383349003, -0.2764412815145034, 0.015030273039303845, -0.06033867165514196, -0.1282378357203351, 0.2092308443408148, 0.223133614320606, 0.41335083892349744, 0.1609086280879618, 0.00037411251349935747, 0.000897475995579895, 0.00032221926083272136, 0.00044794041563759777, 0.00020703775099784055, 0.0006102275370740421, 0.00039263012273223045, 0.0002518083197610229, -0.012645053662357594, 0.060749100247850005, 0.05188429348796832, 0.0690586554781107, 0.13596682521923265, 0.24146237484679364, 0.13343875954364276, 0.05377022813841008, -0.1507446588526881, -0.039449164636688905, -0.01967638164488531, -0.10063458867328048, 0.023860091796715343, 0.17613831124069104, 0.12039476964222963, 0.12983454765477914, -0.042321837434634565, -0.013547209708137928, 0.22715662892265848, 0.0536961742722032, -0.00033918596637351646, -0.000275874706894597, -0.0003566528383758086, 0.00016078913944019116], [0.00030052643673341475, 0.0007199134992968431, 5.7910733635695474e-05, -0.0005453685208644464, 0.0003282136882622972, 0.0008852440764407822, 0.00012817094797425057, 0.0006509894938596879, -0.00010817841467110658, 0.0002664652356552114, -0.00018673009338348773, -0.0002984641414880754, 0.006100334052580225, -0.006863922581426748, -0.02046888909058509, -0.0015791083855776701, 0.00030376550581082086, 0.0005878931036932524, 0.001225445946000118, 0.00038956131090446837, -0.00013801940176764877, 0.0009945476241226528, 0.0006192401752399163, -0.0005193725743943794, 0.0003186325905128221, -0.0006268551875447296, -0.0005598976165459514, -0.00017762919568554262, 0.00023381257414832306, 1.8325890041444542e-05, -7.351240491116667e-05, 0.0002497322588268237, -0.00031016016330226, -0.001762394089589032, 0.041587129572586146, 0.0695794897268127, 0.16731197711667942, 0.1819586400117315, 0.15637823544830812, -0.04424026574442926, -0.18746211153895548, -0.16307850166104573, 0.1265333488075215, 0.2734100636411437, 0.051888364517526944, -0.11772156787682009, -0.05080049391290656, 0.02011091349018493, -0.037118782527936045, -0.015578993033833973, -0.012197888554782111, -0.00203470764263816, -0.0001768112621074952, 0.00043724862952445015, -0.00024120022527246893, 0.0002023352658707821, 0.0007281911454460078, 0.0002116321315447876, -0.0034429409914940702, -0.003021230705347052, -0.003664019665369712, -0.001211334665863892, 0.07525214336442067, 0.11465576292252502, 0.05753623220634288, 0.47657457644020856, 0.4369845972034366, 0.2709795386672962, -0.037077867694971095, 0.077410836403816, 0.2563918624760839, 0.48083306022988886, 0.26516578857175144, 0.2864699698694803, 0.15635029998109956, -0.09493293029738833, 0.12876027372845905, -0.1822201852313514, -0.20156082357957353, -0.12037282440128928, 0.01994771879637676, 0.007146795472899261, -0.0005175098034052107, -0.00021521426279206283, 0.0005188022031786692, -0.0001423727397880745, -0.007657750426284797, -0.0066859250866559364, 0.00213507072043054, 0.01717213360460095, -0.13002858191469205, -0.046310028919269074, 0.13830295277354815, 0.1943175376201872, 0.24438098535329322, 0.42252827630698786, -0.37228286801824373, -0.19992320599540625, 0.11601172807754184, -0.2149754033056791, -0.034130461156071504, 0.36271499240241284, 0.0786704815195378, 0.12584886668047293, 0.16556296698122688, 0.18452310314009035, -0.14688737503727986, -0.13914161694960372, 0.0012056840269496823, 0.010847930394594802, -0.0003682697061341741, -0.0005704509857577404, 0.0010352357037701993, -0.0024045312124192316, -0.009944115000533143, -0.01770343933590249, -0.056736236155146114, -0.2878295747377027, -0.01966928697142102, -0.24217619935245316, -0.04826299934767868, 0.15607317560396905, -0.06526951048120763, 0.13201786358538012, 0.13741924991304696, 0.002662342056834366, 0.1707656994061066, -0.13119259073574796, 0.06282904580987918, -0.04482282047401095, -0.09520016755323928, -0.09572514859474239, 0.11499184345325425, -0.1688547697055414, 0.06424082135897125, -0.18974596756955295, -0.06505051507812004, 0.20852592284312133, -0.004378999985321058, -0.012965819980542585, -0.00015950219936556868, 0.0006678362028959294, -0.029745992404463975, -0.15961553959793623, -0.22281055233312605, -0.6972141680250372, -0.5298210825162339, -0.33128534772334384, -0.3370743557031446, -0.030969935189237748, -0.04920528714184093, -0.17511276398841905, 0.03800800647842395, -0.09756520162567443, -0.23056589697033028, 0.025331466790786707, -0.043644917594376005, -0.2999156162915988, -0.042032970017774667, -0.20149938313154706, -0.007490470160760149, -0.1208697527529966, -0.34211387564881346, -0.31190362090094303, 0.299501788818846, 0.0060770567822518535, 0.16470307065879744, -0.009798297552238155, 0.0001275473780111109, -0.0005206709307544131, -0.03382061497189666, -0.15192165560288381, -0.5304584581669806, -0.5370512918950685, -0.3834755459578443, 0.0009476711667995174, 0.010625871466693337, 0.25052733110901, -0.1480027907598357, -0.05589197705823756, -0.05096612679213026, 0.14515936356015582, 0.14474571057323243, 0.05361148735903758, -0.04000136406199838, -0.2294373912452341, -0.11301865875871944, -0.10873565171440219, -0.055165124201668164, 0.1741085051789107, -0.05008825859835535, 0.0344334654082119, 0.03047464831729566, 0.4474133772127247, 0.5567868618268795, 0.0869966031496724, 0.0008423801195968037, -0.007945546567848516, 0.13449060753365175, 0.13289425750070197, 0.3075741772404877, 0.47691600335417444, 0.014619971959992567, 0.17728674309353373, 0.4629093387350118, 0.1825006755372649, -0.026039055813555225, -0.11902112279278546, -0.2338902610590056, 0.08876589331351382, 0.0985946654491094, 0.20346639404313616, -0.07490833416414412, 0.03935188966545406, -0.0462175635317937, 0.0895679199487865, 0.1423525480912123, 0.3360381132512551, -0.006116434685402083, -0.02823877061415236, -0.33372366732644376, 0.21504784770855787, 0.8525313627101335, 0.03204851487463324, 0.0006209262852484061, -0.04825934388726979, 0.22411855901886166, 1.022973244335321, 0.5645326982683299, 0.2217391239492895, -0.10602332663976304, 0.3406981911104163, 0.28605681413857525, 0.43737143103739795, -0.00560067963155859, 0.26968109209732327, 0.000602683059040964, 0.0023840627539551983, 0.11018374660686281, -0.22298893818755952, -0.5993392206467176, -0.1404133814635996, -0.10239265093172455, -0.18132223179766352, -0.057251077725067254, 0.1302650227597096, -0.21961256460704798, -0.4452011077964254, 0.17069135492631626, 0.23088531507223758, 0.3435504501002506, 0.06741105835621615, -0.0029035499213574205, 0.02462917649661855, 0.5318142668878242, 1.296829472416055, 0.889125995842688, 0.8283050473773498, 0.1614220066094262, 0.008549840920750649, 0.08930854377825352, 0.461252095187347, 0.10351911003874725, -0.0374714642205798, -0.16556007227188752, 0.07971362009710553, 0.06560253784282843, -0.13493679428858768, -0.14025428265634776, 0.3211785407268887, 0.06793935375196766, -0.19501726103712508, -0.08037014760493172, 0.07821172605804616, -0.3368500197512275, -0.1222289963047696, 0.12972483234055515, -0.019011504221413424, 0.5608120676264308, 0.16091481559476767, -0.0022710223355193564, 0.15312938020154251, 0.5276768607272886, 0.81488064315075, -0.00651602756876942, -0.5178895448763968, -1.118272390290189, -0.43187399451728864, 0.3332577062077574, 0.3232458820872254, -0.0030533022297226067, 0.02657757265159487, 0.2436736463347554, 0.12876059268251028, 0.40614629899826293, 0.02275716016333864, -0.10541762837988508, -0.006034192508123502, 0.07395457007760073, -0.019271011768346575, 0.014606430556608874, -0.21705410172098563, -0.17764690904900246, -0.28370704874113767, -0.20843927936257056, 0.22013672796692313, 0.30590716813432645, 0.011427392537038264, -0.014837030092297917, 0.005371372086024965, 0.19987078595410177, 0.27347599890307556, -0.7559814452926997, -1.19545397427088, -1.7192781855036345, -0.5044900643919359, -0.053481895288677694, 0.32276225792486996, -0.09692584301558775, -0.14176555271268515, 0.0011778510965321277, 0.5425556518944716, 0.6129055936537505, 0.11154201412183073, 0.22911713153960933, -0.41199561349478764, -0.021898627009392824, -0.07198865850795184, -0.075861133014294, 0.3259696674706519, 0.41334388509555, -0.030811676260097242, 0.06549537447815312, 0.2791854518304902, 0.2238783580539817, 0.010125634281280719, -0.003662211099623547, 0.012827414394816012, -0.00834706748846967, -0.2959049392931859, -1.4300306859257668, -1.1440631278508973, -1.0603003962005038, -0.6719396717624924, -0.5648630704565777, 0.1619415846620962, -0.2545734939732639, -0.7790289572773758, -0.27196678160715704, 0.25886598312380243, 0.5236519368849297, -0.019921393588414063, -0.25997214436209365, 0.24064569742374275, -0.11516436517403457, 0.024590738233327487, -0.12997021400192238, -0.05214900403840963, 0.24923480367208686, 0.6865902718747114, 0.5556953468037406, 0.3726307711613761, 0.08989625250140633, 0.007065154485865731, -0.0004186099161832542, -0.0018850988453801949, -0.2277844360628873, -0.10200725485267023, -0.6909642553147385, -1.5319126087242683, -0.6757144777063916, -0.6515072682672521, -0.0220986227910152, 0.33179820121158016, 0.0354806717521044, -0.8847383623210311, -0.791116241886252, -0.0843904562819146, 0.49438728350139016, 0.23263120449856872, -0.12332765592280212, 0.008049930105314719, 0.13357038470364654, 0.24515648973968754, -0.03542915041181148, 0.23602493671120434, 0.08621153328895667, 0.03022613492542075, 0.1535312836697944, 0.3292974231798322, -0.05938607615673496, -0.026253574790818014, -0.01051551304857545, -0.06022795871995164, -0.10669976479791102, -0.0050255705187263995, -0.6201472019275157, -1.206116911166259, -1.0024394437760646, -0.8225955408354738, 0.0005928879086022832, 0.495788300413109, 0.30405246047015766, -0.3123087172559358, -0.6656902558898999, 0.29239738460070125, 0.37833460098695704, 0.09692367724539963, -0.21734731852295572, 0.13159816318951006, 0.2603067744429547, -0.1701660900113187, -0.05334393364372602, -0.17824742249491277, 0.19630085864382826, -0.07864796285149286, -0.6244147145091552, 0.20134687829242462, -0.02992647942224939, -0.0006637968441992347, -0.003338817939400891, -0.12673797399127804, -0.15472222777230174, -0.0252282575161481, -0.7260874440381123, -2.5963410150639565, -1.0972481178504152, -0.3880340417164696, 0.16874214810449112, 0.6322528750035442, 0.8329124645453507, -0.2039542803327814, -0.1520054741245446, 0.3215529217729972, 0.17672647673752231, -0.07688513353597914, 0.13034693404824566, 0.02626351558905289, -0.0862507068778215, -0.08965078772013517, -0.42021544573967246, 0.009753188721887976, 0.00620216434438011, -0.06333060195557905, -0.04647731899120629, 0.08589394041342457, 0.008498155951044016, -0.040920909711640696, -0.0007363978072588048, -0.09034976408980301, -0.3212634479220956, -0.287210746677175, -1.24278344874264, -1.3161228098174669, -1.1196547005665405, -0.06401711497769942, 0.7400331225548356, 0.9661431131742997, 0.7975529585282592, -0.013023739092150467, -0.0996803924881894, 0.30753140808879365, -0.19278520933738383, -0.21024054201847125, -0.20127612924533766, -0.09736246289692495, 0.0014155931863549152, -0.16910918576997788, 0.0761894265503496, 0.055148251846468335, -0.07414634654043141, -0.02738474659365381, -0.45783992140408386, -0.08226690195557751, 0.25849576990279305, 0.006533847677782796, -0.0005737898158261174, 0.027761406816162, -0.5314598609205178, -0.6249885382205489, -1.1830230268316242, -1.0316176566518824, -0.7259418243823159, 0.3885051252737739, 0.12463795473845438, 1.1200471952423283, 0.7970213853136487, -0.8566272079549145, -0.1501734327752434, -0.2129639160393029, -0.14615640903860228, -0.21575420292535946, 0.15585618311910457, 0.08740337103504717, 0.03989147058791753, -0.15853623581336165, 0.19107275833581702, -0.2136874977322328, 0.3455660077054484, 0.06987873783315633, 0.10162666045938114, 0.41032092009928456, 0.35949538641528306, 0.010214729663026426, 0.013661974197377575, 0.08195525231655205, -0.475164415715866, -0.4218611925533294, -0.9623101954949632, -1.1572607130089982, -0.1798803394686094, 0.5519638543921269, 0.31349366584713556, 1.0349621419019028, -0.05155779202833148, -1.0006550348311032, -0.3937063692447614, 0.20079794304068302, 0.21566400435900682, 0.1595637716740209, -0.1391303931959866, 0.09998870731843057, -0.07963719313014607, 0.5725702898507014, 0.11121897044841388, -0.10008434522587896, 0.119248759418021, -0.25749310200692055, 0.2961681507467099, 0.5429684002922293, 0.3263459125840946, 0.011420786418545686, -0.0009095157160996203, 0.040300915424034654, -0.0600595967866798, -0.1136967434370214, -0.6495673317116809, -0.8361703071571396, 0.21534368214378383, 0.6880578039699257, 0.6534837228762688, 1.1019421372773808, -0.609380346760928, -0.97019066057425, 0.09842814225151778, 0.4155223171563635, 0.4434537266021344, 0.08340724418581949, -0.041515000249875075, -0.1331870268140879, 0.11995301122989314, 0.1391011150556929, 0.0990568120885062, -0.02999035418577159, 0.30507320506587404, 0.33537424087082235, 0.09617029359451872, 0.22596993732992077, 0.30315245010774505, -0.005460901549245406, 0.0017100848440999511, -0.05762549457909127, 0.23027951752228024, 0.2799116228442303, 0.09629706829547939, 0.29198568141133885, 0.9722679662510912, 1.1882884796317823, 0.5313576659890198, 0.6787380503079031, -0.20428308762646588, -0.6590574087572773, 0.019746939859008633, 0.3923301390181095, 0.33417351723111216, -0.0537367730240959, -0.1597898341049165, -0.22400704489425113, -0.030413487439041258, -0.10319336458496346, 0.3481821119288077, 0.27509135160416526, -0.06785054200529513, -0.38859422578141317, -0.2913371184326028, 0.11917739433170327, 0.2246278924363419, 0.015153604455791572, -0.0019567327809330935, -0.051389812035342985, -0.0717888810226463, 0.162385267815728, -0.5278173024928962, -0.04705121469689539, 0.6543480860281803, 0.529171126323654, 0.8582166426451759, 0.2223226926355674, 0.13790236693037441, -0.36581894860559544, -0.018276817591721988, -0.049715726426841744, 0.15163000765233026, -0.03913055595011193, -0.02202438283758433, 0.06244516032454245, 0.08394562911827871, -0.12201131544222461, 0.35342532582831415, -0.08257071343574544, 0.010061756623467095, -0.10483015033062693, -0.8196901101577474, -0.23666312088253882, 0.07619589293305165, -0.0005565345117003081, -0.0016419194807269731, -0.006886408348213737, -0.2940838726496444, -0.5085115495692345, -0.484047527577096, -0.08189084088427001, 0.39776943512814184, -0.47021574036032865, 0.1669368764836457, 0.00821965228892157, 0.30261353482443343, -0.5126537840025059, -0.13369777301235752, -0.30771770626401196, -0.09563595112873856, 0.4194824291643976, 0.03917764535520789, -0.10610224840432492, 0.17363039101765904, 0.07260690600673846, -0.41383684626710515, 0.02215951941954152, -0.4169718050038361, -0.5734132873949138, -0.7652166258196449, -0.30988685910372116, -0.03172082818805785, -0.0008170793106546759, -8.617907254024302e-05, 8.638702953173536e-05, -0.13431494545220182, -0.5761332253449651, -0.40864825808266825, -0.5376793332664118, 0.0053967455405374365, -0.38716042348704194, -0.5941627278217314, 0.22726359963984305, 0.02534455096601149, 0.09354089648516412, -0.11846232520010205, 0.2397377058033953, -0.12283754248761276, 0.22634016514830074, 0.0234616482897109, 0.407667647823879, 0.2500319844951712, 0.13264393298405372, -0.02932320344154074, -0.6008246189026228, -0.3753057951597338, -0.3040373728638958, -0.2070065956628654, -0.10646438018795537, 0.029344888324710217, 7.990676339488065e-05, -0.0004390019548296166, 0.0004616667017547253, -0.09356255159700169, -0.337663868306178, -0.5896445772333551, -0.49569397994048753, -0.43615205667629764, -0.4010315177469312, 0.3268007366231677, 0.057114082852650794, 0.07522620417905646, -0.08502030459209593, 0.22436863034614088, 0.18643842775943129, 0.002587502462379727, 0.13206888448548426, 0.12318262717659391, -0.362662934895503, 0.2391820342089203, 0.045161444803759984, 0.2196502465833408, -0.07157521103464763, -0.14103705225190405, -0.3877439300140572, -0.054431541387999424, -0.11719067377585568, -0.0014082161911828294, -0.0002900853728794792, 0.00040411493314506915, 0.0007057019499022135, -0.015468632901694384, 0.01634587545178273, -0.124860384077366, -0.6259505674506672, -1.159256346146789, -0.5082663382901204, 0.09317910088097715, -0.3101382738203949, -0.0692610072387659, 0.45473664679566783, 0.6480630671530084, 0.17394002827501115, 0.20606030928010582, 0.3081519720236776, 0.14234378829621674, 0.1939156500795451, 0.08577687908680465, 0.24308448362409768, -0.09265551995750448, -0.10596677353322347, 0.22271903519877337, 0.006126535810057587, 0.04003089618724571, -0.02893158935117307, -0.001900026219072783, 0.0003898729579733999, 0.0005343130654135666, 0.00016768946274774588, -0.0005083726014841731, 0.0005577825861063758, -0.05176936661330021, -0.26469563643822686, -0.307752670596299, -0.1903370152127599, -0.2368238145711026, -0.059175884285873843, -0.13524518118568457, 0.42935766123536506, 0.049806493266317226, -0.03423460204354874, 0.17748625049641, 0.004239012424500476, 0.15325881284608703, -0.04044696445802565, 0.15744697040012703, 0.3252664467083236, 0.29706482096845505, -0.15843344376751503, -0.09578990540983244, -0.033562914301292386, 0.00024067956820379615, -0.0005365329777959517, 0.00013029101499903884, -0.000932534792216968, -0.00032337636231701043, 0.00027269950346566055, -0.0008559268279367079, 0.0005241543177340755, 0.0018617109199982312, 0.015303335823092661, -0.13014353849908775, -0.18186841725739894, -0.2838161806282988, -0.09878897345331006, 0.17909678861037093, 0.14225815338127565, -0.005507764336058477, 0.2526522406792428, 0.08165914371130165, -0.012453080950418097, -0.1544365597390288, -0.2132102566796266, 0.1845715470054186, 0.0751104411206977, 0.12435851783877741, 0.03340046463633579, 0.008023063299562901, 0.003537919912047488, -4.4406972313696845e-06, -0.0006868493054585662, -0.0012452726608037238, -0.0006121894414464109], [0.0003764329997698247, 0.0010560127093342062, -0.0001702089109755745, 0.0010959705485698982, -0.00025146956672652003, 0.0002992754806923265, 0.0004672569415350238, -0.000698854957642522, 0.00017738568536397923, 0.00037284174449677033, -0.0001428135959019776, -0.00022416076201730534, -0.0008887263850740029, 0.0038316152752579666, 0.00768728280747907, 9.570111663063494e-05, -0.0003969553223058219, -0.00037606654000119506, 0.00046947033125783463, 0.00021987890119186884, -4.536769907519113e-06, -1.2391967726845725e-05, 3.717353030876695e-05, -0.00031229951249978863, -0.00034633572701832984, -0.00020337718280067474, -0.00029986022349154406, 0.00015795317154481873, -0.0004627177244005137, 0.0001784441420551621, 0.0006669978145844755, -0.0005131781175928589, 0.00027005231496713837, -0.004058432031945119, -0.10507687326647717, -0.22055035978825951, -0.2130777345526053, -0.25439755624224764, -0.17750296815157798, -0.0339165812032, -0.018104999024513534, 0.10325833546719845, -0.0056801865149687355, -0.14789564918015607, 0.24982815811474318, -0.0253093448067268, -0.03315662216538995, -0.003997334538019765, 0.15625957261272633, 0.07612205076349425, -0.04252589684729082, -0.08396624789748847, 0.00019108534843707028, -2.235913212321745e-06, 9.49035608382917e-05, -9.016256799737707e-05, -0.0006208900997269146, 0.0010428412570382864, 0.0007127300219558259, 4.7026249479765385e-05, -0.05200436443285532, -0.012389383851622129, -0.14213158413685748, -0.36489644232337776, -0.355914707124017, -0.5407475348681536, -0.4423203691392202, 0.30231774302000264, 0.8856000216566174, 0.7633286608067528, 0.33597903047540906, -0.12311160903334761, -0.3290360334091454, -0.13436313535276645, -0.10791364237015533, -0.048638626135822254, 0.22290177819943166, -0.09895553376088728, -0.04939644286232881, -0.06637336902576987, -0.06402643827860267, -0.05764176902942748, 0.00028449424591428665, 0.000620718033156493, -0.0003902339913457331, -0.0006349913367310195, -0.0004732257551159649, 0.00463901659161913, -0.027972844623640462, -0.10797739011394256, -0.22370243765615183, -0.5551346871719683, -0.5088106130066947, -0.27250977952147837, -0.24706678047394265, 1.1674494311501713, 1.1193615027597037, 0.6940576327393156, 0.5664397189977255, -0.04585019243089531, 0.5740170126702357, 0.7522041289366458, 0.6351455656112743, 0.2052872197815467, 0.5059535009237969, 0.6166402778902412, 0.03079895380555106, -0.1159945428789551, -0.2087352778400104, -0.152414865198929, -0.030236332665779467, 0.0008214464012137904, 0.0005949453534936177, -0.0011190356041519177, -0.006137975396100903, 0.03455116108914256, -0.16208311025149805, -0.06208845853700787, -0.3022869784511505, -0.5128388981925175, -0.21790104632690752, -0.40610773456413257, 0.7968938969307074, 1.0560087270373228, 1.2355245885473853, 1.7543887050064189, 1.6921824700534727, 1.8247746944986656, 1.7157549366057958, 1.8790582247597303, 1.4082146489348493, 2.055911745319623, 2.4704056339325247, 1.9389620621230275, 0.5891171491757446, 0.5755049436882097, -0.2228429264375298, 0.05073322713137084, -0.06665511470454866, -0.009199355798407883, 0.0008491401357578488, 0.0002531025774470115, 0.006262919822020733, 0.07531965008991663, -0.16477406848767398, -0.14535479250505828, -0.16730527797140116, -0.10532938532559968, -0.3577898765035634, -0.24978402995242452, 0.02898372640865753, 0.028070465008120982, -0.10001979395228358, 0.16755321512041696, 0.32393206107399686, 0.5075246757296518, -0.17774465074732462, 0.04502875202484795, 0.03532350514649965, 0.29602255569805236, 0.21133533846236555, 0.5532045909680201, 0.07654385428898894, -0.5891335394581285, -0.928794150659468, -0.4159135311181438, 0.03386060842873459, -0.0423843722511821, 0.0005510015054174473, -0.0014094833033950697, -0.061781984192615796, 0.04984894309817538, 0.35071164280483863, -0.03682533731870975, -0.17154519622131065, -0.22654467031796696, -0.3198298266536328, -0.1677579495680816, -0.1990233883440514, 0.024429606024028785, -0.16307115494386276, -0.3412134722433296, -0.021997192752380594, -0.14985204472005914, 0.0969172290021955, -0.1903954426484969, -0.18818446924005192, -0.22459624122046531, -0.04511874326978112, -0.49329153555867555, 0.11959882124399884, -0.2604628820265042, -0.6672932857792554, -0.39310797034426564, 0.0001047027860137727, 0.013461389620644838, -0.0004966756588697132, -0.026846767314519796, 0.006016676991474752, 0.029609551196306944, 0.2720479934996409, 0.22219933740139336, 0.1222925883292682, -0.03019141155958983, -0.014430486073254785, 0.17109292884939548, 0.04532983187409382, -0.05741184336027943, -0.14947347167451214, 0.08706049412610696, -0.18312877329631067, 0.07101051503132806, 0.06153185764642692, -0.0026085712775530787, 0.13898415066600894, -0.13437596559789594, -0.07492035511904857, 0.16178072059255771, -0.06490044910349148, 0.3323488811044546, 0.45657837204420254, 0.30274697959863284, -0.053564365480065074, 0.07703834226448596, 0.0016966473843030383, -0.03151763309748599, 0.11955811196266661, 0.27354322306399237, 0.5286921611804168, -0.17026892551114592, -0.20142452159639307, 0.27479489086072306, 0.21918381292879496, -0.35385213440318164, 0.14510123333859662, 0.18341423343067026, -0.17467685276905406, 0.21306816976372672, -0.15026067269823787, 0.2146711941096726, 0.2591096655037689, -0.08998495315941711, -0.10378389678787357, 0.04451679889519882, 0.047644932150502806, 0.15566176406409965, 0.11375583949725691, 0.12626560523473992, 0.4585163586113509, -0.19209382676626022, -0.13437648995299686, -0.08459367838594663, 0.02141338767951861, 0.0455104802146331, 0.20342839392550174, 0.3641076383337305, 0.04213921072672211, 0.540648472879445, 0.28229624713218343, 0.13557180580624975, 0.06443333224452631, 0.2814181535854905, 0.3490982771272673, -0.21927669261140675, 0.053576107887736174, 0.0075316343011455926, -0.053219870619945354, 0.05408045317963482, -0.015684518680311857, 0.08541045669303861, -0.15284675857390898, -0.02709108974240433, -0.0575854690719467, -0.1064760015529578, -0.7612407105896957, -0.5566000065575988, -0.3225793601665503, -0.5180820280347959, -0.0695149214094562, -0.11557127455063547, 0.05066320121386904, 0.13803774486142897, -0.02062404715006937, 0.37014394531676525, 0.1049866966603117, 0.14827450938379294, -0.3211237723826054, 0.008527857913877676, -0.08637839522190567, 0.09041288638792574, -0.09080960113470184, 0.0696011071354434, 0.23622637451729744, 0.15451339749138882, 0.08436642297975902, 0.041231826160196286, -0.21409890154277908, 0.0578677736288082, 0.05958627327286628, 0.033265137022841326, -0.16132268517415035, -0.11875795663319053, -0.17978867325763334, -0.6674921673308923, -0.12346066770915229, -0.7218072305332728, -0.2562305856518076, -0.15786845076790462, 0.011811664873372136, -0.09759926527243959, -0.22000361442550756, 0.040120913527728085, -0.440685594425019, 0.1535452323463037, -0.06857313885837527, 0.4353182766183684, -0.09730957376035022, -0.012102620663793383, 0.09652609993694215, -0.038950971882619936, -0.19831218952815452, 0.03801541818396004, -0.052634709340243974, -0.18217713548178502, -0.08274010211131441, 0.09065866078798437, -0.10888717047966055, -0.13336022992777097, 0.2819447320789643, 0.004315921421158048, 0.25494686526810234, -0.19701759569840227, -0.33401891374346754, -0.8027916091418459, -0.2469613802812184, -0.04915281933857355, 0.0008497499420431072, -0.07791740006294127, -0.19068547215130352, 0.05648601798819266, 0.13080617962492674, 0.056167010249179694, 0.16164468565452444, 0.054981799113241414, 0.04877429371863263, 0.1605463302839356, -0.24131702750786782, -0.05712502256564561, -0.13268761775040294, 0.061540626539121526, 0.02688817817740133, -0.22969430802349167, -0.20215032770910943, -0.12804923620952585, -0.07448395304558171, 0.037137455545395014, 0.09523379268991726, 0.3302592742733777, 0.21972397567070745, -0.0978366728991862, -0.19479389262803376, -0.42647908038351845, -0.39081123347869423, -0.06156723381036732, 0.0005808009482653666, -0.0007398170137895332, -0.07092759831856305, -0.09199467808659706, -0.33179446599782947, 0.2590255894631301, -0.05159282239072439, 0.26035630717773167, 0.054505917841452416, 0.07417641504377187, -0.1587924941735124, 0.08244605367281309, -0.31780309264357554, -0.009932586201561098, 0.20056145834459835, -0.1340327611280271, 0.06398369871164648, -0.07216073345764076, -0.14108549028029183, 0.09459245701602689, -0.19322680807665538, -0.1419108925799235, -0.2404234507686464, 0.2212759372221279, -0.690904982503067, -0.7715431592542874, -0.40555461256417635, -0.18091319609614268, 0.023627628639964336, 0.010181221883511808, 0.0755950329030765, -0.0363908219738775, 0.0070718804098725465, -0.3301397385997785, -0.08490287191970855, 0.06436771469027282, 0.019242139640565592, 0.032572460369756306, 0.22348102450650734, -0.06383282050133994, -0.05292522441618253, -0.07357538160057317, 0.055533843257330365, -0.17649644079775753, 0.09679303270141916, -0.007905282120112352, 0.07036541538602564, -0.15602568130910735, 0.04275325693684913, -0.15693994714325601, -0.19976333481440253, -0.12066388287935509, -0.9810490907614351, -0.6778452037166156, -0.43583042197161564, -0.011674871850687031, 0.0076959295090006895, -0.008172250403312794, -0.035363529334435345, -0.28924833887682505, 0.10160216888023624, 0.08299771639632936, 0.0804758998218475, -0.22942217837924384, 0.2718310491976244, -0.01092010145775439, -0.05077496780635034, -0.03074801630369979, -0.032129777233991644, -0.16935153264475167, 0.04909261623844396, -0.06218518697896762, 0.04482082492051903, 0.09964960964427803, -0.4394995975991092, -0.06066023452345564, -0.3517875074634232, 0.019032035148883505, 0.2507769915911989, -0.24073454481947534, -0.6748188536849774, -0.5287146205161839, -0.3678681741418954, -0.02932552354778234, -0.001020875396827434, -0.010708410487052462, -0.029571607838894863, -0.2755092409269321, 0.04597871990537016, -0.0026946627621916154, -0.02710278104228761, -0.05072249037693117, 0.32709595250009593, -0.17399737303836255, -0.056486930624173266, 0.086750872501667, -0.059725745263063054, -0.05515237376766419, 0.46936855419670537, 0.11087026035952639, -0.01708467023700679, -0.45706142884822504, 0.012264000424168083, 0.13766261500623858, -0.07625649883084319, 0.4545035856135524, 0.3230535242576075, 0.06381854121521967, -0.3229877962186614, 0.07281550971492178, 0.15719153748394835, 0.005116546061535502, 0.001496611766029516, -0.02432364396125544, 0.12166165151321058, 0.11849305744351152, 0.3133961454985996, -0.009563109601990732, -0.3811115661590172, -0.006110667967260212, -0.2464685038276902, -0.01669244371394812, -0.030145709039469486, 0.05639384269296232, -0.09322606399934247, -0.05971129843885992, 0.11206164995660077, 0.1693485694873226, 0.058886587861768876, 0.20121844246305567, -0.04754691976871487, 0.08434154670277616, 0.2031166064247983, -0.17984950303201427, 0.31905286691432344, 0.05365357450136703, -0.02227741266019386, -0.01372439088012977, 0.3569700440335299, 0.005018219702773628, 0.0002175290755917084, -0.00908825001577239, -0.21597301531031596, 0.07883807388679794, 0.19399997080554524, 0.10038952614129786, 0.05907953596686431, -0.008650012016849498, 0.16107426194356772, 0.03243284051509009, -0.19689583315618672, 0.15537977484530044, 0.06938751163508484, 0.05303405186453724, 0.09213304166662588, 0.09817939076850421, -0.09709728722247085, -0.0804455763854772, 0.09614880579487649, -0.25166958678368256, -0.341641222943411, -0.2872196470128674, -0.028676334537858957, 0.0003805900210451163, 0.22016820812665625, 0.24484134005711997, 0.02975482529740371, 0.029420984478166948, 0.002479819130366171, 0.05232140501907929, -0.45871186740739206, 0.08716577195166166, -0.01179351422374129, -0.12397772088372955, 0.21175606506319836, -0.01278026165862626, 0.10482366616932527, 0.05555542143683647, -0.08071458690700449, 0.1093639466629087, -0.2928493663017074, -0.18457833538254287, -0.48888930845698375, -0.14181816283856108, -0.10335255338985844, 0.3333429215149449, -0.4160628563788931, -0.03243870127087752, -0.5616717210711526, -0.22245091248194895, 0.11997942895164682, 0.19515920378551915, 0.0017665141123167647, -0.047461889378889704, -0.24286798560885875, 0.007525536023786132, 0.00017705545023396628, 0.22924989844707142, -0.24134853414004007, -0.4603024281753522, -0.20230281473974124, 0.16707663843130552, 0.31034872619698556, 0.05126051225371539, 0.025576684185397793, 0.1005382531365502, 0.17355280618553381, -0.5076149393564546, -0.2615875756607505, -0.22872626350640804, -0.08685488980650212, -0.20842386298026666, 0.25087964783415095, 0.16265586889746697, -0.35671088713718946, 0.28103569583071747, -0.008379829132839698, -0.11773542740870642, 0.002487926005894502, -0.1522736905495044, 0.007328042046145114, -0.3936840812827949, -0.19874068552260915, 0.0002759340357960887, 0.0005390994492084746, 0.13920189235809058, 0.0284682824428484, 0.20342095138804098, -0.10585683494168076, -0.04380461121080152, 0.11621624909225141, -0.09559813532414933, -0.2652445092396863, -0.07905134090201928, -0.4384157441165123, -0.04817546184427276, 0.8104734395049435, -0.1726459513922649, -0.4425685579761292, 0.17050730621696342, -0.20477585699808715, -0.04350687797567208, 0.3367950470760717, 0.06716138774964205, -0.21253839283038253, 0.5074740346949591, 0.41658246344776106, -0.6730417839945316, 0.12606629863508098, -0.08485960071998992, -0.049978692626476494, -0.0003045491850207506, 0.0015271160759286664, 0.00675142810403776, -0.07611197889694063, 0.411391327907617, 0.027324272235987577, 0.0326010062081899, 0.4539707648010041, -0.13969319997462082, 0.12360197910044324, 0.477851509470424, -0.027236517319012915, -0.0069724292616538935, 0.3910189182860073, 0.02096267877793504, 0.2748708168285427, 0.11790606499966975, -0.004080610379418811, 0.40906986709474213, 0.2426384373799252, 0.2837418230009872, 0.3491461607688741, 0.5644332205836142, -0.12862248345375873, 0.30549405493723014, 0.2473066404492392, -0.03706721038122662, -0.006920395050116993, 0.00029723484209332374, -0.00015443703476700354, -0.00011517418951370763, -0.15672262241349139, 0.2350126343204581, -0.03631499348903513, -0.10896791640780591, 0.23275685668163063, -0.0021679185760445576, -0.34617190557202404, 0.35479821737851774, 0.2388574900478839, -0.03956692849080777, 0.06546882774479047, -0.08108359861036174, -0.37162983804417443, -0.28615851330230446, -0.05062544331738416, -0.3536118859398625, 0.30116357418998385, 0.626405470218469, 0.2510405591003265, 0.4401495843986641, 1.0445890283783759, 0.7418109501534098, 0.0323861312111692, -0.05329171944680218, 0.03728454013598708, 0.0002206562867606929, -0.0004697062451320757, -0.0002465526573855353, -0.08664804593134781, -0.16739092042782466, -0.469108361831124, -0.9088607949841891, -1.1097677374998782, -1.6931780963459788, -1.8102648353287467, -1.5967311103902535, -0.5906684000465029, -1.5136326855612567, -2.554144307069138, -2.0638578491894584, -1.9635789556223948, -1.7338609909138603, -1.6448896618392792, -1.3446073050950704, -0.5907677300845267, 0.27197455034234724, 0.7562684101261973, 1.0487364183208543, 0.5521845972634567, 0.3894501700961272, -0.09037667057735752, -0.0795467315658282, 0.019164943635848027, 