{"layer": [784, 50, 784], "weights": [[[0.0004587266242679921, 0.0011754728961589373, -0.0001734752725070425, 0.00016198883000668524, -0.0004286833355247588, 0.0006917440924763717, -2.8517503843738722e-05, -0.0008020147674347036, 0.00047770081248691646, 0.00012808226778059618, 0.0009993575615824765, 0.00038527064427394924, 0.020703345131835936, 0.04579238226467315, -0.0010053116706027622, -0.0005754980612016245, -0.0009947187161737678, -0.001079935252350687, 0.00024914532628711016, -9.074993290313378e-05, 0.0012796341317573008, -0.0005701821666690079, 0.0006158671947608392, 0.00036613921505847084, -0.00014547815380902646, 0.001100749014756816, 0.00010011500635126733, 0.00028580498413037216, -1.6711531309589125e-05, -0.0007574779282171127, -0.0001395734500669238, 0.0006968320598582411, -0.0002952649043876928, 0.0016215193174819564, -0.026990160307632172, -0.08762304846080476, -0.0025521722230737176, -0.06159804868091928, 0.08085278581725977, 0.46811161941517243, 0.30905394275713854, 0.01952169803105708, -0.12225311942856593, -0.3415835076899273, -0.22358898189730628, -0.25598052424738615, -0.09121659910667024, 0.0201588140000648, 0.0024670306196409625, -0.042317809473474174, -0.0353963651076889, -0.0011306872000460839, -0.00015683319102771445, -0.0002651983115988772, 4.695770927666261e-06, -9.621763220870572e-05, 2.1844513664621606e-05, -0.0010783284787536135, 6.112505551597002e-05, -0.0015214630935459414, -0.004144485755839256, 0.014322481112796234, 0.01049851210482999, -0.22007691012520325, -0.13558473099361698, 0.19529361610884932, -0.05763585878327446, -0.2455486464546251, 0.051886619003427205, -0.37818929266263096, -0.3527882775498072, -0.5669520203101854, -0.6504375368608821, -0.9301154842138175, -0.8522572527911545, -0.32368416433280195, -0.2803571128909421, -0.2616807550532988, -0.14869586709087898, -0.16374834273666353, -0.06078877297811646, -0.004227309962367545, -0.0012544120174990507, -0.0003918261454855277, -0.00044855322977948475, 0.0004533107738723746, 0.006745134651045668, -0.0034906975143239936, 0.039432455121299934, 0.07183380528906007, -0.22117519129680907, -0.1981026544208165, -0.20433619943768047, -0.24156078720283342, -0.009000888153555023, -0.25280076828504555, 0.19148683187769058, 0.41112899162073974, -0.26804825503302215, -1.0269990415442718, -0.2890212841923606, 0.11831495923642933, 0.08772514843130623, 0.22852526928602337, 0.1498305932194971, -0.1810732410375348, -0.2135365226873384, -0.28123654916273066, -0.06746784206075354, 0.021409045747589096, 0.02215442956140237, 0.0004463762613049556, -6.185610472655235e-05, -0.0004532386350485797, 0.04316713077449952, 0.04859834502829182, 0.027615087957306328, 0.13914070093109407, -0.06218511518915919, -0.06735818738054179, -0.2258630708996883, -0.03761811977423659, 0.27347538336964583, -0.005640729226355642, 0.7420028471085416, 1.1017304131851644, 0.672514544414711, -0.4639980528299973, -0.4544984747273395, 0.07696487327483373, -0.6673515882029097, -0.21273405153126138, 0.10099439132399943, 0.5074642248389607, 0.08434582335401367, -0.1628291313762083, -0.3570628780296759, -0.31006124397439544, -0.05567522870683845, 0.009055712627287306, -0.00015280254211520833, -0.0005484643576347077, 0.05786208587004135, 0.20059815248193896, 0.17885206619334273, -0.08434798170664129, -0.1029654521017773, 0.2761563488346123, 0.6547424328961274, 0.7635072325543644, 0.875670156225115, 2.240511812014209, 1.711236596022284, 1.6864093404184504, -0.300020584772319, -0.6188445337269586, -0.564733508615334, -0.05258797610851395, -0.19954257247671223, -0.7780713157215068, -0.18946609166282033, 0.27977790268041147, 0.4689483853398557, 0.4962028002283209, -0.12492626904602881, -0.19466660725275645, 0.18174779826310014, 0.026985747654795576, -0.0005583150015065801, 5.621351286137369e-05, 0.042880801255149315, -0.20432375134748784, -0.09454991722452051, 0.20405731846955935, -0.05902654694431411, 0.7715908953845662, 1.2969015683614156, 1.3044507348462635, 1.3593121843067608, 1.6738851670509225, 1.4382373539955267, 1.2725974791042625, -0.1735875221829753, -0.32353071953170426, -0.34411489979371607, -0.32194221858690536, -0.011047468111764719, -0.0740815544924975, 0.398385439710485, 0.37745415433550944, 0.6701295849545433, 0.595007168894825, -0.039022920312871245, -0.33615928074913465, -0.12161691550060182, 0.07764572919965228, -0.0007096176524124502, -0.00511438602811402, 0.1262761959933162, -0.30013726003983143, -0.16204435820746851, -0.16154516720075116, -0.22131269323501954, 0.5391201193767028, 0.21616313459450587, 0.5458447496695826, 1.2577512681395104, 1.3827851715769004, 0.45533620523398416, 0.13040193033233916, -0.3283158832178927, -0.432726777406177, -0.6638737503675901, -0.42042856792094846, 0.1972645026844357, 0.2600152520948471, 0.29891628508624885, 0.4167715886590629, 0.5745903623423435, 0.03543477778699916, -0.32422866484306917, -0.2984410429323702, 0.16236502413252313, 0.10160108479894446, -0.0008658109286921035, 0.00043432054640875063, 0.03010043433522225, -0.4395962840431748, -0.37752267338110646, -0.44590338405754043, -0.4785619983666936, -0.3854213800917723, -0.28754123941570997, 0.355745710779433, -0.35514903516697693, 0.3266632167035318, -0.28661344017846846, -0.5731845820474818, -0.5993307658481184, -0.3014918258160842, 0.13221853037948716, 0.5749371302805243, 0.023019640774851375, 0.22321176561583034, 0.34068198033421687, 0.014577379406952083, -0.07083913065189515, -0.18960166046375837, -0.5470593618387707, -0.5124464909952435, -0.05006261316709459, 0.05536323572887946, -0.0011142516229651388, 0.016128409526081345, -0.04024265229595221, -0.06155853897885071, -0.18495624322957596, -0.23705349279811128, -0.43213342483173206, -0.12134790817483593, 0.10492695097166799, -0.5168721819821377, -0.4346130395912183, -0.07323450785798058, -0.17863826069346087, -0.2800269765082781, -0.17721720885614498, 0.3896391512951198, 0.34959056640043806, 0.10627356602800474, 0.19157583097357783, 0.06168949733108627, -0.18310805778637557, -0.08999050641500254, -0.6694389217127057, -0.2215274718456707, -0.3564305254415539, -0.6841978706763802, -0.20985854362961612, -0.0556384710307504, -0.00010643406028262796, 0.015618172814635827, -0.10683019635549594, -0.0930240694882415, -0.06879592251002327, -0.5990507227396901, -0.05406657620409089, 0.37068305902480736, 0.1791074869913389, 0.16901928844235592, -0.28905327782476337, 0.6571395431625097, 0.43525345789708847, 0.2690469941559867, 0.1294443906463932, 0.018575214566388363, -0.00892803146214118, -0.03221336247622705, 0.013536158892406823, -0.10675272578544572, -0.1602717684945552, -0.06812872689030242, -0.2645984568214859, 0.017959544045545, -0.1750780118654073, 0.08815668864737279, -0.15812212281132862, -0.02016302767872265, 0.00817153498099755, 0.0016898108037675143, -0.06965486100368465, -0.21125977238603136, -0.4000875262676419, -0.3247772243068317, -0.1295706578091936, 0.3396174545569797, 0.1408969156047257, 0.030382432633015124, -0.18775364798566643, 0.33198389698324043, -0.25413510814877294, 0.43271654510364344, 0.07192888613523733, -0.016753073247420903, -0.2505780777373199, -0.10089436435067564, 0.2319915574262937, 0.08526858262987842, 0.0666610369077285, 0.1404467556449349, 0.23575875650471845, -0.14270976253560866, -0.5223859551799576, 0.36021716206805965, -0.004169867178382144, -0.009641119452373786, 0.002879200061998878, -0.029780107389157626, -0.11241671096967373, -0.15485648666886112, -0.6331965847815233, -0.13194385805099076, 0.11581504347842246, 0.4015298537624677, -0.2512574709810382, 0.01968994400422033, 0.102284620479202, -0.443371624389877, 0.3463935287760365, 0.08831171901394783, -0.08597529879767539, -0.16001678409051714, 0.0029943931785502004, -9.618773148576267e-05, -0.2479049294646311, 0.043015885412859174, -0.11099918938570999, 0.004670272678559734, 0.32963665028863587, 0.3601138565160716, 0.30451390190093036, 0.4238367783081104, 0.09465834774361964, 0.030735156229812162, 0.0009554604558772954, -0.02262085674914852, -0.08953904235198121, -0.247248546166324, 0.05432739476973342, 0.2918148256489829, -0.03183488998320306, 0.049607454093285555, 0.1558134779958624, 0.3160896679751222, -0.14471948273120136, -0.008098883432782814, -0.06944948472958151, -0.007614210896992172, 0.08047076092317286, -0.022019548447943984, -0.03440785221594848, 0.1669780274157384, -0.04474786084568886, -0.12430317921654248, 0.042675517746886917, 0.25703634918449153, 0.044850642673637, 0.14765667176828615, 0.11677919866630387, 0.19932934057474042, 0.17497068008809902, 0.16477584747903465, 0.018933908052073033, -0.0868818945575357, -0.12433191764611343, -0.197619628871766, 0.14427532164532772, -0.2810208273512985, -0.19044658969298137, -0.07446987902637718, 0.16795369670867272, 0.12248893239738114, -0.1076897113906395, 0.15053857890548109, 0.003495905930620928, 0.1047209406403143, 0.056502905248767755, -0.11146566256355785, 0.04384788456804643, -0.12543147922965442, 0.07591940665665466, -0.0685446814273542, 0.07087354901559424, 0.2396284914078336, -0.24180721119131882, 0.06828577959456134, 0.14703155461003592, -0.11380180730181395, -0.014636701087200686, 0.0001884505159231596, 0.005970637980857864, -0.15888463527843544, -0.32366774542147725, -0.039533630491326126, -0.1848319551154814, 0.08346393293028981, -0.5483269896744873, -0.12533556659072564, -0.007283772823734865, 0.18603783564497606, -0.09932790224840195, -0.008655832697907458, -0.002142646229454245, -0.10195307258321468, -0.308115229293522, 0.02123887904060419, 0.025737364575105323, 0.04602469621443086, -0.37475857602003804, 0.13981063565953009, 0.07681173069575385, -0.18485234102107215, 0.14976919578193074, -0.000712374334841775, -0.07292107927548921, -0.23916234329431763, -0.22556694214632783, -0.018789694811231123, -0.0014630468065625537, -0.08019970924838439, -0.39907055901042193, -0.26400498080277573, -0.18949396668997104, -0.2032357341084743, 0.3336906220473818, 0.008908112259156479, -0.035054159991311236, 0.11362769784213554, 0.053138227875538936, 0.1212416373068573, -0.07197439361584011, -0.11708758758110907, 0.0148655820654422, 0.1235553208926982, -0.02397437405873952, -0.07438978109657375, -0.12089892356348513, -0.19281631965368767, -0.10676565181653733, 0.05532846524969062, -0.33385837722831935, 0.09394193772722867, 0.33203418812862906, -0.09787118284950755, -0.13799667231374946, 0.0003000150185891992, 0.0002845166736342673, -0.030359169757492897, -0.36563785202633053, -0.43917671797823365, -0.3003305655096554, 0.06010712985571484, -0.17589852442515852, -0.2259282976187757, 0.12117678665599829, -0.13166447004268758, 0.28752681201876756, -0.03297630939906851, -0.19449125141121296, 0.09764773878649348, -0.18809348728781491, -0.17523217709831762, -0.17601700098603454, 0.21754002006342596, -0.23681558216257892, -0.027848543853832633, 0.009803872928890442, -0.4072941435965565, 0.35659446351346646, 0.1007016122769964, 0.29645076529430225, -0.0844221385664275, 0.17329979656953978, -0.020456095599222013, -0.0013327816125393503, 0.0017162143790451635, -0.27609829185683665, -0.24884288652211864, -0.21169241202596617, 0.040171326849384105, -0.2725416356612281, -0.18450217094179938, -0.055519606254588134, -0.00022010994290921142, 0.16125520160118553, -0.272578807542391, 0.026734569572434988, -0.08472109903129825, 0.10825179589723137, -0.2141312018972505, -0.09484297303925594, -0.022314889334018883, 0.111071199512678, -0.18417843278316964, 0.014980462257447251, -0.09123220769092258, -0.054801395516323466, 0.08437283826739854, -0.1998998803448955, 0.10714281343729101, 0.09358183272702868, -0.017584725999843388, 0.0005494656810877775, 0.013135204714071688, -0.1808796168279704, -0.26856023600458556, 0.1706980638830737, -0.3670176678969982, -0.3755679197066031, -0.21052260975246756, -0.16660906672693435, -0.041545441801459304, -0.13693755575352137, -0.035344698861733484, -0.1374104364645525, 0.10557984747043864, -0.1512624926152762, -0.18155904922777213, -0.11379442958219653, 0.012815047086838569, -0.03896358486549218, -0.05146693763836612, -0.12581966471269293, -0.3877098497692443, -0.02362586853993127, 0.181701289643708, -0.19494989147617411, 0.1682760038182623, 0.2634946578827845, -0.005392792531335777, -0.00040045079582761177, -0.02468526198572793, 0.07318843022874344, -0.13280782875822364, 0.21585127399830134, -0.004717669751069209, -0.09971640805031175, -0.025004274046816415, 0.27876595462103587, 0.39329710769715803, -0.09377141167129875, -0.04924534458879376, -0.007900168871296102, 0.22635868123856093, -0.1599294857800112, -0.3108679506570511, -0.20232304228752884, 0.062362325673774976, -0.03408189534093007, -0.21562686656794786, -0.10715515338454573, -0.05154027540975557, -0.11019381735281825, 0.0009553220281062249, -0.04826225024208253, 0.10344282875245758, 0.07994810467875117, 0.015095416652630478, 0.00045718967259070724, -0.06519595129535437, 0.06516409539103217, 0.11854403263894603, 0.3081742030406349, 0.3055137385586041, 0.021602748025093446, 0.2739884795461209, 0.3181480041115008, -0.047139326966022715, -0.09374835379911398, -0.30366380461823217, 0.12463950606140577, 0.07615233767564845, 0.11317821908067527, -0.15284348928425906, -0.07652069449690983, -0.12783362305948406, -0.4843994760240104, -0.09152585384861303, 0.024509620005481618, 0.08071023771454762, 0.024764383613041195, 0.4426564360320559, 0.2572589066980032, -0.00927034392864935, -0.03437649369196071, 0.0018673850799018053, 0.00011533697733751393, -0.005672991897986938, -0.23925443648068406, 0.043331565989240726, 0.14542986904825866, 0.1583800754275794, 0.5040838353658855, 0.06853272962983012, 0.1760638765609033, -0.0025169076525562977, 0.208071543628301, -0.03394143255973881, 0.02594027924578937, 0.13259168388194298, 0.1598358033534484, -0.2762585360610841, -0.4117141471834745, -0.15375908628069226, -0.09288532366639089, -0.06964995371411387, -0.2304829186601435, 0.4153429280786509, 0.2816495668393156, 0.21662536553930486, 0.1940252307356222, 0.015413181379110373, 0.014181780098918455, 0.005146088434708579, 0.00033874102381350996, 0.00011809122011211376, -0.20744725539812087, -0.17092005510408922, 0.1807540710123098, 0.22915443002291971, 0.08298426079232478, -0.016228505965437786, -0.37732514273715184, -0.21657561949648335, -0.1835744579285736, -0.17339297966887032, -0.07613275087188162, 0.24746332084040204, 0.05390654860689553, 0.26575787385412747, 0.2693249040369859, -0.0772619237158222, 0.06533387707411893, 0.001098131099244119, 0.23040635551420127, -0.04921463267475759, -0.0880077281486404, 0.1692299993348631, 0.0506794495999503, -0.010324361695975335, 0.002207842313769555, 0.00014162912264384885, -0.0002813675531229725, 0.0007304223825877538, -0.06885167601492093, -0.1893265184167511, -0.014911361071216727, -0.15567134833723684, -0.028047706283870124, 0.1281712164633901, -0.14128099843812073, -0.00589364339274153, -0.3229020046995215, 0.04749225514224488, 0.032876036557386794, 0.09744732997908621, 0.07925510509314247, 0.4140433679712456, 0.04735159636399989, 0.1075334288266833, 0.008426080868309638, 0.0038374448993235286, 0.0486407118609011, 0.28075861656587625, 0.10664254351028375, 0.0009748139015928517, -0.09448106679665431, 0.0704722039593591, 0.007320050988371788, 0.00010864768701764521, 0.0008183007191014519, -0.00017223787406367801, 0.004370337631408185, -0.048889981006622125, -0.22508560288810534, -0.43586758730858716, -0.4781819440574148, -0.08306058267260284, -0.39893763059239057, -0.202913482056615, 0.10931568603495234, 0.017980850174849267, -0.3466226782353041, -0.14385205692325614, 0.007525829203357034, -0.028444788485066458, -0.14685088539610933, 0.05778457360539973, 0.024390353312622067, -0.44004016695616555, -0.228083709094495, -0.1669468484257717, -0.3504969407538102, -0.24830790163973507, -0.13609470961018735, 0.008677419958735118, 0.008058275867870416, -0.00012043308502852374, -0.0005013675136009965, -0.0008485755915460081, -0.00013515407407977643, 0.00011624420590533291, -0.13271398161077405, -0.4060052965540633, -0.5749068891455266, -0.4514401905603996, -0.3990385697440059, -0.22483801160928452, -0.5866456914984353, -0.8406278651418768, -0.6371996443899306, -0.8311592454357499, -0.6560823339911588, -0.9861045377539184, -0.8378132386419332, -0.9123344119339794, -0.6595170342447993, -0.2906583767587901, -0.2796965615978169, -0.0802685495471602, -0.17039309356361476, -0.03631892830901768, 0.0008153407009609239, 0.0013286563789485753, -0.0007301402489486276, -0.0007362510036135628, 0.0005539567212751907, -0.000566413948955968, 0.00022395789853461154, -0.0004838651304238685, -0.01916099125923993, -0.08776906205811015, -0.1073171805176348, -0.06636578230948954, -0.2759077337006129, -0.3425845011045108, -0.501083890771803, -0.44072913587197576, -0.5320922986029778, -0.5063304296429895, -0.5939817535635167, -0.4907053103483728, -0.358895353297881, -0.1906119820993644, -0.16306582052634885, -0.09995723419864949, -0.07119002753017276, -0.0175326708706809, -0.01979175786673802, -0.003090225014372493, -0.0001585771841613551, 0.00014503301955434768, 0.00018683878308188017, -0.00012477344338609607], [-7.239015251043125e-05, 0.00022488331824113805, 3.15261116840242e-05, -0.0005156436025252571, 0.0014646249842073513, 0.00047304824173076664, 0.00035498298441982544, 4.682226692977382e-05, 0.0007899399236920071, -0.00035254187722143844, -0.0004303625670813304, -2.9482287575026048e-05, -0.0010309450751957924, -0.00252390841057237, -0.0009254106352157059, -0.0007531035976466905, 1.662606893207568e-06, 0.0008377836049989964, -0.000652463900338553, 1.7518052723044176e-05, 0.0003351415185881297, 0.00014067583960296047, -0.0002715362924700127, 0.0002957176997800607, 0.0004116756947871295, -0.00044374496783687053, -0.0004974242948712515, -0.0002492957923761828, -0.00041975681843041873, 0.0001515380488698838, 8.080137456842455e-05, 0.0001855707619536519, 0.000419420411662796, 0.0009161889496120494, 0.008381328173657528, 0.013740752302857581, 0.01268027148157693, 0.03171377900983851, 0.08295748645159261, 0.07948205583368047, -0.07060116179980817, -0.32609392505546786, -0.6815510228593935, -0.5582547874416791, -0.5656192715230931, -0.20047448691479414, -0.016199860070329107, 0.025136349270455032, 0.1337078677058712, 0.09138262157483112, 0.040207201674936674, -0.003138248386953096, -0.0005596709996535452, -0.0003053789982952838, -0.00012930745352112083, 0.00018536694699440803, 0.00024683111848801886, 0.000923342776614813, 0.0029094002692337216, 0.00025323692223285844, -0.0028034603993997795, -0.006292359318253393, 0.05206199445347024, 0.0892961682554771, 0.09619622778955392, 0.14068652451542749, 0.2597358732795365, 0.35836787442233536, 0.27642003922405994, 0.034707967803157824, -0.8265553623566303, -0.05609581262382215, 0.4853038031634459, 0.1680941612982422, 0.057687549314327874, 0.2467223306825037, -0.07496599526005655, -0.22353456701479651, -0.3264741771354342, -0.2657363792696473, -0.0057279424585107925, 0.029840412153603356, -0.0001672757795225836, -0.00018292851204263145, 0.0008039357847297005, 0.001184502635413871, 0.004957284026314916, -0.002300355441841946, 0.029145819692644865, 0.0929739122807589, 0.3062440102990429, 0.2929518382152684, 0.28584772896677946, 0.10796693797124057, 0.30352158345089114, 0.00495363807754807, -0.04620005931289471, -0.5312225841744872, -0.3136299270353632, -0.1629378022753144, 0.04179125525319085, -0.6746175181653605, -0.12663347367310843, 0.36607517370553855, -0.19938177909819516, -0.16135797851698824, -0.2647965747982291, -0.24130341921177964, -0.08050594797726152, 0.03830866991525008, -0.018299179194414858, -0.0013171727348720752, -0.0003524113454646564, 0.0019672828044888383, 0.002803866174809471, -0.02086186683820361, -0.061872636137011064, 0.1630018340052627, 0.3351407826024971, 0.5308165267776916, 0.38227120604216963, 0.2277972990620845, -0.02877283457491898, 0.07717532581354415, -0.18426592392509145, -0.44321021729464727, 0.4128882290526601, 0.4056477722054229, -0.3134750115210095, -0.07573763367442277, 0.38032924569197657, 0.3463911944151565, -0.0888229057853954, -0.03247416555589224, 0.1499423046753882, -0.03848747434465265, 0.1843948485121732, 0.08221234469145962, -0.13978655169524865, -0.0010216566832824871, 0.0011817142850061636, -5.6130482376678694e-05, -0.02498989377639989, 0.050947328229233355, -0.012054017406512291, 0.008873718915367262, 0.4408479269179256, 0.30945089307737855, 0.2012028571807128, 0.25479102841647416, 0.16413946774220922, 0.46197943571364525, -0.27192645855447073, -0.18006255096704307, -0.21479090412504975, -0.4557968531273897, -0.0958805497671056, -0.28347595995635066, -0.07770299856573762, 0.2972463678071987, -0.08255818137651873, 0.005935402151342182, 0.17755691949114089, 0.14865958257347328, 0.4143679492155004, 0.26375223652931695, -0.06997732688904648, -0.007885805756089515, 0.000973719457957762, 0.0012839989809130476, 0.02892929254324556, 0.05474497877223495, 0.21900696702587752, 0.1925227504405982, -0.06267801446213561, 0.11429306390136237, 0.024819739470346824, -0.1852803404935782, -0.17098358377129483, -0.14556433861032925, -0.073646529507331, 0.39887874744090623, 0.5463116429267496, 0.7457321680157105, 0.5144129231031526, 0.10666739212151725, 0.02117286909655731, -0.12391631805848395, -0.34719646321564984, -0.1543629695165385, 0.2803834387121637, 0.3915879341602143, 0.2070713060052233, 0.13759973192703234, 0.146422762058426, -0.027576239454354938, 0.0018163882279005627, 0.04221211628306015, -0.005488403297282465, 0.1885591718259357, 0.03592304515620669, 0.352465228251315, -0.027301819471622017, 0.04362977377635366, -0.03002075195140662, -0.05599849794255685, -0.23223631121106683, 0.0030557509573494973, -0.05705248417013731, -0.022583987625437472, 0.11426930560839418, -0.19094725081292532, -1.4951441221102912, -1.3114047724829556, -0.4752669485478957, 0.37805688090270434, 0.1792550023445852, -0.20996237280378774, 0.08283026235145224, 0.12361263309024297, -0.07922329378759647, -0.12285836431871919, -0.1718994706221803, -0.06829142824373828, 0.009271739943153182, 0.10480876268483838, 0.12274742742268882, 0.32426878117019264, -0.22423583217114515, 0.1379482496175264, 0.11645989140866327, -0.09082300227582445, 0.14119916529824872, -0.2116425594531761, 0.04260918274157042, -0.0433795365524837, -0.2073105946345932, -0.2824028071307601, -0.5102009057832612, -1.9826474421579494, -2.3618887461871427, -2.5425123425810474, -0.5469306282430328, 0.6009490362692314, 0.02887507231564203, -0.12465605368945873, -0.1867650751985477, -0.12491141863461803, -0.40792599724786366, -0.12583892120278828, -0.35565749663053176, -0.027212090029774975, 0.01679430646470236, 0.12896852828626224, 0.037536737933696926, 0.10620940189267147, 0.1766098922080035, -0.11132869278186526, -0.1745972099929489, 0.051761724018751905, 0.14035929434190594, 0.4268608160628956, 0.3398015945854002, -0.03277160864021392, -0.09790894169039792, -0.06281648656966694, -0.12126900776143011, -1.6108604757247342, -2.0592225525658083, -1.8143647048384643, 0.2562544591414149, 0.3096929412304502, 0.09973561345491767, 0.35303073168858556, 0.2751659200036296, -0.45145450634165424, -0.05888098029070912, 0.026391739082071385, 0.10148596704083336, -0.03913450781224776, 0.03611339010492816, 0.11436578089669713, -0.21095512047933043, -0.14166023048125626, 0.05637771979886375, -0.07983170020107858, 0.17079465566646015, -0.04200585795819806, -0.10298234450855138, -0.01832000206775445, 0.2704783977743139, 0.014734874854970761, 0.18372670417137474, 0.553353048950921, 0.38291191891325344, -0.5280257519399939, -0.3291699734083991, -0.12174085250370965, 0.3272122888632362, 0.626952586981612, 0.2873255296635822, 0.06885215755106845, 0.3555758813621828, -0.08466765504896419, -0.12432766959420485, 0.16581397964660088, -0.03616159790858542, -0.06621526766349702, 0.022810718514494465, 0.055295082369090115, 0.08092407090149085, 0.00741816920059219, 0.014679150728086583, -0.26959452503781534, -0.2363391626595529, 0.19848757306204892, 0.04794176689081165, 0.15731909485434467, 0.024615971849044693, -0.13774239758791249, 0.41277906494921685, 0.3218822640380468, 0.3882746980072402, 0.5285660493049325, 0.1289127777325054, 0.09667137584471056, 0.5536137285921514, 0.08944361604769972, 0.2682089764619426, -0.009124435234461612, -0.1563251492306589, 0.08530426533720523, -0.07944653126209741, -0.2068942904841671, -0.2375353706242522, -0.048805581266408514, -0.002409284993980782, -0.00163281374027349, -0.022237777025244893, 0.04323883330248967, 0.016208108148305575, -0.1395557292910272, 0.0030979027878609905, -0.24020948720520272, 0.10083316882424324, 0.06698878363106715, 0.17172325350401246, 0.029234295502946286, 0.058093011702409394, 0.02372579148174669, 0.3733263918745284, 0.18766467605376372, 0.2257492508065551, 0.010907311935658585, -0.06483223512897499, -0.22052293661699232, 0.13006229455284551, -0.37241415265880645, -0.11402563364759674, -0.13838857622707357, -0.24269323205752247, -0.34919606138068515, -0.1252595911915513, -0.009280038261407521, 0.0010548922167234204, -0.08178600267543543, -0.23449251859619658, -0.2633052438969902, 0.020898011495681563, -0.05624783852344918, 0.09249381705270998, -0.05383450726386517, -0.193762752149095, -0.01735851096907203, -0.23164408656694632, -0.19636829555228558, -0.5756438163899625, -0.2953468576437398, 0.2489758395941066, 0.01751193119987881, -0.20842072099272893, -0.0015234060519211006, -0.17214037614896655, 0.18883220314862342, -0.2892472303728063, -0.36827186244225085, 0.019682945745160423, -0.08683174443410965, -0.0770147256973918, -0.41186491855668655, -0.16523150085474222, -0.014263586751287837, 0.007675946652502383, -0.04533679085421295, -0.2611421265355642, -0.29339219427479307, -0.05401408498738101, -0.13186112563701954, -0.3079438163395329, -0.06970431053698853, -0.15109386518816817, -0.015062153907908977, 0.17623590811713724, -0.3572876651947592, -0.33062227216947, -0.09398509945934691, 0.029839962387088945, 0.014742233070466996, -0.01014931904606065, 0.1648188036113189, -0.10315943619456863, -0.060210731534194074, -0.1521503132395747, 0.12180982609411904, 0.24184546000526497, 0.025388525481867874, 0.15882104686730564, 0.04813756216579531, -0.16387573989498072, 0.0047426114041544875, 0.0031159655840872686, 0.0014343832965123798, -0.1308987577837837, -0.06560363276424049, 0.18259362650277808, 0.05868121697030428, 0.22669278248959193, -0.2381727553487914, -0.028596927675542342, 0.2594612566221437, -0.0007087337295137104, 0.009663758440953445, -0.022337675404884294, 0.07759471601856836, -0.05391466921214137, -0.0837088129324007, -0.044929867112862114, -0.0010899495179490153, 0.06574532120125873, 0.17747689577172218, -0.06328482352524469, -0.09437661321572696, 0.33772765594472964, 0.06932780193020467, 0.17381180633070045, 0.018505591038740492, -0.0721087119690389, -0.14683045596319452, 0.002527624489853739, 0.0073641542897797665, 0.005220088698335873, -0.04424838912947415, -0.16023057747946964, -0.03189578861739461, -0.07919392803351594, -0.2569240893558808, 0.09319600740122469, 0.1208498481784915, 0.02517670342938056, -0.077025720180531, 0.13934591437343527, -0.04611039093972818, 0.15078656730395168, -0.01836675617172018, 0.2373494878042611, 0.39994733138648, 0.1745805954113671, 0.14949336136804006, 0.08851209152920748, 0.005609191487569882, 0.035148072087595975, 0.5204936015541809, -0.04894436027135485, 0.21026953298158355, 0.17518249915258977, -0.004424414202452253, 9.838872223380764e-05, -0.02206875965466356, 0.024862319973305513, -0.11104016534916515, -0.035060082732401895, -0.13240691386788356, -0.02122021971134562, -0.2749596753392433, -0.07324558646658601, -0.04145591861526976, -0.04820233828340933, -0.10097954602680191, -0.03428317492858105, -0.08961282909859732, 0.05910311063426769, -0.05009862248015712, 0.05138927292140264, -0.05874438340002682, -0.007546915523962852, 0.06796734741407313, 0.17187612790065937, -0.21523623366702002, 0.3277228720822017, 0.12758798181436018, 0.0944934559762006, 0.03625008288942661, 0.15265266737697655, -0.0011720577910299854, 0.03703512999197384, -0.040443162646393326, 0.0202715442329787, 0.027345415052773808, 0.115305084726017, 0.02856666195362212, -0.06362266159320927, 0.07177186881063513, 0.09352322776526992, 0.012527833876354956, -0.1973988292688684, -0.2200462035234297, 0.01860424001113667, 0.17022879630799012, -0.174278487678213, -0.03628272472515242, -0.141579637460144, 0.057296781723570465, -0.26339609270290815, -0.21663844017516853, -0.13784002116302727, 0.12961092738941, 0.19746882460598852, -0.23640654753406368, -0.1323954302557868, 0.15773935028084657, 0.019270520085531092, -0.02238713901202262, 0.00040922420592390913, -0.018104047712384583, -0.13848203754044877, -0.10494813371278022, -0.10500175943551329, 0.06442976026779693, 0.057707343513304574, -0.09605284504148899, 0.04355676611417052, -0.15809721086458128, 0.01699875636626882, -0.3373567922153973, 0.11313617455193829, -0.03334489382020017, 0.06789666084895328, 0.027498078923816692, -0.16664098725240178, -0.04769407785154334, 0.06975363503162169, 0.2588903792865505, -0.0066762610172133655, -0.03045042801041978, -0.08527450505726848, 0.04958088812014234, -0.113768318210615, -0.04196403704101857, -0.006615063685449405, -0.011474412936775338, 0.0003699821531207639, 0.04725112937313812, -0.019355170707411426, 0.13759421850911854, -0.15754032446326574, -0.2110239351422251, 0.11012154419939091, 0.0055699240693162224, -0.08840454866371787, -0.1488072118085603, -0.0278248150909233, -0.035038585780999346, 0.09721280785356734, -0.1081369456583675, 0.17955152163846874, -0.09136811202131755, 0.07706891136987436, 0.14652586239744778, 0.09041512722091648, 0.057985323976570524, 0.16825609014017562, -0.08015187361940537, -0.1346130710730373, -0.0724588798030141, -0.23553073597416738, -0.10495286810873852, -0.04292109720285608, 0.0010653038097278166, -1.9158725501298637e-05, 0.04922384158937958, 0.13451703256615605, 0.21646892020984038, 0.28072411226946375, 0.059719505439123965, 0.09504645835488663, -0.2974745660803117, -0.04466147593487546, -0.022667397846476634, 0.16228725296246205, 0.08407006994779466, 0.05540618627729696, -0.05209219573695731, 0.005845523169566199, 0.10810016319172264, 0.07577244622529557, 0.04798067291002085, -0.05547938540906874, 0.022785054571822432, -0.11729071890173508, 0.1530405030994398, -0.32959561372450313, -0.3867024972614489, -0.042682630756701964, -0.13838137840404496, -0.04383412621706873, 0.0037338488872158985, 0.0004198778706994488, 0.005529536526896577, 0.05688087946236918, 0.11498978762686089, 0.37275627993861304, 0.21250536179165877, 0.10241728749503663, 0.03532845868150698, -0.031444201089185074, 0.15012496901853306, -0.27975661043404093, -0.08309017574128061, -0.21318441314843134, -0.1915774739670661, -0.2990935819120753, -0.07817325289078049, -0.13447591274124818, -0.0131712693119899, 0.10131208072581555, 0.2036194657605005, -0.08074709821313913, 0.014118546487530241, -0.06652634658808142, -0.13842893682495747, -0.13164178640218382, 0.04147531847044426, -0.009668963265093936, 0.0090201760340424, 0.00023991403200302497, 0.00044067499664342177, -0.05962643501011503, -0.0016285985168637482, 0.22124767105229018, 0.4633426507121948, -0.05447144653263103, -0.13356804573244982, -0.11160155383215152, 0.2109297374198792, 0.03828631157560159, -0.05654064643191729, -0.10038142703261049, 0.007700082870197421, -0.10278957599528166, -0.04915865374088863, -0.027198344098648995, -0.0680348930037181, -0.03184239486641204, 0.17677325875583663, -0.21011892259152745, 0.09592152614251047, 0.2575337688189493, 0.05574191079310085, -0.06753046714342671, 0.028729646757777273, 0.021648485112134516, -0.0001866134354586626, 0.0012144334843993774, -0.00018445711163288627, -0.04876840781573823, -0.16287704991629343, 0.23090532397208643, -0.29949701106666077, -0.31479759373213007, -0.07516170539265987, 0.013917692186585015, -0.12705927472490933, 0.005970342869413907, -0.127877968577138, -0.06565464917503808, -0.174223006251409, -0.15449715262050062, -0.2648922969720208, -0.17080284877575136, -0.4254530226315764, -0.13187664703072607, -0.3049477157012069, 0.18787913163874026, 0.046331241068258686, 0.12191514833580931, -0.054227740335789205, -0.180701554975905, 0.0033496877869729244, -0.0015090792796707345, -0.0005547432189209303, 0.0003881227964793447, 0.0005558389468651788, -0.008706281439795077, -0.09977459910426839, -0.08750776231260365, -0.09053710331858292, -0.16990632647558454, 0.205739159174578, -0.25396028281293226, 0.14333433259878547, 0.4472532449570261, -0.09711281111765536, 0.3151246493516997, 0.5427875750855335, 0.08377398523280445, 0.21554406435812493, -0.0015284025680199437, -0.07490364708704518, 0.2848451529273346, 0.23637581254017068, 0.022897388547092036, -0.20128879492548782, 0.004422604170443893, 0.006131037046814692, -0.036337763569630935, -0.0029425351835849767, -0.001629413180459032, 0.0005533203540947527, 0.0012771038443707423, -0.00036707362411474127, -0.0005672684374431757, 0.0012108129810324783, 0.0028325722939225267, -0.0006956320246134238, -0.025695894252848347, -0.1612476800436179, -0.21755313306586005, -0.15368821462757637, -0.20534527238340777, -0.4233599614778027, -0.04413568405901106, 0.03289184909619275, -0.25935910435590265, 0.00020656774692034903, 0.13261038680329482, -0.18747215505263817, -0.15330245063117492, 0.03721240885986091, -0.1430300339218095, -0.08788731409791185, -0.07541261439668893, 0.055250773039745675, -0.00034985999390394417, 0.0011621376348229248, 0.0005661617161011217, -0.00031035213370276426, 3.771849535922315e-05, -0.00033156197147577815, -0.0010858208201738088, 0.0003221171919319207, -0.0033913601597263024, 0.014906352350772291, -0.03185990181498034, -0.02005006404701262, -0.11376169876635486, 0.028157979406422527, 0.058870964936614825, 0.014962124889636016, -0.0932561705734203, 0.1808495481116452, 0.07377285679390896, -0.010941136773756289, -0.14483352187393364, -0.10695220251642933, -0.011862582564601652, -0.039567524415204954, -0.15542006108514095, -0.07799109335678292, 0.007983731769796143, 0.005107102858316798, -0.0003219550024881192, -0.00046878144184664926, -0.0006233522611548389, 0.00028608835882117984], [0.0011573962170431124, 0.00017955087613027114, 0.000378987681620413, -0.0002568439746294061, -0.00015439607136739586, 0.00028233882318003735, -6.461517590836371e-05, 0.0002266237866156856, -0.0004146445909688693, 0.0008454622799697736, 0.0001373043615498978, -0.0004627329523901032, 0.005723074279597686, 0.1411489895638781, 0.14145767618290542, 0.0063877963506621515, -7.1103672738419e-05, -0.00010856406590868983, 0.0004992391985490215, -0.0008384925241751163, 0.0003109379458697629, -0.0007899766453259441, -0.00020224854556204756, -0.00016334870082656015, 0.0011674978889471674, 0.0005087323584844546, 0.0006671796272039368, 0.0005235112209819789, -0.00013474342960325498, 0.0005863107687792113, -0.0007793230990827673, -0.0010407373738801006, 0.00011092508362180368, -0.00039240359308860393, -0.0502616057785135, -0.1641898022180719, -0.1732821930441295, -0.11398409215561824, -0.14720891263530517, 0.16646336648453536, 0.1446827172863882, 0.30730951215556535, 0.33049965213513033, 0.048567206467025316, 0.04102617347126975, -0.1600658427067069, -0.00828761489402042, -0.21175884894630442, -0.29601796295474947, -8.335597302087651e-05, -0.015966031711705343, -0.023128854508474104, 0.0001252966635470357, -0.0003816206606582888, 3.940234157717259e-05, -0.0008281571507943192, 0.0010019822702705661, 0.0008541876863135289, -0.0006613959126559984, 5.0149343500849235e-05, 0.035989080909596356, -0.0013342074475430482, -0.17488912290714545, -0.2953349940474484, -0.08983747905846509, -0.4387262689198277, -0.2072336641019994, 0.16778584492298762, 0.06745898187545038, -0.03547958788794902, 0.0538230485671186, -0.15949091385004086, 0.028659927290952965, -0.34530584142612153, -0.06531854954330076, -0.3578420784512877, -0.33371083152772435, -0.08434648527362835, -0.09703659973721362, -0.11089151019990892, 0.028031373765013176, -0.00044130079331762095, -0.00012138099266406021, -0.0009083657881688059, -0.00021818755422318425, 0.0007692842208210337, -0.0005380006551054412, -0.0008768132137695425, 0.000687209480666864, 0.0038794470792211837, -0.11404379991362346, -0.21349546703657382, -0.10821763155259911, -0.03888760388277172, -0.08074752748409324, -0.22916812424254812, 0.14215939546365008, 0.1109548715928836, 0.046090523391311075, -0.17364333753892186, 0.052042266706188105, -0.08201781367017877, -0.20813510226889873, -0.23029085935310864, -0.0231557272372114, -0.10313080587892547, -0.20782223601343364, -0.08934185882992134, -0.04377658781527372, -0.03534715335472645, 0.0005987339123578411, 0.0014118625047092094, 5.467033650479148e-05, 0.0005057145763532279, 0.0042355937979919505, -0.007029310197564785, 0.032888970074094456, -0.11511479044148888, -0.05056296203722299, -0.015220011495141737, -0.01531862974001632, -0.1422534534742904, 0.11987129668550496, 0.027817637418347307, -0.10660796177642053, -0.16759069551204267, 0.020230155534028457, -0.12496959855235462, -0.07833966859251726, 0.06140124143326121, -0.20038641766204793, -0.04726949086806975, -0.10668117149187811, -0.10519686609010166, 0.0552537667538336, 0.07413248650720261, -0.21250359771434454, -0.1280710564118187, 0.037571174321835134, 0.0008305069266675805, -0.0007098957118906971, 0.0009150531107565141, -0.0022824571430601097, 0.09968446560590166, 0.2791045961311142, -0.13662227371515231, -0.037372723617692755, 0.039376491976536504, -0.05244483406231156, 0.05571424397655065, 0.16604282693128758, 0.1798081905810963, 0.10473310474099257, 0.011724431580816675, -0.08428723147249774, 0.046316998974970554, 0.06827394299798749, 0.1830824101401951, 0.12089478418862103, -0.17484075426391707, -0.07555591173020955, 0.028015613087868985, 0.07420077150184808, -0.18980350260284684, -0.16180885293243383, -0.18104525695836896, -0.009155615949606422, 0.003327917726961062, 5.181704530834196e-06, 0.0006547746674840676, 0.0261862820012848, 0.17126438983825565, 0.23212893736320966, 0.3348500324101085, -0.22445161930805932, 0.2171769853006063, 0.037694197532883104, -0.21588523532684525, 0.2537348794211221, -0.00680265691007193, -0.08333325225145059, -0.09711567397738274, 0.011505679326297516, -0.17835044526621804, -0.142582724246077, -0.1486761724916794, -0.011990646582072946, 0.04652291654027296, -0.13478583074652634, -0.021968198078143368, -0.19257432484320075, -0.1487958619224993, -0.25823531569414326, -0.4741382604737033, -0.4469779046358761, -0.056043519990542384, 0.00026788565484005104, 0.014963987121919462, 0.059141728203318644, 0.0517732879712665, 0.02312442745579342, -0.12798235096325322, -0.22242455178407508, -0.002580401862816322, -0.03713696014609137, 0.12307118654228909, 0.26477907073880075, 0.31568539527200423, 0.10497754409773367, -0.3757787586686937, -0.24859118760143112, 0.11679415777693439, 0.12695036068521715, -0.17443747118069727, -0.06701536785466958, -0.15685961714007352, -0.2937033924970596, -0.19249973126971856, -0.048730834063150076, -0.09350913689767046, -0.2985790228713306, -0.5733618154176378, -0.2804522453169803, 0.019020597128047476, 0.00229425114246575, 0.02510464724536944, 0.07293765721985997, -0.028916878280826883, 0.09529839176728544, -0.13682301328649785, 0.06276219964578232, -0.26752309879927677, -0.15954227591699374, 0.07679729760506404, -0.1162381050204371, -0.04306957769702805, 0.014235351051571489, -0.16644006460690514, 0.019688105729244617, -0.17114665112695507, -0.13695481693523234, -0.10305732055460601, -0.11858196320812309, 0.16388310676909518, -0.0433790309625165, 0.07332524608307266, -0.3529779378769297, 0.03878160772745326, -0.21118798597159763, -0.5126190862778414, -0.11682740675757698, -0.03739036538051722, 0.00010194985801997721, 0.036906103230066635, 0.23236703294023459, 0.0651354227476732, 0.20263290527580813, 0.2553829256723979, 0.1426181615950188, -0.08353627072395317, -0.19053576078702525, 0.04143937774109886, 0.052340992809499116, -0.06466326323597214, 0.052355187120569, 0.18168057594387443, 0.08002411019387799, 0.23195854171496375, -0.12231168871109922, 0.10326108611800737, -0.03453319513132547, 0.01810120369771145, 0.3112068446962785, -0.22770614284788238, -0.1385005192647198, -0.0470459383317629, 0.13816712547277657, -0.13787859978428288, -0.10996786999076336, -0.041634357554962226, 0.00020491751957079667, 0.039489786518683366, 0.2554737925046004, 0.15844096965533527, -0.01957039037378267, 0.07432948909792869, 0.09831532355202229, -0.3056493983006436, -0.20062865265937663, -0.08172865027422908, 0.20169786616283258, -0.3211484637973086, -0.21075752500411504, -0.16649159214082448, 0.30854721505199045, -0.2438910165269852, -0.1588789044756793, -0.12052928404840296, -0.020375280361754525, 0.02656698108382049, -0.02897378003189279, -0.26365768314621646, -0.020328568421324997, 0.07325113891605779, 0.007704148124339256, -0.4732463835342165, -0.22805628103448747, -0.07338368235837812, 0.001968028876759367, 0.031978832190610824, 0.1942352189422475, 0.00549916329378589, 0.22397709976990407, 0.5505492787834338, 0.10353413352194378, 0.1447318819862693, -0.11526473616780168, 0.030169843634698504, -0.11799516276352676, 0.0410437047816836, 0.047622684078841244, -0.037591177952119886, 0.05409884031843907, -0.1464662215555632, -0.07279606218685145, -0.07216458394926675, -0.1202162220608795, -0.16320178621991588, -0.05750279114221045, -0.015992582030183847, 0.14540452619623695, 0.18616990430335117, -0.3537954107403196, -0.05688358577370493, -0.0021770831897943974, -0.03685223334843964, 0.0024236189412175173, 0.028228462339217084, 0.10705155440978145, -0.09129445276794877, 0.05804407330152239, 0.04990474980931581, 0.3634723931956759, -0.2126455984559793, 0.5323338526577602, 0.18622143518690745, -0.1341046899898052, -0.0980959256361973, -0.12476619455307503, -0.2222316053857403, -0.33480669988039374, -0.07731129349315853, 0.09173092548695844, 0.021296135300087286, 0.08071478732334075, -0.012460695686486075, 0.05427657258194147, 0.1982748124439587, 0.03408161924304382, 0.06032124602100325, -0.2551365795907133, -0.301905675110912, -0.2358032659894686, -0.06934823845359954, 4.001019658156821e-06, 0.024169839560090844, 0.06495835975406071, -0.15810903246024857, 0.05428703089182353, 0.25659689291354215, -0.2917071803955204, 0.04602715578645238, 0.4998899162526812, 0.18611030852199584, 0.2676176559734395, 0.07397402640655486, -0.4465930823872747, -0.09940369257614326, -0.11253825975662039, -0.005899569323491359, -0.09122157786599777, -0.0007814763574016271, 0.22408604259567252, 0.14118281748389205, 0.055596413168237185, -0.11741076119340625, 0.042374429452662184, -0.30387908422502713, -0.26037764288642423, -0.41675817240293717, -0.19054943484303405, -0.04630752274203031, -0.002102421580053908, 0.020959933423393272, 0.03912843440495057, -0.2489564263849038, 0.14415662343183872, 0.435911627901328, -0.3140055308516506, 0.16843128857927364, -0.20660947787034414, 0.3934338467041261, 0.5765486157056643, 0.3669026318939377, 0.0008151641724668524, 0.2236123963002817, -0.43577151169845074, -0.2866489615862616, -0.1653886768035779, 0.04948244889826437, 0.1562803083607408, 0.2173578751874982, -0.14184630553690997, -0.03812747974025024, -0.16588532371059364, -0.06741502616099372, -0.2187176052342404, -0.5592049748007594, -0.049985262090445716, -0.014632672504106423, -0.001734061742540701, 0.0023189094514694526, 0.059404149403391296, 0.017160705030839607, 0.18467656617811845, 0.10421671373540577, -0.05535708212547245, -0.6293826632105575, -0.9378898771268296, -0.6780145444118368, -0.0972133920030491, -0.18767903760977425, 0.5361986576832067, 0.2668701743019382, -0.012638691428821021, -0.16657884111041904, -0.09792721532552787, 0.03480640107402627, -0.15847778246057412, 0.40149923484523276, 0.017111865352796567, 0.010349169831623557, -0.01455494031582404, 0.2055416297236068, -0.05308135586822541, -0.4817192071193101, -0.0735298334835442, 0.014340250149441193, -0.0009534900935245535, -0.00046298866481656894, -0.052646298916270484, 0.21751664957606934, 0.6777469039720804, 0.3377550408887131, 0.5573164136176229, -1.254179370678069, -1.4053142094219606, -2.2372465238188726, -1.352423724232848, -0.1661527999896756, 0.1754581657321845, 0.22567885870492885, 0.2700854691409396, -0.16378501375425253, 0.05276766870624287, 0.07770487680982663, 0.16776601246013526, -0.09847948485443751, 0.22364032581370416, 0.10127160014597458, -0.1802631005515926, 0.1648824227972372, -0.011471676726236115, -0.5829081150307563, -0.14734285804288566, 0.01714711174589451, 0.0006600517955409839, 0.025433420411244675, -0.02507626411643659, 0.7710608272860037, 0.6670623279373616, 0.4495313345810081, -0.3225845988290917, -1.0717708528153604, -2.8395466229642063, -1.694472123812493, -1.4295882062554872, 0.2615640003275885, 0.35022771954925563, 0.3441340935369464, 0.07693579530548786, 0.11919923540361464, 0.07622190034148778, -0.11880374368833266, 0.07975554529297299, -0.12193813846322986, -0.1490704662775657, 0.1303825142418304, -0.14443520897826148, -0.20650142647344594, -0.3266392390260913, -0.470225338042449, -0.20961477163637837, 0.02143069604419577, 0.0018798429951974143, 0.010575602585818513, 0.07425208619199744, 0.9371328602796808, 0.9120636644335327, 0.31244612888450696, -0.09233198754983254, -1.2915603509540632, -1.5148686816953023, -1.7448981586637327, -0.07679880784932697, 0.4350504093978255, -0.13507866370265167, -0.016858722836508282, -0.18089593615273497, 0.21687045432525237, 0.09970926808773158, 0.006951624784802425, 0.07154276120519658, -0.018015582135910584, 0.03728329060555322, 0.1557890643263156, 0.3994258902726792, 0.23954168721341934, 0.17687316215446583, -0.19174255227639475, -0.061530268475205464, 0.019617188231447875, -7.420080422976418e-05, 0.019361390287602486, 0.15980310121567232, 0.17057856655155196, 0.12415958762818942, -0.02459584650601444, 0.4689220722984761, -0.37742279296998255, -0.8033697079114427, 0.02690666393906711, 0.4927585742694655, 0.43173236359738176, 0.27298967193887896, 0.1581168359480761, -0.254965754269949, 0.16215921968209976, 0.26016758077359853, -0.09052466375859738, -0.06305673046698336, 0.2568884928975583, 0.0855605736008971, -0.008728736940885766, -0.152177522027308, 0.16186239394311241, 0.06438470471688207, -0.5207860247271163, -0.402418517045539, -0.0042374133013027854, -0.000799888267771326, 0.03822496635996756, 0.24439973363512782, 0.23045434767057896, 0.4350180993813625, 0.006064521398556923, -0.3352409290414708, -0.12805987481915426, 0.03795039647167891, -0.027694466308756764, 0.22156469451519464, 0.29681555393689485, 0.25165067278109593, -0.005076973911084783, 0.06904865326023374, 0.2337534278343889, 0.21736720840476642, -0.08667789026541797, 0.08229534367291005, 0.11811113335127923, 0.2961261223515589, 0.0022430867402444227, -0.11903054809222768, -0.050939209795405456, -0.047815721861069534, -0.41602744008720327, -0.17372362665712854, 0.001814527942333686, 0.0005024078719945994, 0.048599777276251394, -0.015768830254391745, -0.1642759954792662, 0.3027828804573764, 0.012934430320606748, 0.25809011690843414, -0.015754468224379786, -0.02236748359814627, 0.09721826168498202, -0.05629235465118819, 0.002334523127348648, -0.05554709860563073, 0.2811933342592243, -0.021949374030091045, -0.05670931078146104, 0.11427063592968964, 0.16497247052456362, -0.0005387572383959861, 0.02496321976511923, -0.2870309392717579, 0.20342579178935996, -0.22412770086096484, -0.04294607155326586, -0.2796526536362118, -0.4696630492788634, -0.07296522478170855, -0.0001101878794203659, 0.0006971946591463631, 0.005863307237230859, -0.11887445086044529, 0.02828932755968786, -0.2779929629552145, -0.37790913534702947, 0.17081334863707942, -0.024330741092486733, 0.010778213631910307, 0.13472530212035214, -0.020953793178553684, -0.08253325436769036, -0.05580687801905218, 0.14150266669273295, 0.24806930405856623, -0.06393324829566717, -0.08894607922257276, -0.244774007742328, -0.07525058626909324, -0.14590646046357894, 0.32046851946285443, -0.05710222979023982, -0.04640396944561586, 0.20880444406113458, -0.1219621698490978, -0.2029945015438582, -0.01751976322856715, -0.0004250981918682097, -0.0005858972543511781, -0.00040349712923883996, -0.05942912827713564, -0.024541236037584777, -0.01629201221979075, -0.1689070940581117, 0.021850190476839716, 0.10590013375026215, -0.09225090784295144, -0.20846068433540005, 0.03318196408762187, -0.0867550190596924, -0.14147343100131715, 0.03563621460164858, 0.054140095249374735, 0.08788631663239427, 0.3311464122897889, 0.23000467371847175, 0.03946408086363382, 0.10483560257943007, 0.17949090234817916, -0.147240173904174, -0.1519836656905528, 0.11836542457024393, 0.07562717649182414, 0.04356936008088929, -0.008830220344290879, -0.0012014482565821149, -0.0002634649651638023, 0.0006467505849317202, -0.039768069308062086, -0.1871592109261627, -0.0817503806344992, 0.07204866431309609, -0.00372639732418016, -0.12057208276136579, 0.06454341605543613, 0.0806103743966942, 0.241903970371414, 0.1953693941495204, -0.06678081576767195, -0.08036383632055158, -0.0240712553661746, 0.07859464922364322, 0.12596442458936521, 0.1596447253379326, -0.06026077618857709, 0.23621780547386748, -0.11453624434076098, 0.0823125237038871, 0.009438239519602818, -0.024121962681231995, -0.23294639584586516, -0.007103541605083988, 0.0001898156067480836, 0.00042960554397801054, -0.0006147221672219651, 0.0004036262353029438, -0.005748500690023505, -0.03753490105970013, 0.013071125729038674, -0.04250490504496669, 0.020457643287787583, 0.026700653264515612, 0.3702083733189432, 0.29885264019537455, -0.0651490942818852, -0.09834302058157174, -0.412466543856582, -0.06723533041956134, -0.023220475081653136, -0.04612839906484706, 0.11264738262349293, 0.29869145193550034, -0.017678811154229587, 0.03126348478281451, -0.07531610489682983, 0.06045142322984428, -0.4297445409989824, -0.12302198619998629, 0.0068974326876035255, 0.004632945024594654, 0.0005180928870377047, -0.0002605205995149228, 0.0003018476441483169, 0.0005064460894478866, -0.0006493171588540125, 0.0018947162093340415, -0.09619789149392981, -0.1329611685454785, 0.04005217974275761, 0.03261272376865525, -0.24411026220004547, -0.2796063448283515, -0.1409796438719768, -0.0101226717712922, -0.18261162046879267, -0.3194432631135749, 0.035062192432357815, -0.36487145138515253, -0.3858775984584398, -0.030777272925573296, -0.3328366900594834, -0.41451750814633875, -0.4116880436517472, -0.4037779756213182, -0.38636555461401845, -0.12566005961734084, 0.0010667307449011823, 7.673346751782385e-05, 0.00022325638605435788, 0.0003816208962404228, -2.742510920508893e-05, 0.0007454952062853924, 0.0010552251544555956, -0.0008465034628740774, 0.0025500212742838976, 0.011149610776499033, 0.004110658659005602, 0.006255004342920707, -0.08113032584529178, -0.21322567587746094, -0.21459054951934872, -0.013943940313373591, -0.17305673188794257, -0.3149901974563136, -0.1835934526523744, -0.2555924309972833, -0.16106704092143811, 0.026449390965539613, -0.19824061499517306, -0.20183692040771503, -0.15428853237233373, -0.1169130925078367, -0.21562150738432584, -0.04817975298475422, -0.00047138777881353236, 0.00039707236904771496, 3.282260878781361e-05, -0.0006023499525506966], [-0.00012026417255764538, -0.001145865289153408, 0.0008220925395028602, -0.0002725459504583522, -1.5887516916397638e-05, -5.673596398007803e-05, -0.00022922704253582003, -0.0011555560090452737, -0.00028323073626192267, -0.00048027460146975447, 0.0005510799470554245, -0.00038918940320428015, -0.001396957769466215, -0.005422361444939429, -0.0015367361338070853, 1.5350869452743865e-05, 0.00044837108166503143, 0.0013158087495904846, -0.00016646566735796853, 0.00021048242486297668, 0.0005942052297071695, -6.899381564790555e-05, 0.0009008982667921356, 0.00045838245768510283, -0.0011869824250153097, -0.00030191570443818453, -0.00022392107875979396, -0.0002447594298793509, -3.689726541099827e-05, -0.00016606208279814917, -0.0002457161755997266, 2.074823752601484e-05, 0.0005246573033801532, 0.0010237098343160677, 0.013365557382921068, 0.026473146859277815, 0.011154982466805312, -0.01392284543500928, -0.09278135767248336, 0.24354651307561015, 0.21942255948344933, -0.07506949721367333, -0.08236878161060703, 0.1460534170017613, 0.03739780405100372, 0.23014109509536856, 0.04544404354014795, -0.05331424993061197, -0.04911322817939507, -0.06374255603719253, -0.10236173040333382, -0.03893636151206605, 0.00044300099878273965, -0.00028947353262776047, -0.001192971708617863, -0.0005526218952426535, 0.0002798587010880409, 2.5243418885737158e-05, -0.001107480600813623, -0.005554931200695021, -0.0009926964278747963, -0.002135744184400439, 0.03861868299967838, 0.04661282381766931, -0.12427324011572678, -0.3969878097271125, -0.1694065200669226, -0.06519813725772368, -0.1168027671827092, 0.1896971543752647, -0.12453476429733501, 0.2538016079606985, -0.2932758273609131, 0.28550234024285936, 0.09379665345253155, -0.04107114814260937, 0.14518495316584762, 0.16666512591807142, 0.06080008235432398, -0.06514422594077651, -0.0068537250741095715, 0.0037126875365205213, -0.0002636662257280423, 0.000856917227091244, -0.0001717512777023193, 9.15593056965006e-05, 0.00021617941916872416, -0.010423892533975522, -0.009463234867042897, 0.04552687921960643, 0.03436694623821773, 0.037535915091785756, -0.5372773646941645, -0.25357000860619205, -0.30727259609998714, -0.5452323437077309, -0.2598830827401902, 0.3562277139974673, -0.12738832034805408, 0.018741431934007666, 0.06359056949395643, 0.20041772567708255, 0.12102410017671027, -0.3322355177012318, 0.02667371378221344, -0.05945789197625079, -0.01959026813857602, -0.007342906972763851, 0.05666346334170721, 0.04893166272254506, 0.0015555005116535037, 0.001118746093711243, 6.257330741307209e-05, -0.0005148338774091719, -0.004184165344231101, 0.008642975425161284, -0.017200095235212553, -0.00038885933298574165, 0.0025913444602829517, -0.20676570427948776, -0.0997070251756627, -0.38552811387694136, -0.16443224326880135, -0.005445152409517588, -0.04499651705593399, -0.027635082213676124, -0.2674106911504424, -0.13825127518303337, -0.1581037546734057, 0.17731982451637768, 0.16448135671340447, -0.07926197595509422, -0.08364694243032553, -0.053447662680238615, -0.08464166777454465, -0.1107992237760749, 0.022354868365573263, 0.10630990488059568, -0.07635199240844075, -0.0013651614603547811, -0.0005069748272742102, -0.00029226806014908037, -0.0010425099856631024, 0.21414388572064202, -0.24560610710296124, 0.014470831425034572, -0.012669592082160884, 0.10608044205210027, -0.2629706613361235, 0.1292256549183288, -0.1357322817859689, 0.18911769329441483, -0.19016994296584458, 0.10819924898139198, 0.15671603947634852, 0.2278379383618598, 0.07622787905463706, 0.1301153823635765, 0.1493903195383619, -0.2508943560856412, -0.1959257831383647, 0.3356742230175329, 0.08350914612487827, 0.11299598564549254, 0.25398983810701026, -0.1878046371960268, -0.05419426618068719, 0.0020723645537478767, -0.0009318215789554757, -0.0005594619833790877, -0.010137355030303193, 0.3380301822750756, -0.04952149202455568, 0.14657856727696836, 0.3558356218995559, 0.03611240681898213, 0.19844325882789196, -0.036553572462223724, -0.34022869562957386, -0.020192903518792642, -0.11091929618349405, -0.17937354203290357, -0.22215782674270781, -0.03606053664369337, 0.08776546754123588, -0.017887158508936372, 0.015332371884162846, 0.08411724064169729, 0.15665789180789774, 0.05377511389186444, 0.19984654741772023, -0.0293275540217994, -0.08172847077136251, 0.11433689729382819, 0.06230771223769107, 0.05736229787084569, -0.0005037285306854664, -0.024960030562795357, -0.01650253051409808, 0.129888460811353, 0.19826915599581516, 0.2935910202184349, -0.12928528985016927, -0.2637416911207907, -0.16733218205567188, 0.01906996906768308, 0.007511394245586743, 0.08716463276215228, -0.24175912550026532, -0.18831474349587948, 0.12291386546240331, -0.17064815456802673, 0.0979290361009429, -0.04266565743532864, 0.02765811444433556, -0.1691304016320896, 0.1026737889555497, -0.1924921579332746, 0.20035389934917944, -0.13152883984936428, 0.15277360008279356, 0.22559104892869591, 0.02192701709410546, 0.009408647424599672, -0.0028316969788177602, -0.04050220296262469, -0.0565151607557193, -0.11876153334092614, 0.15190490891350272, 0.03222442130207985, -0.2271467894336007, 0.09879981068079849, -0.1203785272541889, 0.0550973912494555, 0.18753213927316256, 0.07560153639675059, 0.03477365561460532, -0.1600695419647925, 0.044897025166399505, -0.007782221470164999, -0.13824879155706632, 0.006959033189401534, 0.01870181817776671, 0.006425753817479225, 0.01924163928588718, 0.12360456890099676, 0.3653071379696449, -0.14260008030678958, 0.15287044370347264, 0.34642440670924535, -0.004148936118159001, 0.010370148261205282, -0.0006529310993196671, 0.09622611795625237, 0.02593425689714468, 0.014783920216301318, -0.12288542548111318, -0.016326932455627784, -0.006677462305024433, -0.16857092266800527, 0.08866750139264697, -0.029183211446921504, 0.0354173129500309, 0.056282073734080486, -0.022778896652470085, 0.3717514479441268, -0.2716681504248435, 0.10841218591140901, 0.07012374779555729, 0.03909375750280238, -0.10476631894248284, 0.0937852739624666, -0.17180661695822155, 0.2774323497267129, 0.3936100326402409, -0.1372550294488917, 0.1500668748230401, -0.005377929999726941, 0.06908817068296758, 0.02269272327964365, -0.0012844174063466084, 0.10253679907787654, 0.0024813353883387755, -0.2307579183330112, 0.0008783023147594137, 0.07442662822922314, -0.19063843913265915, 0.014300203689126934, 0.05630253880105571, 0.01975343266507515, 0.03768455755296428, 0.031819492456712416, 0.22212934256942057, 0.12229526173385831, 0.2839001944174931, 0.2191344752464604, 0.08941102700500424, 0.2511261535364523, -0.060723277868428086, 0.11045649524872765, 0.07752111011922215, 0.15240179467022552, 0.05602674519004691, -0.13551406138443725, -0.5544557998042434, -0.1577115940462394, 0.10484634900266449, 0.028058275278378696, 0.017377054725398577, 0.012236020529398166, 0.13602080418906468, -0.1871462494729547, 0.011985267547916997, -0.3255790563641344, -0.17636591085008965, 0.03803911179767688, -0.056158799780728276, -0.0769722072902397, -0.15473390129097947, 0.11796487140265431, 0.017224405289482075, 0.11713815749665206, -0.05820251988011532, 0.2737096363606379, 0.12791278697709196, -0.2371089180543466, 0.16254768899343644, -0.3559193033819534, 0.029568574498319906, 0.14724455628700933, -0.13540759237310168, -0.30929657019786777, -0.33099037392313907, -0.0983998687511673, 0.14333169182815025, 0.017193762085512806, 0.004216699878996973, -0.013285650834177789, 0.03530317623850942, -0.19260647104544845, -0.03877713552302025, 0.0006166703580170435, -0.16053436841310967, 0.15003121444715029, -0.16447795745494367, -0.06741047773590673, -0.09704534275258363, -0.4238445920693364, 0.05872408019587061, -0.017007171614987108, 0.16710328919018666, -0.1693394629457469, 0.16502099826060276, -0.08248586415273461, 0.005415254339094182, 0.1250333379593712, -0.05367826429906701, 0.1807506535870595, -0.04920920318634708, -0.013894849693860234, 0.054205411566734196, -0.1707760544457579, 0.012251633201362338, 0.03556142640240151, -0.0010362148382876079, 0.0031628103384450626, -0.05322420263044687, 0.03978288006481662, -0.2535304402306443, 0.13118349517859382, -0.032519399123974065, 0.12015591968050995, 0.19238074924381626, -0.025182090628639447, 0.07214264120579968, -0.036069111953783796, -0.05272412941301236, 0.20548691322210558, 0.03954901994715178, 0.13513833469016304, -0.1269495390358574, 0.06246205201619073, -0.04699957516365389, 0.18183514749371338, 0.18631046267187384, -0.08110041220510476, 0.3110024761032986, 0.11061798458427267, -0.04948746926849234, -0.2384188222396099, 0.17104986467524952, 0.070672516701668, -0.0005628423078008454, -0.0015100574632547197, 0.011750128370433679, 0.02007639739706397, -0.09062538355192297, -0.19999108683568018, -0.0808741263210922, 0.1295703292168732, 0.1290995707632517, -0.18291477819887617, -0.1317580923051296, 0.03295727284648675, 0.07399217259970307, 0.04137623711101106, -0.03474092023568906, 0.28221797529163345, -0.002785468991920334, 0.3017602587571042, 0.5133148161006726, 0.3134638338040962, 0.16205783313728195, -0.4000799621067978, 0.6364062180075394, 0.18422278649657967, 0.2155541043467395, 0.3976201217763915, -0.07747450187113217, -0.020796780972825175, -0.0013291649366333662, -0.007354842833679579, -0.028127278283128818, -0.1371462216157878, 0.09238592296508386, 0.06755627585567159, -0.08783022502937989, -0.16202465877919242, 0.06626627427317272, 0.03692506595910764, 0.1198909109975065, -0.10977482231995742, 0.13669337525872174, 0.3217042617752477, -0.1611146412492499, -0.07043665336852056, -0.09344600512676444, 0.565294170182086, 0.033956444537814684, 0.3649138114974662, -0.07700311603618674, -0.11459670137862198, 0.3955321084358439, 0.6234612876234251, 0.3403309019521737, 0.13413294530401154, -0.07340713552969536, -0.02075065705012212, -0.007050755095332701, -0.003267074834939565, -0.052133906703843685, -0.3947663567160534, -0.12391131713137692, -0.12495841602096716, 0.06505821460414923, 0.09630245024566805, 0.020785321417534, 0.08639457133087342, -0.0750456362301529, 0.04011429568179119, 0.13618790650177134, -0.1415079560308321, -0.24133500192491597, -0.15370011172477, 0.4630479363357311, -0.18102218933616648, -1.2968487417233638, -1.6016573033298407, -1.9434215146828322, -0.11943178519700519, 0.18727065952738775, 0.5130808816653789, 0.5924899073842627, -0.1939283887898061, 0.11053649862724894, 0.021892871133427527, -3.0075597194384126e-05, -0.011547429576055708, -0.010950773971258008, -0.10045060234928403, 0.006872986634016134, -0.07415087129853695, 0.09090532236123028, -0.4275702680308314, 0.1982926218321528, 0.2064514294982934, 0.24455741740854833, -0.23866401534965634, 0.19226928194248138, -0.1446416626362831, -0.092315846707215, 0.6452045084910547, 0.187792241876626, -0.3976868727747192, -2.220640310464809, -2.8362316856678023, -1.3169182519879452, -0.7604453823927304, 0.26603906780082326, 0.39890819957861956, 0.463719606626838, 0.14065611118073099, -0.14835198318475937, 0.04183585003362215, 0.00048676942095194015, -0.007433471562802489, -0.2717044102728657, -0.24895966407199607, -0.0857076919621056, -0.03684913108336979, -0.09512727244474761, -0.21142418163120658, -0.009571106179383428, -0.026830902189154626, -0.17581275852924197, 0.12148658905354527, 0.14220815592630126, 0.05249718492540824, -0.5660756584206297, 0.46144223822425534, 0.5987911492857758, -0.7481365819502888, -2.27998086747157, -2.201140739793368, -1.6548061637139013, -0.6457479395266756, 0.1781207487955045, 0.4754142399257554, 0.37142992801632985, 0.20849587748311543, -0.04565880345859336, -0.02429038559669745, 0.00031569003354800187, -0.00936580974033615, -0.3815869557495542, -0.30126930218728865, -0.0990468979536743, -0.12294140169007689, 0.31202066529670247, -0.05644530260268974, 0.18565842833178672, -0.02774569793562308, 0.37738009982523785, 0.09514426788238284, 0.4173211291163943, -0.2781595421596026, -0.12362290575427172, 0.7366117682527189, 0.15555546339206625, -0.10986704035322692, -1.1987413120290182, -1.0550686778402703, -0.36268555263150115, 0.5084179277646927, 0.16128686498870654, 0.2186924017702802, -0.4358648489912285, -0.15814858821920483, 0.024128187970843346, -0.01048605332936149, 8.165788158471163e-05, -0.03697691242235766, -0.2840411757310377, -0.41576199986251744, -0.2909564004378163, -0.41065845357131237, 0.0013270730788099408, 0.13269970992218302, -0.1592113603349175, -0.05626373753423207, 0.17489032669325255, -0.02138184451375112, 0.21922896035679718, -0.12640097824620714, 0.5089974043116163, 0.5564214425276751, 0.43948280417952923, 0.5297970138476854, 0.2489542953950817, 0.09023059911502714, 0.08680660922865949, 0.09450769786277555, 0.2844667224774816, -0.06325461759551115, -0.07280431255545336, 0.021388725695944383, -0.22686427776466128, 0.00039919740167381536, 0.001580753727705964, 0.043841870158924406, -0.353679836163847, -0.02799662724948926, 0.005926143615217841, 0.015142667777415837, 0.16700053409113522, -0.03222525914513939, 0.07844029615153016, 0.2555400139450452, -0.1897569328084775, 0.007760899164803827, -0.006460861019734547, -0.18560498330307595, 0.3014990484486289, 0.5296774898224558, 0.25132637490907805, 0.07068363686903575, 0.6812035823580253, 0.05774762586588226, 0.24065067580106073, 0.43977104790324645, 0.39411364928413833, -0.1392856366146394, 0.11551397357563932, 0.34291857324207464, 0.0025264224590689174, 0.0004011684107711629, 0.0008329520387041997, 0.00013532627418479874, -0.39650790035803685, -0.3806619233403445, -0.09179029818000363, 0.16693537377862197, -0.0777298209035357, 0.06054293952732206, 0.22018216498885898, 0.2428794072266044, 0.07015108368655214, -0.1048755209102436, -0.25829554660989756, -0.1561489084318168, 0.27648877659454535, 0.19305628989053872, -0.30336169019876624, 0.28853066253533016, 0.3005781533681213, 0.30028862631566056, 0.2286647524762187, 0.356529360681008, -0.07813299959342547, 0.18598938133656404, -0.024924355478799943, 0.11099011501097851, 0.004657475828455307, 0.0006502332323864633, -0.00017915042032403856, 0.0008305799988470587, 0.0836705073216292, -0.07893447965695319, 0.03850959193135323, -0.03553401930169617, 0.18066454999441547, 0.0891831570925471, 0.322283603026495, 0.12425218470842199, -0.1827079565372466, -0.06165414718057983, 0.11251846840858651, 0.029021633461322662, 0.010298835381006424, 0.10790598506242953, -0.2389160876510419, -0.20048470740079807, 0.07339467342253797, 0.1387994190354466, 0.15583223768801527, -0.030140611386059852, -0.11880999385563684, -0.10259272340786195, -0.16037753388498602, 0.04430504914050481, 0.00834999401877682, -8.205732937358731e-05, 0.000845686990980925, 0.000548543414118051, 0.040377050876161016, 0.022609398561860602, -0.09832735151969413, 0.09805347282881578, 0.2142149380287759, 0.3021970443711154, 0.21192833652551926, 0.042598140380847645, -0.33509207478080827, -0.13795653583901413, 0.24289038356425127, 0.406771431228193, 0.21427631614023496, 0.08688250526144689, -0.7552559428630655, -0.3474235793488587, 0.09014141088872439, -0.03645539592422013, 0.04601743473218189, 0.14543812528279143, 0.07089960813862489, -0.13681761908783957, 0.1435639424993552, 0.10808411772423815, 0.05245112927916824, -0.00038578335637604375, -0.00037528457246236086, 9.308871526086687e-05, -0.00048578494952542086, 0.028328852478936444, -0.042225265209143256, -0.11243775708187964, -0.06910031703009555, -0.03632271315352868, -0.15881466273347292, 0.13090218573880918, 0.189505481306897, 0.5450192851631581, 0.3277771567900991, 0.37361800722678823, 0.2567372004258778, -0.03674056161962758, -0.13244460760101603, -0.07550926171794713, 0.1018231573593216, 0.19509218609226003, -0.05842539154194415, -0.03549818197491623, 0.17306335226218897, 0.049802650121330005, -5.4543305381807775e-05, 0.05104916461047521, 0.05581609092611985, -0.0003391701353659415, -0.00033645774001950094, -0.0008945571682383585, 0.0013254362112249559, 0.0006481990712340469, 0.014174228951573284, 0.0913140462521229, 0.1879766034243516, 0.14013603279801315, -0.42703372678996837, -0.04500165917583321, 0.21074317291673247, -0.1499223703357387, 0.10079772605709861, 0.22054172097917193, -0.10972692122746122, 0.11854730110342168, -0.38213826702390297, -0.13671816156740577, 0.2052390833412322, -0.0064697036062614025, 0.08051854419966419, -0.04603064443410427, -0.1333839128092085, -0.08275897333561455, -0.0010502044384059744, 0.0015933138840124794, 0.0013857087639081, -0.0005028698177265587, -8.333233644268948e-05, 0.0006441861575128279, 0.000268050592881463, 0.0002822436294946564, 0.0002452312600722336, 0.02065114574749473, 0.0364939517877765, -0.02496261979142085, -0.06415731720495127, -0.04648041931599623, -0.0626432996491247, 0.005332219339588412, 0.20752556892139673, 0.10992536511424512, 0.046124360791980366, -0.0024247222828474462, 0.03753328060946292, 0.02042614786504096, 0.02317224321971066, 0.03694293091716414, 0.1333942814155108, -0.02240895625062759, -0.03796921595732292, -0.002047998127801338, 0.0011352899654781265, -0.00014856968571954013, 0.000646633610183374, -0.00016027459440066467], [0.0004942749441222166, 0.0003947296737575222, 0.00015075059147398324, -0.0002526442237039241, 0.00030103655240361056, -0.000605234797528949, -0.00046072353523155603, -0.0003190753329342007, 0.00035465677376210795, -0.0007940725784649866, -0.0002850460232280043, 4.0398200306322366e-05, 0.000517652404941787, -0.0018088962621013334, -0.0012354191855469296, 0.0003850519268473071, 5.6122796346366664e-06, 0.0002163335294603983, -0.00091814000193523, -0.0003123508348457284, -8.273255976766606e-05, -0.0006164013847570342, 0.000417165225103405, -0.000866112251366912, -0.0004689816539497286, -0.0010000586427974171, -0.00048775705904202627, 0.00017568368206763178, -0.00015983834514189196, -0.00014376165552145196, -0.0008768748692008573, -0.0003361474329665529, -0.0021249818098522714, -0.005991895080568077, -0.006673134625740195, -0.010426952932752304, -0.0005103855217233371, -0.018595966292533194, -0.08832806590750346, -0.14624225892864437, -0.23961842836525996, 0.20189076938982461, -0.024139589147201258, -0.09995383960901802, 0.06722430819275668, -0.21787094295979975, -0.0991612816865003, -0.04688465763903717, 0.06151347250369946, -0.04519638915342482, -0.11440083418555824, -0.009410037277881506, -0.0011219852157245557, 0.0006931587962167564, 0.0007052578317271542, -0.000826484758407307, 0.0007838618306169456, -0.0003536383698698026, 4.890921742471228e-05, 0.0008899757518066217, 0.005460058643447612, 0.003411420358864177, 0.04560541876166988, -0.07477342970372426, -0.02584383655309911, -0.19135324992364522, 0.011351944905402492, -0.08361740215912104, -0.27706080178009873, -0.015959931021795548, -0.1815914973456536, -0.07082936014367174, 0.03201444744106142, 0.15982098660453561, -0.23530108287340376, -0.3137050939982836, -0.05644272411426806, -0.16121052143680242, -0.1451330171719527, 0.003801038899614877, -0.029780202616080054, -0.021616591538859833, -2.1263409940941506e-05, 0.0007165360791838173, -0.0003000576742148831, -0.0005859299677772863, -0.0012172970497792597, 0.00424581315123096, 0.007016755581533667, 0.06592588116488021, 0.21776603818605922, -0.02799488329378626, 0.07971115299471922, -0.02718481387304302, 0.23369822905868765, -0.08780264179896966, 0.07018939494968192, 0.004788918569364108, -0.19665359880495126, 0.10022960891099206, -0.019171885712886156, -0.15353106586959825, 0.03970323207821302, 0.08272846840942938, -0.072007342644451, 0.0689187463031058, -0.07497102426366226, -0.09465270528705517, -0.05702504914191547, -0.06426499258565951, 0.0008708061933917677, 0.00046169020134989385, 0.0004724421214296403, -0.0059724315207017814, -0.010965509485587504, -0.027519796042143524, -0.023361780980722963, 0.10677207245609052, 0.34031082579986516, 0.2534854624729388, 0.08107694867063318, 0.08582338550173692, -0.011907944795436025, 0.14592605945896295, 0.04591564600921839, 0.002188876821363279, 0.17632475872320874, 0.07244016635348284, -0.011823742022389823, 0.0032114092909106945, -0.14383885005083957, 0.09414326789900311, -0.06118275387876137, 0.25382335829433755, 0.038717251938670746, -0.13435515878279736, -0.13386652385860068, -0.10588678329112237, 0.05130550063218365, -0.001966032536253053, -0.0008966483376507095, 0.00019685642295338236, 9.905731233793029e-06, -0.18367993254750237, -0.05326885880617817, 0.16658691650293683, 0.07194749297779676, -0.04721457564847403, -0.07481470799418789, -0.16180488650597222, -0.01782117419682437, 0.022078189766834958, -0.021504158728350403, -0.07117278686439574, 0.06672976855160047, -0.03462905356521019, 0.09407135315364161, -0.039529145319000335, 0.09059416760639126, -0.1336888506553856, -0.07942113706818028, 0.06368402010090113, 0.18929445488911395, -0.08721490565264102, 0.2401778389387798, 0.1313702419684825, 0.21197074333351582, -0.016121913374682727, -0.00012394842948836366, 0.0010389046844043067, -0.007234334478973205, -0.11615459638125966, -0.196537036619018, -0.19237274444204605, 0.1339886322075458, 0.03761938087302724, -0.2629197194271866, 0.033283598423109066, 0.06498212720565616, 0.14033610130311067, 0.07863910062256396, -0.06363946593954012, 0.15804031306681074, 0.0003798117585814502, 0.10560519814252602, 0.2060516171211836, 0.02527978471756609, -0.2019402957213119, -0.07541896819450084, -0.06945444487399287, -0.04570282443292303, -0.24760195782050642, 0.08302912822743312, 0.10713729731831047, -0.028921611357175445, -0.015300694183995742, -0.0011405742469648105, 0.016862161741556258, -0.05466177544244517, 0.007647470070345336, 0.028710178028709392, -0.08634811631202416, -0.14935825960922083, -0.32616195885542426, 0.21725422935001176, -0.3102782894853346, 0.09177282684058966, 0.05022811816198764, -0.00901125961992274, -0.20581204468633693, 0.01844684029611182, 0.1703358347211629, 0.047860878826711424, -0.02080594085112579, -0.13910479810288073, 0.07595387645733422, -0.036974856041111406, 0.021289142625160896, 0.23530517736040116, -0.04339095985892937, 0.20055518164413827, 0.023214308310058412, 0.36997009812973264, -0.0032929712884878486, -0.0026603292784012213, -0.05991253901233501, -0.11573528166209643, -0.22747984885977934, -0.19044350589785175, 0.06718982547025319, -0.17812866734444507, -0.23371781479459272, 0.1335541899076984, 0.144331960697588, 0.5314999598858126, 0.25563868944660656, 0.05624113142845648, -0.07084064177907452, 0.06532107624679014, 0.07198469480660438, -0.13376401267968044, -0.23376408414866287, 0.08269935306235174, 0.035745590635158364, 0.049274411881543176, 0.03438647326023651, -0.1555136485299184, -0.08132283341825565, -0.03345279893315893, 0.02044454095713599, 0.11479266121287443, -0.023878310841561223, 3.542396521812604e-05, -0.08447586180321365, -0.3184086554286461, -0.026530222156719394, -0.14159075826133707, -0.06717389303736215, 0.20565852109386737, -0.04813979839328746, -0.06576887732985569, 0.13079481705350798, 0.29507738177324233, 0.16872053917560964, -0.03929212283392704, 0.10819925343236002, 0.14521614364009616, 0.03361824620384926, 0.07765811310736406, -0.06581086420551521, 0.006238807428886477, -0.0294735500276883, 0.09926224896258301, -0.12262995187617352, -0.05421289631452413, 0.00016746029468241364, -0.07097902770620847, -0.004147642591302967, 0.25010601723022674, 0.0676078059293709, -0.0008972777764319925, -0.0813355362621142, -0.32285198953773364, 0.23994208196120229, -0.12523234561499524, 0.40519177592611744, 0.16669515409874647, 0.27126993730680193, -0.2931435105513697, -0.17411888563778755, -0.31395144816472514, -0.09668000048303711, -0.1797648916764022, 0.06213412001672544, 0.19025196477933148, 0.14343806207343573, 0.20417383187106408, 0.141638127581794, -0.047774618508251564, 0.10151318295969604, -0.17519867979962012, -0.0894576716170021, -0.046449055457485705, 0.07195991300876622, -0.045846118740703795, 0.060381792563008116, 0.19269705780150787, 0.08614850786255496, -0.0015650176275582121, -0.055945597444573204, -0.281163814220516, -0.029320893313763433, 0.12485522024022527, 0.32291298395561224, -0.2021769686463601, -0.12031756903095352, -0.09279818403762073, -0.44318003328086236, -0.39996582371434725, -0.6644968068883857, -0.15120192128013019, -0.24612284460133593, -0.45293880408290493, 0.32304441608607387, 0.10475135302413992, -0.08412714757756729, -0.24114917397920438, -0.15124653189591183, 0.00756149583422209, -0.0690329406003798, 0.2981997792111911, -0.051333391852712844, 0.10489165095703652, 0.022304325269113644, 0.02619906396585596, 0.011132668472574079, -0.002178662224001217, -0.030482249696805137, -0.1605963596971929, 0.08905479187196819, 0.3709433399364913, 0.3306112359631113, -0.28838350112150146, -0.01876149254751467, 0.02904354174142261, -0.7580383200474989, 0.05755010796952737, 0.3751195500095216, -0.1866469771874524, -0.2235485369513814, -0.27104648338253484, 0.18796478708979789, 0.2920406688021325, 0.1515211314231272, -0.10803687665935557, 0.15202699665257832, 0.3108026410044662, -0.2168066796768549, 0.03600614484923668, -0.020216794553291152, 0.024468122546674482, 0.1244641745215796, 0.1663254253829509, 0.03240168025650643, 0.0003196128404568843, -0.008633121841137747, 0.01072449957619118, 0.025694754258684657, 0.14988873945692927, -0.07273744393171837, 0.0914792270383926, -0.16432817439575134, 0.2947005704769373, 1.0576010791528885, 2.1665305972617905, 0.7941222960154701, -0.5420091290971736, -0.05024697294910613, -0.08563007492777883, -0.0037577131487483914, 0.15885976418056239, -0.06539840676873274, -0.07809844039910398, -0.021167596451004946, -0.19585807104941708, 0.08870097820580605, 0.12167693906373038, 0.30958104202794484, 0.2134917941263988, -0.0056990562004032436, 0.057201004164126, -0.11657541241594138, -0.002292657371330865, -0.005424915648890821, 0.022392138036844315, -0.15781195272207532, 0.09963180056644166, -0.08559852569619839, 0.01600357551574489, 0.01909557539324264, 0.39561046337151123, 2.432859930529628, 2.1426868426493217, 2.42869245122346, -0.11264047897178982, -0.34151033435029693, -0.04618289588607832, 0.2372012376621827, -0.04560670863375524, -0.09250931711725531, 0.055775583087827096, -0.38954495523914573, 0.07380198818102066, 0.14579089536119502, 0.031180396596084816, 0.10198003460698221, 0.3313019100158835, 0.08190104536700955, 0.0031598402637518425, 0.0031678132109258295, -0.001003506470843895, -0.00708640165518836, -0.025264987571894312, -0.12088945074053298, 0.08790188367196934, -0.2254130649848227, 0.03648012312771205, -0.01942916081856396, 0.591675618142337, 2.043832026344783, 2.4038397071334257, 1.0665670098527396, -0.5792809410785523, -0.5385734782967021, -0.007384773085777015, 0.2533903689915078, -0.04928899651710247, -0.34143775898104495, -0.20740173213051002, 0.16385377750788982, -0.18627476974494056, -0.187521694850396, 0.09311878783723909, 0.12486139422006856, 0.11688744434417947, -0.10071724615812762, -0.038739604290991284, -0.010019661355301522, -0.0005676155828625184, -0.005413706451727545, -0.0762172144829001, 0.07358974259405272, 0.005358702240612598, 0.14167954052306989, -0.15061901823426746, 0.16880637133558837, 0.32888210216568453, 0.8013613819885831, 0.6596723401158412, -0.19204532184709383, -0.21492537772227138, -0.49312513387560664, 0.07558905902462897, -0.030085548965971515, -0.19257336676808398, -0.1531047838921933, -0.14354738559015878, -0.029160806982518196, -0.11656842598942717, -0.1740650044460675, 0.021285243399696403, 0.17654092117984285, 0.2723950352149759, 0.13743553718561086, 0.06639027224994414, -0.015204866261748851, -0.00011931347097895946, -0.03646372983052269, -0.19855357438593532, -0.029316300174246704, 0.2496422398981843, -0.25672609414061, -0.09828156075432289, -0.22930866184972995, -0.032653841992995786, -0.06565045018004875, -0.17366921453665846, -0.23486596495033152, 0.08798856280508208, 0.11294801742666928, 0.021544701842919147, -0.08524367003639592, 0.08684764252049308, 0.21264616201074407, 0.1487982189669249, -0.06946081689343993, -0.12570495140105614, 0.052634162040918774, -0.09591625923699794, 0.36082816052899136, 0.06281091688188505, 0.2421151367745851, -0.04476191853481872, -0.0677095793914549, 0.015629930978602293, -0.04946392693551582, -0.3297487959143668, 0.10610439645135032, 0.18427366235182113, -0.04857146484328629, -0.22634222441726673, -0.017908971563698955, -0.3209487540443106, -0.5396019797361412, 0.08524995101515714, 0.17702548830510278, -0.0951518416743439, 0.6093833929069732, -0.1592326315205797, -0.261889675020427, 0.2064795425068654, -0.20539194294895316, 0.141360888760091, -0.22373361988897064, 0.019132857649304214, -0.11183705218224714, 0.04568550754616038, 0.2146678829309447, 0.24439567364960632, -0.07921997653518718, 0.057470324186264014, 0.11348819859603387, 0.0009560774081283333, -0.05494667377170555, -0.3081568149657981, 0.053430056128792584, -0.046356886143184554, -0.15481053885056734, 0.07033745416144889, 0.161257232025081, 0.1544754531422006, 0.06461554803525907, 0.049064436994340016, 0.373907605497309, 0.2723907841471929, 0.1599472740669888, -0.1557088078924477, -0.006282629528925646, -0.15815900284707063, 0.05146472871030623, -0.023756396434844777, 0.023447284744316003, -0.48633593955178245, -0.08891236700037612, 0.020702972811487846, -0.08656965726706735, 0.03307411153938242, 0.06188160726490267, -0.010787741811050204, 0.12737147322523826, -0.0003419817244517501, -0.03636000114255738, -0.37387289129273343, 0.016563716922121257, -0.014777969429204127, -0.1776244769178665, 0.091886338585342, -0.14912343220228433, 0.3313621182968124, 0.09029532392687904, 0.1630003338139482, 0.03921703045944365, -0.15458626665711225, -0.09278389228426777, -0.11486397877986583, -0.15444806515133574, -0.27314660153975395, -0.05682091603517954, -0.010615651994534063, 0.11950727643453148, -0.05408759871156302, -0.19715434818789326, 0.007110140518708927, 0.205113862295294, 0.3462049986260039, 0.05602997940980697, -0.0003338513050274082, -0.004010234538757437, 0.00028912304138868243, -0.02682884467796962, -0.05210451854187152, -0.21123046976328952, -0.04753696414124231, 0.19881797129140896, -0.027739828562503812, -0.22082669195263716, -0.26490019088957223, 0.10452383022445164, -0.2589387019397197, -0.192770180896348, -0.23914885920781925, 0.06307304311177042, -0.18304900280563147, -0.06426257415005729, 0.20576858565832648, 0.08142924552499914, -0.1971428944740768, 0.04543606254955738, 0.042359849475390426, 0.06264698060226587, -0.17681198867772643, 0.18806119665108517, 0.15223270913773126, -0.007856816939841848, -0.02696707542466092, -2.6727105620478272e-05, 0.00030005533238151877, -0.0014370059796518706, 0.12626290720156816, -0.17701166181864986, 0.08522806031184928, -0.24749128181251998, 0.029803757931339398, 0.09598248970236516, -0.27203468149314886, 0.11438978317276832, -0.15038197216787746, 0.06367429701789425, 0.29225724023419014, -0.16000612110135168, 0.154812937710305, -0.18549013260353764, -0.02284229989982758, -0.04659705580424296, -0.054218269073186325, 0.0675472448786072, 0.11069731956688646, -0.05061226859915882, 0.03329004627721694, 0.18694038685453937, 0.12150934035640404, 0.10993713190207724, -0.013053733223587964, 0.00036631841451030474, -0.000282971097672139, -9.437003595076185e-05, -0.09018818512110546, -0.23896146849177066, -0.10074426930702186, 0.02161470701011432, 0.10634192961549643, -0.25457318291417663, -0.0730591199560549, -0.12122076150041418, 0.0865491238731072, 0.08626628369425028, 0.07189603000733381, 0.13994433976478443, 0.016366715028745555, -0.015954673184455752, 0.10312095205933024, 0.02908619033741017, -0.08424779576746023, 0.17908178754684673, 0.09318663773754825, 0.09716296781243199, -0.05065250529401984, 0.21483380599219393, 0.0209609449191323, -0.0359733339393067, 0.005632262931086109, 8.927930990942336e-05, -0.00013739957376214523, -0.0009605138203086117, -0.0728612054583169, -0.2821312063727656, -0.16844575072113707, 0.08742359866786123, -0.026282197559311105, -0.06308148964097339, -0.18813976197192747, -0.07345610795775662, 0.033947288824699565, 0.11304973117409596, 0.009909787108075569, -0.06736074278037704, -0.05051826681622233, -0.10498105509553741, -0.3467511210516524, -0.17292121693281204, -0.11904592985789332, 0.10338241210819127, 0.022787354437375024, -0.12192181392999177, 0.2352296463443791, 0.22850563381119848, 0.2000661297227606, 0.15740943719709952, 0.07990674530383997, 2.4023374716689244e-05, 0.0009847319319648933, -0.00025151522313937184, -0.003286265061139252, 0.00909103791814319, 0.08960328137829766, 0.19464718557187716, -0.025143483527211033, -0.030768576923722916, -0.09316819424861948, -0.028054552607374588, 0.009143966557791506, -0.028244789055546185, 0.010208808412623588, -0.04317993062426224, 0.2115593469591815, -0.15764859197531564, -0.0390158493006396, -0.03978835405718424, 0.027154439264857753, 0.05335040124595566, -0.08907710329071679, 0.09391454033340789, 0.15645064952763102, 0.10163327561384562, 0.02881027602347142, 0.0721323847059134, 0.08535509538989117, 0.00048596296372544487, 0.0005601649424691548, -0.0006276599459363898, -0.00016606229576412312, 0.015101615292026705, 0.0362470156454497, -0.05737331116533891, -0.1274797870501537, -0.264922725977251, -0.07653355984726162, 0.1919382053344494, -0.07122582790353593, -0.12285427895804321, 0.21477420865740868, 0.18339957713389013, -0.06481119582605088, 0.02582627495231049, -0.06198645272506633, -0.2541501469353762, 0.0290335002026593, 0.23666173696902437, -0.011135726976331525, 0.04537113328877087, -0.09051448764681387, -0.09418117411403383, -0.000807125377996072, 4.055828375246502e-05, -0.000800793800661373, -0.00012183137089269727, 0.00021107340078761318, -7.177629162128521e-05, 0.0007304853855778703, 0.00011424945212218473, -0.0006219859354885874, -0.004801869670779996, -0.02645389213413109, -0.07021256403742786, -0.040731810658293434, 0.06581936552021696, 0.2033588313406234, 0.10095732317389748, 0.09821734899237919, 0.0551202997787432, -0.11872442601433558, -0.12283223136151653, -0.10311535875571787, -0.08770814666413713, -0.07966616041056862, -0.09537377942802083, -0.052686712129972946, 0.003611535172171141, -0.01970324804645806, -0.0008799914691007608, 0.0004488581522558702, -0.00010422783403449361, -0.0008955505457854228, -0.0002856414862217519], [0.000559063712744193, 0.00027719830339584706, 0.00020793931300295136, 0.00040601189547282443, -6.249484703442658e-06, 0.0008452241561986694, 0.0007049611761338485, -0.0012639682033337841, 5.335032993297889e-05, 0.00013430445910393707, 0.0006513814853689238, 0.0004813253797565638, 0.0060399955853716325, 0.016788521894499957, 0.0026607562132573985, 0.0003360754406968147, -0.0007400215398395903, -0.00014112712805857013, -0.0002056002701012534, 0.0003035754753385674, -1.3632525048450725e-05, -0.00030151499460502785, 0.00040767849300188885, 0.00021044938947744943, 0.00020399528184206222, -0.0006084575230077609, 0.0005606235582415564, -0.0003824937821742912, -0.0011005249381050952, 0.0008100822363510546, -0.0006623897991705228, -5.88478706677192e-05, -0.0014941964800308798, -0.00377227668034184, 0.019719892874304455, 0.07414049656566642, 0.07966672283930143, -0.03944287979112359, 0.021272558643915883, -0.08466368153077317, -0.17911854017429765, -0.14042599167817132, -0.1701266454688515, 0.11665334491451537, -0.1638247951940877, -0.5672996391307144, -0.3198011288976171, -0.27376755143637466, -0.18432537401943883, -0.066496763135902, -0.011874369598387582, 0.04807127253854662, -0.000545646951045815, 0.0002237613282193406, 0.0004703694773714332, -0.0002128724232575826, -8.995419126252618e-05, 0.00041628293838338654, -0.024329510367972092, -0.001432778756161246, -0.01601634197242877, -0.021939990436789965, 0.02990401942216772, 0.6121875766096816, 1.0111654491741586, 0.8329885764351906, 0.710574584186487, -0.32695919199031476, -0.017401972603853653, -0.12102738232276732, 0.6340448514611208, 0.3066400475043967, -0.04624788865166772, -1.1809530584381458, -1.1528510000167866, -1.5093785194323126, -0.6398688514734038, 0.008180624886003492, -0.16418917124680155, -0.26511596717023156, -0.13703132926832395, 0.01495521443913904, -0.0008876476981770172, 0.0007674075060075477, -7.754811028326005e-05, -0.00013408014830906207, -0.05404717550797615, 0.0010610044752994746, -0.02016986887126882, -0.32768751865528145, -0.08961837069833406, 0.11772972304766324, -0.15882511695005835, 0.13011564028827946, 0.42315740215414793, 0.13790976424290977, 0.3241472897099125, 0.805278560957862, 0.7137818883373959, -0.12482436351718115, -0.22143222439640942, 0.2673286509396923, -0.09068558044679831, -0.33064349698318163, 0.1696169395330044, -0.0648423309580494, -0.48791932486322764, -0.16681055177920573, -0.0029651627174102613, -0.053028714723472446, -0.014760303966673325, -0.0011466320349984894, -2.8596274186254537e-05, -0.008476801471641565, 0.0012719070459356792, 0.008844870163640006, -0.17495390514457954, -0.48248878976103066, -0.6499806201801631, -0.14885686611870128, -0.5203427113385085, 0.1371851976563998, -0.01224744774074644, -0.26457931712685967, 0.17606812363384244, 0.23415826172997858, -0.1271797052185232, -0.37153148368729705, 0.1288919129870066, -0.315607451953978, -0.3047988058695871, -0.26798016528167873, -0.22861817218887012, -0.26102789617077743, -0.26049031636939524, -0.011419305493610454, -0.5099495591736471, -0.021559573003548525, 0.07922776328535425, 5.312228094230203e-05, 0.0006257553407974904, -0.0005055187228697838, 0.00671250219871653, 0.16641307738150732, 0.01763330029323381, -0.4613185786834473, 0.019710995956775033, -0.31546735044894325, -0.15935909359607905, -0.32173012678122415, -0.10820980452767864, -0.26069306286165644, 0.12488201909985781, -0.25131430664792465, 0.12709710424920945, -0.0694102900556738, 0.10955207935285448, -0.15375740662479292, 0.004882311550412121, -0.022530291680780065, -0.1945231835364635, -0.29694430706314606, -0.15136088716541993, -0.22964305900135473, -0.17239242822776543, 0.025769602024226394, 0.2239508378447584, -0.0025290732694039685, 0.0009015711127848795, -0.0011657505347545448, -0.015132052510377428, 0.10292128974562892, -0.5708424250093239, -0.1474681150182575, -0.30210720850436346, -0.06535528650081171, 0.10368003747479555, -0.010690882338525328, 0.21001296326455515, 0.1968360463840064, -0.28491540838847035, 0.08058439335026912, -0.005024321527243639, 0.03354342894646004, -0.047231484311584006, 0.07823653995961871, 0.11533552211868148, 0.05526932846524538, 0.0805372044134029, 0.142752949556906, -0.4526673031247991, -0.2724818352583347, -0.19634663570187366, 0.27320456860246123, 0.5100170611110367, 0.07918752070086052, 0.00011942293497516872, -0.05629685411517402, 0.03699690053943914, -0.14702533819448865, -0.30390303748775194, -0.48148371605136553, 0.2849837114406518, 0.005210706965173753, -0.01092604310680705, 0.23523705964415642, -0.12501640164039557, -0.009796452679606328, -0.18325897585203382, -0.0431352403709146, 0.03561806836010844, 0.10452542575265159, 0.09115015694319491, 0.12802566471732918, 0.057330242911251335, -0.08560062929278707, 0.017849164197731172, -0.10110624106690365, 0.20944338902358806, -0.20295626060202465, -0.11245486505277107, 0.42323416084914806, 0.6223875549712727, 0.10843168396079832, 0.0008217554463123747, -0.11990475047118153, 0.03289302273106286, -0.132828246109115, -0.18914488238621874, 0.09246097825709529, -0.009890618111912698, 0.15874828982668782, 0.024630563413508774, 0.09747936108184128, 0.05401092060902063, -0.044953697342400185, 0.13035151879209278, -0.030235253076034127, -0.014587134772668913, -0.05116137679996416, -0.047348865162945716, 0.2707241226158921, -0.10890035851786739, 0.0191147470875748, 0.16014868088997442, 0.39745819271688493, -0.4427460941285044, -0.31253954916501275, -0.08533506458715887, -0.047445154781697495, 0.6679561489856631, 0.17869857812090806, 0.0007416091267621148, -0.036685839727541185, 0.31408100044433995, 0.4502041372194133, 0.09882826442385034, -0.23366070318475957, 0.10742013380613516, 0.18639722239624715, 0.1890453651414154, -0.12586373494180092, -0.36158636828481894, 0.0072803625049398584, 0.18545649175021764, 0.14702544883957183, -0.10434875111311111, -0.03890719787163815, -0.24872439056247184, -0.15974270604680854, 0.016227424077497662, -0.28035604836405087, -0.042798437268591706, 0.10717783729699473, 0.08621791721596181, -0.212522906443263, -0.40068417077212354, 0.18681691648709245, 0.3191876785523033, 0.0783091611103867, 0.001162586722083674, 0.006828646578228517, 0.20490775081741258, 0.0056665710697959715, -0.028713450210844458, -0.3087850100671595, -0.01961035121074481, 0.21735425786890292, 0.024306247333267663, -0.11718121059881442, 0.10793116175198826, -0.0582586170161431, -0.04952682714885826, -0.1575111709933081, -0.06678261556837543, -0.19659069994718745, -0.2690461771744877, 0.08696283687950986, 0.07913190930864028, 0.03482786456792984, 0.11878449611118296, 0.06872079452101024, -0.6414561509635778, -0.08619794624996649, -0.3111006324802472, 0.273800992584292, 0.1750462088510974, 0.0011451585866037455, -0.042826296147962545, -0.11610405465735185, -0.04330596563572537, 0.16723464883889888, -0.17366702954226715, -0.5548359475824578, -0.41199232000951985, -0.24026851406078922, 0.28281842282257386, 0.06794847572473167, -0.2573748318910837, -0.01214078932911242, -0.11759209167404314, 0.46649111885508543, -0.07199369994799923, -0.2841900718271097, -0.07880637752398915, -0.005817704009374875, -0.06876725934009648, 0.1756194724300013, -0.08896492485694997, 0.3102593213414076, 0.4007361923140876, 0.06144907027464236, -0.5678657674573466, 0.15569198378900959, 0.059254723105345346, -0.05110743268110716, -0.052549448868401925, -0.09429535751912782, -0.19046443380256356, -0.2685571793511169, -0.45094255450795145, -0.5751452359205893, 0.0404154211767277, 0.13978732492305546, -0.032468353308242826, 0.20620551050616087, -0.05829390101956836, -0.3596123629067544, -0.03409908880654181, 0.004148021317700856, 0.24098939977108344, 0.01528067269199544, -0.06949571317109143, -0.15676988534997366, -0.03217021364350998, -0.1083650891932617, -0.35087742298199953, -0.1845838543521114, 0.158933701285145, 0.21781323164627647, 0.29872670030574316, 0.2787819706077098, -0.17066207788463963, -0.08420936275996665, -0.0001392382232130698, -0.042773026235588665, -0.37372089857219865, -0.23959338738528788, -0.41823231390627585, -0.645117661111673, 0.10893040020678428, 0.12434559931615588, 0.47116058131105915, 0.07513964870380122, -0.12380455493867457, -0.06856114468510327, -0.05510572222869849, 0.03821249289665645, 0.18301462338131663, 0.19988230332797013, -0.22177708131988003, -0.22123979460409957, -0.08821236768509066, 0.06220717833297528, 0.06936466568296491, -0.07806400910508554, -0.26263896196807046, -0.32684828367612867, -0.21141767443316234, 0.4385355816450725, -0.2939580024724145, -0.1285132920366077, -0.012208102525888284, -0.004738130835529971, -0.1474855058967792, -0.33620658584157187, -0.25047974449654564, -0.07606523181248245, -0.21208973437323686, 0.34778206007811124, 0.39911036136756056, 0.18336924262045246, 0.17814737190217794, -0.6083135927698196, -0.004553054843855954, 0.08670727228911684, -0.01144549085326161, -0.008221191035757334, 0.09251183822034655, -0.27182140448438324, -0.22777658449306842, 0.05686120019804045, -0.1638942500578194, -0.40040299639840393, 0.02912896597706888, -0.8793311891705651, -0.1921919644234904, -0.047416430941621825, -0.27790550887900645, -0.01342100121046646, -0.002784576510939035, -0.004025262812791725, -0.12020641676554847, -0.11091543628713844, -0.8231608027525883, -0.9009736790107636, -0.6546655236029547, 0.0938648257512284, 0.2003903122695455, -0.05690691960819729, 0.19188895687497742, 0.21361327526488774, -0.03884235752570884, -0.46674086237481677, -0.129987852577856, -0.09386801147420235, 0.10274580806578129, -0.18188547461089938, 0.001237653144642412, -0.02330857429349414, -0.24243117969315411, 0.26361532655701114, -0.040560991915100646, -0.10427348009066541, -0.4763239962718005, 0.22493859261841495, -0.1468658895374372, -0.018502891206177742, 0.0020809263859473755, 0.0005199759583170949, -0.002380241673383275, -0.11394139475009209, -0.4712792358759313, -1.3810617845379791, -0.7817999154942653, -0.47208852135076707, 0.014780195769028642, 0.24055041774536887, 0.37606247412873134, 0.0047330895349673085, -0.07967666661373604, -0.7518354546848522, -0.25785261016853755, 0.30643702948577534, 0.26961836290563834, 0.11072801576110355, 0.06616030269246781, 0.07644509658542903, 0.3587014057735335, 0.2277616556684732, -0.26601933777995, -0.29074816164648093, -0.014795899233552122, 0.12720847859996065, 0.2850915238751633, 0.008932770842804034, -0.00043266713761164763, -0.031087367974687558, -0.006899948246479106, -0.23830480009148794, -0.25647376363576085, -1.484410845870089, -0.8036368967588636, -0.9603455610102138, -0.028118668331945918, 0.2664349737362077, 0.14311702718302194, 0.2633049606081218, -0.3325749889897637, -0.3313402077280557, 0.047378880113096856, 0.2868702618098519, -0.05736373183267286, 0.18957287022001001, 0.04616627026220488, 0.3224333442602214, 0.0947191023807387, 0.07054395648771732, 0.04328116492050597, -0.22419257362837253, -0.18179327631393621, -0.13872705802540625, 0.4140782280491492, 0.02178215919500242, -0.004029748553583711, -0.029934320888063363, -0.0025704356144075576, -0.18673084615522872, -0.12385724690518858, -1.2487759092884998, -1.003912561311882, -1.0412578762254154, -0.2530793968213378, 0.21576915542605046, 0.34230617075879194, 0.4988542810722109, 0.20349776955129395, -0.4966706571630394, 0.36283330580717865, -0.03504272194942186, -0.21534981674540785, -0.36508416314386866, 0.20397211568942053, 0.029358485367722485, 0.14757102588988982, 0.3627668284148297, -0.2906031057516243, -0.4366910980530854, -0.07578718740511206, 0.48808740146898244, 0.07922879137522912, 0.012018088130260516, 0.00016210016416027493, 0.006210977540898563, 0.43434310138877846, 0.135546454830985, -0.43912461004953957, -1.627664558883457, -2.1370479664517985, -0.8437210478361451, -0.8409383982778462, 0.6363516629327022, 0.3931830090337716, 0.7280395539732231, -0.4836191480552605, -0.2183419606135306, 0.15167636676870458, 0.03786252110758999, -0.096387119352731, -0.2514725535494002, -0.0746692407238364, -0.07687549300544613, 0.3815786219675054, 0.29286153934246484, -0.17770671079272596, 0.1923819273849853, 0.33467147182553814, 0.21251781633718406, 0.2837065028443727, -0.00021407707166613637, 8.430176799900859e-05, -0.020528944494385835, 0.49039508701042206, 0.6363696339973416, -0.453581445892761, -1.373744546747315, -1.4535430160321652, -1.4084799341476346, -0.13576705978446527, 0.011868541886293379, 1.0626669098379127, 0.5034440540255358, -0.16566451635096546, -0.3520648868025716, 0.20600162915210035, 0.16468439419692707, 0.25864699809535996, -0.2020007569455166, -0.06788336667663063, 0.05884939281617322, 0.21723887647909562, 0.23885585641614304, -0.12846551163677453, -0.21987138865812625, 0.09957223096125989, 0.613672280666958, 0.2910248356788965, 9.449385245026427e-05, -0.0008279668026752155, -0.009005295757217587, 0.2816544395557161, 0.5654844393882922, 0.2179973467506784, -0.7323042109000721, -0.6422241035106693, -0.9829149736736228, -0.1393898729840502, 0.6007271250458919, 0.9619150804988811, 0.12161209061100685, -0.6006621687806782, -0.5617436720647454, 0.06316745864216607, 0.8446211959560411, 0.8013427372073817, 0.4551383553054083, -0.017141823249023632, -0.04403409287922545, -0.18266707529847806, 0.34202587670820106, -0.13516931957394124, -0.1159875533689312, 0.2505305366906445, 0.42815290448094473, 0.1400330321144873, -0.00016414030968411772, -0.0009440986496819884, -0.004650915041251831, 0.4964671943059019, 0.8238960510581336, 0.40181444616366513, -0.1485782853705969, -0.41075486481786977, 0.01486247055635004, -0.07316790626921314, -0.20216975692523664, 1.293658641310756, 0.4430810466190683, -0.13227920851090674, -0.8191175392462688, -0.26796388056107656, 0.24902809833017855, 0.34846477108698126, -0.031372432319129735, -0.2008826367752903, -0.2250336751863732, -0.23506947386414073, 0.14282520482134461, -0.3705176191866529, -0.8916587157567483, -0.20655332370756432, -0.09794616483746962, 0.022867232414932354, -0.001174735293997078, 0.0005651622626883396, 0.000148973456810901, 0.16484420453056645, 0.9601188086817036, 0.7549985123863717, 0.12690969242086214, -0.015391740733632813, 0.24664694071438578, 0.25001748156117726, 0.6486764844533661, 0.7060542169587108, 0.4553813631373013, 0.24465222310607398, -0.738004227299864, -0.5961755137545661, 0.011371485434161943, 0.4317305394418831, -0.11708534014838638, -0.347746151372307, -0.39537047762408695, -0.6620792537176039, -1.4175556916985013, -0.295211486318439, -0.248108300658982, -0.17120639533341814, -0.17166481057658559, -0.012778899109990756, 0.00016161796811426057, -0.0006652442183230539, 0.0003864126642341859, 0.017025261919510405, 0.4331464554905416, 0.31392068864900236, 0.4077169062461461, 0.260102092872758, 0.6166363633843649, 0.9160543635076505, 0.8165201690315341, 0.9101268165438426, 0.7557154739104598, 0.3227347287467404, -0.4132793964187536, 